-0.437293
0.799365
-0.927894
-0.159666
-0.448198
0.560470
6.375343
-0.210673
1.029826
-1.466812
0.976090
0.376312
-1.879417
0.263112
1.415955
-7.434017
-5.554931
3.759018
4.399817
-3.598247
0.085441
-3.701462
-4.790666
-0.272323
0.915924
2.380243
3.691038
0.481640
1.909505
3.263282
-5.443653
-1.205772
3.257636
-1.386339
0.280863
3.447986
2.934759
3.340347
-3.575725
-2.709443
5.293323
0.322181
2.886871
-3.200237
0.421637
5.506809
-3.112252
-1.196769
0.538646
-2.758721
-6.206459
-0.735944
-0.717215
4.475335
0.118910
0.345814
0.074342
1.088709
-1.451297
-0.479943
0.111843
2.239235
0.333136
-2.565264
-0.503208
1.932615
4.164594
-2.373118
-1.222770
0.302726
-0.270812
1.890500
-0.289057
0.646646
-0.978338
0.080459
0.267860
1.027295
-3.750973
-1.886120
-2.016700
5.142000
5.698637
0.177455
-1.167398
-0.125558
1.006657
1.658404
-1.534049
-7.556285
0.186654
7.640517
-5.061222
-4.181832
-1.352130
6.085005
-1.330143
0.300748
2.053811
-0.192122
5.953922
3.198486
-3.597753
-4.150661
0.166696
-1.876814
0.596082
3.228255
5.270441
0.291729
3.631947
0.302991
1.967669
1.723772
-0.967530
-1.576875
-0.120427
-7.023733
0.194332
0.358180
0.034254
-0.193411
-0.041272
-0.255847
-0.267046
0.791657
-0.339536
-3.829719
0.605793
5.532278
-4.127110
-8.339830
0.223473
-7.492193
1.826770
1.620757
-4.287439
0.269785
0.369461
0.311499
-6.810196
10.414398
-5.589358
5.910423
-0.087705
0.155470
0.102844
-2.717021
0.072213
-1.605884
-3.286685
4.145626
5.018413
0.353294
-7.988894
0.602704
-1.999695
-0.436266
5.121735
-0.980435
0.254832
-4.087198
5.831223
2.594459
0.762856
-0.310537
-5.538166
0.191630
-0.252177
-4.009484
-4.219231
4.698466
2.556383
3.966386
0.334150
1.406027
-0.027332
-1.970871
4.997377
-4.650084
3.518968
0.367288
3.993276
-1.759606
-2.116776
-0.623802
-0.936125
-4.456910
0.252015
3.208132
-7.232056
-5.915736
-4.486959
5.106070
-0.872678
0.240326
2.671975
-0.679790
-5.002645
-0.130301
0.517741
-2.310978
0.317686
-3.692595
0.151374
6.576468
2.375656
-3.011394
4.036674
0.258228
-1.860819
-4.063425
-3.090554
-1.964134
0.896478
7.629828
0.277004
-1.467004
0.671542
1.176015
1.002240
-0.159882
-6.607394
0.292264
8.019768
3.996271
-2.038437
3.811906
-3.221756
-2.109254
0.215547
-3.703774
-2.145228
-0.725511
6.308670
-6.952404
-4.334288
0.466698
2.294538
4.832959
-2.676231
0.335752
-0.315063
-5.165879
0.269627
-0.533508
4.688906
8.324186
-1.199134
-1.121539
-3.692007
0.153012
2.473018
6.643631
0.145658
-1.675584
-4.129006
-4.946791
0.195044
-0.396772
3.221448
-0.729107
-0.136235
-0.835594
1.828640
0.354673
0.121229
-0.023972
-0.222514
0.181272
-0.268827
-0.182649
0.330296
3.808486
-3.740477
-0.744876
2.624425
-3.947655
1.953455
0.141826
-0.647145
0.094779
-0.448691
-0.467686
0.517192
0.105232
0.427061
-0.413892
-0.626325
-0.557639
-0.862295
-1.864309
-1.391524
0.162319
1.231005
-0.664293
0.432897
0.115581
0.084396
0.706421
0.745692
-2.843428
-6.373239
-2.636450
3.696668
2.138164
-4.085224
0.254690
-2.058544
1.052986
-0.832099
1.660832
-3.473001
4.290180
0.292206
2.672864
2.299565
-3.000215
0.477350
0.907891
-2.327424
0.286213
-3.797305
-5.480902
1.472840
-6.536775
-1.257693
-4.883649
0.335603
4.084713
-5.487643
-0.911295
2.581138
-1.911791
7.064922
0.139903
2.940723
-5.624549
-3.011561
-2.929520
4.122259
-3.583695
0.295988
-5.639906
-0.271699
-0.458885
-7.396578
0.652726
2.599427
0.187991
2.128471
-4.046432
-2.114407
-1.703662
1.856082
-3.145057
0.249923
-0.912394
-0.051129
-2.289701
-3.428424
2.623247
-0.538476
0.348509
0.214056
-3.073227
-7.689501
-1.710308
5.950635
2.817536
0.271311
2.308704
-6.068294
4.699479
-3.272080
-0.488738
1.907734
0.484461
-5.212534
-0.047558
-5.541970
-0.167239
4.358955
3.042443
0.185069
-0.001895
-0.012034
-0.799505
-1.563300
-1.749989
-3.217341
0.247034
2.968724
-0.608781
3.829849
-0.005448
0.049515
-3.261244
0.195441
-2.285319
6.256688
-1.815548
-4.100123
3.916360
2.105707
0.229145
4.858429
-1.695512
6.791484
-1.489049
1.560966
0.803378
0.428869
-3.877271
-0.714806
-5.602659
-4.112044
4.724236
-0.244383
0.140688
-3.577034
4.042608
-0.952968
-5.637698
-2.843968
-4.925654
0.209015
-1.589979
5.860967
5.433866
-3.513595
-0.278473
5.044604
0.125000
-0.021483
-6.552592
-2.331399
-1.966245
3.443237
2.879659
0.215072
-6.751213
3.565128
1.580844
0.175702
-2.307741
0.960293
0.280237
-0.538947
5.455508
-1.007589
-0.555795
0.450500
-0.382897
0.347039
6.082597
6.392806
5.764821
0.154450
-5.005221
5.945669
0.283005
-6.463324
2.696473
7.891845
-5.116084
3.995389
3.018180
0.177603
-0.263734
-1.120820
5.441287
1.391813
-1.633454
2.709995
0.522154
-2.998506
0.107842
0.777613
-2.465571
0.141922
-5.335272
0.258497
3.643889
-1.894140
2.839245
0.953562
-3.188012
-0.005615
0.160762
0.903398
-4.940527
0.521434
0.011343
-2.194301
4.134900
0.179752
5.150296
3.504962
-2.397831
-1.265672
-0.839815
4.602282
0.332613
-6.083233
-0.304267
5.308734
0.045359
-3.666671
3.076818
0.187645
-0.041083
-1.995766
-2.324346
-2.816722
0.011747
-1.628636
0.408298
0.574713
-2.039226
-3.909594
3.784576
4.899874
2.575073
0.378389
-3.329984
-6.592453
-5.176592
-1.304432
1.572157
-4.066151
0.219287
0.496600
1.271543
0.942156
-2.147301
-0.216834
-5.188636
0.259495
-0.338245
-1.692900
0.447443
-1.751091
-0.051239
-1.786384
0.276568
-1.852258
0.794517
4.274432
4.874449
-2.644958
5.671600
0.363215
-3.215352
1.951727
5.906938
-3.001930
0.332964
-4.578818
0.167524
0.270885
4.616480
5.211941
6.068146
-3.860663
-1.587796
0.228154
1.661364
-3.109104
-2.782191
5.317414
-4.213794
-4.030669
0.193962
-6.215068
4.594044
-5.913367
4.718901
-1.500755
-2.370411
0.174815
-5.061273
0.427263
-3.467688
-5.532778
6.373149
-2.593131
0.300827
-2.259368
-0.026388
0.055157
1.980482
-8.083106
6.420842
0.195039
-0.912217
4.725024
-1.028269
0.747644
-1.575718
-4.142888
0.391148
-3.134709
4.487526
2.000009
0.648713
1.196229
-1.339059
0.368953
-3.519535
0.417586
-0.440928
-2.623541
2.292322
3.355253
0.341684
-4.115647
6.190517
-0.543452
0.709710
0.103514
0.411535
0.347988
-0.064515
-0.653269
2.146056
0.696446
1.166313
-0.416192
0.219201
1.131246
4.111198
-1.050559
-2.113496
0.101722
-1.435395
0.314809
-0.362632
-3.361736
3.707446
-1.038107
1.710665
2.613834
0.187556
-3.362034
-5.565143
-1.292833
0.412796
-0.615469
-4.483215
0.150177
6.789697
-8.151989
-5.629662
-5.287009
-1.638735
-0.244313
0.327247
-2.638291
-4.933431
7.611909
-0.606475
3.632025
-0.113418
0.238642
-6.500608
-3.628448
4.224819
-1.862786
1.349839
-3.788479
0.185194
2.658837
-1.663468
-0.513517
0.632146
2.120355
3.249551
0.439963
-2.336003
2.674562
-3.067213
-0.253610
3.588104
0.787248
0.320199
4.082907
0.704806
-7.451441
1.588590
4.627203
-0.118390
0.248905
-1.792402
0.687947
2.684747
3.406620
-4.198319
-4.960729
0.265722
-4.302794
3.222429
-1.863682
-1.821937
-4.277985
-0.588039
0.381230
0.664497
-0.459205
-1.256771
-2.205130
-0.017133
-1.784014
0.750188
0.942795
-3.826322
8.116125
0.652918
3.410733
0.279116
0.194150
-1.433423
1.135822
4.176248
3.481135
-3.003199
5.062814
0.217815
5.099507
-1.218106
2.645304
-2.949025
-0.527811
7.049396
0.224212
0.317341
-2.176456
-1.815482
-0.625846
0.102670
-1.994411
0.739283
-0.013463
3.807698
-7.524333
4.877418
1.384382
-5.011971
0.290265
1.119155
2.723863
1.185906
2.366158
-1.814402
5.390493
0.342401
-0.132120
-0.082553
-0.094787
0.366948
-0.178699
0.015253
0.277793
1.110524
-3.290300
6.484546
4.367971
-4.072440
-6.993418
0.215217
-0.211566
-2.450915
-2.969158
-1.556178
4.530531
-5.187540
0.283066
-0.335406
-0.639772
-1.533992
5.504420
-0.149424
-5.556272
0.212521
-2.477461
0.497621
1.342631
1.390946
-1.085661
-0.102372
0.195515
-7.324073
8.371908
-3.734648
-3.755984
-3.040933
2.095823
0.153883
2.998312
0.128505
4.567441
0.137569
0.190614
2.239197
0.353602
-0.201393
6.388654
-0.971623
0.726960
-2.802149
6.849694
0.149832
-1.982953
0.054840
-1.423123
-2.599529
-0.102108
-0.388176
0.338844
3.894347
5.036407
-6.492271
-0.825942
2.618576
1.866538
0.507837
5.757489
-0.376402
-2.702039
-2.666370
0.162845
-7.106028
0.239057
1.727221
5.111885
2.411305
-7.371419
3.185842
-0.336077
0.218332
3.813133
2.601825
-1.371061
0.849061
-2.205322
1.877964
0.220821
-0.685556
1.650036
0.079266
2.060679
0.857884
-0.502865
0.365367
-6.468472
3.149413
-1.633526
0.645143
0.312380
1.670292
0.348546
5.167084
-2.055026
1.919245
-1.078228
-0.438699
3.449854
0.657569
-0.617925
2.637146
-1.749873
-0.129470
0.410072
0.746497
0.336332
-1.798032
-0.767499
-5.370664
6.210653
2.299796
-1.813932
0.387109
-4.296055
-1.402684
1.722920
-4.846937
-0.945276
5.137179
0.281869
1.462051
-2.716723
-4.080055
0.860570
0.220914
-6.874258
0.156650
-0.488308
5.516104
-4.188175
0.775500
0.971864
1.295766
0.355076
-0.717848
3.200822
-2.230470
2.770025
6.440998
3.586294
0.342187
6.227710
-5.570196
3.420313
3.378894
1.238127
-3.855701
0.223252
2.280086
-0.200144
1.001107
-0.229236
0.451506
-4.613922
0.266624
-0.482307
1.874126
0.619719
0.636820
-1.182253
1.848081
0.395180
0.116779
0.382927
-0.141001
-0.033866
0.204777
0.043964
0.267452
-5.019896
-5.050757
-1.899671
8.079724
-1.596134
0.550582
0.239646
4.891455
9.512307
-7.468425
1.820406
-1.599116
-2.456284
0.279325
5.629983
-4.094671
-7.675450
-2.926572
1.498223
2.711499
0.290527
-4.468712
2.829770
0.495262
-3.330280
1.877223
0.236757
0.306743
1.291578
1.139648
4.335224
-1.822928
0.614376
4.572618
0.194436
2.348988
-0.742317
-1.065939
0.386327
1.339229
0.326745
0.337794
0.370412
3.503673
3.168688
2.260638
0.356637
1.437161
0.231084
4.458649
5.239504
3.486454
-1.338978
-0.485690
0.795800
0.246024
-3.131622
4.520290
-9.646972
1.201060
-5.401254
8.176105
0.316520
-0.740886
2.245003
3.322333
1.040461
-1.131676
-6.541989
0.094228
0.193022
-2.987354
1.170209
0.977547
-0.586963
-1.368576
0.277867
1.928550
0.275421
-0.667683
-0.518757
-0.343151
5.512261
0.310464
0.803231
-3.112349
-1.227991
-0.391200
-2.273871
-3.342208
0.388932
-0.436877
-1.460984
0.943294
2.103169
-1.264751
2.361836
0.364601
5.607340
-0.564919
0.025358
-3.238519
2.944606
0.859893
0.167992
3.791928
0.325097
-1.341313
-1.168866
-1.339553
-2.764239
0.448111
7.850723
-0.131893
-1.301211
0.762855
-0.629335
1.117681
0.321377
4.375586
-1.541939
-0.451181
-1.300911
-4.996898
-0.577339
0.342524
-0.274460
-3.486909
-3.854463
-4.009293
4.343893
3.571394
0.284449
-5.823222
-1.825843
5.759241
-1.835608
4.014187
8.246053
0.164372
0.329362
0.022887
-0.025649
-0.569392
-0.033035
1.275440
0.469784
-2.485523
-6.874713
-4.807544
4.010336
0.676028
-1.300159
0.323199
1.217139
-5.918015
-4.258180
2.832845
-0.949737
-1.567213
0.350184
-0.823020
-0.233891
-1.393677
0.091225
-1.447878
0.952204
0.270472
1.423794
2.902824
-5.411951
-0.370792
2.699937
4.002429
0.246681
-1.232494
-3.972667
1.710615
2.152306
-0.517104
-1.504377
0.325157
-0.060632
-3.312196
4.408651
1.315428
-2.256629
2.861091
0.611191
1.510284
0.276334
4.923713
-5.152559
4.027881
-5.213896
0.168291
-1.055802
-1.515728
5.845439
3.292138
-4.247586
-2.731215
0.216737
-2.077850
5.074692
0.230627
0.617086
-0.429866
-3.895794
0.404990
-5.635594
1.880149
6.643145
2.700460
1.034117
-3.725823
0.105771
-3.741233
-1.262336
-2.295315
4.173850
0.112233
4.333200
0.198435
-1.992255
0.049745
4.537389
3.000134
-0.487161
0.260679
0.556751
2.902908
-0.631747
-7.544724
0.948892
-2.451848
-3.308261
0.421187
-2.922860
1.539495
-1.963501
0.690994
-3.847254
5.616401
0.274805
3.092977
-8.298353
0.116874
-5.488041
-1.704195
6.332150
0.272067
-3.880476
-0.535056
3.530082
2.133005
2.038526
-2.604450
0.164928
1.110372
-1.027390
-2.499103
-6.746277
5.316726
2.937488
0.271516
-1.036707
1.154603
0.523860
2.232934
0.558221
2.631261
0.250000
1.693133
0.276687
3.034621
-1.241986
-2.978368
2.761860
0.171014
4.815832
-1.075799
-2.316715
-0.422570
5.820804
-4.158706
0.326909
1.600718
-4.253819
0.621524
-1.073612
-0.402227
-4.144573
0.541451
0.993529
-0.023417
-0.667146
-0.649382
2.401446
-1.234816
0.453549
0.203763
1.181141
-1.388784
0.267099
0.619776
-1.453916
0.453432
-0.445321
0.199487
-0.219297
0.276730
0.104381
0.247972
0.405938
2.464596
-5.363898
4.903111
-4.577066
-0.283454
-0.563940
0.274690
-0.666296
1.067446
-4.132921
-2.752321
0.514024
1.846421
0.242705
2.295405
-4.210115
3.047425
1.053227
-3.828252
-2.920083
0.357665
-1.626982
0.311660
3.128634
3.218674
-0.589146
-0.544025
0.284781
1.129857
-1.501837
3.426678
1.088396
2.581167
-7.229556
0.193165
-1.063828
0.544412
2.230617
1.706553
-0.136426
4.435322
0.347692
4.319646
2.688589
2.195444
-8.284501
6.679364
3.321698
0.293513
-2.135921
-0.977499
0.005017
1.510639
-4.876785
-2.893777
0.236732
3.391700
0.020332
-0.950795
6.395854
-0.407246
-0.753897
0.180631
-5.662453
0.405317
-1.538686
-2.414621
-3.660778
-6.585537
0.428405
-2.447180
-1.587186
0.087408
-0.563891
2.067732
-7.067829
0.225302
-5.843977
3.642752
1.537678
1.483109
-4.755620
0.035046
0.219025
-4.648338
2.762733
0.987068
-5.930055
-2.655869
-0.524565
0.251452
5.489079
3.110996
-4.051420
-2.604180
3.834099
-0.437627
0.116811
1.081419
-1.451676
5.994935
0.971880
-1.158231
6.159629
0.246642
0.412937
0.380512
-5.597842
-4.228552
4.907808
4.449865
0.556208
6.656552
-4.572379
-0.620238
-4.385155
3.532494
-4.679357
0.354090
-1.362775
-3.652717
-1.778888
-1.787039
2.073727
-3.465599
0.291088
-2.085466
1.812501
1.100110
2.975608
-0.065864
4.727698
0.259915
0.359289
2.615510
-0.530918
2.292284
-0.158953
-2.537034
0.425405
-0.923421
1.237408
-7.254445
-1.443171
-6.194965
0.552353
0.302412
5.100947
0.492860
-4.670980
-2.557503
8.654842
2.845405
0.202887
-1.670478
3.861609
1.721422
3.393158
3.710331
0.458582
0.193913
-1.382176
-0.241329
6.232272
-1.079737
-1.589560
5.294688
0.386429
4.004416
1.503775
-1.830534
-0.225283
-0.268934
0.731525
0.294169
4.501418
0.654314
-2.412593
-2.799146
3.411134
6.307662
0.156649
-1.841977
-1.838646
-3.572741
2.441685
-1.600851
-0.062202
0.301052
-5.035114
0.069058
2.578766
1.135362
-2.616395
4.755228
0.372006
-3.136358
2.760966
-0.032372
-0.489402
-1.348770
5.298177
0.313687
2.419708
-4.733375
3.402757
5.777395
-1.875473
1.573518
0.663557
5.413461
-2.380830
5.132981
-4.940254
-0.187781
-4.432748
0.330706
-1.238351
4.182230
-1.486128
-1.722907
0.533997
3.029040
0.637864
-2.438131
0.484205
-0.663489
1.225945
1.678888
0.875560
0.189608
-2.241488
3.225457
-0.249901
-0.346993
0.424808
1.291998
0.242744
3.160165
0.202073
-2.166373
-9.109050
-1.803274
-2.476906
0.296296
4.677063
-0.084739
1.034346
-3.572239
-1.147443
-6.958969
0.194870
1.161860
-0.808442
4.382107
6.209714
-4.467281
4.219409
0.252976
0.148296
0.276362
1.775005
6.043342
-3.932082
-5.055497
0.405581
-0.364457
0.085480
3.094028
0.916290
2.291844
-3.283218
0.278362
2.073266
3.749866
1.168716
-2.742009
-1.216021
-4.808303
0.282922
0.165245
-4.658407
-2.120070
2.420307
-1.688668
3.777445
0.335594
-4.571506
-2.244703
1.474763
-2.972554
-1.263266
-5.808683
0.307288
1.056960
-2.898111
1.996030
2.095795
-2.389179
-0.159487
0.233113
-0.665826
1.028625
-1.813720
-0.100031
-1.011962
1.794581
0.447727
-0.509230
-0.075722
-0.611744
-0.541694
-0.359682
0.179216
0.138682
1.834952
1.481264
5.877172
-1.568776
-1.289318
-3.523433
0.279144
-0.283100
3.505870
-3.691455
-3.959014
5.258894
6.194486
0.321014
