-4.875325
-5.784501
-5.278220
-5.704947
-5.769722
-4.528459
-5.492534
-4.636493
-5.146784
-5.356099
-5.567810
-6.679458
-5.804436
-5.584843
-5.094225
-5.313109
-6.529927
-6.915533
-5.591510
-6.607642
-5.386569
-5.707812
-5.624774
-5.747918
-6.419129
-6.321538
-5.833644
-5.759481
-5.920014
-5.502603
-5.343658
-5.684887
-5.527062
-5.510526
-5.773822
-5.913686
-4.795327
-4.140858
-5.080583
-4.805699
-5.433408
-3.664658
-5.777797
-4.982497
-4.094376
-5.854485
-5.277299
-5.603436
-6.897186
-5.349613
-5.054038
-5.915549
-5.870490
-5.540987
-5.012768
-4.317795
-5.341281
-6.054065
-5.852222
-6.681386
-5.691372
-5.439224
-5.473255
-4.782356
-5.932678
-5.959507
-6.684680
-5.180354
-5.413520
-6.563339
-5.365383
-5.941235
-6.767631
-5.525143
-5.681517
-6.495039
-4.673843
-5.608805
-5.713410
-5.779889
-5.631005
-7.292078
-5.770993
-5.827611
-5.270387
-5.086692
-6.543097
-5.132266
-4.958606
-4.080784
-5.241842
-5.362114
-5.971938
-5.840973
-6.694690
-6.441672
-5.033420
-5.951683
-5.547080
-5.159365
-6.286265
-5.675778
-5.466507
-5.924473
-4.645816
-6.790261
-5.135798
-6.117263
-5.976369
-5.451678
-5.722651
-4.770197
-6.726523
-5.209270
-5.644042
-4.795855
-5.846972
-6.681494
-5.855357
-5.121378
-3.842555
-5.147167
-5.306568
-6.544247
-6.192945
-6.798939
-6.724065
-5.597798
-6.916614
-5.639646
-5.082434
-4.746771
-4.696301
-6.098584
-6.243878
-5.601075
-4.606845
-5.651806
-4.777850
-4.917574
-5.586454
-5.997657
-5.505023
-6.426754
-6.692797
-5.133391
-4.767523
-5.494786
-5.843144
-5.398576
-6.129408
-5.471828
-5.634120
-4.178421
-5.822658
-5.320009
-4.587878
-6.871225
-5.097421
-6.426344
-5.855977
-5.831831
-5.278058
-5.644875
-5.388310
-4.857379
-5.517912
-5.640003
-6.213207
-6.786995
-5.702153
-6.542930
-6.777755
-5.627130
-5.264465
-4.118756
-5.488362
-4.811349
-6.265429
-6.732465
-6.781913
-6.186723
-5.456241
-4.725203
-6.315871
-5.481022
-7.029152
-5.978379
-5.382784
-5.588517
-5.573274
-6.753388
-5.483692
-5.573983
-5.788522
-5.370800
-6.455682
-4.612483
-5.708646
-5.871726
-5.933444
-5.715171
-6.559562
-6.581396
-5.249071
-5.343348
-5.586846
-6.276870
-5.905820
-4.830632
-5.096362
-4.865219
-5.804832
-5.640581
-5.646938
-6.441533
-6.888978
-5.305687
-5.119595
-6.804901
-6.623749
-4.690245
-3.672990
-6.881589
-6.681731
1.252258
-2.136301
-0.264778
0.067264
-1.627628
2.466184
-1.381665
0.212948
0.616885
0.068491
-0.420029
0.419272
0.850495
-1.540798
-0.567875
1.649680
-1.325166
1.048664
-1.076029
0.062226
-0.178309
-1.012509
0.044010
1.150287
2.060610
-0.598648
-0.850348
1.371590
0.800150
-1.766099
-2.093095
0.381793
-2.469504
0.811809
1.166852
-1.006040
0.244927
-0.273251
-0.722852
0.030009
-0.232965
-0.490497
-0.434966
0.825655
-1.139671
1.020918
0.599303
-2.025439
-1.292178
0.693798
-1.167665
0.221825
-0.238427
-0.776822
-0.964241
0.445230
0.375063
1.855515
-0.165703
-0.986214
-0.698433
-0.460541
-0.367103
1.173763
-3.599281
-0.023949
-0.292328
-0.370495
1.442737
3.758863
0.013832
-2.268307
0.309431
0.862123
-1.088007
-0.252317
0.350696
0.502997
-0.843070
0.257392
0.017460
-0.829543
-0.165895
-0.208242
-0.621835
-0.903354
1.622525
-0.943883
-0.579702
0.069351
1.044990
0.684448
-2.555512
0.658378
0.599322
-0.045882
-0.089044
0.205750
0.505092
-2.252299
0.411379
-0.468010
0.080167
-0.299845
1.115839
-1.802954
1.713498
-2.228397
1.875478
0.886913
-1.516397
-0.233006
-0.808321
-0.066511
-0.078547
0.299445
0.149107
-0.951643
0.795717
0.231250
-0.001582
0.251128
0.210821
0.449942
0.965951
-0.477868
0.319263
-0.586182
1.702819
-1.706697
-0.679122
0.734397
-0.082322
0.981387
-1.821372
-0.742240
2.775583
-0.305581
-0.164709
-0.494098
0.804538
-0.324131
-0.105725
0.955877
0.632912
0.725165
0.604552
2.135860
-0.437416
-1.178881
0.311917
-2.803516
-0.298950
1.230568
1.066334
-0.304377
0.081146
0.458614
0.492394
-0.693675
1.053182
-0.085531
0.623961
1.531682
1.598382
-3.119822
0.274210
-1.675253
-2.000117
-0.839923
-0.900819
0.252192
0.181178
1.663315
0.417540
0.127691
-1.601709
-0.398787
0.155429
-0.790144
-1.598059
-2.299600
-0.061360
0.086621
-1.704534
0.861777
0.887339
0.767756
-0.532473
0.088245
0.698174
0.494884
1.173050
-0.484035
0.819684
-0.355023
-1.725713
2.220157
0.339434
0.571405
0.629970
0.058283
1.267222
-0.537404
-0.015188
-0.970763
-1.601755
2.288372
0.445463
-1.395841
-0.684669
-0.152738
-0.804564
-0.276491
0.778190
0.168646
0.353797
1.279759
1.128859
-0.847527
0.135556
-0.081124
-1.254895
-0.679616
-1.197986
1.381702
-1.751554
-0.505341
0.388415
-1.458010
0.937714
-0.842885
0.234033
0.537690
0.096301
-0.716871
0.447732
0.093449
-1.604972
-0.505139
1.953728
-1.757381
1.025356
-1.181292
-1.215457
0.996517
-1.615991
0.060974
0.505217
0.022987
-0.579433
-0.440930
0.979801
0.124074
-0.253122
-1.344734
0.014943
-1.169704
-0.377556
0.183377
-1.628923
-0.144710
-0.031999
-1.400202
0.105043
-0.126321
-1.134338
0.185385
0.293000
-0.818041
1.127650
-0.020338
-1.411238
-2.092561
0.165189
-1.238302
0.652419
-0.882692
1.399686
-1.213457
1.290202
-0.031291
1.156766
0.261787
-0.258336
-0.671360
0.234538
-0.489076
1.101719
-4.049086
0.286795
-0.241382
0.125622
0.173559
2.775835
-0.187340
-2.850268
0.454999
0.281789
0.653433
-0.513848
0.411428
0.327563
-0.542283
-0.175144
-0.263355
-0.846563
1.030556
-0.970063
-0.712460
-0.676961
0.945392
0.177373
-0.639037
0.204371
-0.084894
0.251672
-1.369740
-0.739155
0.447617
-0.859458
0.385162
0.387403
0.645835
-0.280505
0.552672
-0.182185
0.207808
-0.948445
1.413794
-1.569217
1.128076
-2.116772
0.424347
1.364944
-0.689073
0.367446
-0.360956
-0.557292
-0.630611
0.568781
0.015433
-0.701181
1.094180
-0.023861
0.361096
1.254658
0.240945
1.628914
-0.152971
-0.362398
0.616454
-0.052006
0.370680
-0.273779
-0.473679
0.752016
-0.025343
1.132581
-2.053797
-1.582652
2.925285
-0.768810
-0.049899
-0.903964
0.883899
0.677673
0.420046
1.125761
-0.523064
0.435163
0.685037
2.212362
0.209332
-1.035739
1.196073
-0.577174
-0.651544
0.986478
0.545193
0.359787
-0.006428
0.901606
0.728103
-1.267561
2.565470
-0.168030
0.026536
0.999068
1.347446
-2.702409
1.148961
-2.324852
-1.626747
-0.509206
-1.195637
-0.412076
-0.725127
2.978566
0.663588
0.725254
-0.642763
0.071722
-0.463768
0.681074
-1.935029
-2.604118
0.933292
-0.077072
-2.184310
0.877446
1.280856
1.826197
0.466085
0.040831
0.735678
0.868898
-0.850757
-0.037724
0.830702
-0.009261
-0.725218
0.857065
0.364449
-0.315710
1.155745
-0.720149
0.522423
-0.797050
0.598668
-2.147560
-2.347672
0.874694
1.407619
-0.484779
-1.062145
-0.193908
-0.564880
-1.012764
0.188168
0.396712
0.273595
2.383041
1.101454
-0.940373
-0.332441
-0.166817
-0.563604
-1.340992
-0.282735
1.999182
-0.950335
-0.777486
0.820790
-1.290616
0.853722
0.241677
0.400217
0.650675
-0.207568
-0.389600
0.251887
2.348156
-1.287478
-1.387640
0.151966
-2.202264
0.519528
0.082472
1.247060
1.400084
0.497746
-0.102833
-0.080053
1.426347
-0.667655
0.574322
0.981415
0.182351
0.979193
-1.141450
0.000437
-0.449205
-1.030295
-0.777464
-2.140260
-0.090243
0.094053
-0.985216
0.084443
-0.140663
-1.244366
0.459399
-0.363844
-0.082162
0.588450
-0.937881
-1.318946
-1.247453
0.269104
-1.696223
-0.087554
-0.112955
0.273670
-0.903994
0.603673
-0.726415
0.826577
-0.249831
0.424191
-0.934847
-0.512873
-0.387817
1.213936
-2.140212
0.895084
0.725296
0.345212
1.338911
-0.732706
-0.924244
-1.926326
0.836663
0.946862
1.863137
0.171484
0.104007
0.904735
1.610090
-0.891404
0.216573
0.141073
-0.231173
-1.868616
-0.590456
-0.361658
1.000262
0.134067
-0.717702
0.943312
-0.583455
-0.649872
-0.758030
0.192903
1.728172
-1.313544
0.468261
-0.569064
0.788104
-0.617742
1.087729
0.984083
-0.726375
-0.232008
1.058778
-1.031183
0.390326
-1.622249
1.165135
0.868211
-1.641971
0.128088
1.314337
-0.401303
-1.119843
-0.366504
0.990155
-1.426783
1.236013
0.099462
0.559803
1.502008
0.606815
0.062326
-0.615795
-0.547184
-0.145116
0.429438
0.531391
-0.615571
-1.255846
0.399321
-0.196933
0.580785
-1.666471
-0.672336
0.904294
-0.256697
-0.227498
-0.170136
-0.882376
1.837203
0.341070
1.087631
0.732269
0.301997
2.241092
2.077949
0.113614
-1.268523
-0.009899
-0.731472
-0.654177
0.016955
1.463469
0.856407
-0.367850
0.096417
1.273354
-1.468124
2.256452
1.314595
-1.189837
0.440993
1.319764
-1.256058
0.304927
-2.235761
-0.657048
-0.191927
-0.267461
0.437892
-0.831570
1.843126
1.113598
-0.112499
-1.021279
0.865049
0.267757
-0.097305
-1.238510
-2.891566
-0.043120
0.922364
0.270753
0.668753
0.148545
1.620709
-0.276486
-0.512460
1.103652
0.475896
-0.111900
-1.285847
0.203714
1.151834
0.225836
0.828396
-1.024861
-0.377362
1.586979
-1.271218
0.512684
0.082568
0.594394
0.304103
-1.426258
1.491508
-0.388973
-1.067400
-0.380247
-0.140452
-0.709850
0.130436
0.576556
-1.409949
0.142418
0.890331
0.782191
-0.872339
0.937638
-0.138407
-0.811740
-1.116865
0.383123
-0.530548
0.290554
-0.879827
1.204291
-1.978581
0.063772
0.734298
0.083843
0.228584
-0.573949
-0.943775
0.053772
0.729193
-0.633480
-1.888491
-0.413806
-2.718707
-1.309356
0.139202
1.362272
-0.125658
0.997481
-0.986640
0.468659
1.192808
-0.671262
1.206001
0.726330
0.360605
-1.169092
-1.151692
0.059880
1.246106
-0.638791
-0.782458
-1.965880
0.277594
-0.049055
-0.120956
-0.001706
0.065289
-0.207751
-0.431493
-0.315640
-0.504435
1.353588
0.326787
-1.705464
-0.159777
0.561768
-0.360893
-0.365843
0.458290
1.309317
-0.870592
-0.325397
0.331199
1.668138
0.627247
0.336896
0.166586
-0.327867
0.040965
2.131242
-2.644486
0.030649
-1.232174
0.155448
1.216757
0.130243
-0.389662
-1.740190
0.940657
-0.287596
1.268016
-1.363220
-0.121836
0.504965
1.066170
-1.557536
-0.566454
-0.783068
-1.511802
0.537719
-0.706485
-0.322778
1.176077
0.707929
-0.826143
0.019458
-1.562774
-0.745733
-0.372087
0.340549
2.095757
-2.097654
0.712212
-0.183818
1.104665
-0.193479
0.328134
0.659202
0.498690
0.658588
2.397670
0.498326
0.925524
-0.910021
-0.958329
0.946158
-1.870831
-0.204935
-1.025111
-0.196984
-1.198402
-0.573050
-0.429705
0.243786
0.581827
0.406884
0.968913
1.802097
0.471462
-0.627051
-1.241396
-0.927963
0.449683
0.521402
0.530554
1.904466
-1.555868
0.498237
-0.055713
-1.383170
-0.594220
-0.695688
2.068914
1.541819
-0.274562
-0.413851
-0.111037
-0.195726
-0.050079
0.532817
0.020688
-0.379682
0.745788
1.219924
0.358876
-1.147204
-0.388116
-0.076892
-2.189192
-0.789770
-1.060716
0.806426
-0.175196
-0.241397
0.573864
-1.678622
2.390525
1.477886
0.250194
0.380748
1.222025
-1.282248
2.030113
-1.772951
-3.071257
-0.778416
0.129908
-0.289362
0.978248
-0.217837
0.694426
0.103707
-1.116935
1.497574
0.384528
-0.078236
0.930331
-2.711913
0.007966
0.752354
1.486848
0.518031
-0.293137
0.965707
-0.272408
0.119695
-0.741951
0.604764
-2.061907
-0.672283
-0.092525
1.029771
0.443839
1.148953
-0.168989
-0.755678
1.059656
-0.804157
-0.244154
-1.354489
0.307415
-0.922500
1.199051
0.075380
-1.434459
-0.941256
-0.834970
-0.327394
-0.627717
0.765871
-0.435896
-0.167022
0.743162
1.347817
-0.353882
-0.813239
0.704814
-0.040266
-0.731734
-0.941513
-1.024403
0.091294
0.053831
-0.912783
0.286168
-2.996450
-1.427531
0.070241
0.306486
-0.601849
1.794401
-0.634005
-0.237507
0.503933
-0.954683
-1.184536
-1.885020
-2.094577
-0.551898
-0.101138
0.716622
0.765797
0.206044
1.154481
0.198392
1.058130
-1.007558
-0.069852
0.620063
-0.143913
-0.147305
-0.882433
0.378362
0.973287
1.336083
-1.175520
-0.823032
0.170598
0.313508
0.352176
0.016977
0.275982
0.935057
0.346226
0.346715
0.080824
2.514705
-0.506912
2.065134
-1.678994
0.621206
-0.142229
0.163255
0.362272
0.756058
-0.233909
0.569278
2.659253
1.077339
0.125676
1.273097
-0.016043
-0.051652
-0.700145
1.834900
-3.404325
-0.053492
-1.680306
-0.054280
1.158557
-0.188214
-0.181092
-1.772111
0.554988
-0.247454
-0.280460
0.619122
-0.065457
0.709040
0.120528
-1.147045
-0.391320
0.752156
1.160750
0.009923
-0.412090
-1.213413
1.750240
0.227987
-0.941619
0.171346
-1.265000
-0.827566
-1.695826
1.011681
1.612167
-0.276731
-0.740715
0.824428
0.345891
-0.177914
0.599010
0.610129
-0.003954
-0.021646
2.559230
-1.098221
0.673175
-2.294477
0.979091
-1.893402
-1.705531
-1.373517
-0.394854
0.325800
-0.759724
-0.281089
-1.055939
-1.055273
0.639664
1.466144
1.598428
1.808462
0.256999
0.472511
-0.349530
0.556212
-0.202880
0.013784
0.343062
0.394741
-1.464349
0.458569
0.071013
-0.751465
-0.660489
-0.958471
2.374635
0.857519
-0.298420
-0.033452
0.189856
0.067211
-0.173746
0.374325
0.563864
-0.663336
-0.095087
0.656924
1.360146
0.326130
-1.043332
-0.540811
-0.855236
-0.414335
0.487134
0.401628
-0.116798
-0.316936
-0.407329
-1.460184
0.886077
1.292022
0.497462
-0.452167
1.873636
-2.352366
1.028332
-2.125292
-2.039889
-0.892868
-1.030226
-0.762357
0.145231
0.329845
-0.502748
-0.436683
-0.897751
0.138469
0.095965
0.235913
-0.993689
-0.862102
0.314563
-0.768846
1.010469
0.919341
-0.218210
0.769392
-1.100510
0.039582
-0.394578
-1.193488
-1.284913
-0.124044
-1.326561
0.005594
0.168279
1.939023
-0.615338
-0.776137
0.409380
0.197731
0.691349
-1.555250
-0.224622
-1.263983
-0.024348
1.306272
2.408953
0.351380
-0.447416
-0.584633
-1.324302
-1.412631
0.521240
-0.427013
0.625293
-0.276375
-1.263532
-1.267302
0.513063
-0.021089
-0.868023
-1.400698
0.325667
0.796489
1.120264
0.635583
-0.282847
-1.460296
0.377269
-0.770226
0.144102
-0.134002
1.431923
-0.108871
-1.888153
0.668028
-0.077371
0.437894
-0.575102
-1.347843
0.723955
0.432537
-0.397131
0.579636
0.069432
-0.025559
0.536746
0.084578
-1.651948
1.194906
-0.736871
-1.027003
0.850212
-0.155982
-0.381246
1.659536
0.159772
-1.259080
0.839231
0.207853
0.174708
0.358940
0.018531
0.181041
0.927243
0.872243
0.691498
-0.591827
1.394160
-0.345968
0.183064
-3.278958
0.440146
0.232157
-1.007116
0.179808
-0.094772
-0.907333
-0.610307
1.663865
-0.699881
-0.485868
-0.245354
-0.829091
-0.885896
0.475976
1.370754
-2.187126
1.452315
-0.883812
0.104692
-0.381813
0.767136
-1.212400
-1.224057
1.581557
1.909060
1.125354
0.016916
0.541758
0.108520
0.556985
-1.360057
0.461793
0.938828
2.499263
-0.213905
0.738155
-0.050152
0.823084
0.585431
-0.178614
0.343610
-0.443402
-1.133955
-1.849990
0.039704
1.513774
-1.602317
-1.377030
1.249476
0.291281
1.132216
0.454234
-0.610200
3.550638
-0.548513
-0.161052
-0.412853
0.983159
-0.520045
1.820192
-1.735130
-1.157717
-0.566353
-0.742011
0.485525
-0.273600
0.196252
-1.220133
-0.588926
1.300241
0.461182
0.969715
1.185420
-0.145587
-0.368354
0.196341
-0.565443
0.697398
-0.927943
-0.368839
1.197844
-1.351134
-0.000762
-0.076854
0.746363
0.115477
-0.081620
2.441905
1.170250
-0.168716
0.013543
-1.804667
1.205697
-1.052492
0.572700
0.742907
-0.566945
-0.596008
0.068308
1.261476
0.005358
-0.965935
1.979890
0.076437
0.079565
0.537197
0.888167
-0.137530
0.166120
0.968953
-3.710654
0.975744
-0.291056
1.629103
1.167996
0.000206
0.921872
1.064414
-2.375212
-1.059512
-0.406393
0.424869
0.077385
0.447108
-1.014517
-2.123204
-0.882808
0.408779
0.056394
1.287359
-1.810904
0.140212
-0.518076
0.253390
-0.913098
0.904991
1.120678
-0.603796
1.389904
-1.035423
-0.552086
0.251293
-1.615016
1.364472
-0.989495
-1.131546
1.601857
-0.838518
-0.250483
0.556787
-0.314340
0.987348
-0.147265
-0.401634
-0.502908
-0.070812
-2.285243
0.045741
0.660555
0.667871
1.057763
-0.698078
-0.348061
-0.951221
-0.002227
-0.214024
-0.430693
0.719243
-1.547330
-0.173204
-1.866152
1.354575
-0.064967
-0.144372
-0.342113
0.878744
0.908840
0.509207
-0.234567
-1.429794
0.167208
1.469903
-0.287419
-0.100685
-0.754810
1.704700
-0.800585
-0.314564
-1.723287
-0.583814
0.073767
0.445471
0.075617
-0.175574
0.166288
-0.717824
-2.079911
1.087951
-0.222361
-1.303025
-1.406471
-0.241620
0.198390
0.456023
-0.684860
2.336048
-0.343168
0.039980
1.524811
0.570874
0.863709
-0.878574
0.122342
0.015344
-0.303040
-0.023043
0.129925
-0.583408
0.703127
0.623652
-0.220833
0.687748
0.822161
-0.073812
-0.839379
1.115692
-1.307934
-2.519101
0.630079
-0.033641
1.009689
1.125273
0.425473
-2.513582
-1.445866
-1.044141
0.084367
-0.140578
-0.541559
1.563939
-0.316428
0.065184
-1.865332
-0.115461
-0.619601
0.945294
-1.310205
-0.051094
-0.769065
-0.907034
1.236830
-0.666257
-0.091416
-1.956540
0.968279
1.156116
0.087612
1.191472
1.302706
1.546986
-0.084143
1.016473
-1.129949
0.446024
-0.240794
0.441232
-1.342133
-2.074742
-0.184465
-0.504743
-0.120177
-0.215882
-1.546755
-0.394887
-1.150430
-0.487095
0.001987
1.055584
1.595770
-0.937502
-0.449909
-0.837228
-0.958197
0.294513
1.846150
-0.553915
-1.459586
-0.434226
-1.416074
1.032607
0.649199
0.115826
-0.796071
0.126176
0.252769
1.160221
0.170259
1.221393
0.322879
-1.168696
-1.104963
-1.103384
-3.016444
-0.104426
-0.270291
-0.858314
-0.556488
0.068155
0.002051
0.837681
0.290462
0.647726
-0.057947
1.580465
-0.111087
0.018654
-1.322210
-0.017137
-0.839605
-0.618427
1.719747
-0.527320
0.067426
-0.758258
-0.128463
0.173621
-1.846779
0.969106
1.145613
-0.035070
0.227070
0.577796
-0.245556
-1.240315
0.330116
-3.143185
-0.249670
-1.169028
1.064048
-0.437976
0.944293
-1.047413
-0.182248
-0.756258
-2.520431
0.215932
-1.032354
1.084820
1.533920
-0.068433
-1.293580
0.765013
0.735801
0.550976
0.839279
-0.556493
-1.494963
0.067499
-0.253479
-1.413127
0.217767
0.405947
-0.471064
1.455117
-1.580501
-1.065121
0.080010
-0.722140
0.894969
0.950109
0.667994
1.101220
-3.121742
0.404369
0.652774
0.368446
0.402642
-1.782050
-0.025148
0.793828
-0.202326
-0.005555
0.530804
-1.318136
1.395214
0.039550
-0.459648
-0.173083
0.010969
0.089351
0.325805
-0.355982
0.680353
-0.039886
0.822111
-1.269360
-0.286862
-0.231081
0.435026
-0.447473
0.132647
-1.620279
-0.535833
-0.531597
-0.317858
-1.015506
0.537121
-0.025424
0.065601
-0.665522
0.088787
-1.447499
0.011685
-2.159711
-0.040514
0.255468
0.120200
0.149167
0.920231
-0.767936
0.670821
-1.556716
-0.328757
-0.826645
-1.092572
-3.139572
-0.237859
-1.820243
0.857657
-0.080185
-0.409633
-0.546322
-0.174096
1.265520
0.013784
-1.926469
0.294701
-0.060258
-0.544115
-0.546666
-0.118854
0.193843
-0.356939
-0.347104
0.242991
1.184923
1.551840
-0.069488
1.240631
-1.527175
0.641035
-1.558493
-1.584819
0.547216
-0.877849
1.095286
0.388501
0.507690
-0.032131
-1.455378
0.878326
-0.660847
-0.838151
0.138780
1.035322
-0.175336
0.265530
-1.299082
-0.580355
-0.282669
-0.561573
0.012718
-0.350071
-1.008820
-0.082318
1.447235
-0.216483
-0.168584
-1.687823
-0.455332
2.053016
0.450090
-1.185883
1.086093
-1.303333
-0.753536
0.219499
-1.105270
0.198847
-0.130771
0.468998
-1.088615
-1.838968
-0.307482
0.098680
1.747130
1.259629
-1.094849
0.521198
-0.412397
-0.769839
0.143097
0.673197
0.799454
-0.895294
1.742050
-0.457316
-0.169265
-0.705004
0.973950
-2.161589
-1.198746
0.091442
-1.207813
1.057218
-1.268968
-0.000458
-0.826323
-0.086331
-0.409304
0.411689
-0.633896
-0.426744
1.984919
-0.559392
-1.285924
-0.524070
-2.469723
-1.332542
0.025076
-1.533827
-0.014070
0.626554
-0.009240
-0.883632
1.528050
1.303603
1.040803
1.352585
0.390910
-0.134608
-1.871724
0.151151
-1.402461
-0.708323
0.781991
0.201427
-0.947211
0.807257
1.886679
-0.171687
-0.429102
1.439816
-0.405505
0.320254
0.014393
0.405987
-0.358023
-1.476550
1.058650
-2.435162
-1.144302
-1.010077
1.376385
-0.957603
0.352138
-3.383293
-0.985456
-1.049986
-0.586447
-0.557947
0.044670
1.971941
-0.249069
-0.696333
0.470730
2.218492
0.962362
-0.279720
1.097194
-0.578345
-2.187656
-0.457436
0.198030
-1.006122
0.444692
0.757617
0.477598
0.992564
-2.687575
0.116718
-0.396198
-0.245651
-0.577722
0.974281
-0.106823
0.432309
-2.276899
-0.499801
0.692729
0.679088
-0.674297
-1.670371
-0.641629
-0.461338
-0.819701
-0.156356
-1.281512
-1.542445
-0.175612
-1.276517
-0.142600
-0.103745
0.413730
-0.114651
-0.015013
-2.231318
0.567669
0.576455
0.466304
-1.928914
0.670430
-0.212717
0.470271
-1.035010
-1.144204
-2.066785
0.651565
-0.636453
0.019261
-0.022110
0.602676
0.603047
-0.189858
0.493414
-0.437751
1.392251
0.144117
-1.279661
-2.429264
0.236053
0.026595
-0.271751
-0.047780
-1.705916
1.655148
0.340175
-1.404241
1.007183
-1.476661
-2.957680
-0.533864
0.827278
-0.083426
-0.226148
-1.340369
-0.853728
-2.098029
2.456855
-0.428968
-1.213548
0.234631
0.165330
-0.843436
0.276188
-0.112188
0.478728
-0.444355
-1.254132
-0.398074
-0.213115
0.484749
-0.579331
0.716149
-1.488751
0.248964
1.052013
-2.241431
0.420234
-1.247095
0.121929
-0.982847
0.286525
1.980245
-1.738863
-0.522751
0.502219
1.637393
1.349656
1.672947
-0.909745
1.157238
-1.576910
-0.037147
1.029915
-1.269340
0.847704
-0.617798
-0.164366
-1.383546
0.306174
0.595967
-0.105767
-1.265447
0.049654
0.797124
0.542581
-1.415496
-0.318760
-0.144127
0.202063
0.508562
-0.816614
-0.372749
-0.168944
0.733222
-0.508874
-2.656890
0.625794
-0.389008
0.682437
1.467870
-0.502295
-0.581096
1.422365
-1.225533
0.894640
-0.486584
0.141514
-0.153546
1.434157
-0.375506
-0.220004
-3.078847
0.240978
-1.876731
0.412640
0.755265
-2.162552
1.379975
-0.929940
-0.077618
1.202229
-0.294411
-0.520201
-0.290433
-0.884875
0.032802
-0.196354
0.074147
-2.654432
-1.022522
-2.302817
-1.936562
-1.903843
-2.924042
0.285083
0.476871
-0.115084
-2.363695
0.910307
1.639926
1.833112
0.596474
-0.059565
0.305706
-1.122135
-1.459623
-0.868699
-0.322138
-1.032449
0.177012
-3.339310
0.377610
0.502511
0.186484
-1.718008
0.384512
-0.163323
-1.817479
-1.467779
-0.627961
-0.244999
-1.786872
1.405307
-0.745318
-1.998032
0.043379
1.263415
-0.606617
-0.111092
-4.648623
-2.145787
-0.539183
0.425600
-1.224538
0.789741
0.433625
0.727748
1.331994
-0.414102
2.195368
1.313359
-0.102685
1.771087
-1.778001
-3.335939
-2.126130
0.602405
-1.210371
-0.678947
-0.014577
0.299074
0.275120
-1.809408
-1.240789
-0.609221
-0.015338
1.459919
0.924407
-0.381728
0.078409
0.548694
-0.544684
-1.960190
0.328439
0.343123
0.632430
-1.768698
0.476344
-0.695026
-0.110315
-0.289531
-0.810156
0.277045
-0.066497
-0.011684
-0.657649
0.971174
-0.449322
-0.318043
-1.840250
-0.347031
0.025917
-0.701796
-2.292015
0.600628
0.121335
0.791031
-0.418360
-1.491906
-2.145931
0.230461
-1.023406
0.909810
-0.225765
-0.119095
1.098168
-0.432656
2.224989
-0.229328
1.228231
-0.951203
-1.739471
-0.744427
0.256858
-1.713839
1.348201
0.654308
-2.009656
1.291299
0.154351
-0.136650
0.761470
-0.253193
-1.176814
-0.004002
0.523531
-2.140702
1.237633
-1.411902
-0.830133
-0.851557
1.721906
-0.537260
-1.916000
0.980211
0.558023
-0.809973
-0.532544
0.014952
0.106932
-1.794525
-0.964831
0.269289
1.040786
-0.426402
-1.623511
1.730249
0.459237
-0.960384
0.437532
-2.433038
0.698804
0.121797
0.859090
0.130435
-0.015423
0.159515
-2.515738
0.025665
0.651912
1.341133
1.705817
2.219193
1.762887
0.719542
-2.793838
0.734221
0.189006
0.640751
-1.176016
-0.997289
0.801654
-0.339908
1.113570
0.922446
-0.174888
-2.714173
0.666871
-0.032112
0.851319
-1.116604
1.017550
-0.527107
1.930720
0.780514
0.425932
0.323667
-0.766779
1.704635
-0.989159
-1.055661
-0.882162
0.279454
1.219746
-0.185566
-1.589585
-1.232850
1.531166
-1.262825
0.647431
-3.425261
0.348019
-0.998505
0.644659
-0.525907
0.531519
-1.246126
0.491818
-1.388137
0.070491
0.683616
-2.577706
0.892437
-0.032510
0.248139
1.913309
-1.481660
-0.886409
-0.502305
-1.320573
-0.670911
-1.856787
1.702228
0.329260
-0.157840
-1.805757
-0.189128
-0.293118
-2.698937
-0.119418
-0.309955
-0.020946
-2.601562
0.803925
1.984205
0.649888
0.256528
-0.777487
1.076790
-0.949316
-0.487658
-1.498892
-0.107305
-2.157465
-0.205346
0.899664
-0.422179
-0.395199
-0.410208
-0.064664
-0.426592
0.372823
-2.122772
-0.616991
-1.965808
-0.188358
-2.033947
1.747174
0.054307
-1.584642
-0.230767
-1.241539
-1.815544
-0.697009
-1.769225
-2.699788
0.017290
0.041290
-0.473693
1.177336
-0.004265
0.888103
-0.329837
0.949594
0.162209
0.437122
-0.913231
1.340544
-0.327729
-3.067910
-0.886257
-0.306661
1.465377
-0.642392
0.394187
0.007372
-0.293252
-1.123084
-1.290516
0.692673
1.085778
1.007317
0.209633
-0.896439
-0.945476
0.285030
-0.766434
-2.060274
-0.611121
-0.049767
0.879465
-1.289109
-2.089920
-0.994720
-0.616657
1.084297
-1.002543
-0.325826
0.958935
0.754045
-0.433499
-0.580487
-1.562198
-1.113190
-0.267464
-0.702772
-1.789286
-1.655300
-1.936234
-0.604180
0.128814
0.596764
0.257672
-3.108443
-2.299259
-0.152604
-0.966162
0.705021
-0.997419
-1.185703
0.578046
-0.578335
0.960522
0.311541
-0.248563
-0.923688
-0.490929
-2.445749
0.175958
-0.902276
-0.067005
1.902056
-0.289455
-0.073305
1.153631
-1.133309
0.596546
-0.516351
0.501543
1.148859
-1.330695
-1.072791
-0.728718
-0.911240
-0.340789
-0.976176
1.339896
-0.596740
-1.449286
0.449971
-0.374743
-0.374838
-2.079036
-0.119278
0.388799
-3.168166
-0.685380
-1.258920
0.894045
-0.859239
-1.252285
0.983703
0.097293
0.958292
-0.102887
-0.425585
-0.030145
0.997911
1.423375
1.184531
-2.877719
-0.308718
0.462787
0.396307
-0.347845
0.727719
0.714632
0.564732
1.437005
-1.515150
-0.659814
0.251597
0.385326
-0.659030
-2.977238
-1.052011
0.278052
-1.779449
-1.676898
0.965247
0.129921
-2.500036
1.178978
0.163786
1.255746
-0.392093
-0.159706
-2.613844
2.290258
0.841227
-0.655454
0.895446
-0.484454
1.736558
0.137681
-0.232282
0.655394
-0.017194
-0.138068
-0.789247
-0.740473
-1.279231
-0.091830
-0.753882
0.977452
0.575347
0.369428
0.223496
0.310980
-0.596238
0.210591
-2.468778
1.282754
-0.555593
1.558732
0.666501
-2.219202
0.534267
0.329262
0.733039
1.080631
-0.169365
-1.048552
-0.186301
-1.054803
0.464502
-0.457150
0.785598
0.884743
-1.092318
-2.039450
-0.928688
0.606785
-1.187336
0.659323
0.319948
-0.017750
-0.488587
-1.095451
-0.577570
1.444196
-0.289008
-0.769347
1.418464
-1.122504
-1.254921
-0.609806
0.557111
-2.200562
0.682437
0.079337
0.876899
0.760523
0.490322
-0.308843
0.991123
1.260586
-1.724738
-0.909216
-1.109185
-0.425521
-0.777939
1.042132
-0.916810
-0.726935
-0.548397
-0.744403
-0.661911
-0.208279
0.336048
-0.408685
-0.312492
0.591444
-1.017084
0.548850
-0.283519
0.467987
2.115750
-0.741698
-1.438227
-0.881261
-0.669617
0.966221
1.332682
-0.549032
-0.545760
0.673636
0.888647
0.485679
0.474541
0.336685
-0.942601
-0.801569
-1.010164
-0.949501
0.131416
2.141243
-0.443305
-1.207514
-0.292365
0.939668
-0.311314
0.870836
0.912659
-0.184849
-0.791530
-0.848405
-1.340357
0.187970
-0.853425
0.469249
-2.016627
2.325735
0.196888
-0.120381
-0.436958
-0.659973
-1.421556
0.458985
-0.835765
0.206533
-0.508572
-1.943217
-0.326919
0.659525
-0.670111
1.676794
0.783868
-0.396462
-1.262295
-0.600748
-1.133358
1.386937
1.056613
0.718171
0.542390
-0.704853
0.701805
-0.121086
-2.067389
-1.190104
0.201866
-1.275407
-0.745732
-0.575425
-0.704265
1.522989
0.313264
0.647919
0.956253
-0.428242
1.383261
-0.093198
-1.022323
-0.204500
-0.162794
-2.139247
0.175019
-1.094861
0.521731
-0.498909
1.847683
-0.662696
1.795307
-0.269467
-1.190937
0.735047
-0.675947
-0.208083
0.153399
-1.059391
1.465583
-1.602653
0.330124
-1.375293
-0.741759
0.485123
-0.803019
-0.708861
-0.850651
0.048065
0.363203
0.984041
1.723123
0.462694
-1.435536
0.036198
0.129296
-1.727621
0.340481
1.195464
0.822384
-0.283787
2.050090
-0.968992
-1.532255
0.557985
-0.021458
-0.979856
-1.749645
-0.709125
-0.540743
-0.609850
-0.150857
-0.486374
-0.071345
-1.906213
-3.189050
0.377867
1.570274
-0.018734
-1.018654
-0.496352
0.368388
1.136972
-0.428453
0.682596
-0.136619
2.720007
0.542666
0.609905
1.449124
0.399968
-1.020236
0.079900
0.155273
2.327282
-0.319388
-0.591639
1.234787
-0.113682
1.295431
1.665445
0.290240
1.015222
-0.499995
-1.481648
-0.597796
-0.115269
-0.421092
0.767286
-1.717159
-1.498278
2.079159
-1.246660
0.441430
0.970151
-1.004004
-1.115076
-0.292971
-0.412785
-0.360355
-0.026135
1.015542
-0.292171
0.013469
1.170917
0.702636
-0.558032
0.004707
-0.268940
-0.055721
-1.499000
-0.414919
0.036504
-0.907034
-1.211863
-0.415049
-0.065065
-0.108283
-1.512179
-0.051863
0.497070
-1.906636
0.804263
-0.120583
-0.473053
1.080417
0.253277
0.814759
1.574363
2.454491
-0.090975
0.733125
-0.077483
-0.376863
-0.303706
-0.568637
-0.513443
-0.335983
-1.114147
-0.507065
0.771653
-0.174162
2.943350
0.281148
0.649568
1.346412
-1.139790
-0.814190
0.110644
-0.723576
2.190064
-0.932664
-1.386503
-1.103124
-0.793572
0.469929
2.334720
-0.807418
-0.772643
0.702465
-0.191570
-0.763658
1.466933
-0.087487
-1.710240
-2.550715
-0.538249
-0.437554
1.431796
0.407473
0.335147
-0.224137
0.244809
0.805157
-1.090395
-0.199404
0.484878
-1.027495
-1.229896
0.347129
-0.263490
0.394007
0.821967
-0.380792
-1.838903
0.684201
1.527850
-0.359111
0.309134
-0.203330
-0.769527
0.450708
0.215091
-1.220760
-1.558492
-1.026660
1.005205
0.737003
-0.924538
1.547652
0.113189
0.893689
-0.057076
-0.750433
-0.078670
1.596868
1.932435
0.164918
0.990307
-0.353636
1.392715
-0.398468
-1.999704
-1.523303
-0.458614
1.619988
1.369495
-0.558834
-0.877860
1.885814
-0.974804
0.287504
0.508231
-0.626814
0.297844
-1.385252
-0.314516
0.595777
0.055836
-1.726605
-0.473842
-0.463845
1.384142
-0.611445
1.097201
1.323212
1.540030
0.006418
-0.723410
1.024766
-0.735616
-0.279918
0.275175
0.530275
0.618871
-1.099431
0.001284
-1.329852
-0.586880
0.348080
-2.390157
-0.355107
0.504766
-0.249600
0.238145
0.863837
1.216955
1.583654
-0.463208
-0.987548
-0.727651
-0.132275
1.235829
-0.400928
1.174554
0.412139
1.936782
0.609582
0.918827
-0.028001
-1.085478
1.438413
-1.064250
-1.308449
0.553440
-0.403806
-1.628892
-0.378186
-0.040223
0.095833
0.493555
0.181742
0.781250
1.236585
0.042715
0.709553
-0.688328
1.258863
0.075203
0.852094
0.447486
2.573540
-0.081051
0.745397
0.307174
-1.106037
-0.284762
-0.420870
1.632895
0.336663
0.228203
1.610348
1.298656
-0.159591
1.699836
0.327945
1.627421
-0.448506
-0.296552
-2.235402
-1.842152
1.301044
-0.064505
0.644839
-0.148352
-1.325254
2.542121
-0.864343
-1.003621
0.455329
-0.331011
-0.744750
0.061615
-1.142957
1.221035
0.747689
0.903949
-1.552080
-0.757420
0.681623
0.005447
-0.677069
0.110919
-0.215821
-0.065576
-0.753266
0.075354
0.688667
-2.372349
0.959745
-0.559583
-0.674310
-0.299268
-0.041924
0.397302
0.679613
-0.378472
0.316859
1.124985
-0.429638
2.072550
-0.243822
1.835851
0.602293
0.816186
1.703695
0.845680
-0.701839
-0.193679
0.009035
-1.919736
0.116931
0.262172
-1.619104
1.294408
2.787093
-0.102877
2.758011
-1.269417
1.232991
-0.868466
-1.733376
0.836201
-0.323728
-1.538930
0.657120
-0.907235
-2.867820
-1.032416
-0.668234
-0.038824
1.342892
-1.061310
0.115790
-0.954697
1.305344
2.138911
1.901090
-0.627453
-1.563667
-0.094381
0.767173
0.142303
1.123184
1.608528
0.207014
-0.142539
0.110786
-0.519413
-0.146965
-0.341241
-0.405598
-0.014039
-1.321880
0.379239
-0.677379
-0.068990
1.839918
-1.512830
0.736033
1.930668
0.150744
-1.502172
0.434459
0.050483
-0.071710
2.164021
-0.727677
-0.758478
-0.435663
-0.360921
1.666263
0.875840
-0.881111
0.521452
0.547240
0.730817
-2.488727
-2.384343
0.392543
0.661072
1.307069
0.812144
-3.121315
0.811212
-0.474493
-0.368656
0.985883
-1.280002
0.740918
-1.788948
0.594153
-2.592028
5.006668
1.876336
-0.476864
1.981128
0.714505
2.786805
1.503037
0.383130
-2.309811
0.642783
-1.061899
0.591752
0.466796
1.310844
1.830867
-0.265198
-1.638565
0.165558
0.595615
0.009926
0.623905
0.163359
-0.448791
-0.179460
0.364780
1.056634
2.153354
1.584430
2.880542
-0.240020
0.994356
-0.796048
-1.959979
-2.705246
2.977603
-1.838669
1.182100
-0.659350
0.282424
7.078263
2.383898
0.028041
-1.036566
1.726637
1.411636
-2.894475
2.237307
-3.292294
1.657601
2.526597
1.090907
0.278430
0.763756
2.024185
-1.447481
0.290329
1.813411
0.717898
1.889468
1.244204
0.101222
-0.213775
3.744208
-2.323069
1.695383
1.608181
-2.644090
2.581630
-2.963667
0.956611
-1.098604
1.317955
0.245725
1.580856
-2.965365
1.566731
-1.466568
-5.569612
-2.338835
-0.357711
0.654320
-2.022763
-0.809951
1.264116
1.252009
1.865294
-0.453526
-2.219118
6.437669
3.878751
-1.180798
-0.794677
1.301097
2.381806
-0.543314
-1.173893
2.093985
0.180222
1.428417
0.594895
-2.808288
-2.151457
-2.387465
1.274840
-0.195920
0.298295
3.012463
-2.784351
3.200147
1.725404
-0.285569
2.718478
0.409293
-0.918246
-1.285057
0.801517
0.000556
-0.234741
1.640126
-0.915907
-3.294433
1.135232
-0.134828
-0.401894
0.750349
-0.508096
-2.001051
0.598744
1.276813
0.299243
0.762076
1.197144
2.121714
1.201547
0.987687
-1.734620
0.435375
3.317988
0.104947
-2.187919
0.018445
-0.450278
-3.147259
1.735589
0.775857
-0.461615
-0.202836
-2.364647
1.771109
3.279094
-1.404418
3.390586
0.290124
-1.409741
0.962752
0.387102
0.344273
0.275857
1.554317
-3.774648
-1.808724
-2.815194
1.041651
-0.628562
0.769752
-3.214807
-0.778384
-0.679552
2.185699
2.189447
0.836187
-3.771372
0.399482
1.298554
1.635506
1.298390
-0.170085
-0.572663
-0.499015
-0.082065
-0.352097
0.626107
-3.469123
-1.623610
1.010646
-0.623648
-1.253643
-1.106564
-0.335880
-0.124940
-1.225239
1.641941
4.522479
-0.739095
-1.077858
1.266902
-0.710410
-2.273342
-2.472517
-1.297252
-0.120223
-0.592564
-0.540735
1.661229
0.341441
-0.233710
2.380095
0.449815
1.462441
0.004277
-0.072605
0.043502
-0.088241
-0.058801
-0.067950
0.037913
-0.039190
0.028666
0.062316
-0.030426
0.043409
-0.044813
0.064417
-0.003828
-0.011414
-0.012414
0.024015
0.052027
-0.060656
-0.046892
0.086662
0.043434
0.098625
-0.031400
-0.019136
0.017926
-0.064764
0.090143
-0.034563
-0.007099
-0.005580
-0.007168
-0.063597
0.006178
0.034030
-0.031548
-0.055908
0.094840
0.097119
-0.093592
-0.035586
0.040528
-0.038406
-0.071169
-0.063300
0.050180
0.016417
0.060715
0.002208
0.055761
-0.086177
-0.011130
-0.000805
-0.087552
0.057469
0.080059
0.030374
0.092705
0.070201
0.095810
-0.014394
-0.035379
-0.011358
0.022009
0.070800
-0.077327
0.090462
-0.085108
-0.082487
0.087580
-0.078701
-0.018073
0.028108
-0.017107
0.010758
0.064808
-0.066926
-0.072825
0.025523
0.035281
0.082936
0.039346
-0.075849
-0.017870
0.051794
0.081621
-0.037811
-0.017833
0.074326
-0.067610
-0.022022
-0.040067
-0.002988
0.066620
0.081942
-0.032188
0.089292
0.072403
-0.017297
-0.093195
0.059983
0.004002
-0.011268
-0.011908
0.086896
0.099490
-0.047100
-0.080031
-0.073335
0.078423
0.055251
-0.090399
0.017769
0.079402
-0.008269
-0.030437
0.061023
0.053920
0.051730
0.035349
0.086310
-0.070292
0.095282
-0.016678
0.096327
0.077223
0.051133
0.085620
0.049626
-0.066164
0.092425
0.009610
0.037839
-0.018843
0.097701
0.024734
-0.019353
-0.049399
0.044704
0.007313
-0.070976
-0.000045
0.016914
0.046794
-0.020643
-0.091356
-0.083643
-0.059620
0.062564
0.068087
0.075729
0.048874
0.097794
0.071010
-0.067804
0.094122
0.048233
0.083330
0.079742
-0.002140
-0.082834
0.072167
-0.092531
0.055005
-0.046676
-0.094829
-0.020260
0.033971
-0.044228
-0.075557
-0.058716
-0.015204
0.024398
0.058198
-0.068410
-0.096245
0.066842
-0.052054
-0.055865
0.029407
-0.083967
-0.080137
-0.021719
-0.086172
0.090874
0.010477
-0.092051
0.039107
-0.006193
0.087691
-0.063033
0.010973
0.059858
-0.055564
-0.034022
-0.086818
-0.050393
0.045718
0.047153
0.005378
0.070161
0.088438
0.090175
-0.005441
0.046636
-0.078235
-0.001686
0.013478
-0.030289
0.042449
-0.057116
-0.014256
0.062312
0.021165
-0.000428
0.053186
-0.068357
0.007521
-0.007708
0.025450
-0.004788
0.029259
-0.063577
-0.044930
-1.005654
0.620726
0.398247
-0.384854
1.444334
-1.815153
-0.010474
-0.352536
0.008345
-0.181304
-0.827999
-1.129361
-0.071015
-3.329449
-0.685791
-0.873402
-0.122927
-0.552627
-2.030262
0.479119
0.674371
0.679479
-0.301777
1.453126
3.044472
-1.853636
0.247252
2.695888
-1.044948
-0.118904
-1.184230
0.132156
-1.615172
-0.203740
1.213858
-0.700358
-0.034953
-0.087273
2.309792
0.348748
-0.183609
1.340663
3.041312
-0.260665
-0.288128
0.853454
0.273476
-0.814659
0.349436
0.660100
-0.130032
0.152508
0.600798
-0.999061
-0.945057
0.935665
2.438373
1.358737
0.028519
-0.855351
-2.966819
1.396742
-1.961968
1.070649
-1.856808
0.231080
-1.847675
-0.116135
0.355516
2.830364
1.712258
-0.694521
0.324517
0.821567
2.449918
0.484937
0.536062
0.909599
2.372778
-1.575253
-3.689063
-0.388465
-3.376957
-1.880251
-1.411699
0.207409
2.595177
-0.740170
-0.584122
-0.954889
1.015776
1.514784
-1.574877
-0.854338
-1.103898
-1.116872
-0.688435
0.341044
-0.349270
0.770413
0.256288
2.479637
-0.164524
-0.588067
0.271012
0.608629
-0.669656
0.574437
-0.281616
0.329468
-0.453180
-0.329995
0.363811
0.275304
0.480779
2.198918
-1.117761
-0.372824
-0.653928
-0.661948
0.137167
1.962692
0.021159
0.419123
2.098052
0.814621
-0.204193
0.691991
-0.492483
1.347725
-0.644905
-0.163443
-0.167488
-0.149761
-2.833668
-1.594893
0.957723
0.255809
0.382730
-1.191723
0.208428
0.562402
0.295519
0.119795
-0.993352
0.068051
-0.715571
0.943908
0.517164
0.015370
0.148620
-1.748527
-2.653034
0.412288
0.820903
0.375481
-0.220592
1.757627
-0.185519
0.175706
0.248125
-0.453909
0.747318
-0.009168
0.828561
3.032049
0.121850
0.169459
-1.112989
-0.576743
0.284796
-1.108775
0.582030
-0.333461
-0.696485
0.430350
-2.849861
-0.921649
-1.199809
-0.628690
2.740598
-0.350977
-0.236988
0.940929
0.977211
-1.134358
-0.445914
-0.979270
-1.703877
-0.487977
2.182243
-2.021368
0.666506
1.052925
-3.040849
-0.725283
-0.969595
-0.307566
-0.433985
-0.985901
0.045647
-1.180690
0.896170
-0.743641
-0.468293
0.314110
2.660312
-0.114064
-0.406109
0.731110
-0.039643
-1.315627
-0.752577
-1.419301
0.141164
0.104929
0.128219
0.870100
1.815355
-1.254129
-0.127132
-0.020030
-0.406774
-0.295078
-0.740761
-0.367695
0.132215
0.514464
-0.512864
-0.524390
-0.078847
-0.673489
0.004826
-0.205852
-0.107902
-1.255022
0.655978
1.637369
-0.714275
1.088905
0.797898
-3.396179
-3.267828
-1.033600
0.391720
2.335265
0.162050
1.003960
0.782835
1.316322
-0.698036
-1.512133
1.358799
-0.366752
0.982165
-0.953047
1.208566
0.647728
0.049251
0.766207
-0.522478
0.191463
-0.038031
0.831193
0.168975
-0.214190
0.326982
1.397199
-0.165182
-1.707364
-0.139569
0.088485
-1.397631
-2.582175
0.234842
-1.259889
0.117819
-0.507277
-0.261174
-1.205833
1.522632
1.490854
2.316176
-1.002241
-0.520765
-0.993122
0.494643
-0.659081
2.536600
-0.885275
1.590251
-1.604866
0.439238
0.169647
1.003085
2.090468
-1.311783
0.809715
0.341673
0.987735
0.023109
0.086758
1.070883
0.517177
0.806531
-1.909709
-0.837951
0.746573
-0.380226
-1.104089
0.378945
0.363769
-0.071114
-0.356021
-0.403202
0.708968
0.818634
-1.668665
-1.746401
-1.708025
-1.464572
-0.687837
0.131251
0.875462
-0.700026
0.214086
1.186687
0.935454
-1.075436
0.140484
-0.198856
-0.849112
-0.743687
-0.422848
-0.134836
-0.604411
0.191391
0.231996
-0.469529
0.644873
0.117820
-0.799190
-1.040976
1.462999
-0.848826
-0.129758
1.190813
0.662884
-0.657657
0.643286
-1.500978
0.020496
0.241304
-0.171810
-0.165469
-0.049307
0.119406
-0.111676
0.543162
-2.322239
-1.313585
1.635334
1.431541
0.227951
-0.440899
-1.049933
0.065213
0.205733
0.217998
-1.297149
-0.620142
1.270419
2.168827
0.939860
-0.861069
0.835398
-2.089149
-0.086945
0.381240
-0.290262
-0.319190
0.031187
0.149384
-0.564660
0.394683
2.244293
0.059384
1.164342
1.656340
-0.009432
1.826573
0.593513
1.267994
-4.062796
-0.463506
-1.277290
-0.485006
-0.421100
-0.515948
-1.270119
0.780010
-2.455384
-0.918029
-2.680219
-1.059003
-0.852844
0.041248
0.047995
0.380395
0.663671
-0.587753
-0.277378
0.483946
-0.594057
0.603228
0.625357
-2.623981
-1.543637
-0.415350
-1.759544
-0.769388
0.721846
0.507695
-1.181419
0.640386
0.713810
-0.971758
0.554284
-0.484919
-0.189756
-0.199781
0.734734
-0.385420
3.671024
-0.651002
-0.578763
0.039596
-0.600240
-0.796477
0.139954
0.552965
-0.493621
0.987523
0.504115
-0.555471
0.528586
0.139626
-0.126427
-0.063134
-1.753996
0.823594
-0.048885
-0.597353
1.948421
-0.815889
-0.537997
0.334726
-0.175616
0.148605
0.760115
-1.678131
0.592152
0.532678
1.219508
-0.791883
-0.583030
-0.918790
-1.944445
0.063898
2.048043
1.144605
1.982589
0.302995
0.169657
0.560606
-0.675619
-0.940896
0.298424
0.680202
0.165588
-0.354998
-0.317323
1.016021
-1.513653
0.073420
0.084281
-0.081927
-0.237074
0.771818
0.070036
-0.208743
-1.267844
0.508288
0.020750
-1.124305
-0.199624
0.914097
-0.301312
-0.668320
2.128441
-1.370932
0.040131
1.995617
-0.284495
-0.551171
-0.150576
1.511846
1.024543
-0.507161
0.040866
-1.691247
-1.408385
-0.975523
1.358277
0.180165
2.157658
1.590989
-0.184626
1.298338
0.244384
1.486880
0.252510
0.688848
0.476280
-0.575254
0.870650
-0.529107
-0.908089
0.553791
-0.835858
-0.535853
-0.431401
-0.836846
-1.809711
-1.144379
0.242903
0.076007
-1.012949
-0.635117
-0.259377
0.178374
0.140662
-0.103377
-3.130323
0.411367
-1.415222
-0.562110
1.528039
1.442638
0.422459
0.672733
1.236634
-0.439210
0.156281
-1.640466
-0.576905
-0.435420
0.139820
-0.478994
0.650658
-0.459949
-0.207872
0.177480
-0.038191
0.334054
-0.235510
0.456614
-0.850612
2.327646
-1.519807
0.353878
1.904052
1.890560
-1.696269
0.335777
-0.913699
-0.466395
-0.279039
0.741188
-1.142883
0.342727
-0.401294
-0.061581
1.409316
-0.859280
-1.050391
0.880296
1.067903
0.034483
-0.818618
0.219511
0.910428
-0.519757
0.294227
-1.681103
-0.151081
1.583442
1.950608
1.468440
1.191712
1.377961
-0.584704
-3.005147
0.577919
0.582314
1.691098
-0.306328
-0.504193
0.528733
-0.958681
1.079377
0.852070
-0.290026
1.667573
-0.167752
2.293446
0.656684
0.039505
0.152343
0.431329
-1.288099
0.302900
-0.700693
-0.517800
0.022641
0.973696
-1.614246
-1.137710
-1.597565
-0.101336
0.469420
-0.060888
-0.390325
0.974060
0.634497
-0.806446
-0.005216
-0.267380
-1.062938
0.130183
0.326042
-0.461373
-0.056388
0.326583
-1.684497
0.708832
1.790105
-0.558809
-0.755682
0.509583
0.803581
-1.345046
0.605683
0.139703
0.410375
0.336331
0.494865
0.774497
1.594727
0.005169
0.105972
-0.448118
-0.886426
-0.990551
1.784412
0.726234
-0.681357
0.640213
0.628567
-0.764221
-0.405589
0.095422
-0.836595
-0.494290
-0.120599
-0.754712
0.863897
-0.598416
-0.290019
-1.700393
-1.042911
1.024099
0.273886
-0.165448
0.222355
1.067752
1.525842
2.963278
2.310508
0.671801
-0.902111
-1.833359
-2.703270
1.093205
1.123984
0.879330
1.365921
-0.369567
-0.521826
0.368143
-1.219445
-0.671167
1.732789
-0.000471
0.160197
-0.826810
-0.887995
1.398619
-1.052916
-1.146125
0.194330
0.586350
0.002916
0.550377
-0.045633
0.126912
0.754993
0.524033
-1.856626
-0.939888
-0.383615
0.761099
-0.835139
0.667648
1.366446
-1.419649
0.825709
-0.684121
0.679690
-0.299044
-0.310110
0.404113
0.914424
0.222930
1.613628
0.934105
-1.364028
-0.122330
1.647027
-0.711334
0.714200
-1.398389
0.290513
2.041775
-1.071595
0.320009
0.628305
0.994759
-0.834025
1.862251
-0.954757
-0.411988
1.197708
0.782174
-0.826691
-1.725348
-3.216285
1.058303
-2.984668
-0.590361
-0.235882
1.489663
-0.904783
-0.279264
1.090541
-1.150274
-1.789343
-1.183307
-0.694330
-0.514585
-3.007024
0.161890
0.427544
0.468537
-1.362365
0.378602
1.225757
1.181037
-0.276519
1.476817
-0.897033
0.366147
-0.882444
1.904138
1.155892
-0.143487
-0.133492
-0.114011
1.099369
-0.640159
-0.000814
1.030988
1.194268
0.348611
0.313669
0.810016
0.311310
0.348680
-0.286790
0.027079
0.199407
0.210088
-1.089280
0.131204
1.082182
0.492982
0.438764
-0.084957
1.013770
-1.621306
-1.146376
-0.346516
2.725521
0.184099
-1.062133
-1.721404
-0.163153
-0.475475
0.156588
0.293061
-0.815869
2.084379
2.760987
1.629868
-0.643935
-0.927724
0.423499
-0.014202
-1.005320
-0.932814
-0.500193
-0.351631
1.235913
-0.308353
1.146207
0.817772
1.559315
0.671785
0.534519
0.435002
1.470978
1.456482
-0.422223
-3.148397
0.099757
0.792998
-0.091626
2.009035
-2.132408
0.047768
-0.228990
-0.603712
-0.016438
-1.621348
0.476903
-0.128178
0.021762
-1.996496
0.413118
0.306684
-1.007578
-0.673507
1.686969
1.106432
1.051766
0.005503
-1.315416
-1.182727
-0.081003
-1.957226
1.218511
1.301340
0.575597
0.437830
-0.070456
0.842667
-0.521277
-0.137678
0.083847
-0.015536
0.079093
1.796809
1.659104
-0.119607
-1.916159
-0.739194
-0.038382
-0.741111
-0.357525
0.874808
-1.199665
-1.764845
0.503942
0.292617
-0.791498
0.452974
-0.293529
-0.083657
0.398943
-1.210009
0.751123
-0.872427
0.235512
-0.654846
-0.432358
0.286591
-0.212479
-0.332874
-0.129022
1.327808
1.557208
0.579157
0.010072
1.116401
0.213045
0.330266
-0.372378
0.218914
-0.456552
0.737086
-0.145535
1.016800
1.203730
0.348173
1.692476
-0.483449
2.662728
0.874428
-1.772587
-0.920352
-1.382040
-0.636239
0.323052
2.502119
1.087470
-0.834426
-0.735040
0.303428
0.805335
-0.315526
0.347496
-0.519035
0.831598
-0.144507
0.165020
0.702897
0.189285
0.581725
0.496662
0.779323
-0.761146
1.047525
0.646240
0.252993
1.163484
0.826805
1.765378
0.667606
1.478260
-3.118667
-1.235357
-0.200293
-0.754830
0.439182
-1.226040
-1.570005
-0.021245
-0.083721
0.818791
1.544237
2.191425
0.424157
0.792232
-0.271397
-0.879158
-0.013264
0.163840
-0.655198
-0.598031
-0.741492
-0.510196
-0.019958
1.328197
0.304630
-0.252132
-1.054683
0.551626
-0.879778
-0.598958
-0.448814
-0.280860
0.031095
-0.601532
-0.267924
-0.275650
-1.295538
-0.987164
0.233119
0.339826
-0.146379
0.038981
0.201517
0.403460
1.603979
0.023566
0.187107
2.648906
0.186120
0.227716
-0.542484
-1.890499
-0.318590
-0.758225
0.667807
1.407133
-0.275521
-0.840951
-1.401316
0.518576
-0.139602
0.894053
2.936220
0.268455
-2.509010
0.437893
0.028669
1.781819
0.588726
0.408132
1.293030
-1.286104
0.224526
0.046171
1.700193
0.352591
-0.548430
0.311456
0.942629
0.178061
0.313239
-0.465658
-0.924306
0.067865
0.025442
1.217175
0.246504
-0.720388
-0.664028
0.842514
1.060536
0.161157
0.422557
-0.368440
-0.900582
0.260256
0.864532
-0.471783
0.776987
-0.351835
-1.409659
-0.967672
1.130350
-0.569466
-0.683110
0.599825
1.254265
1.499751
-1.018191
1.017289
0.309020
-0.862274
-0.668330
-0.862407
0.415978
-2.476820
-1.502314
0.400773
-0.277174
0.089021
1.473614
0.468784
0.269973
-2.273278
-0.487264
-0.690165
-1.587322
1.981662
-0.357083
-0.931283
0.388870
-1.417765
0.346478
-1.035213
-0.668210
0.170542
0.647607
0.241928
0.218377
-1.391433
-0.664005
-0.868705
-1.432363
0.391114
-0.744335
0.238332
-0.488518
-1.337073
-0.344347
0.723937
0.056307
-0.259616
-0.784380
-0.017139
1.095036
2.655016
0.137536
-0.346381
-0.012831
0.555889
-0.880667
-0.865675
-0.173299
0.376053
-1.759974
0.353987
0.149723
1.206332
-0.054185
-0.777766
1.692378
0.484377
0.672123
-0.051949
-1.507715
0.355350
0.492800
0.321790
0.398985
1.819193
-0.509405
0.089434
0.391558
-0.665690
-0.881925
2.128965
-1.202251
0.307597
1.831958
1.314422
0.152976
-1.797225
-2.243505
-0.618102
-0.381123
1.170697
-1.236111
-0.750433
1.639088
-0.077914
-0.514028
0.563075
-0.706850
0.375459
-0.367257
-0.433019
0.487761
-0.724550
-0.102380
-0.145152
-0.438319
-0.277484
0.815914
0.212690
-0.403916
0.200935
-1.040760
0.998274
-0.068121
0.332802
-0.459189
-0.859995
-0.018948
0.627987
1.268370
1.587034
-1.654292
-0.448404
-0.979320
-0.444418
-2.552655
-2.314494
-1.675643
-1.942594
0.250993
1.038171
1.375521
-0.379252
0.050121
0.305622
0.000434
0.050408
0.017488
1.360983
2.710512
0.947595
-0.015908
0.156569
1.272641
0.970749
0.298335
-0.237119
0.661048
-0.550139
-0.210466
-0.157487
0.906017
-0.630425
0.419212
0.654690
-1.714521
-1.532852
-1.284469
0.078290
-0.793757
-0.351768
1.114178
-0.451534
0.609543
-0.863475
-0.256923
-2.118992
0.450935
-0.352931
-0.960767
-1.185722
-0.673233
-0.573537
0.574478
0.181503
-0.350410
-1.115710
-0.484730
-0.571824
-0.065624
0.535297
0.393684
0.926387
-0.470880
-1.234034
-1.070883
1.044035
0.954703
0.783492
0.100569
1.983335
-0.551346
-0.069700
0.028016
-0.094333
0.063489
-1.114096
0.257275
0.556607
0.091173
0.658300
0.434247
0.903798
-0.324813
-0.510962
1.804925
-0.598195
0.944199
0.172328
-0.146052
0.714205
-1.452294
-2.235659
-2.309522
-0.519337
-0.370543
1.160509
-0.276605
1.114195
0.057983
-0.911310
-0.046531
-0.338785
-0.473469
-1.874378
-0.627824
-0.079603
-0.058239
-0.798293
-1.234105
-0.479618
0.002079
-0.266162
-1.155937
-0.113733
-0.944942
-0.289542
0.885361
0.284023
0.695772
0.480281
1.073977
-0.228594
-1.481595
0.497416
0.970146
-1.632686
-0.491781
0.144675
-0.332212
-0.299933
0.290685
-0.853999
0.482956
0.523053
1.193545
-0.693578
-1.164193
-0.682322
-0.242945
-0.036837
0.047429
1.627801
-0.220161
0.079331
0.257987
-0.461471
-0.709565
-0.112328
2.098261
-0.229361
-1.576088
-0.631184
-0.885060
-2.909974
-0.306548
-1.830534
0.068809
-1.952003
1.106810
-0.541933
0.667431
-0.026821
0.417211
-1.447508
-0.589838
-1.738725
-0.086315
-1.265548
0.337459
1.849984
0.974461
0.239659
-0.059590
-0.089623
-0.914008
-1.999966
0.320115
-0.735286
-0.642356
0.770083
-1.061354
-0.176951
-2.473607
0.345434
-1.573814
-0.942685
1.148472
-1.046401
-0.842066
-0.545742
-1.002093
0.838445
-0.298948
-0.311623
0.271463
-0.285209
-1.321194
1.206112
0.805847
0.382016
0.036582
-0.468185
0.070951
0.542464
0.106240
0.406445
-1.441519
0.952386
0.849621
-0.561469
0.536410
0.914043
-1.899225
0.136118
-0.897093
-1.276350
1.765417
-0.428465
-0.623807
0.933399
-0.516070
-0.007827
-0.387977
2.878770
-0.318539
-0.014542
0.276403
0.544457
0.194270
-0.181093
0.377637
-2.024508
-1.186838
-0.278243
-0.094455
-0.902533
1.185902
-0.500315
0.470125
1.227165
0.183035
-0.122855
0.420596
1.154645
-2.148396
-0.138085
-0.485934
0.680716
1.550380
1.769033
1.054072
-0.685340
0.625046
-0.400900
0.066095
-1.834130
-0.941683
0.747181
-0.623292
-0.481786
-1.635922
-2.241606
0.981598
-0.984864
0.772325
-0.000279
2.165819
-0.314028
-0.827738
-0.212781
-0.766643
-0.818210
0.500041
1.742609
-0.291845
-0.142391
0.201402
-1.261738
0.142065
0.474631
0.867124
0.999191
-1.036237
0.272231
0.399083
-0.451742
0.921571
-1.073519
0.249868
-0.948771
0.790816
-0.396140
1.308029
0.926810
0.795114
-0.240863
0.329398
-0.001937
0.621245
0.673939
2.172301
-0.043369
0.889901
0.548442
1.048295
1.035279
-1.345164
0.073704
-0.147230
0.788569
-1.458019
1.765594
0.464093
-1.129749
1.537296
-2.387990
-1.046655
-1.338300
-1.479790
0.876786
-0.286526
-0.255802
0.161848
0.341288
0.806298
-0.766401
-0.216980
1.049758
-0.582589
1.013907
0.334390
0.096302
1.302217
-1.627557
0.231959
0.196943
1.155062
0.028967
-0.612505
-1.120928
0.319135
0.767611
-1.641899
0.066993
-1.419898
-1.249215
-0.772730
0.992663
-0.149432
-1.217183
-0.274139
-0.628803
1.304237
-1.696200
-0.816624
0.311263
-0.859094
-0.538688
0.805364
1.328081
0.197358
-1.010179
0.452445
-1.513071
2.213553
-0.958296
0.437391
0.261344
0.183789
-0.946242
-0.239305
-1.231042
-1.492758
0.972686
-1.108846
0.054656
-0.129047
0.291683
-0.658488
-0.397862
-0.209224
0.436125
-1.375284
1.367488
-2.071235
-0.292631
0.040680
0.653847
-0.400455
-1.181100
-0.845291
-0.293339
-1.123953
1.142730
-1.190708
0.398028
0.037843
0.071522
0.048521
-1.964932
-1.322728
0.368117
-2.056775
-0.912350
1.217742
-0.242455
-1.215379
1.351898
0.452981
-0.214652
-0.108229
0.590615
0.118170
-0.698944
-0.933412
-1.416111
-0.286646
0.659140
0.615523
0.373071
-0.000269
0.355284
-1.130642
-0.221614
-0.552474
-0.604767
-0.526805
-0.098378
0.381780
0.098347
-0.097417
0.796591
0.319669
0.949834
0.674281
-0.280209
1.863151
1.578685
-1.887401
-0.573596
0.459802
-0.342136
0.240066
0.883556
-0.041559
-0.757420
1.204154
-0.530021
-0.331175
-0.106216
-0.209872
1.045209
-0.713817
0.761900
-0.258312
-1.032578
-0.560119
-0.364155
-0.313600
0.127618
1.055797
1.154808
0.252346
-0.294333
-0.185162
0.004385
-0.030249
0.217701
1.902064
0.311264
-0.414722
-0.656520
-0.393328
-0.952662
0.593982
0.674491
-0.000790
0.013836
-0.037762
0.275937
0.690854
-1.720224
0.318198
-0.315011
0.316178
-0.265561
-1.248596
-1.344109
-0.196270
-0.627565
-0.252595
0.657613
1.768667
-1.095924
0.703449
0.287966
0.751289
-0.147706
0.237723
-1.948853
-0.764418
-0.128935
0.112465
0.713243
-1.444288
0.745836
-1.018665
-0.154503
-0.415420
0.106379
0.040001
-0.288238
0.871193
-0.521724
-0.205436
0.349070
-1.226431
-0.225951
-0.525483
0.052097
1.394131
0.203046
-0.060144
0.025071
-0.012377
0.115494
0.230964
1.484478
0.015460
0.317556
-1.030128
0.923437
-0.297295
0.163420
-0.546689
-1.061858
2.319787
-1.131489
0.451543
1.272945
0.473570
0.704406
-0.279907
-0.195230
-0.681570
0.276514
-0.112894
-0.800635
0.119710
-0.282753
-1.940405
1.072893
0.132943
-0.790537
0.040238
-2.060632
-1.468822
-0.239682
-1.345607
0.386960
-0.624486
1.074390
-0.118628
0.242844
-0.604867
-0.295836
2.575744
0.400960
-0.422704
0.167573
-2.189494
0.378565
-0.092225
-0.111370
-0.562853
0.261394
0.156869
0.059596
-0.291076
1.004927
0.772405
-2.756290
-0.934387
0.133184
-0.496500
-1.132135
0.349198
-1.260311
-0.375560
0.137404
-0.541967
-1.839378
-0.082312
-0.024360
0.479800
0.037284
-2.564770
-2.064761
-0.252620
-0.624183
0.644430
-0.568647
0.533564
-0.799352
-0.388856
-0.790262
1.007905
-0.210626
0.088511
-0.121103
0.723881
-0.126502
0.762133
1.767859
-0.275777
-1.311364
1.234051
-1.021370
2.181101
0.915554
-0.268706
0.998039
0.048804
-0.729500
-2.145977
-0.423751
-0.718250
-2.027864
1.455119
-0.399296
0.104353
-0.980651
1.087690
-0.606508
-0.300564
-0.605554
0.609248
-0.808420
-1.149913
-1.680708
-1.069627
0.505641
-1.327531
2.317412
0.169476
-0.626832
-0.589814
2.071396
-0.816732
-1.149750
-0.028035
-0.039442
-0.792265
0.653615
0.127240
-0.345285
0.344456
-0.333039
0.706609
-0.545411
-0.515104
0.552303
0.014484
-1.140728
-0.132969
0.981645
0.532183
0.848691
-0.289902
1.374992
-2.110603
1.405933
0.118251
-0.843468
-0.497692
-0.629893
0.270133
0.996929
1.339034
1.378381
-0.433959
-1.233148
-0.290491
-0.247244
-0.979813
0.999168
1.232654
0.432091
1.049222
0.083332
0.154608
0.148624
-1.440864
-1.892638
-0.662534
-0.384086
-1.305322
0.655281
0.841224
1.334591
0.054650
-1.451595
-1.121198
-0.122916
0.548240
-1.537786
-2.207124
0.443375
-1.861888
-0.849315
-1.227881
-1.434078
-1.608502
-0.305741
-1.410347
0.679630
-0.423505
0.561699
-0.482405
-1.976059
-0.388728
0.057069
0.463035
0.175955
-1.520746
-1.107815
0.667783
-0.957119
0.542765
-0.025723
0.341089
1.043055
0.416162
-0.488572
-0.027648
-0.715287
0.191581
-1.025918
-0.569231
-0.621094
0.246312
-0.889093
-0.649296
-0.327588
-1.032259
0.426130
-0.583081
-0.192193
-0.239074
1.696795
0.518794
0.325286
-0.865786
-0.144725
-0.130884
-0.436576
-1.272613
0.461696
0.053122
-1.111100
-0.038281
1.127321
0.599247
0.524411
-1.140943
-0.298050
0.517429
1.642180
-1.432416
-1.909461
0.216856
0.016030
-1.234455
-0.404684
-0.852049
-1.832020
0.079643
0.840764
-0.654020
0.233802
-1.817670
-0.566048
-0.250226
-2.368716
-0.150342
-1.033009
0.276682
-0.300129
1.168360
-1.412140
0.892567
2.047587
-1.153497
-1.225371
-0.047663
-1.540024
0.010739
0.112004
-1.012021
-0.960743
-0.171603
-0.288297
-0.440407
-2.193415
-0.077115
0.185431
0.514638
1.224609
-1.002979
-0.535868
0.413073
1.111186
-1.047348
-1.430480
0.238276
-1.118526
0.041189
-0.622980
0.662292
-0.565242
1.044562
-1.578792
-0.865656
-0.562922
-0.403873
0.507460
-0.369400
0.455746
-0.657348
-0.005914
-1.128736
-1.689377
-1.464577
0.075040
0.188859
0.508594
0.576769
-0.247585
0.316102
-0.208612
-0.149091
-0.965069
-0.672222
1.937601
-0.880027
0.823972
0.553889
-0.055340
0.970924
-1.269525
0.468690
-0.342502
-0.513490
-1.876602
-0.026360
0.085464
-0.662043
0.869509
0.584103
-0.432733
0.508077
0.449455
0.678788
-0.617750
0.862318
-0.258215
1.700234
-1.003339
-0.618989
1.938956
-0.751005
0.639570
1.896395
-1.202401
-0.126062
0.267038
0.487592
-0.170202
0.137763
0.091456
0.038507
-2.001824
-1.392403
-0.286631
-0.072170
-0.308366
-0.833101
0.759416
-0.930477
0.686823
1.755786
-0.621722
0.792504
0.617667
0.644084
-0.147006
-0.462393
0.657915
-1.203037
-0.561648
0.825300
-0.656763
0.663710
-0.598733
1.277672
-3.638110
-0.320051
0.656690
-0.301998
1.634291
-0.115153
1.568392
1.170738
0.166548
2.897611
-0.784526
-0.063857
-0.183539
0.639563
1.259808
2.361984
-0.338979
0.454086
-1.040699
0.274259
-0.143698
0.196258
0.164724
-0.101669
0.583685
-0.249253
-0.491474
0.346387
0.060353
0.776611
0.163997
-0.668781
0.577396
-1.823239
-0.667182
0.396840
-0.449795
-0.520633
0.266905
-0.939678
-0.234356
-0.094471
0.292965
0.784773
1.368851
0.502523
1.479033
-0.445943
-1.141047
-0.551387
-0.378582
0.621887
0.138377
-2.121889
0.182955
0.463930
-0.043402
-1.733827
-0.474061
-0.359548
-0.160438
-2.806170
-0.004181
0.251488
-2.881208
0.610486
-0.437513
-0.110192
0.314323
0.160014
0.275083
-0.592139
0.092964
-0.571545
-0.948019
-0.687882
-0.232933
0.725526
0.590996
-0.350173
0.495880
-0.675939
0.163218
0.478911
-0.778651
1.575523
-0.361541
1.051670
-0.325664
-0.373781
-1.163439
0.025523
-1.519958
0.810698
-1.163915
1.043901
0.628367
-0.883753
0.963388
-0.767367
-0.868917
-0.918421
1.467940
0.293817
0.038435
1.549456
-0.101548
0.566160
0.283618
1.974241
-0.001744
1.994284
-1.140312
0.556845
-0.333580
-0.017958
1.178487
-1.222866
0.461962
-1.381195
0.356719
0.750245
-0.057435
-1.053533
-0.338260
0.926137
0.880149
0.111180
0.746035
-0.531107
-1.640385
0.157290
0.369151
-1.175049
0.710527
-0.304666
-0.072419
-0.528969
-1.205554
-0.791643
-0.643479
-0.359497
-2.609748
1.461273
-0.223485
1.075296
-0.278243
0.810810
-0.089437
-0.201604
-1.682307
0.935102
0.778229
-1.757666
-0.649819
1.378275
0.581606
-0.315675
-0.192688
-1.808766
-1.241589
-0.667732
-1.644749
-0.497358
0.898535
0.480117
0.290632
-0.050589
0.272189
-0.465717
-1.566872
-0.196360
0.122207
-0.386819
-0.563948
0.059803
-1.453708
-1.216006
0.882577
-0.111003
-0.049530
-1.291702
-0.116882
0.384416
-0.736086
0.523805
0.253754
-0.475956
-0.323985
0.127921
1.337365
-0.545034
-0.865909
-1.869928
-1.406552
0.234257
0.152937
-0.524589
-0.932425
-0.134781
0.364869
-0.297991
-1.218737
-0.363553
0.832177
-0.473644
0.465462
1.356796
1.168793
1.132203
-0.321707
0.898861
-0.507498
0.047704
1.190679
0.879370
-0.983093
0.183227
0.188311
0.130179
3.251576
0.545294
-0.151968
-0.625821
1.076267
-2.616354
1.004391
-0.281943
-1.128884
-0.194434
-1.985171
1.487047
0.959513
-0.043138
-0.497893
-1.266752
-0.121550
-1.734639
-0.098976
1.753741
0.981140
-0.125686
0.516564
-0.234187
0.517886
-0.929160
-0.546094
-0.184986
-0.217135
0.464554
-0.282471
0.227404
-0.589800
-0.532520
1.470434
-0.726873
-0.200351
-0.296499
-0.348858
-1.462914
0.055563
-1.010878
1.741107
-0.600643
1.095242
-1.282034
-0.325559
-0.800738
-0.283928
1.904362
0.165459
-0.906733
-0.401740
1.232642
2.532974
-0.089635
0.771581
-0.645447
-1.196025
0.383857
-0.520747
1.072481
-1.262885
-1.250446
0.135123
0.620863
-1.372709
-0.072793
0.147214
-0.381070
0.683572
-0.459838
0.044465
-1.173619
-1.422165
0.592983
-1.665075
-0.313705
-0.577213
1.082205
0.705781
-1.243901
-0.564782
0.747095
-1.004737
0.396383
-1.569938
1.797041
0.042220
-0.694948
-0.259450
1.446733
0.424679
-0.741434
-1.288016
-1.715215
-0.457389
0.278153
0.709595
0.150917
0.457719
0.025775
0.261100
0.405050
-1.081622
0.096950
-1.003588
-0.705640
0.352768
0.085930
-0.089783
-0.579802
-0.314804
-2.375915
1.438198
1.316031
0.461082
-0.690231
-0.080255
1.088035
-1.014190
-0.141227
-1.307978
0.654745
-0.804399
0.370107
1.588604
0.066366
1.583701
-1.135876
-0.733152
0.477967
0.388649
0.287650
-0.947868
-0.757968
2.466976
-0.018740
2.125538
0.269339
0.255492
1.005999
-0.426993
-0.849434
-0.690526
2.082768
0.094304
-0.679059
0.404220
0.250814
0.432990
0.270136
0.555024
-1.709607
1.004028
-1.194902
-1.473855
-0.521562
-0.732296
-0.689226
-0.075381
-0.260215
1.252617
0.967674
1.316710
0.919179
-1.014325
-1.465884
1.069966
0.506411
0.502196
0.977081
-0.313260
-0.064349
-0.572227
-0.747298
-0.662935
-0.660924
-0.043232
-0.446948
-0.253460
-0.090158
-0.903667
-0.431181
-0.654989
1.724046
-0.850574
-0.638497
0.731426
-0.558594
-0.431048
1.779194
-2.523536
0.009407
1.057919
-0.555886
1.308205
1.027416
0.113562
0.141324
-0.093614
-0.500406
0.060106
-0.391202
-0.114258
0.042427
-2.512574
0.874289
-0.047268
-0.005022
-0.662144
0.459283
0.518002
-0.625003
-1.188414
-1.127195
-0.127996
-0.301295
1.165641
-0.033820
-0.763110
-1.997781
-0.216455
0.055058
-0.525335
0.208700
1.151889
-0.420785
-2.182016
1.133663
0.464997
-0.065898
0.326116
-0.579242
0.921115
-0.139639
0.580803
0.580042
-0.389643
1.806597
-0.408887
0.106076
-1.354360
-0.201406
-0.236113
2.046420
-0.776321
-0.145761
-0.422190
0.561092
-0.271651
-0.151249
0.909191
-0.379109
0.255892
-0.898919
-0.484650
-0.593359
0.766852
-1.791546
-1.883364
-1.434411
0.980425
-0.899890
-0.906080
0.757375
0.420009
0.546794
1.070726
-1.157437
1.102800
-0.081943
-0.949570
-0.840684
2.372414
-1.527361
-0.482106
-0.902662
-0.636264
-0.578592
-1.333455
-0.058744
-0.151376
-1.295800
-0.746602
0.318816
-1.020006
0.069746
-1.490793
1.364401
1.154362
0.729253
-0.847948
-0.768646
0.804186
-0.085629
0.227781
-0.101997
-1.184925
0.675314
-0.072927
-0.232937
-1.837899
-0.462862
-0.184783
0.255107
-1.490741
-0.829868
1.135939
-1.086487
-0.423416
-2.063651
-1.080237
0.398839
-0.428928
1.845710
-0.608063
0.655922
-0.371435
0.785981
0.732803
-0.530160
0.054050
-0.770676
-0.721550
0.028032
0.703086
-0.679935
1.500268
0.673175
2.867794
0.375487
-0.614147
0.199731
-0.410929
0.692389
-1.191517
-0.281394
0.113359
1.428767
-1.439441
-0.383507
0.019574
0.614484
0.203938
0.778677
0.265494
0.686055
-0.681222
-1.259844
-0.649620
-0.084515
-0.004649
-1.523950
-1.787009
0.884337
-0.029203
1.549576
0.129997
-0.210084
0.195208
0.149441
-1.219062
1.317454
-0.744552
-0.054752
-0.145092
0.232121
-0.813187
0.519269
0.270370
0.007286
-2.294436
-1.654142
1.477349
-0.369667
0.160929
0.597964
-0.652998
0.003098
0.143979
-0.837798
0.334413
0.770801
-1.202761
-0.327441
-0.371049
0.982324
0.387050
0.170900
-0.855702
-1.600520
-0.450259
-2.529427
0.764413
-0.287669
0.910261
-0.191835
-0.854411
-1.249587
-0.240925
-0.106563
-0.875544
-1.009745
-0.471325
-0.068865
-0.661636
-0.131282
-1.072426
-0.338511
0.325925
1.366856
0.519260
-0.419041
-0.363792
-0.625554
-2.110847
-0.396244
1.004958
-1.461355
1.160292
1.061252
-0.739915
-0.220061
-0.089514
-0.363919
-0.627719
0.144606
0.239421
0.012078
0.223595
0.956845
-0.831003
-1.383564
0.488564
-2.071479
-0.346224
-0.382322
0.296632
-0.374600
1.402601
0.240364
1.414669
0.532105
-0.783060
-0.844186
0.225926
-1.336708
0.321929
-0.849708
1.524632
-0.620602
-0.455831
1.915136
0.402037
0.032776
-0.540216
-0.450254
-0.038504
0.787336
-0.463532
-1.018177
0.621892
0.874712
-2.086910
-0.495948
0.220082
1.332297
1.745122
-0.514888
0.341434
-0.695580
0.080355
0.042170
-0.250255
0.376623
-0.648554
0.168160
-0.222411
0.457374
-1.193690
-0.923347
-0.726605
-0.248499
-0.171998
-1.743635
0.612593
-0.107063
0.029235
-0.812886
0.571717
-0.825828
-0.394744
-0.893957
4.103024
-0.740375
-1.120091
-0.282772
-0.204477
0.203608
-0.968703
-1.082423
1.030312
-0.678698
-0.198495
0.109062
-1.007453
-1.786846
-0.921034
-0.784876
-0.350989
-2.316380
1.629670
1.071063
0.350674
0.986635
-1.247657
-0.313181
-0.751284
-0.724741
-0.730949
-0.842131
-0.069947
-1.671229
0.534889
-0.651889
-1.395102
0.760410
-0.058264
0.120403
0.312556
-1.748646
0.288024
0.011037
-2.669307
-0.213116
-0.993064
-1.477266
0.389411
0.192362
1.836233
0.342121
-1.125179
-1.391915
-0.397910
0.683869
-0.360531
0.202912
-0.897574
0.548735
-0.128240
0.009891
-0.148863
0.156445
-0.215268
1.470379
-0.918396
0.002069
-3.583005
-1.086575
-0.531029
-0.499850
-1.289140
-0.191452
0.397401
-0.553439
-0.574383
0.999565
-0.827266
-0.040941
-1.537580
-1.530805
-1.519521
-0.534163
-0.136952
0.739073
-1.283992
-0.932248
-0.403607
-1.194881
1.287932
-1.290846
0.517503
0.201614
-0.494516
0.744180
-0.132711
-1.965676
-1.130042
-0.585300
0.091419
0.627538
-0.417759
-1.272124
0.223583
0.472655
-0.259373
-0.111198
0.861486
1.791519
-1.301799
0.091409
0.091252
-1.613182
-0.855524
-0.174426
-0.949401
-0.703578
0.102883
0.434322
-0.505170
-0.399527
1.054735
0.058270
0.153625
-0.392005
1.316222
0.329651
0.355143
0.086055
-1.391819
0.317197
0.092843
0.194446
-1.552763
-0.058068
-0.841172
1.453439
2.201966
0.318978
-1.772010
1.324501
-2.530134
-0.274152
0.237307
2.505068
1.517304
-0.732001
-0.612266
0.069538
-0.194855
-0.502493
1.535323
1.064195
0.082074
1.280262
-0.313413
0.743241
0.531408
0.603887
0.636445
-0.318335
-0.086896
-0.599209
-0.208461
0.460625
1.651189
0.815238
-1.461657
0.589237
-0.009278
-0.105635
0.993773
-2.057861
-1.275483
-0.891339
0.746588
-0.313086
0.636051
1.256299
1.282108
2.380252
-1.762744
0.692273
0.835824
1.096647
3.021047
0.582046
-0.009775
1.236703
3.917789
0.439295
1.181837
-0.576305
0.757129
-2.550838
-0.843071
0.863357
0.980064
-1.145441
-0.262152
0.481750
0.400860
0.385205
0.006545
0.202646
0.360463
1.494063
-1.156544
-1.005805
-0.974599
-0.408828
0.806085
0.298440
0.645881
-2.614700
1.005972
-0.942006
-3.545528
-1.041393
-3.031147
0.198815
0.984321
-0.276310
-1.290367
1.300020
0.915656
0.982486
-1.535897
2.695411
1.161084
-4.170455
-1.439231
-1.770038
-0.011638
1.252134
-1.393321
-0.105551
-0.597009
0.038715
0.919778
-0.375240
-1.840808
-1.170756
-1.566262
-0.778634
-1.719537
0.880979
0.552221
1.056571
-0.448808
0.556994
0.888651
-1.026452
-0.010670
0.627685
0.065450
-0.101793
-0.536619
-0.162233
-0.557263
-0.104177
-1.812503
0.345353
-1.103613
0.559069
-1.062448
-1.133584
-0.002504
-0.170315
0.636849
0.000831
0.896878
0.850847
1.750748
-0.491191
-1.563679
-2.316055
2.142356
-0.849576
0.653158
-1.208262
1.340509
-2.396490
-0.534981
2.460502
1.368004
-1.413947
-0.138247
0.798084
2.864649
-0.594927
1.273351
2.364064
-0.877090
1.218701
0.009918
-0.137796
0.283819
0.903587
0.380783
-0.126825
-1.591231
-1.633838
0.232113
0.623030
-1.857777
0.234451
0.388051
-0.114042
0.686168
-1.533370
1.636006
-0.392247
-0.245828
2.048589
0.884520
-1.069981
-0.894187
0.475131
-0.757854
-0.031323
-0.784612
0.699254
-0.042063
0.146175
-0.485958
0.194485
-2.328469
0.389217
0.467356
-0.479187
-0.369646
0.095063
3.118003
-0.683054
0.734114
-0.122493
-1.534749
-1.624327
-0.802755
0.162267
-1.132384
-1.625597
1.853676
-2.726367
-1.038332
1.094941
-0.127001
-1.238360
0.038465
0.044050
0.056344
0.015633
0.070906
-0.082890
-0.088481
0.088434
-0.033383
0.046962
0.001424
0.060072
0.068572
-0.029216
-0.087024
0.036380
0.037178
0.086399
0.041306
0.041376
0.013591
0.027439
-0.019029
0.057090
0.054661
-0.059056
-0.082021
-0.033019
0.062890
0.016904
-0.023184
0.001355
-0.039046
-0.066840
-0.083011
-0.068139
-0.049730
-0.071493
-0.079705
0.016886
0.075469
0.021720
-0.023041
0.044041
0.092503
-0.010065
-0.019579
0.029681
-0.023666
-0.078273
-0.028943
0.089925
0.049166
0.052028
0.047015
0.003826
0.092973
0.064993
0.070808
0.055863
-0.018102
-0.052376
-0.042782
0.042852
-0.019217
-0.025793
0.074713
0.031053
0.002714
0.095008
-0.052060
-0.021817
0.016728
0.024899
-0.077776
0.009231
-0.085166
0.002644
-0.061088
-0.008833
0.024371
0.009969
-0.018908
-0.026463
-0.038003
-0.071893
0.077363
-0.045030
0.093100
0.048171
-0.089167
-0.025002
0.095794
-0.031950
-0.082149
-0.023422
0.042257
0.092564
-0.092369
-0.055029
0.087572
-0.044429
0.023154
0.004300
0.080469
0.045378
-0.086469
0.095303
-0.051978
-0.047556
-0.013530
0.072393
0.062413
0.067563
-0.054070
-0.075590
0.095669
-0.076707
-0.020620
0.088770
0.071464
-0.009787
-0.036232
0.067258
0.058263
-0.018381
-0.056164
0.000520
-0.025817
-0.048533
0.045491
-0.038245
0.007038
-0.031355
0.066055
-0.012493
-0.085977
0.079586
-0.017190
-0.037955
-0.067970
0.069280
-0.065562
0.094443
0.036843
-0.019633
-0.081147
0.032512
0.003660
-0.001766
0.021282
-0.024876
0.088447
0.085050
-0.057618
0.046710
-0.033331
-0.013782
-0.052770
0.040851
0.037684
0.092722
-0.097394
-0.055278
-0.038633
0.068661
0.032229
-0.024610
0.048248
-0.084961
0.037434
0.080278
0.084319
0.071872
0.074721
0.021162
-0.047760
0.093574
-0.046326
0.055900
-0.008192
0.074956
-0.068976
-0.019745
0.060006
-0.026594
-0.073035
-0.073325
0.059623
-0.025805
0.067526
-0.002692
-0.033083
0.070133
0.042030
0.028284
0.038794
-0.025742
-0.096327
-0.012958
-0.010703
0.041108
-0.032680
-0.026384
0.012980
-0.057960
0.094778
0.065219
-0.064385
-0.051548
0.021119
0.027422
-0.076592
0.052143
-0.092323
0.083414
-0.074452
-0.065359
-0.089911
0.085172
0.008837
0.077616
-0.017521
0.075753
0.047749
-0.162509
0.737239
0.418039
0.037871
-0.000636
-0.103639
-0.896236
-0.037963
-0.102714
1.167852
0.764268
0.156424
-0.542653
-1.154082
1.030024
-1.353585
0.090838
-0.714506
-0.506068
0.085788
-0.007624
1.064617
-0.401583
0.005233
2.237001
-0.345858
0.776659
0.456104
-0.136638
-1.897596
-0.651917
0.259120
0.184417
-0.671404
-1.393418
0.484864
-0.137025
-0.240984
0.520761
0.263852
-0.209213
2.314325
0.673901
-0.468061
1.278282
-0.319922
0.344519
0.385729
-1.296594
0.069617
0.875686
0.437887
-0.402319
-0.116786
-0.778901
0.094803
0.756044
0.250709
0.325087
-0.344207
0.220117
-0.550025
-0.677392
-0.130286
-1.468295
2.530944
-0.550229
1.210693
-0.222381
-0.930878
0.730266
-0.741185
0.334554
-0.541188
-0.244266
-1.060473
-0.043511
2.040749
1.643202
-1.739635
-1.842641
-0.662043
-0.030495
-2.672528
-0.713132
-0.215418
2.207009
-0.457098
-0.175807
0.194416
0.612361
-1.414498
-0.393768
0.589810
1.052460
-0.845585
1.104036
-0.398689
-0.182293
-1.418304
0.007172
-0.148774
-0.303725
1.446775
2.134698
-1.968121
-0.623124
-0.483942
-0.294157
0.216464
0.094079
-0.214698
-0.693205
-0.165232
-0.047359
1.191342
-0.512657
-0.222829
-0.308171
-0.676480
0.463126
-0.406574
-0.250127
0.159619
-0.122797
1.742207
-0.423254
-0.423363
0.514979
1.578312
0.187122
0.099404
-0.043446
0.138591
1.375033
-1.553756
0.670237
-0.880503
-0.087505
-0.044905
0.556472
0.489149
-0.703822
-0.074843
0.326586
-0.080861
1.587501
-0.408955
0.299909
0.390276
-0.189744
-0.475939
-0.480063
1.118799
-1.057889
-0.949562
-0.416410
0.784646
-0.118373
-1.021221
0.238940
0.398771
1.022652
-0.092123
0.936651
-0.940125
-0.721452
-0.112903
0.230665
-0.439781
-0.042742
-0.270669
1.387198
-0.111195
-0.684644
2.720875
-2.064123
0.577782
-0.435476
-0.426848
-0.693855
0.662870
-0.875265
0.830699
0.689731
-1.403975
-1.002219
1.663747
-0.900295
0.874285
0.400124
-0.561903
0.331932
-1.017140
0.123134
-0.572153
1.581325
0.149534
1.478738
-0.395202
0.434043
0.920898
0.241936
1.047465
-0.245415
0.048328
1.019072
0.834187
-0.018004
-0.657204
0.424087
-0.016915
-0.173840
-2.023171
-1.063192
-1.017601
0.297300
-0.268201
-0.053278
-0.719089
2.107768
-0.117639
-0.156522
-0.703689
0.233493
1.117442
0.261569
0.726520
-0.716754
-0.523065
-0.151353
-0.588713
-0.193656
0.005901
0.770026
-0.365117
0.151582
1.292770
-0.525515
1.286488
-0.895871
1.375684
-0.500714
-0.806749
0.026861
0.553807
0.442039
-0.014059
0.045072
0.706179
0.239437
-0.423624
0.407760
-0.033442
-1.289845
-1.204398
0.133453
0.147234
-1.235574
-0.104207
0.286751
0.084483
-0.366348
0.093396
0.205634
-0.250985
0.472893
1.390918
-0.175519
0.931074
-0.345407
0.293661
-0.453948
-2.068026
0.277471
0.697726
1.100654
-1.407952
0.434110
-1.551490
3.587675
-0.379677
-0.458628
-0.429444
-0.276267
-0.924566
-0.135380
-0.655714
-0.278081
-1.612398
0.566456
-1.114569
-0.139225
0.233056
0.114447
-0.774299
-0.908642
0.541836
1.421028
-0.430540
-1.409196
0.074914
0.116688
0.743919
-1.249742
-1.237207
0.586508
0.627594
-1.845474
-0.184779
-1.089373
-0.095582
-0.420030
-0.095495
-0.581876
0.422063
0.442563
-0.089989
-0.482007
-0.127844
-2.671234
1.745459
-0.299992
-0.669682
-0.769950
-0.262625
-0.182702
-0.527002
0.800326
1.862942
0.316658
0.737131
-1.483617
-0.582025
0.617865
-0.231250
-0.350443
-0.742458
0.294145
-0.173569
0.638084
0.401552
-0.529989
-0.397873
-0.085081
0.777248
-0.910111
-0.110187
1.120099
1.155465
0.482779
-1.298279
0.875926
0.461340
0.667753
-0.040544
0.138194
0.047179
0.126242
0.775035
-1.149705
0.198714
-0.413191
0.185863
-0.576666
1.060758
0.714264
-0.388130
0.017246
0.561180
0.555288
0.026707
-0.034344
0.799604
0.510001
0.781924
-0.785354
-0.452783
1.282614
0.089894
-0.027539
-0.169347
0.416445
-0.727515
-1.582255
1.149027
-0.064581
0.475840
-0.406389
0.517475
-0.356249
-0.151891
-1.226300
0.831969
0.036838
-1.080904
-0.566047
0.386947
-0.843542
-0.188167
1.650247
-0.645773
0.319657
-1.074502
-0.181529
-0.442497
0.315862
-0.789640
1.286172
-0.068799
-0.620973
-0.349971
0.678545
-0.702215
0.995441
-0.174897
-0.880374
-0.080072
0.520791
-0.403662
-1.369788
1.263906
1.112138
0.353554
-0.478979
0.454302
-1.869625
0.266533
0.878517
-0.174342
-0.030014
0.128485
-1.643605
2.427184
-0.067905
0.153777
-0.652538
-0.330748
0.189648
-1.001092
0.594432
-0.719417
0.757107
0.363044
-0.026520
1.226099
-0.225765
-0.199176
-0.248627
-0.281263
1.828243
-1.248399
0.193864
1.044451
-0.595401
-0.019409
0.289736
0.094716
0.647914
0.685398
1.171092
0.139631
1.572993
0.394883
0.357159
0.703461
-0.658031
-2.386609
-0.031276
-0.531610
1.026850
-0.241129
0.487470
0.432037
0.017646
0.291917
-0.482188
0.457789
-0.398504
0.164136
-1.578190
0.382540
0.321378
-0.908361
-0.327630
-0.041679
0.480675
-0.267578
0.007238
-0.400201
0.249934
2.332978
0.458594
-0.618508
-0.100908
0.677723
1.086151
-0.303880
-2.279257
-1.291124
-0.633654
0.733911
-0.754133
1.149212
-0.947031
-0.532746
0.462254
-1.019723
0.953153
-1.201223
0.564355
-0.248190
-0.511344
0.124893
0.428019
2.157189
-0.094079
-0.422748
0.707947
-0.422424
-0.572382
-0.355136
0.353342
0.394376
-0.776214
-1.491252
-0.503521
0.312496
1.431652
1.004853
-2.045979
-0.372045
0.483640
-2.294284
-1.417635
-0.047206
-0.116229
-0.425017
0.233525
-0.135193
-0.816405
0.048050
-0.348745
-2.034404
-0.452531
-2.120058
2.535321
0.178619
-0.704486
-1.145989
0.454125
-0.466685
1.661429
-0.470975
1.176052
-0.937843
0.429019
-2.182739
-0.849215
1.234344
-1.597005
0.106919
-1.086566
0.256498
-0.632286
-0.066288
0.180226
-0.942815
0.624092
-0.264679
-0.004295
0.170453
1.856799
-0.792683
0.682681
-0.051036
1.113170
-0.205822
0.525645
0.326639
0.667235
0.410823
-0.150735
-0.138197
0.658042
-1.124977
0.060846
1.895633
0.116041
-0.017299
-0.107039
0.972777
-0.189763
0.627707
0.029425
0.457489
1.811238
-1.648364
0.776541
0.370794
0.510047
0.070976
-3.376594
0.890690
0.698798
0.660237
-0.503736
-0.364159
0.030130
1.184752
0.795319
0.365967
-0.379156
0.611725
-0.175737
0.739180
-0.577193
-1.419957
-1.744381
0.118045
-1.456187
-0.009058
2.202935
-0.011349
1.169578
2.768000
0.830801
0.443063
-1.652099
0.643366
0.589691
0.062248
-0.627925
0.950042
0.926498
-1.060144
0.136569
0.597174
-0.134260
-0.104472
-2.433975
0.800117
-2.298272
-0.834418
-1.132324
1.260786
0.870070
-0.576862
0.632786
-1.744688
0.243956
0.038943
-0.282623
2.319419
0.388624
-0.881798
-2.578382
-0.180730
1.077914
1.393951
-0.086299
0.123135
0.278061
-0.921937
0.437179
0.228011
-1.695536
0.217480
0.269686
0.344698
1.555225
-0.386111
-0.365109
0.900692
-1.442881
0.164368
-0.291035
-0.181854
-1.501944
0.482111
0.857668
-0.581170
0.132277
1.011019
-0.749731
0.757733
1.038553
0.745346
-0.196444
1.061684
0.799352
1.658217
-0.997247
-0.100408
-1.259395
1.141160
0.213217
2.749012
-0.302828
-1.414608
0.158832
0.794386
-0.510375
-0.586448
0.757366
-1.192199
-1.276648
0.450294
-0.773437
0.579715
0.038315
0.582695
-0.219418
0.306403
-0.293047
0.387856
0.012463
0.159080
-0.613696
0.538626
0.186229
1.005031
-1.577876
0.450214
-0.135001
2.008349
0.494795
0.262512
0.290599
0.592827
0.193234
0.272228
-2.032570
0.598258
-1.344519
1.079533
-0.666209
-0.253830
-1.006534
0.477898
-0.026713
-1.417012
0.467527
0.681199
0.053153
-1.384214
-0.694324
0.944523
-0.075422
-1.581480
1.391588
-0.334888
1.687380
1.087578
-0.737108
-0.902756
0.528256
0.795456
-1.185424
2.175872
-0.370016
0.741722
-0.479434
-0.089459
-0.117442
-0.789113
-1.078751
-1.121780
-1.833813
-1.262900
-1.287926
1.407550
-0.726921
0.527399
-0.230907
-0.415637
-1.601574
-1.216136
1.237600
0.686355
0.714368
0.675726
0.178480
0.836520
1.708100
-0.010527
-1.144935
-0.869281
2.198512
-0.292528
-0.497849
-1.298503
0.644126
-0.051200
0.812570
-0.689635
-0.985974
-0.060515
1.092079
0.055972
-0.614596
0.879582
2.175071
1.077895
0.587480
-0.271451
0.284995
-0.065417
-0.986626
1.576216
0.422260
-0.393262
0.482558
0.556137
0.706701
-0.078867
-0.609918
1.217716
0.225627
-0.167166
0.211031
1.268495
-0.559462
-0.913524
-0.366308
-0.761785
0.982188
-0.518220
-0.003271
1.047284
-0.708328
-0.353694
-0.060070
-0.083221
1.752687
-1.049325
0.142094
-0.914641
-0.237983
1.447028
0.712713
-1.056039
-0.282200
-0.518529
-1.073853
0.938952
0.295782
1.204125
-1.933848
0.187620
1.706491
0.232120
-0.072930
-0.597031
-0.284479
-0.461704
-0.780883
-1.478668
-0.676484
-0.096032
-0.942835
0.003957
-0.705564
2.405677
0.099679
-0.797403
-0.112999
-0.445884
-0.718569
0.065196
-0.818471
2.000766
-0.060952
-0.991480
-1.129579
-0.426663
-0.021647
-0.860318
-0.258390
0.474681
-2.304012
-0.384742
-0.591850
0.198848
0.734705
-0.175870
0.046115
-0.017803
-0.901398
-0.271290
2.584585
-0.635309
-0.185754
0.347567
-0.356796
-0.605904
-0.452490
0.539207
0.765690
-0.774212
-0.315345
0.005541
-0.156373
-1.728805
-0.593204
-0.266869
0.397852
0.146329
-0.075777
-0.316065
0.585204
-1.128120
0.100871
-0.213381
1.270370
-1.176561
0.805877
-0.661374
-1.668319
0.198155
0.540584
1.202466
1.817047
0.429801
1.408804
-0.213332
0.621794
0.058652
-0.535792
-0.058072
-0.234142
-0.831989
1.422528
1.813871
-1.584743
-0.360221
-0.361854
0.595213
1.070800
-0.207055
0.511203
-2.063362
-0.159525
-0.631168
0.366986
-0.556286
1.076834
-0.262699
-0.762983
-0.603311
-0.981371
1.029869
0.716003
-0.429362
1.192282
-0.526138
0.881371
0.467540
0.987647
-0.220703
0.042248
-1.005824
0.582315
-0.630635
-1.414576
0.851664
0.342513
0.241921
0.016797
-1.659547
-0.721311
-1.727733
-0.511922
0.770814
-1.254459
-0.244210
-0.323180
0.351661
1.061018
0.018188
-0.372952
-0.324940
-1.427940
-1.389243
0.393664
0.901247
-0.326398
0.516760
-0.007219
0.749341
0.620289
-0.145535
0.343245
-1.018217
0.195711
-0.971868
1.298484
-0.315701
0.751568
-0.961619
-0.020824
-1.639374
0.941241
0.543773
-1.138492
0.876069
1.037879
0.405088
-0.092317
-0.502838
-0.461880
-0.890364
-0.802390
1.623196
1.923709
0.079144
0.127443
0.419167
0.030216
-0.103468
0.038700
-0.452414
0.306099
-0.122150
0.339598
-0.262833
1.046774
-0.527165
0.260271
0.909066
-0.297329
0.330721
-0.097487
-0.247543
0.234530
0.961381
1.406169
0.512511
0.811874
1.449013
-0.674135
-1.210946
0.296889
0.130881
0.260414
-1.439754
1.787936
-1.757786
0.274913
1.469470
-0.573138
0.880156
0.334045
-0.983702
-0.705775
0.536496
-0.500291
-0.581174
-0.077150
0.130191
-0.726845
0.050451
-1.975083
0.356164
-0.623614
-0.600643
0.267400
-1.228044
-1.020199
0.090729
0.392237
0.723679
0.836731
-1.493415
0.376614
0.851521
1.534914
0.254573
0.063259
1.206934
0.411504
-0.233609
-0.278084
0.412260
0.051712
-0.600371
-0.934384
-1.417187
0.658189
0.424448
-1.116987
-0.210823
-0.747978
0.014731
-0.016164
-1.397567
-0.477741
-0.144243
-0.775208
-0.454575
-0.216082
-0.197613
0.241183
-0.750194
0.637855
0.145359
-2.226948
0.388138
0.581527
-0.149928
-0.134565
0.068512
0.152602
0.134681
-1.088575
-0.167666
-0.007454
-1.662708
0.941841
-0.861131
-0.243543
-0.407732
0.001185
-1.001767
0.892986
-1.185260
1.454537
0.076223
-1.603974
1.077373
1.195131
0.413836
-0.092429
-1.024068
-0.823087
0.738993
-0.341271
-0.391939
0.138320
0.545541
-0.696848
1.415526
-0.829071
-0.645525
0.269106
-1.542771
0.170146
1.830655
0.141134
0.755147
0.159331
-0.810178
0.117534
-0.797488
1.110567
-0.146353
-1.908214
0.577151
-1.058900
-1.986373
0.032658
-0.669162
0.366915
0.232395
-0.310854
0.553055
-1.213650
1.932580
0.044148
1.748301
-0.705442
-0.227283
0.233146
-1.769507
-1.355671
0.152041
-0.474424
-0.300546
-0.047041
1.124186
-0.666470
0.469086
-0.153765
-0.839374
-0.359294
-0.236804
0.677974
-0.724092
0.236391
-0.841724
0.152517
0.021075
0.819110
0.250773
-0.831193
-0.500494
1.716060
0.410514
0.321910
-0.224973
-0.072207
-0.208882
0.190441
2.036223
0.216661
0.316317
-0.623984
-1.095115
-1.934332
0.645147
-0.151943
-0.729659
0.101441
0.397390
0.014803
-0.038444
-1.374714
1.088447
-1.346261
-0.158920
-1.450623
0.180676
-0.252669
1.357382
-0.773494
0.618233
-0.297091
1.800210
0.923223
0.533922
-0.378808
-0.676203
-0.378020
-2.096057
-2.163075
-1.191458
-0.988398
0.041455
0.214376
1.944342
-0.031979
0.116337
0.247660
-0.413507
-0.178851
-0.162225
-0.202744
-0.202099
-0.725002
-0.358070
-0.294685
0.800404
0.422701
1.086367
0.150283
-0.464921
0.206933
0.012899
-0.267329
-0.107552
-0.915204
-0.681487
-0.210797
0.637263
0.636851
0.404381
-0.931730
1.861824
0.476772
1.092276
0.048779
-0.927630
-2.280671
1.182031
1.409305
-0.756965
0.943120
1.751060
-0.503469
0.731002
-0.979498
-0.342739
0.282349
0.998530
1.969319
0.028460
0.899095
0.122160
-0.509962
0.179122
1.336618
-1.917826
-0.327790
-3.501410
-0.598334
-0.360066
0.319983
-0.668927
-1.083425
1.056508
-0.576430
1.525551
0.110211
-0.820914
0.824122
1.992216
0.122010
0.811383
0.200010
0.487879
-1.276685
0.248011
0.339562
1.607437
0.097369
-1.167466
0.690341
0.446372
-0.703800
0.033300
-0.239009
0.987660
-0.651271
-0.763291
-0.995550
-0.395364
-0.430550
-0.195756
1.195097
0.066330
-0.782762
-1.569621
0.546650
-0.915157
0.437315
-1.114170
0.132978
-0.386587
-0.410352
-1.157967
-2.557027
0.392526
-1.348523
-0.648665
0.341712
-1.036775
-0.628972
1.004654
-1.675632
1.528949
-0.998258
0.837587
0.247198
-1.424409
-0.701777
0.797467
0.825990
-0.196398
-0.118766
-0.989472
1.227756
-0.597454
-0.314793
-0.442546
0.306006
-0.488207
1.822598
-0.474939
0.088209
-0.207679
-0.417661
-0.159502
-1.204769
-0.293060
0.071771
0.207551
-0.323852
-0.201931
0.491978
-0.098727
0.009542
-1.641724
0.250690
-1.209703
0.101271
0.282907
-0.526801
0.494421
-0.507453
-0.120560
0.431579
-1.046282
-0.221485
0.517096
0.732070
-1.844962
0.674310
-1.288459
-1.592529
-1.332511
1.042292
1.615973
0.455258
1.000088
-0.105312
-0.287275
-0.227951
1.198473
1.347281
-1.193919
-0.929307
0.984799
-0.927918
0.283654
-0.271064
-1.163334
-1.559281
-1.468840
-0.179437
-1.690571
0.045182
0.530236
1.048574
0.703513
2.250360
-0.982489
-0.343106
1.317114
1.253146
-0.478205
-0.007140
-0.566747
-0.043141
-0.134095
0.043673
-0.075941
-1.641416
0.862549
0.827168
0.519528
0.365235
0.391128
-0.105389
0.577764
-2.251105
-1.949397
0.132094
1.650750
-0.067177
-1.222944
0.613212
-1.235113
-0.068055
1.687962
0.264269
0.888943
0.137479
0.220844
-1.229343
-1.054153
0.776052
-0.807645
-0.341984
-0.931372
-0.463964
-0.003077
0.317941
-0.369490
0.148603
0.599470
0.225063
0.847521
-0.519835
1.178734
0.540974
-0.860668
0.235561
0.481433
0.616081
-0.238402
-0.200200
0.173151
0.079079
0.533236
0.753017
-0.445538
-0.851737
-0.945910
0.374412
0.880374
-0.716973
-0.240734
0.180265
-0.267637
-0.275467
0.220171
1.296880
0.138588
0.073845
0.641638
1.542855
0.620193
1.718225
-0.879202
1.280946
0.536705
-0.113182
0.414661
-0.033622
1.729393
-0.301995
1.154755
1.419318
-0.874883
-0.319310
0.236026
-1.572274
0.195679
0.074127
-0.699805
0.708024
-0.000132
0.711997
-0.146787
-1.855271
-1.248710
0.211153
-0.538159
-0.018271
-0.702075
-0.267572
0.705626
0.387615
1.407502
0.213187
0.075893
0.368598
0.257512
0.343176
-0.321255
0.148308
-0.552150
-2.491994
-1.425752
0.919557
-1.599555
0.039851
1.517977
-1.306608
1.459126
0.308186
-0.663285
-0.325828
0.406042
0.026123
0.504782
-2.517362
-0.944993
0.630394
-2.324700
-0.065082
0.331372
-0.188699
-0.826229
1.620218
-1.114402
0.807544
-0.153253
0.442787
0.580317
0.250434
-0.222317
0.928470
0.352860
-0.183351
-0.210813
-0.279740
-0.733480
-0.877740
-0.858910
1.033893
-0.451783
-0.224663
0.541898
-1.718823
1.216963
0.399365
0.801565
-0.602946
-0.369305
0.271032
0.997786
0.366206
-0.328111
-1.068206
-1.111395
-0.380799
0.227476
-1.927682
-1.454175
-0.402376
0.000798
0.766838
-1.066914
-0.270262
-0.477009
0.345153
1.442032
0.841174
1.416429
-1.191923
-0.258138
-0.055591
0.007365
-0.009484
-0.469457
0.004960
-0.645131
0.948899
1.137480
-0.631397
0.073392
0.707479
1.091720
-1.538931
1.502516
-0.121031
-0.132262
1.433760
0.169579
0.697111
0.941305
0.767436
0.194496
1.961712
-0.681605
-0.656133
-0.158299
-0.196623
0.946446
-0.142843
0.116636
-1.367124
-1.310383
-0.219304
0.772647
-1.311866
-0.171234
-0.428853
0.715832
-0.653341
-0.223926
-0.380604
1.183822
-0.377295
-1.083274
-0.750544
0.553257
0.574599
-0.852596
0.297796
-0.820609
0.973576
0.254691
0.010953
0.323300
-0.840964
-0.656866
1.293457
0.252106
-1.484159
-0.875708
1.534579
0.094226
-0.215402
0.174589
1.047328
-0.534938
-1.175388
-1.427540
1.029553
-0.117468
0.667759
0.240875
-0.600052
-1.106643
0.945051
0.606384
-0.942941
1.115092
0.581570
0.236495
-1.310879
-0.233481
-0.158073
-0.348169
0.269053
0.859684
1.103553
-0.917868
-0.749091
-0.557229
-0.727446
-0.918094
0.693401
-0.793181
0.087394
-0.004935
0.053410
0.293564
0.839753
-1.451712
-0.034100
0.076548
0.345478
-1.399348
-0.386200
0.518272
0.513851
0.330264
-0.961886
1.008421
0.300226
-0.290468
-0.754542
2.053165
0.562914
-0.074615
-0.713731
0.646541
-1.032191
-0.031982
-0.039667
-0.885429
1.765931
0.013441
0.941855
-0.591337
0.553732
-1.191328
0.995835
-0.404182
1.030249
-0.332842
0.752115
-0.137554
-0.793398
-0.979730
-0.320985
-0.884085
-2.210561
1.609536
-0.328754
-0.494701
1.193778
-1.264696
0.240406
0.174600
1.275997
-0.929521
-0.049576
1.079300
-1.195702
-0.206782
0.236153
-0.562452
-0.504363
0.077417
0.813285
2.051283
-1.648536
-0.593755
1.175101
-0.263396
1.796820
0.012101
-0.685525
-0.380780
-0.411845
-0.203312
-2.447473
-0.298487
-1.301914
0.599939
-2.356638
-0.180184
0.072520
-0.512001
0.659264
2.944543
0.528088
0.145949
-0.188038
-0.129477
0.102084
2.123111
-0.102314
0.793633
0.992357
0.007869
0.252402
0.450875
-1.238406
-0.529020
-1.186906
1.506733
0.070007
-0.283282
-0.373827
-1.374481
0.895723
-1.275717
-0.998776
1.147839
-0.517902
1.325649
0.770024
-0.440726
0.309632
0.855837
-0.797543
-0.110237
0.722550
-1.350165
-2.323284
0.335224
1.314294
0.589389
-0.302855
0.450595
0.983093
-0.232639
2.204647
1.352407
1.777322
-2.039358
-0.380233
0.184565
0.348203
0.097370
-0.459017
-0.411745
0.450113
-0.259276
-0.082060
-0.640396
0.599243
-0.584275
-1.015705
-1.488764
-0.891421
-0.792371
-1.132253
0.712612
0.666305
-1.819720
0.899512
-0.553984
-0.102685
0.101522
-0.948892
-0.959266
1.075916
0.313217
2.559834
1.272110
-1.212661
0.189778
-0.847834
-0.599395
0.802783
-1.078126
-0.424445
0.393257
-0.701141
-0.846677
-0.126845
0.127994
0.189219
-0.199471
0.249098
0.286369
-0.794963
1.679722
-0.029968
0.776837
-0.080844
0.071720
0.080678
0.726874
0.310895
-1.672002
-0.124933
-0.373189
2.157439
-0.566673
-1.282356
-0.885103
-0.118392
-1.081220
0.428140
0.619366
-0.694416
-1.697011
0.068461
-0.420029
-1.011393
1.143215
0.063608
-1.584741
-0.263039
1.482519
-1.399859
-0.657097
0.302148
1.066112
0.668882
0.151971
2.081035
-0.499674
-0.289827
1.519567
0.011726
0.240895
-0.515486
0.457015
-0.927994
0.902243
-0.439877
-0.981936
-0.465009
-0.313583
-0.121469
-0.811124
0.679911
-0.300993
-0.410727
-0.245208
-0.430119
-0.211236
-1.040200
-0.672338
-0.436165
0.711726
1.083311
-0.334787
2.127711
0.180808
-0.938276
-0.199394
2.201053
0.363499
2.534799
-0.561374
-1.220588
-0.598450
-0.161352
1.106850
0.786226
0.459594
0.131179
1.121206
-0.756036
1.083616
0.234575
-1.064207
1.116298
-0.231306
1.513386
-0.176112
-0.291781
-0.330031
-0.201488
2.093249
0.370080
-1.478527
0.908940
0.950409
-0.173032
0.748469
-1.946342
-0.911292
1.127223
-0.285112
-1.007303
0.453934
-0.691258
-0.675271
-0.546986
-0.411051
0.134428
0.295955
1.031932
2.015068
-0.504975
0.621002
0.374747
-0.235141
-2.603539
1.209341
0.483802
-0.002753
-0.960350
-0.863676
-0.411598
-1.551138
-0.497420
-0.216153
-0.641623
-1.172215
0.338093
-0.028916
-0.110708
1.597259
-0.130174
-0.296882
-0.983787
0.213770
-0.933890
-1.308050
1.315326
0.037650
-0.309218
1.080749
1.793655
-0.619722
0.241948
-0.655003
-0.229982
-0.591014
0.752311
0.043618
0.118893
0.709892
-0.558741
0.455292
-0.182894
-0.956372
0.975540
0.447168
-0.237520
-0.018606
0.461439
-0.080264
0.529367
-1.234266
-0.063160
0.017772
-1.354926
-0.598412
0.414018
1.430530
-0.404897
-1.424099
2.495692
-0.121831
-0.266008
-0.027182
0.579791
-0.068569
0.115179
0.721726
-0.410583
-0.112739
0.131756
-0.284916
-0.963047
-1.595988
-0.020518
1.002294
-0.100461
0.021236
-0.010018
-2.013696
0.379721
-0.322377
-0.815651
-0.169025
-0.127210
-0.380254
-0.635313
-0.202786
0.275459
-1.200167
0.779455
-0.292377
-0.323735
0.029693
-0.631465
0.594998
0.387579
-0.485126
0.386497
-0.344582
1.194480
-0.803235
1.363480
-0.848060
0.524042
0.628922
-1.482838
-0.170201
0.042152
0.863651
0.486410
0.920663
-0.103511
2.080271
0.334431
-0.129031
0.699842
-1.224323
0.049586
-0.264879
0.815138
-0.103500
0.070682
-0.830518
-0.026087
-0.369630
0.395075
-0.196445
-0.979474
-0.970090
-1.278598
-0.015386
-0.939495
-0.600442
-0.011651
1.189915
0.103202
-1.356754
0.879549
-1.842337
-0.456907
0.731356
-0.259648
-0.730640
0.094285
-0.664426
-0.081151
-0.022899
-0.740670
0.031616
0.200451
-0.004313
0.274532
0.002121
-0.352384
0.237990
0.468368
-1.317234
0.284541
-1.182223
-0.186313
-0.169153
-0.480407
-0.002721
-0.021523
-0.092577
-0.136888
-0.652954
-1.274546
-0.512296
-0.413246
0.570944
-1.094457
-0.448805
0.014768
-0.289871
-0.070553
-0.271437
-0.311025
-0.812978
-0.033966
0.410093
1.260100
0.664181
0.082190
-0.315721
-0.305401
0.202697
-0.108438
0.548933
-0.927577
0.120807
0.302092
-0.807037
0.741982
1.223466
-1.038892
-0.920755
0.765205
-0.569921
-0.718089
-0.074227
-0.186838
1.197229
-0.443418
1.911514
1.167304
1.124868
-0.189144
-0.507451
-1.470895
-0.345525
1.917771
-1.052588
0.388976
-0.049938
-0.100033
-0.315372
0.197738
-1.150013
-0.743389
0.564204
1.376660
2.618564
0.027250
-0.106737
-1.145931
0.243446
0.403493
1.350187
-0.342115
-0.591031
0.249475
-0.316195
0.889543
-0.651832
-0.981655
-1.044174
0.145855
-1.046167
1.137158
1.035096
0.435528
0.007183
-0.499841
0.457305
0.344695
-0.341782
1.423082
-0.638140
-2.260308
0.683905
0.533952
0.893731
-0.866064
-0.224266
-0.381641
0.758774
-1.011111
-2.138336
-0.655459
0.376497
-1.188741
-0.309752
-0.124509
-0.427540
-0.550649
-0.210957
-0.498460
1.070583
-0.773716
0.944502
-0.356481
-1.498411
0.128907
-1.013365
-2.240103
0.179462
1.316736
-0.561263
0.066583
0.481162
0.611948
-0.815720
-0.017431
1.087086
-0.490790
-0.998341
-0.371474
0.595669
-1.099278
0.130945
0.420976
-0.567421
-0.657695
-0.111020
0.073615
-0.496547
0.623738
0.469867
0.573076
-0.100882
-0.538874
1.509799
-1.687867
0.773426
0.037220
0.286847
1.030343
0.718076
-0.331329
0.513754
0.226689
-0.658476
1.022056
0.394429
0.095309
-0.076826
-0.759852
-0.831323
-0.676684
0.406812
-0.217969
-0.138254
-0.576976
0.369668
-2.777607
-0.264148
-0.221757
0.492492
0.140619
-1.929757
-0.333112
-0.900739
0.366605
-1.066812
-1.224871
0.271401
0.708089
1.269539
1.723425
-0.205898
-0.789022
0.300688
-0.702825
0.602060
-1.384897
-0.739560
-0.158132
0.866931
-0.522602
-0.407146
-0.654811
-0.386853
-1.115468
-1.317537
0.038793
-1.326970
-0.930952
-1.181691
1.738589
1.429129
-0.046852
-1.113825
-2.109483
0.293941
0.058409
-0.560132
-1.080790
-0.278672
1.835980
0.538749
-0.840427
0.458853
0.060365
0.252424
-0.570849
1.106670
0.180081
0.233665
-0.808787
-0.185184
-1.161691
-0.021250
-0.741364
-0.923679
-0.276874
-0.227213
-0.062011
-0.193280
-0.316710
1.170010
0.746374
-0.614604
-0.343746
0.292085
-0.193260
-0.523680
-0.354649
0.241866
0.183435
-0.136952
-0.932290
-0.457097
-0.861783
-0.585950
-0.325975
0.136231
0.791870
-1.098724
-1.340756
-0.662614
0.108993
-0.330318
-0.097395
-1.821611
2.246353
-0.129244
1.394488
-0.493164
1.712419
-0.451009
-0.586720
-0.914935
0.168448
-0.796566
0.428870
-0.693060
1.603647
-0.001259
3.120408
1.314387
-0.417305
-0.610825
0.608678
-1.446157
0.757008
1.558499
-1.049711
0.710143
-0.651636
-0.587084
0.364399
0.229155
-0.877109
-1.023472
0.038376
1.050444
1.461932
0.442531
-0.348447
-0.531741
-0.156065
0.971298
-0.606203
-0.440439
0.429465
1.130884
-0.365682
-1.188164
-0.810900
-0.254371
-0.709559
-0.279781
-0.854408
-0.099748
-0.026545
0.422098
0.229378
-1.126892
1.530056
-2.447688
-0.598112
1.965662
-0.405600
-0.386219
0.496559
0.281383
-0.064011
-0.485361
-0.700098
-0.953559
-1.823936
-1.459530
0.161929
-0.640158
-0.354233
-0.346897
-0.228589
-0.244561
0.046266
-0.927351
-0.586199
0.765668
3.657932
-0.485962
-0.874490
1.497186
-0.789710
-0.078201
-0.577147
-0.678138
1.068919
0.771006
0.030153
-0.635804
-1.289056
-2.535978
-1.246980
0.618342
0.702626
0.037008
0.545921
0.002549
0.325774
-1.765113
-0.929986
-0.370668
-0.219479
-0.352811
-0.138679
0.119843
0.081002
-0.368643
0.154547
-0.413285
-0.518776
0.718309
-0.683977
-2.555873
0.994962
-1.135350
1.767958
0.979906
-0.468649
-0.642063
-0.624386
1.834807
0.364323
0.971853
-1.306611
0.093242
-0.824034
-0.395631
-1.993942
1.064640
0.426324
-1.123092
0.591397
-1.028172
0.416646
-0.993094
-0.226490
-0.780265
0.142331
-0.682056
-1.877414
-0.089924
-0.544908
-0.587335
-0.536179
-0.208335
-2.168539
-0.020969
0.354478
0.734335
-0.718626
-1.216379
-0.208084
-0.575412
0.098122
-0.673076
-0.612295
-0.689227
-0.715876
-1.191198
-0.513591
0.087043
-0.178254
-0.952893
-0.571479
0.397744
-0.207636
-0.324100
-0.182863
0.684937
-0.828409
-0.499891
-0.678057
-0.053437
0.876838
0.192252
-0.631485
0.453472
-0.567533
2.057059
0.417588
-2.321157
0.656562
0.150112
-0.378712
-0.594850
-0.030136
-0.481594
-2.002738
-0.073876
0.391571
-0.880533
1.382908
0.080156
-1.080914
-0.223371
-0.371158
-0.044529
-1.399716
-0.147541
0.093587
0.646494
-1.593127
-0.360091
-0.441079
-0.576888
-0.788605
0.273375
0.259996
-3.265880
-0.579436
-1.283457
-0.096184
-1.987643
-0.262978
0.522569
0.264023
1.040746
-1.657188
-0.045217
-0.240236
-0.137092
0.763186
-0.826523
-0.785082
1.490656
-0.238216
0.490569
-1.116556
1.560574
1.033205
-0.883777
0.103038
-2.752481
-0.025634
0.860320
-0.097305
0.417989
-0.082011
3.518653
1.369530
-1.280032
-1.153232
1.122396
-2.584678
-0.335210
1.026224
-1.057101
0.117973
-0.972003
0.650559
-0.073676
-0.895443
-0.935714
-1.154270
-0.508414
0.064238
2.083583
-0.974780
-0.815675
-0.080319
0.399598
-1.034196
-0.349371
-0.686703
-0.073614
0.978090
-0.503138
-1.106610
-0.481161
-0.098916
-1.404675
-1.243700
1.140383
0.998017
-0.664758
0.079963
0.115036
-0.007778
0.755816
-1.488690
-0.600460
0.106443
-0.196096
-0.341530
-0.904614
-0.279135
0.386045
0.938455
-0.120059
0.131452
-1.765792
-0.197740
0.405595
1.361634
-2.458704
0.283597
0.127602
-0.020314
0.084304
0.503250
-0.327917
0.626702
-1.303155
-0.599010
-0.286231
0.824488
-1.999800
-1.020224
-0.080608
-0.719482
0.531134
-0.757854
0.518493
-0.605439
-0.101824
-0.181895
-0.699197
-0.737277
-0.796930
0.509869
-0.096670
1.089859
-0.494341
-1.906392
-0.736775
-0.205626
0.384916
-0.449240
-0.016246
-0.099671
-1.087676
-0.419667
0.217516
-1.900545
-0.461058
-0.485220
-0.247184
-0.698817
-0.315930
-0.842012
-0.233378
0.592066
0.258678
-1.284636
-0.506867
2.211937
-0.456766
-0.586743
-2.108662
-0.529827
-0.754797
-0.282726
-1.048997
1.043042
-0.974310
-0.492496
0.310389
-1.557309
-0.692042
-1.246206
0.673091
0.552595
1.071027
0.216586
-1.421323
0.228588
-1.620400
0.574574
0.267337
-0.436502
-0.738883
1.100459
1.245168
-0.249103
-1.173567
0.266198
0.893878
-0.494890
0.140944
-0.469157
-0.008757
-0.781406
-0.848649
-0.753808
-1.756692
0.659802
-0.186968
-0.175408
-0.756667
0.217164
-0.425324
1.111307
-0.640822
1.269965
0.728010
-0.760219
-0.169484
0.243034
-1.100684
-1.990956
-1.356830
-1.218861
-0.345359
0.479654
1.363872
-1.466169
0.169890
1.206759
-0.027340
-0.694469
-1.432385
-0.810598
-0.704341
-0.381019
1.613482
0.322290
0.419542
-0.176488
0.333738
-1.116102
-0.423027
-0.085071
-0.642986
0.407848
-0.767929
-1.580878
-1.070768
-0.227858
-0.400514
0.012828
-2.203488
-0.355846
-0.202841
-4.696857
-1.761258
-1.020173
-3.177890
-0.002261
0.350740
0.206959
-2.015330
0.043946
-2.043218
0.367578
0.606464
-0.214160
0.096442
-1.633777
-1.598366
1.012446
0.214295
0.788808
-0.922637
0.221227
0.083597
0.925779
-0.421165
2.040736
0.527994
-1.153624
1.058554
-0.953682
-0.891530
1.068282
1.212659
0.773291
0.125028
-0.451007
-1.785864
0.781604
1.004645
-1.605015
-0.331574
-1.821028
0.128369
-0.550753
-0.553750
0.184467
-0.954742
-0.608602
0.618484
1.405663
-0.471394
0.290277
-1.034040
-0.397804
-2.113203
0.326989
0.274120
0.966240
-0.549067
-1.747172
-0.477276
-0.083036
1.508606
-0.971146
-1.149310
-1.098294
1.737523
-0.749528
-0.347294
0.134476
1.943138
1.868136
-0.835596
-1.715185
-0.587125
0.315961
-0.222081
-2.337944
0.091697
-0.428817
-0.814695
0.492875
-0.640696
-0.440737
-0.151782
-0.050283
0.375109
-1.523901
1.122146
0.112081
1.996242
-0.878533
0.832996
0.416256
1.933491
0.165444
0.074606
1.188883
1.911844
-1.935982
0.333323
-0.147555
-0.142787
-0.386652
-0.504544
-0.728932
0.356623
-1.898808
-1.954800
0.973715
0.360795
0.038651
-1.193428
-0.474460
1.230193
-0.177143
-0.604564
0.573475
-0.299958
0.073730
-1.005324
-0.098386
-0.141822
-1.084753
-0.328401
0.092574
0.043129
0.370152
0.446186
1.353826
-1.163041
0.403967
-0.821056
0.016614
-0.521559
1.470819
-1.845361
-0.237041
0.710381
0.658007
-0.007442
-3.203018
0.344399
1.536625
-0.384266
-0.071618
2.854499
-0.642249
1.776809
1.036187
0.626141
0.447193
-2.096568
-1.781777
-0.641196
0.413661
0.791494
-1.146583
0.404909
-0.993543
-1.463095
-1.160487
-0.387353
0.137752
0.677404
0.738971
-1.525976
-0.856635
-0.684798
-0.114112
0.111265
0.400535
-1.993560
0.467704
-1.796453
-1.673198
0.690250
-1.348173
0.731202
-0.548055
2.775805
-1.169110
0.313880
0.365642
-0.460395
-1.317260
1.095270
1.854915
-2.085433
-0.551548
-0.580281
-1.340682
-0.413420
-1.588866
-0.885664
0.720272
0.134323
0.819796
-0.200663
-1.074917
-0.587938
-0.549771
-0.901322
-1.087616
0.456324
-1.061845
0.843742
0.845565
0.422157
0.082175
1.459150
0.821274
-0.172683
-0.026546
-0.025511
0.428831
-0.518881
1.956622
0.066405
-2.648997
0.226308
0.363271
-0.244377
-2.295280
-0.672060
0.532181
-1.921266
0.437946
1.631689
-1.704023
-0.733311
0.124026
-0.532414
1.981710
-1.380258
-0.657095
-1.350092
0.371915
-0.234779
-0.173024
-0.162863
0.310968
-0.199287
0.575452
-0.307217
0.288612
1.112425
0.627915
1.465775
0.836521
-0.278916
-0.526192
1.594243
0.913747
-0.568553
-0.419765
1.463704
-0.219331
0.880711
0.147923
0.041305
0.284954
1.127513
0.035359
-2.017939
0.202798
-0.241414
0.927718
0.200563
0.502760
0.064769
-1.251230
-0.554340
-0.824130
1.661321
0.038201
0.715483
0.927775
0.687428
0.160708
-1.537933
0.215109
-1.038263
-0.753383
-0.891631
-0.918908
0.030321
-0.233901
1.390861
-0.852119
-1.380920
0.901673
-0.326881
-0.159123
0.016536
-0.355275
-0.054017
0.946128
-0.296759
1.367458
0.364064
-1.445209
-0.444475
-0.418765
0.056330
-1.617128
-0.209796
-0.041933
-0.070957
0.044912
0.096623
-0.013617
0.025239
-0.081089
-0.091433
-0.079937
0.059912
-0.053235
0.084798
-0.069609
0.000398
0.044562
0.004387
0.069978
0.000657
-0.098689
-0.021583
-0.031828
0.013573
0.096848
0.055082
0.049630
-0.082300
0.027888
0.096191
-0.070671
0.089365
0.026512
-0.012604
-0.081592
-0.028576
-0.015981
0.004791
0.096664
0.002930
0.013357
-0.083274
-0.037157
0.060122
-0.098475
-0.006767
-0.039480
0.046086
0.097620
-0.069502
-0.053256
0.098932
0.008915
0.014916
0.012505
0.005763
-0.030002
-0.037865
0.023463
0.097885
-0.041674
0.052792
0.087251
0.084838
-0.059812
-0.094341
-0.043738
0.024207
0.010450
-0.047074
-0.072862
-0.076193
-0.030348
-0.010020
0.083929
-0.028823
0.083213
-0.055551
-0.082737
0.080834
-0.025052
-0.035993
0.079765
0.083862
0.078922
-0.007730
-0.010374
-0.051080
0.054405
-0.086911
-0.053194
-0.087270
0.065881
-0.065944
0.097568
-0.093931
-0.060285
-0.046169
0.030277
0.050165
0.006756
0.057415
0.073972
0.076408
-0.052605
0.057901
-0.052415
-0.069392
-0.097650
-0.035152
-0.088558
-0.022702
0.028855
0.091208
-0.038840
0.007777
-0.016522
0.050786
0.056697
-0.062118
0.063875
-0.096497
-0.049387
0.029756
-0.062441
-0.051819
0.035825
-0.022726
0.002011
-0.033898
-0.072561
-0.091232
-0.076483
-0.098589
0.085176
-0.029089
0.059312
-0.067239
0.001520
0.061662
-0.002390
0.012962
-0.061040
-0.073536
0.004170
0.000120
0.034241
0.087647
-0.049094
-0.009061
-0.074470
-0.085219
-0.005559
-0.023858
0.044536
0.032000
0.024323
-0.019638
-0.090726
-0.073665
0.046464
-0.063287
-0.064898
0.069980
-0.061876
-0.079721
-0.059108
0.097436
-0.046960
0.042411
0.059098
0.050650
-0.044627
0.098058
0.077114
0.059543
-0.001822
0.011355
0.047190
0.049084
-0.097706
0.072720
0.063864
-0.003265
-0.051138
0.008401
-0.071265
0.073185
0.088762
-0.061990
0.099520
0.035226
-0.025277
-0.065378
0.005206
0.012847
-0.045099
0.046098
0.010283
0.007941
-0.011491
-0.030619
-0.041409
0.043883
-0.032562
-0.064295
0.003426
0.065616
0.047061
-0.049384
0.014700
0.049355
-0.076664
-0.021436
-0.053910
-0.027802
0.086965
-0.025175
-0.054617
0.075727
0.012835
-0.055097
0.010953
0.087558
-0.020475
-0.083841
0.000405
-1.061631
0.439403
-1.231019
0.062995
1.697178
1.560849
-0.592927
-0.269277
0.427718
2.087352
0.422455
1.011826
-0.193854
-1.989213
0.888670
-2.360943
-0.400948
-1.081660
2.379067
-0.755553
0.100136
-0.096805
-0.345399
-0.520660
0.379389
0.200210
-0.182915
-0.134358
-0.403392
-0.067557
0.023659
-0.212593
-2.271637
-0.979331
-0.504782
0.646397
-0.462174
0.142327
-1.122939
0.253681
-0.207006
1.066324
0.575663
-0.414859
0.226430
0.851858
-0.032942
0.113687
0.686346
-0.323855
1.068411
0.484537
-0.807431
0.456974
-1.086723
-0.403594
0.505326
0.331030
0.050878
0.264752
-0.034805
-0.703027
-0.107908
0.597874
0.947396
1.126812
-0.149753
0.910760
-0.177336
-0.459524
0.632946
0.621213
0.516003
-0.452557
-0.473295
-1.092308
0.326837
0.291197
0.545573
0.020269
-0.497035
-0.177657
-1.158361
-1.681414
-0.172195
-0.251411
0.072314
-0.357401
-0.279023
0.484983
0.835273
-1.083626
0.595741
1.229064
0.889120
1.019140
-0.642106
-0.584132
0.068846
0.013472
0.412681
0.136016
0.296790
-0.237620
0.277088
-0.415912
-0.481734
0.216932
0.307593
-0.381353
0.534474
0.026927
-0.415763
-0.006349
0.131027
0.740495
0.562705
0.090853
-0.842785
-0.154418
0.363872
-0.424467
-1.463399
0.590148
-0.403434
0.872685
-0.694746
-0.642536
0.039048
0.524904
