-2.300975
-2.736706
-2.816446
-3.056554
-2.834060
-2.985424
-2.982976
-2.177113
-3.307030
-2.493923
-2.061271
-3.004866
-2.848282
-2.812625
-3.034230
-2.122931
-3.308236
-3.399513
-3.166885
-2.537711
-3.074821
-4.301353
-2.885679
-2.494653
-2.925765
-2.880883
-2.538385
-3.085621
-3.533066
-2.888587
-2.580934
-2.682640
-2.497366
-2.630550
-2.360753
-3.092683
-1.946641
-2.706727
-2.443743
-1.909215
-1.631280
-3.010087
-2.600558
-2.069384
-3.086799
-2.566540
-2.491986
-2.599710
-3.110062
-2.728839
-2.698630
-3.493301
-1.735719
-4.098862
-3.226343
-3.013789
-2.726415
-2.644828
-2.806037
-3.361362
-3.223558
-2.840923
-2.703654
-2.377398
-2.632849
-2.409084
-1.824400
-3.107917
-2.979466
-3.942395
-2.970068
-2.752293
-2.477951
-2.661066
-3.471972
-2.169552
-1.746797
-2.138991
-2.387461
-2.706065
-2.269823
-3.875429
-3.318388
-3.078871
-3.432121
-2.483606
-2.887608
-1.771835
-2.134506
-3.652807
-3.446298
-2.558706
-2.290283
-2.998500
-2.879652
-2.715736
-3.788894
-3.248443
-3.040081
-3.519519
-2.858701
-3.826140
-2.809524
-2.827683
-1.673932
-3.704476
-2.574627
-3.181730
-3.687075
-3.024334
-3.122444
-2.632640
-3.416697
-2.185687
-3.251790
-2.377261
-3.901613
-2.816517
-3.128687
-2.435426
-3.482831
-2.624335
-2.259140
-2.899263
-3.356490
-2.748271
-3.664713
-3.159647
-4.608126
-2.849923
-2.432841
-1.823418
-1.679668
-3.159668
-2.721493
-2.486225
-3.784044
-2.691185
-1.962041
-1.810152
-2.427919
-3.475855
-2.774998
-2.305377
-2.775851
-2.473433
-2.919582
-2.754067
-3.384161
-2.247891
-2.897726
-2.841107
-1.965340
-2.892045
-1.837453
-2.777570
-1.718976
-3.464920
-2.690734
-2.726598
-4.388104
-2.863679
-3.075412
-2.441561
-3.508401
-3.192488
-3.124740
-2.756953
-3.288845
-2.350764
-3.213917
-2.241815
-4.027112
-2.874484
-2.392293
-2.840502
-2.735415
-3.356884
-3.372754
-2.639105
-3.072659
-2.794615
-3.800891
-2.653021
-3.140163
-3.354101
-2.455261
-4.064252
-2.981565
-2.336437
-2.582427
-2.834315
-2.784101
-2.555887
-1.437550
-2.849197
-3.501513
-3.001251
-2.762114
-2.852882
-1.895080
-3.377682
-3.134334
-2.951637
-2.678492
-3.960965
-2.930999
-2.802410
-2.819848
-4.100041
-3.327649
-1.781256
-3.743127
-3.839481
-2.659233
-3.129329
-4.139340
-2.266666
-2.975468
-2.902462
-3.203534
-2.678620
-3.014378
-3.471325
-2.780287
-0.215463
-1.033936
-0.922042
-0.127714
0.919528
-1.188018
1.354313
0.211799
0.377284
-0.638386
0.109921
0.223075
1.045298
-1.718192
0.340752
0.174142
-0.864294
-1.617699
0.661366
0.381400
-1.429022
0.195626
-0.213068
-0.073447
0.587275
-0.036562
0.611693
-0.655425
1.179275
0.223064
-0.452081
-0.417093
-0.740216
1.077771
0.445794
-1.157015
-0.042126
-0.623218
-0.508699
0.186923
-0.223457
-1.197727
0.348157
0.519753
-0.140992
0.118463
-0.030445
0.903520
-2.098212
-0.490308
-1.483710
-0.441104
0.602779
-0.480054
-0.415502
0.465464
-1.937590
1.380270
-1.252857
0.295227
-0.576176
1.492289
-0.886064
0.567509
-0.230343
0.191210
0.782203
0.098124
0.013451
-0.347843
0.388892
-2.011807
0.922340
-0.107055
-0.912342
-0.585455
0.042077
-0.012271
-0.020136
-0.239651
0.925537
-0.279049
-1.037246
1.955794
0.052319
-0.889408
0.326482
0.582968
-0.741546
-0.865479
0.635846
-0.184762
-1.607566
0.091291
0.101142
-0.592192
-1.241152
-0.652193
1.260086
-0.075701
1.095184
1.380238
0.539001
-0.059891
0.170521
-1.979162
1.055147
-0.478665
-0.447823
1.802290
-1.429503
-0.120778
-1.107248
-0.223003
0.418217
2.136826
-0.336772
-0.956387
0.285748
0.103974
0.383172
-0.372753
0.532250
0.867915
0.757177
-1.067759
0.584394
0.405907
0.669015
-0.425389
-0.133326
0.443290
0.082812
-0.474941
-0.059882
-1.383785
0.921250
0.755149
-0.251848
0.059109
-0.353148
-0.013941
-0.435215
0.538870
2.060532
1.489562
-0.529798
0.014804
-0.480888
0.028201
-0.990783
0.584098
-2.955683
-0.339385
0.474699
-1.411766
0.079604
-1.382004
-1.011494
0.985038
1.159960
-0.705404
1.476103
-0.105112
0.289372
-0.946513
-0.810074
-1.707557
-0.237970
-0.446073
0.028011
0.169148
0.929861
0.154057
-0.481001
-0.350229
0.620956
0.978719
0.958793
-0.100676
0.492246
1.441533
-0.152868
-0.090239
-0.262073
-1.141274
1.795227
0.578049
1.138498
-0.459621
-1.820621
0.403260
1.977373
-0.147182
0.167966
-0.849379
-0.488389
-0.377045
0.571165
-0.120494
1.330971
0.183624
0.867396
-1.096776
-0.159313
-1.694029
0.199789
-1.899507
-0.407571
2.026873
0.400634
-0.253297
-0.817345
-1.495723
-2.005107
-0.944329
0.498983
-0.419346
0.361347
0.257617
0.928746
0.176845
-0.851927
-1.930334
-1.249013
0.157022
-0.719921
-1.147058
0.517727
0.383011
-1.080829
0.219180
0.108326
-0.028001
-0.150292
0.380662
-0.000357
0.938089
-1.173347
-0.299162
0.358906
-0.952843
-1.551790
-0.161140
0.011412
-0.814399
0.103685
0.746618
0.751989
0.568863
0.214551
1.588360
-0.227477
0.365024
-0.210509
-0.254396
-0.202088
-0.538427
0.388168
0.811963
-1.487112
-0.223405
-0.939565
-0.140365
0.135206
-0.092552
-0.981352
0.260052
0.193060
-0.712331
-0.474246
0.223479
1.302873
-2.925496
-0.880301
-1.372236
0.659227
0.541348
-0.092323
-1.109590
0.659318
-1.395434
1.694538
-0.152456
-0.525588
-0.916535
1.936765
-0.929876
0.351726
-1.326121
-0.130745
0.899062
0.214623
0.250531
0.482376
0.319364
-2.064576
0.510961
-0.018037
-1.045556
-0.393540
0.056580
-0.047006
0.510976
-0.472583
0.525646
-1.357609
-0.062370
2.273661
-0.350131
0.040573
0.986642
0.748567
-0.622355
-1.952078
-0.019778
-0.388509
-1.790937
0.231322
0.220023
-0.715325
0.848612
-0.825378
1.080647
-0.235797
0.207721
1.682954
0.201205
-0.214532
0.874285
-1.317828
1.230046
-0.609317
-0.010845
2.373538
-1.823134
-0.415515
-1.318617
-0.165861
0.226881
1.781332
-0.364070
-0.850946
0.218680
0.166053
-0.183484
-0.182149
0.104409
1.228464
-0.015722
-0.974692
1.970565
0.319589
-0.036043
-0.354459
-0.040857
0.373096
0.212708
-0.346468
-0.235801
-1.801489
0.693345
0.415289
-0.258330
0.047450
-0.520807
0.125187
-0.269442
0.604611
0.762830
1.103905
-0.699601
-0.043027
-0.831140
-1.041682
-0.796511
1.676107
-1.599965
-0.491575
0.121786
-0.735063
0.222898
-1.578542
-1.172018
0.577942
1.841767
0.428211
1.826228
0.247884
-0.074250
-0.784223
-0.110808
-2.182401
0.065667
-0.290995
-0.087004
-0.092334
0.370878
0.122118
0.399433
-0.562693
0.314637
0.108853
1.239557
0.590725
0.300429
1.019398
0.264978
-0.303341
-0.566236
-1.223395
1.518391
0.844435
1.456463
-0.184181
-1.200097
0.255162
0.692777
-1.135793
-0.111126
-0.389095
0.422786
-0.077410
0.651050
-0.353437
0.220399
-0.388915
0.676015
-0.529158
0.505633
-2.219711
-0.113388
-0.878641
0.105246
1.243838
-0.407031
-0.252883
-0.905790
-1.588978
-1.550981
-0.374147
0.761774
0.251477
-0.103174
-0.377555
1.701742
0.243647
-1.293351
-1.824042
-1.508326
-0.543819
-0.998774
-0.875992
0.168394
0.205398
-0.291314
0.759254
0.557521
0.293498
0.489511
0.258726
-0.266595
1.609242
-1.159639
-1.161461
0.006468
-0.965669
-0.040447
-0.443816
1.155857
-0.422202
0.787639
1.154166
0.058704
0.691372
0.266326
1.551299
-0.609065
0.301421
1.039943
0.155395
-0.607985
-0.608831
0.354721
0.284455
-1.329376
-0.324339
0.426240
0.341520
-0.194756
0.087586
-1.087910
1.135852
0.014584
-0.261598
0.367202
-0.207389
1.150886
0.166835
0.142120
-1.353952
0.038732
0.431859
-0.097259
-0.662403
-0.409417
-1.590527
0.949334
-0.068204
-0.629997
-1.103813
2.530279
-0.646798
0.229117
-0.523431
-0.230393
0.613301
0.178444
0.078567
1.070588
-0.395046
-2.337260
1.201670
1.743473
0.331949
-0.261706
0.107891
0.080481
1.034181
0.177168
0.061802
-0.164273
1.516776
1.657439
-0.297508
-1.219008
0.128402
0.695721
-0.915825
-0.595426
0.014183
-0.256268
-1.208737
1.336698
0.125413
-0.428393
0.403224
-1.165070
1.318142
0.418219
0.528389
0.569655
0.117750
0.080941
1.034338
-0.234353
1.559501
-0.072306
0.275305
0.332400
-1.592388
0.875801
-1.015269
-0.304837
-0.331359
1.259254
0.002783
-1.062061
0.068197
0.781416
0.093843
-0.661696
-0.181711
0.711386
2.240166
-0.681428
-1.326850
-0.863586
0.349215
-0.782187
-0.448101
0.176880
-0.088011
-0.557690
-0.230127
-0.102690
0.615503
0.335143
-0.280107
0.009856
0.032354
1.018983
0.674444
0.571902
0.695331
0.625636
0.564510
0.107291
-1.140047
-0.212412
-0.091543
0.906697
-1.580873
-1.590854
-0.000502
1.494399
-0.105535
-2.011900
-0.952608
0.278940
1.369964
-0.119339
0.579893
0.032031
0.347458
0.290621
-0.894330
-1.033780
0.349219
-0.118754
0.192994
-0.107274
0.587605
1.330887
1.675135
-0.627566
0.676423
-0.513083
-0.013643
-0.032482
-0.429843
0.925594
0.386981
0.947634
-1.360871
-1.737127
1.010593
1.641201
1.983134
-0.128856
-0.624896
0.746867
-0.709661
0.194336
0.505928
0.093652
-0.751973
0.238722
1.135451
0.344705
0.584229
-0.884794
1.421737
-0.231847
-0.149003
-2.042539
0.147650
-1.496971
-0.225900
2.076336
-0.051810
-0.139201
-0.885865
-0.442180
-1.284658
-0.129795
1.043834
-0.107242
-0.759276
-0.947392
1.537616
0.070344
-1.138150
-1.897780
-1.338181
-0.366723
-1.674071
-0.253120
-1.144348
0.681902
0.159448
-0.527421
0.495703
-1.403740
-0.874218
0.207832
0.819653
1.213250
0.379370
-0.650349
-0.400724
-1.705699
-0.315672
-0.592006
1.779523
0.530736
1.126894
0.232929
0.426633
0.516508
0.428771
0.633179
-0.384655
0.430976
-0.186635
-0.677367
-0.922337
0.609545
0.159049
-1.048952
-2.182142
-0.156265
0.858322
0.242849
-0.524966
-0.020009
-0.598542
1.639128
-0.446963
-0.246399
1.581381
-0.105574
-0.568911
0.501594
0.349882
0.337062
0.541604
0.651287
-0.555297
-0.559147
0.110609
-1.314511
1.274928
-0.123783
-1.566756
-2.453324
2.124786
-0.138409
0.595106
-0.290518
0.191687
0.864956
0.312940
-0.131012
0.137648
-0.427451
-1.212118
-0.305058
0.499030
0.168337
-0.041199
0.023911
0.259923
-0.416779
-0.194568
0.175045
0.303132
1.247873
0.567139
-0.063903
0.067806
-1.295781
0.467554
-0.913569
-0.669866
1.349892
0.253743
-0.670998
0.449118
0.793118
-0.114923
1.735290
0.188801
0.518142
1.220408
0.409571
0.287564
0.849675
1.542214
-0.138903
1.337051
1.425391
-0.205103
-0.601930
0.270131
-0.394819
1.082849
-0.536530
0.346714
-0.232330
0.421975
0.053589
-0.920599
-0.025326
0.762219
0.103212
-0.444901
0.505451
-0.268684
0.210202
0.179677
1.511068
0.201749
-0.748610
-0.775632
-0.408506
0.171865
0.156721
-0.722807
-0.380516
-0.604554
-0.649492
0.417153
-0.497302
0.153257
-0.012970
-0.276391
0.589664
1.034817
-0.376581
0.305797
1.861244
-0.158093
-0.984744
-0.878798
-0.100022
1.626527
-1.817389
-0.224323
-0.183646
1.488532
0.109600
-1.343299
-1.431707
0.918109
1.210065
0.843155
1.969604
-0.280021
0.090432
-1.990990
1.377334
-1.205136
-0.456665
-0.337819
-0.583565
-0.130697
-0.139783
0.901829
1.238413
-0.551381
1.465863
-0.109139
-0.460483
-0.004614
0.421546
0.826620
0.936485
0.031226
-1.088146
-1.658172
-0.812312
0.680797
0.859536
0.057805
0.077119
-0.205658
1.430678
-0.080114
-0.584086
0.065626
0.916561
-0.132500
2.109504
1.480188
0.727969
-0.354105
2.505625
0.232366
-0.256422
-2.656298
-0.203140
-1.136255
0.123185
1.853674
-0.109666
0.080675
0.117691
-0.987107
-0.886700
-0.134395
1.308184
-0.249043
-0.305850
-0.465813
1.998829
0.008951
0.234208
-1.747355
-0.752203
-0.531787
-0.766747
-0.368556
-1.330089
0.379397
-0.400623
0.236375
0.702501
-0.835769
-0.672959
0.069596
0.187553
0.263087
-0.778140
-0.629202
0.021410
-0.715145
-0.976829
-0.727220
1.038433
1.182879
0.739667
0.311610
-0.383528
0.761251
0.345541
0.563176
-0.755519
1.301902
0.388905
-0.520966
-1.380458
0.516833
1.268000
-0.809686
-1.525799
0.166877
-0.016228
0.609550
0.049638
0.013043
-0.682268
0.494817
-1.090363
-0.218015
0.962187
-1.113410
0.189822
-0.260475
0.774936
-0.798852
0.056947
0.339113
-0.081717
-1.460669
-0.766219
-1.487294
0.134591
0.248267
-1.244928
-0.842772
1.377865
0.173930
-0.001189
0.343149
-0.028470
0.403206
-1.223187
-0.213107
0.783982
1.477228
-1.922659
0.511954
-0.899905
0.039489
0.244482
-0.021321
0.753006
-0.560597
-0.304862
0.882232
1.455072
1.125543
0.712841
0.780547
-0.508976
0.167060
0.244846
-0.810798
-1.099543
1.372960
0.574242
-0.049457
-0.744462
0.868249
-0.219297
1.271466
0.925536
-0.109825
0.541442
0.860128
-1.369681
1.375782
0.152670
-0.539255
-1.137949
0.440614
-1.119483
-0.427118
-1.378904
0.036744
0.233995
-1.222841
0.677540
-0.249414
0.868629
-2.839860
-0.045643
-0.277395
0.906889
0.116980
-1.170987
0.320456
1.420619
0.129370
0.116509
-0.341304
-0.154774
-0.256215
0.356520
-0.710595
0.254018
0.302020
-0.911516
-0.772342
0.289422
-0.641778
1.068604
-0.490262
0.232289
0.352566
-0.756530
0.129476
1.383219
0.403447
0.530758
0.654940
-0.120000
-0.355527
-0.980579
0.944108
1.137318
-1.974794
-0.043682
-0.130233
0.499305
-0.081530
-1.196976
-0.740916
-0.157086
0.937680
0.201815
2.748507
-0.840997
1.669950
0.029812
1.571985
-1.111662
0.378838
-1.005434
-0.958533
-0.542104
-1.690414
1.233429
0.661790
-0.270977
0.355985
0.255127
-0.339819
0.245388
0.184581
0.503220
-0.169518
-0.222007
1.033594
-1.077913
0.638623
0.377702
1.007623
0.284302
-0.592037
-1.343384
0.795837
-0.575722
-0.476665
0.224593
-0.281107
-0.177284
1.223326
1.155616
0.125519
-1.663382
1.528887
-0.096181
-0.945803
-1.527883
0.185414
0.508685
0.876776
1.252739
0.228042
0.042283
-0.760112
-0.922094
-0.252561
-0.514361
0.468433
-0.871257
-0.650050
-0.679366
0.968428
-0.085894
1.078877
-1.182474
0.394356
0.028440
-0.447819
-0.270601
-0.494961
0.628718
-2.493048
0.505111
0.566348
-0.203667
-0.734808
-0.350014
1.100694
1.432321
-0.093407
-0.063037
0.131376
-1.679480
-0.252760
0.552393
0.507861
1.336423
-0.645594
-0.578229
-0.190892
0.207280
-0.712505
-0.095507
0.738999
1.760458
1.057448
-0.929295
-0.358335
0.410702
0.955489
-0.279275
-0.936054
0.310125
-1.406865
-0.113501
0.282503
0.018507
-1.147124
0.347145
0.718115
-0.486669
-0.362246
-0.319069
1.269245
-1.009259
0.982118
-0.881836
-0.602278
0.088069
0.550416
-0.505217
0.354912
0.291188
0.670654
0.592020
0.883059
-1.029878
1.652501
0.227365
0.576752
0.359271
-0.212049
0.177323
-0.429321
-0.334457
-0.316508
0.495762
-1.262680
1.861172
-1.474724
0.721988
0.126536
0.122887
0.950999
0.467006
-0.063488
0.869910
1.401648
0.077501
0.449061
1.579969
-0.501343
0.969755
0.144374
0.041596
-0.508479
0.192266
0.472904
-0.294173
0.626154
1.214294
-0.403687
0.902721
1.279565
-0.226076
-1.449950
1.660592
-1.821976
1.073615
0.063280
-0.687447
-1.635856
0.644051
-0.829375
-0.008023
-0.312998
0.547505
0.250086
-0.620740
0.100580
-0.501495
0.297643
-0.042322
0.677134
-0.823182
-0.345511
-0.392075
-0.689791
0.890125
1.316414
1.024516
0.441171
-0.198662
0.675499
-0.162483
-2.307533
-0.467975
-0.013480
0.097302
-1.018440
-0.577489
1.367328
-0.139475
0.249981
-0.296969
0.308408
0.121087
1.267788
0.045950
0.050410
-0.639319
0.115725
0.095423
-0.147409
-2.279054
-1.271545
0.815340
0.820263
-0.489375
0.250260
0.229320
0.318843
-0.214590
1.490225
-1.117910
0.055971
-0.712808
-0.871866
2.733759
-0.966047
0.561612
-2.020857
1.346640
-0.245865
1.089217
-0.592431
-0.371379
0.085137
-1.251193
0.269227
-0.191515
-0.371918
0.421019
-0.835807
-0.282580
-0.182323
0.305511
0.315165
0.633847
-0.346961
-0.119694
-0.701757
1.386068
0.892866
0.434355
-0.031544
-1.609386
-0.034956
0.940848
-0.720507
-2.304138
-0.172837
-2.656806
0.375675
0.077504
-0.568597
0.234771
0.813959
0.774850
-0.614907
-0.245067
-0.736125
0.791782
0.832715
0.626778
0.816120
0.671221
-0.005029
-0.369882
0.060423
1.159224
-0.396385
0.652843
-1.523036
0.693263
-0.264751
0.196458
0.131197
-0.147079
-0.518429
0.374515
0.459075
-0.304138
-0.142772
-1.361451
0.872329
-2.518445
-0.147154
0.278657
0.803380
-1.107343
-0.070449
0.664878
-0.017287
-0.918270
-1.342720
-0.473879
0.112192
1.956863
1.080877
0.303600
-0.280718
-0.873891
-0.018151
-0.520864
0.396040
-1.139470
-0.689517
0.662317
0.917407
1.402103
-0.708119
0.086850
0.760665
1.021237
-0.391446
0.683920
0.153086
-0.414197
-0.117999
0.436075
-0.144212
-0.267318
-0.189122
1.678109
-0.454113
-0.677689
1.208766
1.277751
-0.503613
0.523108
0.084187
-2.998676
0.122816
0.169965
-0.910395
-1.337254
-1.523304
-0.151937
-0.328520
1.053841
0.364305
0.153754
-0.227699
0.361145
0.559261
-0.050974
0.094875
-0.662498
-0.668175
0.458441
1.161503
0.792177
0.934840
0.272090
0.124734
0.237597
-0.181960
1.053534
-0.335052
1.318217
0.319280
-0.836549
-0.308221
-1.151282
1.128134
-0.746563
1.015500
-0.414705
0.660921
-0.499331
-0.526031
-0.589227
-0.125940
-0.359981
0.564461
-0.481559
0.593800
-0.255190
-0.628691
-1.768158
0.280448
-0.332646
0.684123
-0.427758
0.239808
1.080152
0.067150
-0.798879
1.010324
-0.349960
0.221025
0.675139
-1.105431
0.105472
-1.297330
-0.161403
0.880282
0.414965
0.259123
-0.601276
-0.719781
-0.253157
1.203869
2.035492
0.762286
0.108902
-2.022302
0.807703
-0.833317
-1.899030
0.224859
0.022512
0.115356
-0.602799
-0.641095
0.775225
0.384200
0.699140
-0.236723
0.415794
-0.048997
-0.084586
-0.638497
1.418004
-0.196026
-1.673013
-0.386735
-0.007958
-0.848551
-0.961925
-1.559397
2.980970
0.313898
0.030496
0.745902
-1.089454
-0.127333
1.747133
-0.299697
-0.926289
0.367330
-1.998445
1.960036
-0.783454
1.017000
-2.061082
-0.702543
0.342345
-0.227928
-1.025382
-0.574235
0.109751
-1.748722
0.102088
-0.481138
0.338378
0.509751
0.802679
0.920006
0.060711
-1.544795
-0.082453
-0.736655
-0.655033
0.171976
-0.572370
1.482630
0.700348
-0.490548
0.072280
-0.587546
-1.750259
1.094684
-1.211583
-2.312431
0.321240
-2.171327
-0.314590
1.373054
-1.263344
0.178586
0.642553
-0.412113
-1.489677
-0.955187
0.330055
0.629531
1.856914
0.465569
1.460046
0.156273
-0.427072
0.207604
1.161941
1.601411
-1.170332
0.487155
-0.585186
0.952820
-1.042743
-0.829510
1.120988
-0.229370
-0.393513
0.633355
0.147087
-0.472763
0.187390
1.859652
0.144100
-2.753145
-0.686026
0.416685
0.689252
-0.884061
-0.435032
0.269178
-0.452509
-0.996327
-2.619870
-1.539693
1.113960
-0.013191
0.279032
-0.227619
-0.885220
-2.609007
-0.959243
-0.534785
-0.288642
-0.677509
0.424242
-1.087026
1.301049
0.593873
0.116551
-0.490957
-1.074852
0.076628
-0.050502
-0.083019
-0.074268
-1.860207
-0.410940
0.531180
-0.168398
-0.159866
0.529810
0.698464
0.798912
0.410910
0.391591
-0.291491
-1.818837
0.828478
1.099510
-1.424517
-0.006373
0.116001
-0.875273
0.182893
-0.559892
0.166250
0.586711
-0.544681
-1.034270
-0.645117
-0.548841
0.235149
1.229245
1.112786
-0.300829
-2.185429
-1.504555
1.252826
0.654479
0.220672
-0.147149
0.579859
-0.465415
-0.431441
-0.113226
-0.070329
-0.557776
1.890379
-0.156419
-1.727820
-0.560690
0.018676
-1.129459
-0.396820
-0.438716
-0.110013
0.463728
-0.429581
-1.161814
-0.702829
0.459445
-1.745773
-0.163557
0.400018
0.952293
-0.165061
-0.817865
0.365174
0.924010
0.406468
-0.241520
-1.869973
0.047073
0.777809
-0.638535
-0.982459
0.901968
0.251718
-0.690438
0.395437
-0.836049
0.459424
-1.519885
0.071677
1.160985
-0.692924
0.391756
-0.352251
-1.319618
0.015264
-0.097451
0.573057
-0.329528
0.133492
-0.738220
-0.527087
-0.605376
-3.217858
0.153737
-0.026416
-0.028421
-0.540205
0.126180
1.201355
0.191499
0.263756
0.008468
0.654311
0.011283
0.294788
-1.265884
0.625323
-0.612828
-0.646206
-0.999687
-0.110493
-0.837605
-0.762765
-1.712975
1.018517
0.505218
-0.018499
0.383211
-0.178145
-0.123517
0.147835
-1.311142
-1.888782
-0.075469
0.420952
0.257872
0.447198
0.371084
-1.378035
-2.873523
-0.345811
-0.205924
-0.231062
0.697275
0.577254
-0.856375
0.331601
-0.783734
0.450468
-0.370199
0.689281
-0.901392
-0.608860
-2.093466
-0.864293
0.644784
-0.532175
0.076874
-1.679970
1.390970
0.093706
0.123594
-0.295090
-0.539564
-0.423688
-0.096180
-1.561655
-1.984424
-0.307981
-2.611746
-0.236375
1.109430
-1.378546
-1.998300
-1.024078
-0.276461
-1.152678
-1.387921
-3.248779
0.254415
0.937048
0.105167
3.301552
0.036357
-0.457402
0.759252
0.731142
0.104781
-0.905404
0.496576
-0.537448
1.336621
-1.299798
-0.799619
0.396793
-1.180929
-0.835844
1.268615
-0.470014
-0.300977
-0.252584
-0.038567
0.291039
-1.539112
-1.153716
0.532130
-0.491136
-1.105887
-0.428309
-0.746981
0.378776
-0.414497
-1.760211
-1.114321
1.650521
1.001941
-1.075765
0.641504
0.440092
-2.574495
-0.148291
-0.714187
0.176878
-1.271456
-0.465313
-1.025594
1.455223
-0.410052
0.640925
-1.265457
-1.186915
-0.114358
-0.151037
0.892026
-0.012531
-1.369121
-0.774209
0.362302
-0.030019
0.308112
-0.592574
-0.067761
0.266053
0.497676
-0.457176
-0.525824
-0.952115
0.212047
0.462281
-1.814153
-0.012572
-0.601885
-0.562360
-1.610834
-1.726879
-0.187471
0.718587
-1.246411
-0.124892
0.002005
-0.073572
0.149879
1.199088
0.733243
-0.378250
-2.207665
-2.004900
0.030621
0.872725
-0.226359
0.869221
-0.892868
-1.587766
-0.164671
-0.269066
-1.094831
-1.548129
0.386017
-0.207535
-0.985151
0.053642
0.316593
-0.383242
-1.173765
-0.292127
-0.205690
0.154491
-0.185574
0.490083
-1.086012
-0.034655
-1.447912
0.573571
0.570983
-0.361860
-0.757499
0.688643
0.095569
0.625019
-0.032018
-0.449124
0.721075
-1.259240
-1.151657
0.024899
-1.953874
0.596663
-0.746876
-1.121254
0.766659
-0.556796
0.218908
-0.706950
-1.343307
-0.445388
-0.979352
1.556121
-0.444066
-1.705455
-0.240458
-0.769629
0.050104
1.178654
0.316447
-2.852597
-4.150764
-1.101029
-2.963033
-0.169520
-0.021585
-0.133304
-0.346329
0.154627
1.260005
0.125181
0.082129
-0.295043
0.318270
-0.278986
-2.629931
-0.222677
-0.682098
0.623267
-0.837049
-1.382603
0.098747
-0.242163
1.120821
-2.179069
1.203988
-0.039540
-0.009880
-0.238657
-0.511970
-0.111853
-0.116416
0.645436
-3.586733
-1.186443
-0.403904
1.602280
0.256747
-0.694241
-2.067258
-2.227893
-0.020618
-0.584222
-0.563877
0.604062
0.295966
0.282110
0.374013
-0.693554
0.757604
-1.166512
-0.934937
0.865756
-0.761218
-1.473630
-0.996637
-0.411889
-0.833991
0.092129
-1.071858
-0.418039
-1.322563
0.122857
-0.745431
-0.550145
-1.022405
0.344820
-2.078731
-0.578921
0.849533
-0.477567
-0.005332
1.318007
-0.488633
-1.383918
0.451695
-1.995654
-0.553744
-1.584042
-0.649785
0.579290
-0.000929
0.631532
3.800570
0.080140
-0.602377
1.642503
0.893559
-0.283503
-0.941304
0.217598
-0.487222
0.225176
-2.184868
-0.650556
-0.203010
-1.795228
-0.725010
0.556398
-0.034638
-0.678648
-0.331474
-0.590501
-0.456336
-0.162653
-1.248580
0.169053
-0.201823
-0.712713
0.085348
-0.872993
-0.910648
0.523710
-1.167763
-0.351999
1.566349
1.925138
-0.963003
-0.212484
1.412655
-0.853624
-1.307427
-0.406254
0.205044
0.114395
-0.826922
-1.287834
-0.013873
0.160280
0.401958
-0.937827
-0.210553
-0.717699
-1.280918
0.181016
0.544377
-1.887737
-0.729962
0.506465
0.067716
-0.813609
1.363513
0.566555
0.715311
0.261775
-1.012728
0.267296
-0.503665
-0.189079
0.482951
-1.380578
0.298653
-0.132120
-1.063545
-1.660147
-1.807564
-0.366185
-0.507931
-0.044373
-0.398211
-0.817875
0.982731
0.511842
0.393293
1.352089
-0.372440
-2.802093
-1.938142
-0.239019
-0.228586
-1.436490
0.987168
-0.328649
-0.897220
0.633428
-0.288556
-0.335682
-1.444291
-0.033855
0.908088
-1.661586
-0.470490
0.381595
-1.205875
-1.184041
-0.458714
0.372355
-0.363816
-0.144134
0.372132
-1.367328
0.186906
-2.490980
1.109924
0.397116
1.000699
-1.308249
0.179775
1.038506
-0.910270
-1.618830
-0.777714
0.609879
-0.838340
0.325655
-0.101730
-1.581173
0.665407
0.183885
-0.468406
1.257731
-0.214310
0.205125
0.294593
-2.862770
-1.214345
-0.924601
0.678601
-0.468310
-1.129957
0.697629
-1.674312
-0.324874
0.758766
0.492270
-2.508573
-1.251495
0.469430
-1.229801
-0.548949
-0.254516
0.052067
-0.779355
0.295571
-0.654951
-1.258474
-0.278486
-0.264763
0.024408
-0.691022
-1.869954
-0.944093
-0.545486
1.095960
-1.832549
-1.286030
-0.533514
-0.008920
1.320287
0.031284
1.448869
0.873510
-1.170636
-0.203288
-0.051274
-0.149767
0.502919
1.265867
-4.567445
-0.900461
-0.186241
0.479410
1.006068
0.567019
-2.189548
-2.950841
0.650577
0.574536
0.058549
-1.301466
0.841726
-1.320695
-1.092140
-1.132136
-0.411605
-0.479893
-1.932969
1.019879
0.478824
-2.450317
-0.817833
-1.956023
-0.875569
-0.128823
-0.976850
-1.354724
0.367671
-0.879986
0.257517
1.933203
0.403052
-0.739400
-1.444503
-1.850329
1.157259
0.814044
0.015435
0.518479
0.338160
-2.173323
1.521142
-1.190687
0.113814
-0.944810
-1.856012
-0.335551
-0.106964
1.171479
1.623128
0.544599
-0.087815
0.222387
0.231048
-1.663749
-0.939880
0.227868
-1.112247
-0.102858
-0.818851
-0.378373
0.347205
-1.236935
0.501373
-0.409271
-0.630937
-0.274815
-0.557335
0.643425
-0.571448
-0.508657
-0.805878
-0.008025
-0.670973
0.385559
-0.642042
-2.242498
-0.846787
-0.264227
-1.536830
-0.628778
0.512181
-1.621072
0.547350
-0.467342
-0.543835
-0.039903
-1.332084
0.093808
-0.774201
0.348785
0.403605
-1.256993
0.148061
0.182946
0.928973
-1.116844
0.560743
-0.268168
-1.104064
1.016366
-0.257562
-1.633888
-0.729903
0.125956
0.159077
-0.218720
0.441911
-0.003705
0.296442
-0.885333
-1.139571
-0.357343
0.173473
-0.012019
-0.519018
-0.022976
0.177896
0.487304
-1.741605
-0.864202
-3.756675
-0.433890
0.062351
1.531297
-0.851609
-0.515772
-0.615441
0.545076
0.813529
0.774879
0.010047
-2.151641
-0.911666
-0.391386
1.809084
-1.395500
1.081173
-0.338887
-0.796811
0.765010
-0.253432
-0.109148
-0.214622
-0.405908
0.489223
-1.915170
-0.486675
1.254055
-2.464778
-0.940019
0.655792
0.337968
-0.354397
-0.073558
-2.785725
-1.406763
-0.297662
-0.958447
0.054348
1.617850
-0.481365
-2.411256
0.830802
1.148334
-0.917951
-0.421761
0.202925
1.171358
0.368751
-0.604659
-0.493820
-0.362967
1.094092
-0.029065
0.446798
1.517735
-1.277820
0.411160
0.344914
-0.865930
0.097961
0.215440
-0.773129
-0.447515
-1.193014
-0.803880
-2.245063
-0.132286
1.514537
0.547398
-1.771477
0.003741
0.685441
-1.385860
0.087189
-0.056919
0.132032
0.667315
0.336616
-0.076865
-0.680759
-0.561283
-0.178250
0.424608
-0.357172
-0.940283
-0.450315
0.616669
1.209467
-1.431604
-0.910622
-0.664852
-1.654269
0.615548
0.276435
0.667375
1.784782
-0.373850
-0.124688
0.615183
0.062633
1.463394
-0.462413
0.118880
-0.000310
-1.218937
0.392168
1.198541
-0.905332
-1.792338
-1.906233
-1.404139
0.923039
0.255703
-0.169476
0.643318
0.859691
0.468528
0.951235
-0.527605
-0.429188
-1.817501
-1.178788
-0.515377
-0.091293
-0.884600
-0.299006
-0.679303
0.887310
0.263290
-1.631941
-0.836367
-1.319976
0.559091
0.101470
0.496625
-1.093906
-0.819455
-0.065351
0.372578
0.185082
0.019435
0.771324
1.471840
-1.146113
0.664581
-0.707752
0.870299
0.540416
-0.359823
0.830927
0.242726
-0.769665
0.641657
-0.459925
-0.014251
-0.870735
-0.685928
0.201899
-0.620111
-0.278357
-0.488798
0.851973
-1.027286
-0.709757
0.783971
-0.708091
0.294348
1.374800
0.221424
-2.897523
0.005460
0.589731
-0.188892
0.464508
-0.851063
0.474142
-0.237282
0.357841
-0.188012
0.032921
-2.122248
-0.915007
2.377423
-0.428828
0.736763
-0.007440
0.252332
-1.843884
0.505120
0.814434
-0.407015
-0.358090
-0.854889
1.294127
0.132966
-1.745955
-1.341348
0.575023
0.231145
-1.173332
-0.587507
0.095982
-0.118600
0.301402
-0.363530
-0.744557
-0.572750
0.585815
0.105091
-0.170662
-0.008031
0.016735
0.445801
0.129637
0.603600
0.391100
0.936571
0.073738
-1.070510
-0.149160
0.129930
-0.646833
-0.451664
0.834253
-2.264819
-0.433863
-0.264909
-1.917031
0.984284
-1.847141
1.656191
-0.367159
-0.836365
-0.667925
0.036545
-0.536057
-0.390608
-0.058182
0.970400
-0.420591
-1.029526
0.213662
-0.063463
0.154342
-0.064397
-0.204405
0.974816
0.322077
0.872837
0.279862
-1.939624
0.251576
-1.315156
0.258307
-0.224972
0.343287
-0.331772
0.583778
-0.535989
-0.164976
-0.934830
0.645712
-0.002405
-0.402864
-1.124888
-1.747264
0.601466
-1.001370
-0.591038
-0.580117
-0.131672
0.925747
-0.436117
0.890826
-1.423588
1.111158
0.056854
-1.836152
-1.062885
0.442843
-0.708861
-0.510391
2.059261
-1.379017
-0.298699
0.628281
-0.607656
-0.728586
0.174629
0.722417
-0.269492
-1.926515
0.508826
-0.935476
-0.155171
0.547040
0.713178
-0.817920
0.139038
-0.247767
0.027648
-0.336294
1.296450
-0.186337
-0.812979
-0.089397
-0.158021
-0.336643
0.454135
-0.059588
-0.098797
-0.365049
-0.058791
-0.038256
-0.242950
-1.262373
-1.193569
-0.109953
2.425347
-1.470196
0.001122
-0.649511
0.247836
-0.024995
0.081195
0.297545
-1.382734
-0.475377
0.273851
-0.525395
0.456885
0.659605
-0.515554
-1.164944
-1.152723
1.614173
0.023908
-0.623426
1.569787
0.187094
-0.501296
1.727811
0.419235
0.143133
0.184989
-0.522897
0.708460
-0.053369
0.389774
-1.914293
-0.502079
-0.298770
0.501059
1.042953
-0.839013
-0.249225
-1.299759
0.523730
0.315482
0.559475
-0.464198
-1.372249
0.441429
-0.833407
0.172396
-1.260709
-0.605943
-0.304576
-0.019394
-0.286913
-0.719775
2.313401
0.845235
-1.464717
0.211074
0.173675
-0.725225
1.066441
0.946962
0.171436
0.206005
-0.264199
-0.523453
-0.492966
0.140182
-0.134290
0.329062
-0.632525
0.255163
1.422810
1.237619
-0.380061
-0.085755
0.410586
-2.321731
0.498000
0.677968
0.054957
0.118253
-0.810268
0.600119
0.778481
0.936555
-0.204583
-1.832967
-1.103800
-0.887893
1.536194
0.607559
0.900092
-0.957282
-1.078730
0.784840
-0.091004
1.009473
0.577907
-0.777146
0.015052
1.084651
-0.583936
-0.286697
-2.075745
-0.514895
-0.888527
-0.823620
-0.200393
1.349064
1.219580
-0.532945
-0.448709
-1.094548
-0.699967
0.329291
0.235818
-0.206504
0.141888
0.664279
1.212777
-0.706612
-0.340751
-0.198297
0.115275
0.252172
-2.387557
-0.208149
0.420862
0.126351
0.534972
1.326017
-1.212679
0.440208
-0.985648
-0.567591
0.729013
0.664145
1.837273
-0.329847
-0.928428
-0.420259
0.513204
-0.262347
-0.313597
-0.604073
0.034852
0.893454
2.235132
0.692036
0.357764
0.028590
-0.176522
0.343664
2.103458
0.635527
1.278377
1.237191
-0.768224
0.180172
0.139725
1.035147
-0.202982
0.119901
-0.589295
-0.222674
-0.394251
-0.155987
-0.342125
-0.056151
0.606323
-0.788137
-1.897102
-0.450784
1.863027
-0.777850
-0.498139
-0.386937
-0.613495
0.554611
0.642143
0.792600
-1.653307
1.867244
-0.522268
-0.203226
-0.282311
0.597596
-0.082213
-0.771971
1.882195
-0.659222
0.415582
0.230218
1.110632
-0.546056
0.975534
0.852192
0.718950
-2.662526
0.134063
-0.975003
1.544519
-0.384996
-0.255203
0.605518
-0.250757
-0.121217
0.034482
-0.512809
2.031964
1.464424
0.666026
0.599582
-0.373228
-0.176242
0.134048
-0.590213
-0.038882
-0.443814
-0.764977
-0.349885
-1.445452
-0.799144
-0.992778
0.305234
2.122901
-0.750916
-0.819950
-0.124818
0.168307
0.716068
0.158340
1.102155
-1.058572
0.498013
-0.568515
-0.227915
0.685168
0.689141
-0.361879
-1.355616
0.091022
-0.335173
-0.431377
0.169200
0.511856
0.834388
-0.447888
-0.173866
0.887196
-0.901540
-0.932678
0.092659
0.202011
0.096227
-0.854044
-0.394659
0.148165
-0.469082
0.711705
0.101020
-0.115838
0.288880
-1.756547
0.814920
1.250943
1.575617
2.155291
0.595928
2.169007
-1.743575
0.646205
-1.853452
-0.996733
-1.685554
-0.893664
1.237969
-1.342810
-0.550909
0.423642
0.708555
1.237520
0.427827
0.619950
1.111928
0.444105
0.231669
-0.276591
-1.732758
-0.888374
-1.573699
-0.220938
1.381603
0.132260
0.906061
-0.228733
1.771045
0.015044
-1.323586
-1.236538
0.815289
-1.133486
-0.893356
1.146828
0.227023
0.134563
0.367320
1.148401
-2.301895
0.084736
0.184744
-0.487357
3.552493
-2.210365
-0.123992
-0.114777
0.140646
1.455272
-2.362578
2.838962
-0.692312
-0.133128
0.932896
-1.980298
0.472035
1.284558
0.085405
3.191903
1.135778
-0.017478
-2.074947
-1.077943
-0.182646
0.540673
0.338088
-0.304360
-0.179321
-2.353393
0.238211
0.194035
0.049830
-0.418198
-2.041268
0.092771
3.149531
-3.312888
-0.479806
-0.342972
1.656005
0.302005
-1.128890
-2.366364
-0.560572
0.800166
0.042202
3.990844
0.777041
-0.607145
-1.824630
0.666821
1.130183
-2.038004
1.520117
0.670078
-1.552422
0.223608
0.229237
1.685657
-1.143650
-0.595475
1.676808
-0.991360
-0.308092
0.527810
3.272545
0.768844
-0.057275
0.303653
3.016158
1.310105
0.801056
1.008025
0.318805
-0.005634
-1.028968
-0.931536
-1.109381
-0.292471
-1.280385
1.445558
-1.508122
-0.088899
-1.030972
-0.038927
-0.165029
-1.268627
-0.626245
0.483651
1.277725
1.868714
-1.227704
-1.343729
0.791292
-2.228156
1.520301
3.775516
-1.586446
0.769039
-1.273933
1.177031
-3.628692
1.097110
0.165284
-0.356165
0.368095
-1.829918
-0.881512
-0.418248
0.561639
0.751326
1.416655
0.928702
0.147167
-2.476352
-2.443764
0.342993
1.201432
0.486848
1.677773
2.288862
-0.230402
0.212841
0.126861
0.762978
2.842329
-1.386576
2.305066
0.409655
-0.297495
-0.065206
0.274062
-2.161817
0.905056
-2.157991
1.394066
-0.718312
-3.253494
-1.000970
-1.208140
2.807081
-0.122118
-2.979339
-2.304717
0.809087
-0.324313
3.370752
-0.222506
-2.024421
-0.967942
1.251257
1.366701
-1.376627
1.989417
-0.105677
0.821622
-0.688192
0.032745
0.931027
-1.073630
-0.417454
-1.953738
-0.657239
0.637960
0.825301
-1.815643
-1.158208
0.219253
-1.779238
3.432690
0.312677
-0.356012
-0.069519
1.587171
-1.584135
0.857248
0.942201
-0.373455
-1.385789
0.441032
1.886192
1.902130
0.421566
1.156868
1.113829
1.260857
-1.984406
-0.903374
0.902672
-1.740879
-0.490902
-1.809815
1.518312
-1.479071
-3.511283
0.842530
3.067668
0.937441
0.780060
0.978723
-2.601181
0.203080
0.249519
-1.217126
0.501619
0.685250
-2.323805
-1.845073
0.344531
-2.998504
-0.575848
1.032639
-0.108002
-0.262535
-2.362487
-1.521159
0.004277
-0.072605
0.043502
-0.088241
-0.058801
-0.067950
0.037913
-0.039190
0.028666
0.062316
-0.030426
0.043409
-0.044813
0.064417
-0.003828
-0.011414
-0.012414
0.024015
0.052027
-0.060656
-0.046892
0.086662
0.043434
0.098625
-0.031400
-0.019136
0.017926
-0.064764
0.090143
-0.034563
-0.007099
-0.005580
-0.007168
-0.063597
0.006178
0.034030
-0.031548
-0.055908
0.094840
0.097119
-0.093592
-0.035586
0.040528
-0.038406
-0.071169
-0.063300
0.050180
0.016417
0.060715
0.002208
0.055761
-0.086177
-0.011130
-0.000805
-0.087552
0.057469
0.080059
0.030374
0.092705
0.070201
0.095810
-0.014394
-0.035379
-0.011358
0.022009
0.070800
-0.077327
0.090462
-0.085108
-0.082487
0.087580
-0.078701
-0.018073
0.028108
-0.017107
0.010758
0.064808
-0.066926
-0.072825
0.025523
0.035281
0.082936
0.039346
-0.075849
-0.017870
0.051794
0.081621
-0.037811
-0.017833
0.074326
-0.067610
-0.022022
-0.040067
-0.002988
0.066620
0.081942
-0.032188
0.089292
0.072403
-0.017297
-0.093195
0.059983
0.004002
-0.011268
-0.011908
0.086896
0.099490
-0.047100
-0.080031
-0.073335
0.078423
0.055251
-0.090399
0.017769
0.079402
-0.008269
-0.030437
0.061023
0.053920
0.051730
0.035349
0.086310
-0.070292
0.095282
-0.016678
0.096327
0.077223
0.051133
0.085620
0.049626
-0.066164
0.092425
0.009610
0.037839
-0.018843
0.097701
0.024734
-0.019353
-0.049399
0.044704
0.007313
-0.070976
-0.000045
0.016914
0.046794
-0.020643
-0.091356
-0.083643
-0.059620
0.062564
0.068087
0.075729
0.048874
0.097794
0.071010
-0.067804
0.094122
0.048233
0.083330
0.079742
-0.002140
-0.082834
0.072167
-0.092531
0.055005
-0.046676
-0.094829
-0.020260
0.033971
-0.044228
-0.075557
-0.058716
-0.015204
0.024398
0.058198
-0.068410
-0.096245
0.066842
-0.052054
-0.055865
0.029407
-0.083967
-0.080137
-0.021719
-0.086172
0.090874
0.010477
-0.092051
0.039107
-0.006193
0.087691
-0.063033
0.010973
0.059858
-0.055564
-0.034022
-0.086818
-0.050393
0.045718
0.047153
0.005378
0.070161
0.088438
0.090175
-0.005441
0.046636
-0.078235
-0.001686
0.013478
-0.030289
0.042449
-0.057116
-0.014256
0.062312
0.021165
-0.000428
0.053186
-0.068357
0.007521
-0.007708
0.025450
-0.004788
0.029259
-0.063577
-0.044930
0.474408
0.130429
-0.488555
-1.813706
0.025537
-0.721323
0.436114
-0.225372
-0.559133
-0.623707
1.300227
1.377363
1.678028
-1.197963
1.480150
-0.163374
-1.221280
-0.184041
-0.620157
0.595699
1.975136
0.959769
-0.136878
0.449540
0.269669
0.873079
-1.084060
1.178714
-0.482391
0.610528
-0.007385
-0.672900
-0.662060
-1.169098
-0.416229
-1.190459
-0.451177
0.762302
0.705073
0.408268
-0.023612
-0.430054
1.296730
-0.036789
-0.520411
0.335790
-0.204744
-0.558475
-1.982448
0.079665
0.412584
-0.660142
0.015975
-0.397208
-0.615474
-1.035094
1.245536
0.834671
0.450668
-0.980394
-1.700544
-1.280599
0.321767
1.498337
-1.135255
1.415182
-0.217145
0.462623
0.373064
0.639324
-1.522534
-1.118001
1.376007
0.250585
0.582583
-0.447484
0.309565
0.034025
1.224754
-0.037467
1.211011
0.305798
-1.976119
2.396949
-0.240726
-1.236653
0.257665
0.575826
-0.345444
-0.437405
1.615569
0.621940
-0.385626
0.321071
0.350554
-0.145733
0.710446
1.465893
-1.534233
0.046863
1.120805
0.407470
-0.225374
1.400277
0.583797
0.557048
-1.098877
-3.571889
-0.946985
-0.639357
-0.739255
0.946744
-0.150329
-1.040737
0.523740
2.975409
-0.923334
-0.680054
0.882496
0.660593
1.834060
-0.900316
-0.409667
-0.660868
-0.823422
0.215896
0.978580
0.653956
0.054709
-0.693328
-0.091490
0.279491
-0.265423
-0.707498
-0.334638
-1.464231
-0.300911
-1.007121
0.003569
-0.298714
-0.526184
1.473275
-0.366604
-0.222609
-1.182029
1.502926
-0.662519
-0.660026
0.515071
0.249090
-4.232822
-0.857695
-0.859001
-0.581208
-0.034964
-0.116875
0.201228
-1.307545
-0.529208
0.204108
1.379110
-1.082372
0.633229
-1.047066
0.810512
1.338579
1.156340
-0.993363
0.104221
-0.271760
1.172366
-0.349754
0.276763
0.427326
0.333296
0.136737
1.111800
-1.093911
1.313448
1.083362
2.087374
-0.415876
1.176661
-1.347955
-0.388387
-1.079111
-0.318990
0.447096
0.152125
-0.866295
-2.807950
-1.578990
0.259654
-0.034363
0.259920
1.901563
1.504159
-0.180819
1.007928
0.988989
0.841878
-1.235855
1.072895
-0.724662
-0.090530
0.055724
-0.073146
-1.241663
-0.392434
1.269595
1.564919
-0.084186
-0.406152
-1.224812
-0.348486
-0.521468
2.220730
-1.721651
0.035233
1.605345
0.240132
-0.070044
-0.762032
-2.037172
0.896493
-0.046958
0.499709
-0.974517
-1.345865
-0.095230
0.893341
0.705398
-0.415110
-0.411287
-0.992379
0.545618
1.314190
2.244066
-1.541173
0.497142
0.235502
-1.198995
-0.845150
-0.025399
1.307706
-0.028880
2.032907
-0.404578
0.159287
1.060273
0.267780
-2.111746
-0.040263
0.250397
0.730387
0.116652
0.627365
-1.206917
-0.032848
-0.182915
-1.677752
0.054582
0.544254
0.251839
0.374720
-0.135008
-0.625642
1.439151
0.246616
-0.350252
0.366117
-0.659812
-0.585962
-2.635825
-0.536808
0.413112
-0.725959
0.096576
0.181715
-0.879802
1.070014
0.110518
0.483578
-0.295089
-0.337483
-0.140152
-1.116810
0.030245
0.411258
-1.870370
0.989616
0.401443
-1.439467
0.282050
0.301790
-1.187938
-0.333435
-0.604691
1.153705
-0.321012
-0.300241
0.136418
-0.548575
1.020928
0.334645
0.381030
0.662303
-0.136425
0.711350
0.024172
-0.321977
-1.758239
0.577624
-0.029706
-2.046075
0.244864
0.382788
0.771199
0.611779
0.122021
-1.843479
-0.800191
-1.083778
-0.236369
0.137761
0.840094
2.994012
0.462273
-0.200742
0.520165
-1.438681
-0.100611
-1.169801
-0.413759
-1.006011
-1.840969
1.151808
-0.182394
-0.477647
0.634275
2.764216
-1.708961
-0.071593
0.967352
0.537050
0.701808
-0.472302
-0.433120
0.835599
-0.482579
-0.537573
0.557466
1.168682
-0.152788
-1.895025
-0.044562
0.211203
-0.003032
-1.207996
-0.813291
-0.844189
1.175564
0.731537
0.018388
0.125385
-0.511681
-0.247738
-0.254483
0.906027
-1.529475
1.481050
-0.632845
-0.100992
0.122968
-0.012971
-1.721093
-1.137704
-2.094666
-0.330555
0.066904
-0.548998
0.135788
0.889688
-0.111805
0.481496
2.036305
-0.725128
0.625813
0.401930
0.046950
-0.398234
-0.820564
-0.666350
-1.166454
0.111014
1.251486
-0.183959
0.279774
0.713429
1.004623
-0.042797
1.578929
-0.604564
0.532905
0.001590
0.066999
0.040062
0.848494
-0.966338
-0.990024
-1.330308
-0.796294
0.207761
0.322842
-0.501857
-0.966762
-1.094857
-1.051792
-1.799067
0.592459
0.522742
1.661729
0.125311
0.932513
-0.489254
0.391788
-0.195586
0.597375
-1.307497
-0.435336
0.069237
0.453139
-0.033452
0.505466
1.627395
0.823299
0.052234
-0.761995
-1.463493
-0.337255
0.852765
1.264475
-0.669268
-1.217466
0.858025
0.051117
-0.492043
-0.186029
-1.938943
-0.509518
-0.185087
0.291179
-0.452592
-0.041736
0.055621
0.464902
1.142080
0.016345
0.695337
0.241945
0.483482
0.572094
1.443117
0.687627
-1.103259
0.253698
-1.088122
-0.386554
-0.737173
1.884811
0.305065
0.303973
1.261310
0.497311
-0.946774
-1.017888
-0.527731
-0.174772
-0.143244
0.487828
1.349116
-0.774221
-0.918843
-0.528836
0.859814
1.219375
-0.371269
1.478018
0.546295
0.001360
-0.103455
-0.333853
0.592683
0.214126
-0.551042
0.972898
-0.409905
-0.621880
0.388463
0.444212
0.614261
0.895730
0.121270
-0.703404
-1.321181
0.520129
-0.125984
-0.648629
0.233406
-0.130382
-1.300289
-0.435013
-0.084715
1.072023
-1.280689
0.051917
0.060754
0.520436
0.527487
-0.045175
0.412328
-1.040486
-0.199167
1.021746
1.214141
-0.136257
-0.177235
-0.447122
0.444314
0.839947
1.499768
-0.112716
1.742886
-0.001673
-0.021422
-0.481247
-0.292697
0.447051
-0.632643
-1.644594
0.137891
0.350637
0.272958
-0.118711
0.293746
0.551052
0.036987
0.929172
0.140642
0.231042
0.435948
0.853048
0.076409
0.373525
0.834717
-0.404034
-0.209589
-0.996252
-0.517142
-0.469351
-1.023698
0.857548
-1.515489
-0.498102
-0.316849
0.621890
-1.176376
-0.627437
0.610996
0.146447
0.281637
-1.460553
-0.381347
1.225736
-0.345735
0.103935
0.507858
0.745650
-0.024175
-0.300514
0.113788
0.103377
-0.070032
-0.510130
-0.150928
-2.822826
-0.024049
0.077092
-0.135276
-0.286552
0.007057
0.477426
0.018639
-0.140147
-1.943760
1.083203
0.576232
0.245208
1.235908
0.642258
-2.659153
0.101509
-0.914790
-0.402191
-0.042385
-0.169043
-0.086909
0.316040
-1.163338
-0.633825
-0.045561
-1.408277
0.407397
1.318007
1.231674
-0.047139
0.345849
-0.502761
0.751378
0.109895
0.505370
0.138309
0.519034
1.261065
0.698189
-0.425323
1.537052
-0.377061
-1.752475
-0.440476
0.762608
-0.520009
0.020159
-0.578387
-0.687793
-1.462902
-0.543913
0.821855
0.676968
-0.489880
-0.681149
-0.768309
-0.966963
0.113667
0.242281
0.845948
0.719685
0.037708
-0.151240
0.110111
-0.309674
-1.889615
1.706670
-0.567022
0.021793
0.245270
0.306991
-0.039407
0.623328
1.863864
0.892930
0.175471
-0.399078
-0.315003
0.543162
0.532279
1.340887
-0.903544
-0.868502
0.848475
2.034065
-0.487614
-1.483073
-0.423550
-1.009370
-0.983393
-0.496628
-0.302963
-1.762878
0.614042
1.572927
-0.256562
-0.206101
0.803030
-0.636792
-0.426680
0.263016
0.009996
1.508616
-0.020652
-0.466229
-0.881322
-1.372186
0.480311
1.194322
-0.126267
0.246337
0.300997
-0.110775
-1.545737
-0.497464
-0.801621
-1.148142
0.387989
0.520759
-0.523673
0.177798
-1.010628
-0.603113
-0.112256
-0.456211
-0.215629
1.796977
0.637337
-0.568007
0.079156
-0.292278
0.263251
-0.409274
-1.903433
0.921771
-0.324547
0.399674
0.245922
0.874977
-1.221394
1.064861
0.017991
-0.753685
-0.165176
0.113390
-0.864769
-0.771563
-0.211354
0.317498
-0.808320
0.226419
-0.274439
0.543940
0.457896
0.479645
-0.341217
0.563157
-0.090007
1.861346
0.515474
0.667846
-0.243362
-1.777719
1.472627
-0.021220
0.150393
0.095862
-0.141383
-0.141907
-0.655793
1.122652
0.738998
-0.148920
-0.894855
-0.490714
1.226285
-0.340228
-0.028858
-1.950429
0.698024
0.791538
0.641151
1.174927
0.493534
-1.063446
1.141883
-0.227066
0.152196
-0.529449
-0.720845
0.994378
0.658263
0.157989
-0.032397
-0.063776
0.292553
-0.600402
-0.711710
0.293013
0.149584
2.439783
-0.997421
-0.019140
-1.324048
2.366360
-0.726260
-0.490570
0.887980
0.112129
0.843267
-2.008566
-0.416176
0.538185
-0.505058
-0.367367
0.794654
0.343894
0.645320
-1.173888
-0.346730
0.244851
-0.246868
-0.748557
-0.645399
-0.242629
0.041650
0.111677
-0.144725
-0.301574
0.640666
1.833033
0.166121
0.608828
-0.993522
-0.375753
1.971981
0.349470
0.578207
-0.648117
-1.895000
-1.284981
-1.095010
-1.096739
0.060156
-1.066271
-0.050774
0.039326
-0.482361
1.266033
1.215168
0.179041
0.527314
0.036207
0.523962
0.220163
-0.059359
0.856065
-0.084150
0.357196
-0.404647
-0.263423
0.949151
0.253576
-0.056875
0.766695
0.457163
0.119513
-1.882903
-0.379867
0.383466
0.230610
1.351686
-0.177552
-0.156025
-0.455749
-0.139477
0.872423
0.949172
-0.772498
-0.053254
-0.274126
0.115180
-0.466123
-1.554113
1.768479
1.531230
0.584466
0.707487
0.171174
-0.411902
-1.833851
0.584794
0.684211
-0.268454
-1.397234
-0.586651
-0.558845
-1.130812
1.200060
-0.109316
-0.151333
1.942237
-0.014844
-0.274125
1.461544
0.406286
-0.435655
-0.592906
1.647409
1.121027
0.856504
-0.309215
-0.326217
-0.150303
-0.251610
0.293026
-0.386839
0.375681
0.202543
-0.010093
0.892005
-0.070265
0.099139
0.706307
-0.738721
1.102526
0.069153
0.487272
2.059691
0.009385
-1.072964
0.507543
-0.563743
0.577811
0.014451
1.046758
0.402068
0.596942
1.109082
-1.159023
-0.131218
-0.128747
0.193122
1.558632
-1.523497
-1.064796
0.308010
1.262578
-0.244076
-1.744411
-0.188355
0.135095
0.218808
0.012684
0.008357
-0.638605
-0.857126
-0.814532
-0.836442
-0.690763
0.108180
1.055065
0.244440
-0.448778
0.209520
0.398794
-0.033071
-0.477349
-0.716336
0.642441
-0.499416
0.628833
-0.209001
0.146493
0.119791
-0.186585
-1.182732
-0.409909
-0.286016
-0.882480
0.024956
0.316852
0.505659
1.271801
0.877901
-0.923369
-0.380820
-0.460011
1.116981
-0.046107
-0.039141
0.429121
-0.656625
0.294077
-0.730573
1.053858
0.516293
0.643223
0.266347
-0.903485
1.641206
-0.496870
-0.703623
-0.470909
1.932760
0.542817
0.859165
-0.477077
0.607261
0.609136
-0.127314
-0.284405
1.200151
-0.553721
-0.031463
-0.455064
1.161395
-0.820100
-0.367725
0.714268
0.836103
-1.088742
-0.957156
0.100514
-0.781185
-0.267797
-1.016176
0.372019
0.271633
0.981185
-0.867437
0.165378
-0.672597
0.031410
-0.389729
-0.310885
0.700529
-0.187335
-1.827728
0.119064
1.122562
1.072611
-0.360257
0.356174
-0.735687
0.049619
-0.014614
-0.816959
0.422700
0.592872
0.780861
-0.135378
-0.484983
-0.092323
-0.787732
-0.298178
-0.217910
-0.756449
0.540792
0.171899
0.082748
-0.055905
0.124706
0.922611
-1.576790
-1.964162
0.136813
-0.383418
0.422998
0.090009
-0.356751
-1.632964
-0.023068
-0.157935
-1.257351
0.267496
0.159479
-1.010855
0.381503
-0.090714
-0.530429
-0.800990
0.125488
-1.029896
0.027327
-0.267061
0.254442
-1.939284
0.999358
-0.241128
1.505300
0.064402
-0.609091
0.294587
0.863964
0.509783
1.004647
-0.418526
-0.146051
0.002202
0.629681
-1.115816
0.647162
-0.003568
-0.248777
-0.538714
-0.729304
-0.332605
0.238692
-1.206614
-0.109179
-0.554606
1.469651
0.331876
-0.036123
0.284063
1.434059
0.998440
-0.780567
-0.489334
-0.010600
-0.217966
-0.315619
0.697025
0.559456
-0.358333
-0.417095
-0.151754
1.262638
0.087449
1.029518
-1.295217
-0.144887
0.578151
0.261282
0.682923
1.903193
-0.087444
-0.415592
-0.797250
-0.358828
-0.572462
1.062076
1.053564
0.102364
0.039853
0.054742
-0.043640
0.460246
-0.610615
0.758843
1.183622
0.318353
1.017970
-0.257704
0.502067
0.307050
0.239106
1.116099
0.156028
1.387709
-0.369332
0.182462
-0.061310
-1.409907
2.302983
0.807485
-0.661098
0.279138
0.094268
-0.000048
0.274020
0.632003
0.104614
-0.780720
-0.295459
0.546821
0.626405
0.098947
0.166921
-0.326596
0.520052
-0.568179
-0.751437
-0.755635
0.815001
1.579652
0.219910
-0.584409
-0.545309
0.825381
-0.001560
0.184051
-0.856545
-0.384085
-1.124692
1.153694
0.659187
0.225066
-0.515578
0.288530
-1.005932
-0.989275
0.933495
-2.382730
0.728146
0.636403
-0.037313
-0.098316
-2.298413
-0.141474
0.367956
-0.927227
0.193106
-0.953022
0.123485
0.568550
1.169873
0.098581
-2.103231
0.435209
0.222622
0.109660
0.129740
-0.816457
0.733778
0.210731
0.175695
-1.393579
1.504859
1.078702
-0.600540
-1.058913
-0.189642
-1.598276
0.113503
-1.184389
-1.085317
0.702441
-0.599126
-2.366369
1.395085
0.611698
-0.874466
-2.794013
1.043447
-0.194396
0.204858
-0.887305
-1.445253
-1.107027
0.120666
-0.320381
-0.633984
1.952001
-1.263435
-0.784993
-0.088326
0.043359
1.100087
0.443443
1.225113
1.543431
0.546239
0.551125
-0.864078
0.469724
-1.009040
-0.753111
-0.251303
-0.164123
0.025977
-0.764068
0.082924
-0.532609
-0.497547
-0.305371
-0.345182
-0.453683
-1.050642
0.183330
-0.022463
0.242592
0.957914
-0.898312
0.158479
-0.414698
-1.226887
0.841438
-0.333404
1.031731
-0.900406
0.118408
0.525459
-0.651212
-0.094397
-0.499634
-1.210158
1.511786
-0.858316
-0.012256
-0.057223
-0.319887
0.452708
0.444420
0.048168
-0.825321
0.893286
-0.552264
-0.296845
-0.382365
0.028279
0.477818
0.022755
-0.278506
-0.493240
-0.333826
-0.317913
-0.328567
-0.427913
-0.079624
0.386065
0.423563
-0.862865
-0.798059
0.146643
-0.423663
0.144045
-0.642256
-0.646289
-0.028586
0.715012
-0.078295
-1.306807
-0.924227
0.710671
0.653116
1.971136
0.155718
0.830125
2.106575
0.540855
-0.241532
-1.555031
0.177172
0.861677
-0.278627
-0.604886
-0.467877
0.487747
-0.432419
-0.803128
0.046350
0.525175
0.248057
0.648670
-1.510896
0.755939
1.409658
0.419322
-0.173532
0.326144
-0.497741
-0.834474
-0.309118
-0.226528
-1.255743
-2.857490
-1.138720
-0.778785
-0.528994
-0.087368
0.756364
0.651403
-0.298152
-0.065317
-0.541856
0.101569
-0.857063
-0.172034
-0.114851
0.423360
-0.995375
-0.070520
1.258857
-1.124408
-1.146943
-0.201595
0.838528
-1.608729
-0.990645
0.531135
0.865102
0.915047
-0.341434
-0.555429
-0.490770
0.634940
-0.932298
1.123439
-0.329045
0.844535
-0.007080
0.663999
-0.048971
0.129168
-0.322394
0.921494
0.811563
0.308565
0.165684
1.312800
-0.230445
-0.234779
1.504143
0.204615
-0.035805
-0.722474
-0.305802
-1.100107
0.835271
-0.534166
0.467276
-0.070156
-0.293554
-0.700956
-0.658676
0.119679
1.087916
-0.287260
-0.819822
-0.501384
-0.814151
0.687841
-1.819191
2.220920
0.263554
1.016156
0.750565
0.109751
0.188510
-0.294939
-0.683005
0.999011
0.219164
0.402760
-0.279068
-0.810662
0.693275
-1.149620
0.557010
-0.285331
-0.221699
-1.245790
0.006902
0.250564
-0.673527
-1.222096
0.217752
-1.100304
0.115477
0.480771
-0.175473
-1.292153
-0.484873
0.134560
0.544419
-0.679694
0.308338
-1.303286
-0.969140
-0.295592
0.526453
1.123346
-0.701379
1.365307
0.015403
-0.942840
0.577530
-0.488928
-0.506803
-0.138771
1.240662
-0.391782
0.246820
0.379070
0.631889
1.090716
0.259192
-0.197589
-1.195708
-0.109725
0.016653
-0.319774
0.157939
-0.126040
-0.222425
-0.690125
0.195574
-1.401374
0.465686
-0.580188
-0.183536
-0.172797
-0.522430
0.183212
0.316687
1.170751
1.473079
-0.511417
-0.004927
0.000947
-0.207531
1.623888
0.043636
1.235100
2.020800
-0.759094
0.564386
-1.388844
0.072388
-1.525097
0.625582
-0.671740
-1.774966
-0.297850
-0.353085
0.567475
-1.034092
1.079652
-0.686189
-0.122909
-0.179382
-0.313894
1.067489
-0.655147
-1.005991
1.958822
0.388524
-1.646773
-0.000558
0.700142
0.029455
-0.190415
-0.739605
-0.754146
-0.276737
0.302561
-0.320624
-0.476683
1.148666
-0.404985
-0.820544
-0.651582
0.224943
-1.115692
-1.209726
0.043293
-0.951756
0.338765
0.058392
0.913959
-0.186994
-1.179525
1.277949
1.997949
-0.841270
-0.977210
-1.200898
-0.356832
-0.045778
-0.340664
0.640691
1.292432
-0.899090
-0.445732
-1.094610
0.626797
1.198305
0.141274
-0.581025
-0.909960
0.253642
0.156218
-0.103702
-1.445955
0.244040
0.274441
0.145762
-0.409894
0.432636
-0.093799
1.453104
-0.137167
-1.571815
0.659842
0.370195
-0.087663
0.214188
-0.023158
0.212031
-0.090367
0.214836
-0.414878
-0.772261
1.774302
-0.517533
1.239631
0.337509
0.307653
0.565311
-1.116164
-0.153220
-1.033226
-1.145299
-0.982524
0.488651
0.114619
2.243718
0.112117
-0.204642
0.675737
-1.500299
-0.350228
-0.114432
0.012320
0.058184
0.016695
0.101764
-0.041699
-0.132442
0.688487
-0.036396
-0.666487
0.552738
0.898494
-0.535029
-0.306499
-0.449753
1.066969
0.037290
0.171657
-0.369931
0.243027
-1.059636
0.336283
-0.800468
0.147124
0.048364
-0.561258
-0.551986
0.022417
-0.582923
0.730143
-0.006640
-0.100062
-0.206349
0.199570
-0.919040
0.821835
0.821616
-0.159218
1.486658
-0.299445
-0.622543
-0.054038
-0.496440
0.428384
-0.568212
-0.831025
-1.002026
-0.505646
0.349314
0.178853
0.262148
-0.947348
0.628172
-0.012261
0.507050
-0.643647
0.063375
0.211553
-0.989538
-0.415433
0.486292
0.688607
0.032169
-0.024309
1.541602
-0.332786
1.044212
1.235600
0.296671
0.045802
-0.498974
-0.510335
0.055188
-0.310090
-0.110782
-1.029220
0.584009
0.730701
-0.264846
0.158555
0.429163
-1.654944
-0.470630
-0.102799
-0.016323
-0.807303
0.152888
-0.838530
-0.102479
-0.146210
-0.308161
-1.640769
-0.574526
-1.693690
-0.421963
0.990067
0.127131
-0.200365
-0.256996
-0.269036
0.089528
1.167980
-0.465776
-0.186845
0.478241
0.859183
0.311325
-0.430093
0.234535
-1.087796
0.595993
0.678756
0.540308
0.101623
-0.519745
0.408809
0.650668
-0.855134
1.007221
0.048668
-0.494130
0.214113
-0.841137
0.250257
0.977506
-0.096901
-0.886792
-1.098608
0.558148
0.565538
1.496619
-1.547390
-0.444307
-0.792111
0.382733
0.852628
-0.308898
1.193712
-0.259875
-0.533379
-1.031482
-0.451890
0.700535
0.390347
0.530514
-1.442501
-1.602496
-0.120231
0.532303
-2.017834
-0.175773
0.538649
-0.074443
-1.993191
-0.323029
-0.535018
-0.584938
-1.103612
-1.085564
0.647225
1.348305
1.626323
0.294674
0.890973
-0.666073
-0.191726
-1.504494
-1.433960
-0.975454
-0.440616
0.064173
0.194786
0.577419
0.679738
0.229588
0.065089
-0.241409
0.157383
-1.555186
-0.163491
-0.211710
-0.288275
-0.917326
-0.820852
-0.368837
0.844920
-0.140656
-0.884552
0.199906
0.957832
-0.389258
0.129468
0.202750
-0.722984
0.010465
-0.784329
-0.686639
0.555907
-0.515030
0.137841
-0.327314
-1.349909
0.030361
1.439178
-0.115215
-0.321184
0.765820
0.101627
-1.740033
-1.151132
0.405581
0.393616
-0.894123
-0.731210
-0.451542
-0.801047
-0.462665
-0.194425
0.217519
1.052410
0.469686
-0.313165
-1.030433
-0.348499
0.394602
-0.178424
0.317344
-0.807967
-0.148680
0.079154
-0.099482
0.060111
2.084281
-0.718021
0.558696
0.465101
-0.058558
0.204534
-1.280681
0.327511
-0.010680
-0.374766
-0.103296
0.062501
-0.219965
0.215817
-1.106147
-0.623685
1.278677
-0.700372
-1.620933
-1.364088
0.181382
-0.318032
-1.288778
-0.025695
-0.736402
-0.946049
-0.528120
0.073174
1.182684
0.706476
-0.660101
-0.976236
-0.842942
-0.436295
-0.159544
-0.521409
-2.502606
-0.590002
0.000459
-0.354491
-0.969674
-0.321331
-1.655905
-0.127543
-0.522697
-0.399081
0.205754
0.157230
0.100009
0.233604
0.065539
-0.506888
0.900424
0.564378
-0.206965
0.059718
0.102324
-0.934151
0.013023
0.007172
0.307095
1.029741
-1.036569
-0.514742
-0.306563
-1.119419
0.737121
-1.285263
-1.281953
0.329109
1.250817
-0.522713
-0.362427
0.336341
-0.850178
-0.518339
0.802858
-0.332391
-2.141204
0.256518
0.213310
-0.275769
0.330623
0.363420
-2.911276
-2.590972
-1.446063
-1.829446
0.260257
-0.320103
-0.344533
-0.910200
0.984411
-1.116726
0.685862
-0.788339
-0.168906
0.385743
0.805332
-1.553751
-0.117155
-0.343306
-1.252936
0.208168
1.116027
-0.133200
0.393076
-0.012865
0.243308
0.238367
0.466672
-0.437648
-0.365618
-1.621849
0.018617
0.663209
-0.580884
-0.136242
-1.331025
-0.705005
-0.158992
1.232041
-0.229934
-0.809455
-1.209774
0.242093
-0.413941
-0.591986
0.289521
0.572304
-0.435423
1.259897
-0.202222
0.554258
-0.181852
1.420269
0.553310
-0.621702
1.050589
-0.410430
-0.221100
-0.682893
-1.316316
-0.920166
-0.106893
-0.347302
-0.950083
0.252707
-0.021282
0.588301
-0.402307
-1.440182
0.051008
-0.088715
0.658823
-0.786830
0.156284
-0.016125
-0.667646
-0.735311
-1.146588
0.454524
-0.349862
-1.690428
0.933380
0.341663
0.642044
2.920500
0.239187
-0.175873
0.235493
-0.480095
-1.456036
-0.788902
-0.281301
-2.117278
-0.648903
-1.143565
0.406653
0.829614
-0.608721
0.379002
-0.041431
-0.452923
-0.116967
0.252797
0.084593
-0.364306
-0.088357
0.111684
0.412875
0.511664
0.923402
-0.183263
0.773248
-0.822928
0.514430
0.344094
0.563288
0.446874
0.459843
-0.558468
-0.888139
-0.927781
0.510155
-0.247411
0.066251
-0.354704
1.807304
1.690144
1.195030
0.161450
-0.790658
1.268525
0.088039
0.276753
-0.480812
-0.172573
-0.354751
0.414737
0.446822
0.075255
0.484077
0.073863
0.066844
-0.205012
-0.290426
0.168295
-0.053401
-0.121477
-0.910454
0.801757
-0.443780
-0.209284
-1.314247
-0.169636
0.308438
-0.414579
0.768707
-1.827330
-0.954191
0.035592
-1.639040
0.151673
-0.691836
1.930963
-1.270938
-0.226107
-0.673917
-0.027093
-2.652653
-0.670119
-0.038603
1.391251
-0.187401
0.304652
0.749288
-0.407920
0.006774
-0.252738
-0.120482
0.093798
-0.399877
-0.620034
0.934638
1.392867
-0.331021
-0.504888
-0.102679
-1.057642
0.416812
0.187502
1.529562
0.563736
-0.422814
-0.065364
0.857186
0.121796
-0.026940
0.658533
-1.140348
0.985953
-0.167674
-0.013612
1.785497
1.173935
-0.265193
0.389532
0.262401
0.206612
-0.526639
0.350667
1.605309
-1.142987
0.461300
1.181383
0.013763
1.125226
-0.180612
0.817813
-0.329225
0.673676
-0.169688
-1.230439
1.185604
-0.195980
0.189103
-0.648975
-0.435462
-1.131320
-0.877437
-1.214521
-0.236336
-0.166809
-0.164434
-0.051192
0.500331
0.917405
0.963069
0.882603
0.176959
0.057243
-0.765092
0.196755
-1.493218
0.091352
-0.482618
-0.116794
-0.746491
0.243199
0.090121
-0.081383
-0.492831
0.202594
0.745439
0.869095
-1.731584
0.106314
0.064960
0.170459
-0.464264
0.771389
-0.884678
0.212934
-0.792381
-0.456408
-0.039578
0.506414
-2.290972
-0.608112
-0.605684
1.340439
0.306667
-0.517941
0.685912
-0.332179
-0.447074
-0.143332
0.279769
-1.384120
-0.722984
2.778792
0.269527
-1.859326
-0.032542
1.146968
-0.091685
-0.507326
0.014979
0.444587
-0.525121
-0.531704
0.728773
0.439118
-0.369738
-0.874802
0.176722
-0.079395
0.726976
-0.929596
-0.800597
0.817600
0.484595
-1.367862
0.182485
-1.319634
0.441025
0.278391
0.458659
0.617956
0.518984
0.256449
-0.639525
0.950948
0.019754
0.325963
-0.555213
-1.156253
-1.739906
0.182188
-0.026692
-0.407106
0.048992
-1.100646
-0.549739
0.791417
-1.148630
-1.231144
-1.281019
-0.870447
0.889968
-0.904742
0.005648
0.535919
-2.066849
-0.005524
-0.008674
0.970258
-1.050463
-1.242065
-2.178147
1.794485
-0.191096
0.300952
0.081088
0.208345
-0.526590
-0.122826
0.827776
1.072351
-0.253141
-0.295727
0.305355
-0.673055
0.922072
-0.589900
-0.529162
-0.887540
-0.730598
-1.382955
0.175640
-0.659243
-1.275550
1.633402
-0.255784
-0.980572
-0.275802
-0.628557
0.131744
-0.348713
-0.625553
0.376304
0.904026
0.014390
-0.621596
0.862342
-0.742357
-1.049233
-1.113612
1.020716
-0.176116
0.180384
-0.922394
1.116784
-1.086781
-1.026363
-0.542928
-0.812852
1.026990
0.367910
0.299307
-0.771128
0.942626
-0.970222
-0.224781
-0.435732
0.042453
0.741016
0.892047
1.708459
0.315993
-0.465916
-0.659337
0.309341
-0.024779
0.015950
-0.767195
-0.842233
-1.574773
-0.495182
1.376167
-1.448980
-1.529260
-0.200874
0.397316
0.028690
-0.096980
-0.586832
0.803204
-0.849669
-0.301085
0.168903
0.161061
1.086358
-0.914769
-0.106972
0.026804
0.161389
-0.209019
-0.555675
0.103912
1.368425
0.278340
-2.365255
-1.028495
0.480097
0.462804
-0.294873
-0.097689
-0.457865
0.849621
0.384068
1.036166
-0.051101
0.420926
-1.549638
-0.279308
-0.517287
-0.220839
-0.378281
-0.898690
-1.117138
1.394145
0.378555
-0.928932
-0.238539
-0.237159
-0.243387
0.277566
-0.175107
-0.004515
0.368471
-1.242556
-0.127979
-0.834193
0.018231
-0.034166
-0.547625
0.080664
-0.546867
-0.424269
-0.147830
1.100752
0.306397
-1.545239
-0.522542
-1.591302
0.727979
-0.069113
-0.368583
3.004881
-0.516523
-0.100910
-0.640354
-0.281216
0.108585
-0.396592
-1.737454
-0.444870
0.659109
-0.459533
0.112644
0.718205
0.371755
-2.276188
1.672756
-0.395910
0.947724
-0.014511
0.873903
0.639862
0.687687
-0.036808
-0.666617
-0.975846
-0.073691
2.301120
0.274011
-1.548544
0.477125
0.847614
-0.570150
0.168487
0.770266
-0.599978
-0.818458
-1.359242
0.255054
0.061220
-0.039133
0.467637
0.248163
1.783722
0.180806
-0.371878
0.208565
-0.209015
-0.487975
-1.246669
1.541174
-1.357383
3.136502
-0.260342
-1.161240
0.198284
-0.439946
-1.920056
-1.143670
0.718210
0.082359
1.456776
-0.538894
-0.900264
-0.032946
0.300236
-0.296313
0.281023
1.054366
-0.585772
0.421014
1.462239
-0.320370
0.924508
-1.182246
-0.547325
0.762084
0.786028
-1.209405
1.112039
-1.406328
0.221408
0.843960
0.192355
0.072356
1.424091
-1.486500
0.977940
0.812904
-0.114709
-0.001990
1.344071
-1.687685
0.468489
0.865972
-0.613662
-0.757399
-0.014627
0.552658
-0.922428
0.579911
-0.039725
-0.013610
-0.567536
-0.154348
-1.151331
-0.531431
-0.167825
-1.589554
-0.277720
-0.224188
-0.008852
-0.117055
0.413160
-0.001161
-0.081496
0.096158
-0.102262
-0.109991
-0.783656
0.615613
1.119943
-0.783274
-1.383699
-0.051014
0.908634
-0.129857
-0.197958
0.781230
0.529440
-1.250526
-0.135843
-0.198251
0.352690
0.340489
-1.285914
1.288741
0.135396
-0.123438
0.206994
-0.256453
-0.095236
-0.447936
0.291775
0.227066
0.287511
-0.658504
-0.105235
-0.367075
-0.121080
0.059055
-0.063708
-0.469869
-0.532650
-0.226533
-1.450402
-0.694495
0.321142
0.343690
-0.570487
0.945023
-0.459011
0.010827
-0.534417
1.290178
0.472968
-1.299561
0.371154
-0.547273
-1.377600
-0.609007
-0.509574
-0.442437
-0.709446
-0.751706
-1.100415
-1.431112
-1.571694
-0.425442
1.050325
-1.885263
-0.901720
-0.474086
-1.362401
-0.724506
0.738998
-0.577106
-0.690581
0.409399
-0.078917
-0.284422
-0.021850
-1.854324
0.024065
0.033228
0.448067
-0.148543
1.055132
0.074208
-1.069347
-0.467863
0.372857
-0.121396
-0.953934
0.497490
-0.121391
-0.114409
-1.499339
-0.526830
-0.307340
-0.261020
-0.669426
-0.274274
-0.426586
0.384285
-0.665683
-0.543048
0.485360
0.908171
-0.464869
-1.107013
-1.065102
-1.285330
-0.232888
-0.630110
-0.224962
0.037315
-1.549417
0.352646
0.127879
-0.429863
0.241377
0.261901
-0.373668
0.329093
0.473279
-0.578178
0.070040
-0.836146
0.216435
-0.001739
1.121019
0.270914
-0.223305
-0.576782
-0.034033
0.579737
-0.613571
-0.022558
-0.383428
-0.578172
-0.181422
2.829716
0.153268
-0.628344
-0.298816
1.975212
0.157716
0.073467
-0.203224
0.019367
-1.334623
-0.802428
0.037364
-0.087704
-0.438589
0.255133
-1.048049
-0.295891
0.461249
-1.040028
-0.313902
-0.054730
-0.491921
0.722868
0.405649
-0.057681
1.312504
-0.440332
0.295710
0.999744
-0.331528
-1.089774
-1.080467
0.999606
0.038602
1.713634
-0.150651
0.532280
1.291808
0.973821
0.463792
0.049719
0.339752
-0.172835
0.659925
0.236778
-0.552912
-0.094613
-0.836623
-0.207277
0.365749
0.559543
0.231499
1.405926
-0.621098
0.001313
-1.106062
-0.469052
0.246915
-1.453703
-0.528079
-0.579896
0.155976
-0.125739
0.318326
-3.310266
-1.968038
1.087948
-0.046990
1.129903
-0.043915
-0.932367
0.898487
0.025155
0.481588
0.334554
-0.101779
-1.064828
1.183914
-0.876696
-1.387578
-0.260017
-0.622431
-0.813353
-0.905055
-0.605881
-0.138886
0.279010
-0.028139
0.096609
0.392572
-0.172570
-0.436009
-0.403687
0.307753
-1.134362
-1.093621
-0.747048
-1.175619
0.263294
-0.397615
0.257730
0.523132
0.935272
-0.486086
0.581929
-0.561190
0.066796
0.136101
-0.365644
-0.601875
0.802661
-0.393078
-1.075755
-0.153564
0.121315
-0.561318
-0.346981
1.112566
-0.104661
1.606470
0.218256
0.835047
0.306276
0.062870
0.680317
0.111057
-0.037363
-0.511405
0.308519
0.287822
1.523768
-0.265681
-0.828301
-0.371028
-0.444483
-0.548383
-1.102286
-0.688272
-0.923240
0.286980
-0.929928
-0.398976
-0.374525
0.421035
-0.191716
-0.535854
0.976512
0.289466
-0.999595
-0.962459
-2.898126
-0.159682
0.065935
-1.877487
-0.006504
0.007293
-1.361664
-0.772401
0.348879
1.068758
-0.921451
1.175207
0.441887
-1.059137
-0.075888
-0.135853
-0.071689
-0.139556
-2.130593
0.476684
-0.456907
0.077979
-0.561930
-1.173555
-1.487152
-1.453681
0.387243
-0.072877
-0.193388
-0.097409
-0.726718
-0.633725
-1.184499
-0.256872
-0.373269
-0.722119
-0.399276
0.344293
-0.936213
0.272768
-0.510189
1.328922
-0.768235
-1.927019
-0.556960
0.338315
0.917905
-0.590270
1.752522
-1.346908
0.918770
0.106902
0.235403
-0.188078
-0.170602
0.936439
0.663149
-0.733867
0.404901
0.077193
-0.767270
-1.738677
1.143452
-2.382462
0.654659
0.105876
-0.180165
-0.596253
-0.319858
0.617038
0.182323
-0.144426
-0.625176
-0.865009
-0.527803
-1.000178
0.332344
-0.283251
-0.961694
0.319742
-1.163079
1.397231
-0.673563
-0.590868
-0.005445
-2.161462
-0.392731
1.097772
-0.583646
0.836629
0.699639
0.656641
0.288526
0.351823
-0.335039
0.440546
-0.829662
-1.492123
-0.067825
-0.515503
0.422633
-0.578219
0.515457
-1.000342
-0.338675
-0.395612
1.224599
-0.273306
-0.068201
0.719014
-1.863541
0.470634
-0.008058
0.237022
-0.459171
-0.951707
0.977880
-0.115560
0.072983
1.135941
-0.441688
-1.561222
0.234718
0.220719
0.043746
-1.650285
-1.461111
-0.396197
-0.471229
-0.427867
-1.119408
-0.140143
0.100397
-0.395498
-1.048875
-0.334227
0.874653
-0.313133
0.377182
2.108079
-1.789856
1.571615
2.939359
0.562301
-0.331372
-0.527119
-2.208966
0.015363
-0.597450
1.850574
-0.424893
1.121173
-0.381305
-0.261289
-0.456533
-1.409281
-0.280231
-0.518539
-0.920261
-3.308019
-0.160755
-0.487500
0.073653
0.547138
-0.846670
-0.653368
-0.149355
-1.756867
-0.108632
0.559147
-0.094137
-0.353804
0.386075
0.709727
-0.825748
0.629767
-0.256773
1.428683
1.020111
-0.270527
-0.648395
-0.186350
0.088492
1.232751
-0.135690
2.330280
-2.526880
2.312932
-0.396358
1.089915
0.221523
-1.482898
3.641440
-0.687460
-0.997317
-1.297523
2.400998
0.023092
-0.052184
0.206809
0.271359
1.010141
1.328232
-1.082128
0.161310
0.013602
-0.976283
-0.591721
0.545787
-0.487749
-0.758600
0.236082
-1.069437
-0.258967
1.782329
-1.725861
-0.376768
0.158050
-1.228338
1.189265
-0.753505
2.677974
-0.528451
0.000589
-1.486658
0.252708
0.365057
0.734031
-2.423148
-0.228429
-1.111718
-0.143122
0.040712
-0.263775
-1.111700
0.053287
0.887510
1.132379
-2.744878
-0.029672
0.759057
-0.101613
-0.061883
0.530624
0.463035
0.984347
-3.901253
-0.464779
1.307224
0.000193
1.107032
-0.772179
-0.479156
0.082247
-0.177131
0.843823
-1.017195
-0.576852
-0.450343
0.199395
-0.271887
-0.341217
0.341024
-1.018280
0.448599
0.814380
-0.774303
-0.517966
-2.584803
-0.002694
-0.732432
0.867689
-2.049713
-0.618270
-0.406763
-0.054196
-0.044741
-1.919039
-0.356061
1.008720
0.089243
2.362456
1.790700
-1.846536
2.604002
-0.658558
-0.219189
0.196899
0.856087
1.248242
-0.095575
-0.183892
-0.261299
0.060520
0.059736
1.907371
4.162325
-0.743029
-1.242856
-0.265194
-1.069114
0.456700
-1.520900
-1.435038
-0.913799
-2.178566
0.228025
1.128291
-1.863780
-1.159652
-0.157389
-0.089983
1.389865
-0.478846
0.145316
1.146874
1.894712
-1.456402
0.017043
-0.512085
-1.113336
-0.491830
-1.012136
-2.091640
0.260811
-1.119304
0.693434
1.280080
-0.499515
-0.486116
0.697507
2.305234
-1.322520
-0.116360
-0.704336
-0.150367
1.474467
-0.070944
-0.627134
-0.886395
-0.474360
-0.451292
2.043544
-0.882911
0.360642
-1.396564
-1.262890
0.038465
0.044050
0.056344
0.015633
0.070906
-0.082890
-0.088481
0.088434
-0.033383
0.046962
0.001424
0.060072
0.068572
-0.029216
-0.087024
0.036380
0.037178
0.086399
0.041306
0.041376
0.013591
0.027439
-0.019029
0.057090
0.054661
-0.059056
-0.082021
-0.033019
0.062890
0.016904
-0.023184
0.001355
-0.039046
-0.066840
-0.083011
-0.068139
-0.049730
-0.071493
-0.079705
0.016886
0.075469
0.021720
-0.023041
0.044041
0.092503
-0.010065
-0.019579
0.029681
-0.023666
-0.078273
-0.028943
0.089925
0.049166
0.052028
0.047015
0.003826
0.092973
0.064993
0.070808
0.055863
-0.018102
-0.052376
-0.042782
0.042852
-0.019217
-0.025793
0.074713
0.031053
0.002714
0.095008
-0.052060
-0.021817
0.016728
0.024899
-0.077776
0.009231
-0.085166
0.002644
-0.061088
-0.008833
0.024371
0.009969
-0.018908
-0.026463
-0.038003
-0.071893
0.077363
-0.045030
0.093100
0.048171
-0.089167
-0.025002
0.095794
-0.031950
-0.082149
-0.023422
0.042257
0.092564
-0.092369
-0.055029
0.087572
-0.044429
0.023154
0.004300
0.080469
0.045378
-0.086469
0.095303
-0.051978
-0.047556
-0.013530
0.072393
0.062413
0.067563
-0.054070
-0.075590
0.095669
-0.076707
-0.020620
0.088770
0.071464
-0.009787
-0.036232
0.067258
0.058263
-0.018381
-0.056164
0.000520
-0.025817
-0.048533
0.045491
-0.038245
0.007038
-0.031355
0.066055
-0.012493
-0.085977
0.079586
-0.017190
-0.037955
-0.067970
0.069280
-0.065562
0.094443
0.036843
-0.019633
-0.081147
0.032512
0.003660
-0.001766
0.021282
-0.024876
0.088447
0.085050
-0.057618
0.046710
-0.033331
-0.013782
-0.052770
0.040851
0.037684
0.092722
-0.097394
-0.055278
-0.038633
0.068661
0.032229
-0.024610
0.048248
-0.084961
0.037434
0.080278
0.084319
0.071872
0.074721
0.021162
-0.047760
0.093574
-0.046326
0.055900
-0.008192
0.074956
-0.068976
-0.019745
0.060006
-0.026594
-0.073035
-0.073325
0.059623
-0.025805
0.067526
-0.002692
-0.033083
0.070133
0.042030
0.028284
0.038794
-0.025742
-0.096327
-0.012958
-0.010703
0.041108
-0.032680
-0.026384
0.012980
-0.057960
0.094778
0.065219
-0.064385
-0.051548
0.021119
0.027422
-0.076592
0.052143
-0.092323
0.083414
-0.074452
-0.065359
-0.089911
0.085172
0.008837
0.077616
-0.017521
0.075753
0.047749
0.629006
0.069194
-0.164987
-1.404600
-0.390928
1.356925
0.176846
-0.603949
-0.485010
-0.327848
0.756269
1.042147
1.472163
0.002742
0.822185
-0.661439
0.868106
0.141998
0.450957
1.294254
1.013029
-0.474421
-0.800647
0.313127
-1.105259
0.228740
-1.044334
0.869024
-0.416999
-0.210885
-0.819519
0.373114
-0.283880
-0.907049
-1.547897
-0.573640
-0.190385
-0.070600
-0.103678
-0.014277
-0.002836
0.153167
0.200447
0.120706
-0.802866
1.113402
0.427430
-0.720939
0.471176
0.828479
-0.283978
0.951660
-0.060838
0.056692
-0.539533
-0.592930
-0.154163
0.210776
0.227634
-1.476397
-0.165102
0.656871
-0.699415
0.798802
-0.714472
1.422491
-0.021782
0.098533
-0.491266
0.149377
0.679263
-0.844368
-0.547936
0.009589
0.403629
-0.398215
0.118793
-0.097269
0.261676
-0.365346
0.349016
-2.106871
0.891578
0.100235
-1.518326
-0.217311
0.779765
0.150616
-0.168857
-0.390589
0.691875
0.017759
-0.659432
-0.134076
-0.016730
-0.188702
1.390677
-0.167263
-0.454673
-1.295876
0.464564
-1.774506
0.370422
-0.264491
0.213474
-1.219715
-0.026726
0.141876
-1.057703
-0.933505
0.622038
0.968852
0.632187
0.224459
-0.037348
2.306220
-1.107295
-0.305283
0.584363
0.356646
1.558594
0.274577
-0.199875
1.351368
0.084199
1.103928
-0.684940
-0.448806
-1.300559
0.218050
-0.156492
0.140263
-0.146157
-1.067391
-0.997304
-1.000939
0.990926
0.239957
0.089186
0.136221
-0.563595
0.396435
-0.929832
-0.468282
-1.397383
-0.696739
0.348494
0.134079
1.238217
0.761476
-0.577330
0.817853
-1.453000
0.231121
-0.115025
0.012986
0.021363
-0.457334
0.282351
1.854424
-0.490992
-0.420640
-0.345356
0.605248
0.072075
0.883757
0.280106
-1.029901
0.774738
-0.116394
0.155808
-0.531256
0.347226
0.641448
-0.923484
0.891194
1.057559
-0.161706
0.444203
-0.021293
-0.199275
0.007441
0.965403
-0.486450
-0.294862
-1.164108
-1.303147
0.177929
0.926104
-0.575129
-1.684733
0.256207
-0.658000
-1.172540
-0.169695
-0.402669
2.332306
-0.313457
-0.882982
-0.139456
-0.756298
-1.919528
-0.218318
0.568162
-0.605711
-0.753904
-0.553987
-1.120263
-0.104663
1.459565
0.209721
0.029112
0.534626
-1.158507
-0.711466
-0.560986
0.702354
-0.690996
-0.783068
-0.250980
1.078105
-0.451138
-0.436312
0.361940
-0.625471
-0.321820
0.508850
-0.557502
-0.255372
-0.001210
-0.643315
-0.569255
-0.393237
-0.139089
-0.199227
-0.053478
1.105813
0.793761
-0.661356
0.323277
-0.377002
0.359384
-1.612971
-0.056698
1.045380
0.001566
1.209037
-0.190435
0.053175
-0.961737
0.047886
-1.018085
0.505841
-0.398509
0.292303
-0.731611
0.860786
0.217903
-0.339084
-0.193151
-0.213697
-0.034846
-1.780461
-0.121283
0.093061
-0.028055
0.174889
1.040652
0.334554
-0.267815
-0.297098
0.769899
-0.402927
-1.484832
0.141468
-1.486597
0.628363
-0.196759
-0.058745
-0.885297
0.723653
-0.811003
0.530794
-0.170949
-0.741590
-0.255865
0.289242
-0.734602
0.185043
-1.224695
1.008950
0.099769
-0.157878
-0.469359
0.322754
2.139255
-0.900301
0.406112
0.479010
-0.156763
-0.337744
0.204842
-0.182980
0.714643
-0.290261
0.106184
-0.286253
1.057202
1.018126
-1.335008
0.202646
0.787586
-0.127429
0.089635
-2.146028
0.984042
0.237130
-0.329179
-1.664321
-0.052273
0.277539
0.110272
-0.140835
-0.008516
-1.529804
-0.025119
-0.316933
0.863250
-0.114229
-0.164039
-0.034321
1.121839
-0.576419
-0.973746
-1.459505
-1.096979
-0.058852
0.377004
0.220399
0.085737
1.521403
-0.793769
-0.456700
0.369923
0.263811
0.557373
-0.293605
-0.459421
1.599939
0.508841
0.075162
0.946143
0.125955
0.230891
-0.380568
-0.222543
0.082513
0.044292
-1.131468
-0.283992
-0.367134
-0.107966
0.694917
-0.030207
0.031355
-0.635580
0.799868
-0.682311
0.249297
-0.555362
-1.013538
0.227792
-0.512108
0.460715
0.742161
-0.766954
1.534077
0.499815
0.108205
-0.044809
0.118279
0.173199
0.504316
0.618007
1.247119
0.517107
-0.371233
0.237517
0.320123
0.685212
0.735639
-0.417228
-1.298936
0.787056
-0.051384
-0.183002
-0.217225
0.962097
0.189752
-0.285207
0.846832
1.267880
-0.933235
-0.148766
0.394510
0.739616
0.197654
1.912807
-0.199247
-0.914167
-1.884405
-0.174993
-0.367036
0.209556
-0.076925
-1.080564
0.950333
-0.567382
-1.039022
-0.205272
-0.896842
0.464914
-0.295365
0.064005
-1.230439
-0.924156
-1.395913
0.919834
-0.190294
-0.781124
-1.099645
-0.972097
-1.054617
0.457498
0.980064
-0.299835
-0.163109
0.733089
-0.713354
0.235517
0.293102
-0.330069
-0.032483
-0.971559
-0.537332
0.730638
-0.611880
0.136897
-0.445012
-1.285760
-0.061981
-0.296487
-0.912347
-0.522119
-0.127629
-0.461665
-0.167204
0.027532
-0.365745
1.458542
-0.596888
1.545048
0.218320
-1.305578
-0.231259
-0.103884
-1.216173
-0.586893
-0.677151
2.366509
1.077272
-0.408905
0.464529
1.219452
-2.137327
-1.516559
0.036226
0.035864
-0.596651
0.172406
-1.168970
0.247511
0.722479
0.139994
0.166434
0.101890
0.094804
-1.392090
0.042022
-0.498490
0.028571
0.198681
0.600748
0.056740
0.168795
-1.371413
1.676793
-0.720508
-0.646580
-0.376374
-1.526779
0.568826
-0.092994
-0.844291
-1.182781
-0.459603
-0.243556
-0.281056
0.181721
-0.510356
-0.740441
0.882737
-0.850135
-0.206075
-0.898333
0.737083
-0.629524
0.537589
0.199614
-0.485549
-1.790313
-0.521723
-1.217157
0.221085
0.193563
-0.220856
-0.074023
-0.160991
0.140632
-0.616504
-0.529511
1.253623
1.684080
-0.117609
0.522081
0.576064
0.138094
-0.774363
0.238258
-2.286247
0.878931
-0.316861
-1.301684
-1.441604
0.071215
0.119513
-0.543837
-0.429950
0.130300
-1.886011
0.317787
-1.660538
0.399660
-1.201149
-0.405493
-1.164533
0.532386
0.533843
-0.096750
0.570914
0.809396
0.565454
-1.045488
0.328106
-0.255748
0.432782
-0.589099
-1.390700
-0.087353
0.315541
0.932746
-1.326458
-1.109298
-0.183290
-0.616077
0.704104
0.967746
0.228698
0.169186
-0.152901
0.602152
0.210812
-0.192375
-1.249179
-0.743822
-0.218471
0.167520
0.658087
0.034516
0.022767
0.007273
0.583629
0.218178
0.324343
-1.000653
-0.591523
1.108437
0.791942
0.611992
0.915923
-2.576132
-0.944702
0.890385
0.783316
0.004286
-0.117953
-0.045306
0.023187
1.455617
1.056577
-0.778617
0.653277
-0.138690
0.916583
1.248911
0.619316
-0.613806
-0.693546
1.251716
-0.248527
-0.003919
-0.000419
0.080337
-0.504700
1.112671
2.531467
0.866202
0.027553
-2.541687
0.106163
1.179502
0.890491
0.841406
-0.230287
0.211296
-0.520718
1.670922
-0.895412
-0.044140
-0.065138
-0.645440
0.709557
0.635680
-0.586969
1.017329
-1.355697
0.611995
-0.716146
0.251976
-0.172600
0.214440
-0.691736
1.015461
1.060406
-0.740856
-2.520440
-0.240277
0.131225
-0.966785
0.018529
-0.500824
-0.143550
0.649964
0.767449
0.164990
0.241323
-0.150243
0.097612
-1.664961
-0.196634
0.978373
0.745741
-0.242396
0.113969
-0.884223
0.619911
-1.733441
0.237550
-1.148051
0.737780
-1.160004
-0.177728
-0.336395
-0.300005
-0.366737
-0.349910
-0.078948
-1.142833
0.121899
1.359578
-0.146370
-0.934343
-0.587144
-0.373087
-0.076755
1.263777
-0.662601
-0.436325
0.401648
-2.322452
-1.691199
-0.514897
-0.044828
0.311617
1.009021
-1.152693
-0.299841
0.707788
-0.282977
0.355630
0.171153
0.166310
-1.019787
-0.195357
-0.152224
-0.096400
0.307606
0.326855
-0.483227
0.632895
-0.811409
1.155030
0.710636
0.249564
-0.149763
-0.601765
-0.624513
-0.043339
0.012095
-0.986450
0.645333
-1.504197
-0.175714
-0.705137
0.385708
-0.372697
-0.144742
-1.347313
-0.194604
0.355917
-0.091235
-0.160381
2.241792
0.191156
-0.103817
-2.616197
0.585380
-1.030022
0.193646
0.590933
-0.208520
0.265612
0.030362
-0.328380
-0.544990
-0.298160
-0.077346
1.153775
-0.400485
0.200533
-0.396163
-0.734145
-0.576453
-1.343608
-2.570897
1.117366
0.162344
0.271941
-1.131000
-0.076253
0.616619
-0.574753
-1.378867
0.933630
0.462003
0.309445
-1.263045
0.766755
-1.731975
-0.026561
-0.154429
1.045920
-0.004534
-0.563565
-0.348964
-0.490881
0.282950
-1.189940
0.545048
0.137141
0.218694
0.279019
-1.189989
-0.796946
-0.506621
0.990535
0.969429
0.303410
-0.597711
-3.630472
1.173719
0.662738
-0.023819
0.220452
-0.235149
-0.747012
0.170355
-0.066163
-0.822454
-0.834925
0.384166
0.011737
0.068270
-0.048285
0.077476
-0.485322
-1.596423
-0.625086
1.221643
0.582826
-1.020922
1.700850
-0.104808
0.295068
0.483000
-1.756739
-0.248576
-0.050999
0.838605
0.097623
-0.374561
-0.091809
0.425332
-1.491638
1.160734
-0.776147
0.174511
-0.774802
0.249478
0.162918
0.208020
-0.660340
-0.119021
-0.252485
0.573913
-2.144256
-0.452401
0.894389
-1.162561
1.038209
-0.777277
0.821753
0.116348
-0.740406
-0.141587
-0.524861
0.496664
0.067928
0.405936
-0.674856
-0.411664
-0.685044
-1.384151
-0.891880
0.227714
-0.336589
-0.565547
0.114502
-0.600057
0.140327
-0.179469
1.576991
-0.023326
0.494482
-1.338304
0.830704
-0.531632
0.200593
-1.750069
-0.817374
-1.275516
0.442705
0.801281
-0.956359
-1.404302
0.061677
-0.118544
0.043332
0.949444
-0.377449
0.044458
0.609195
0.254457
-1.989159
0.076975
1.431671
0.503529
1.499126
0.363241
-1.295790
-0.233875
0.713959
0.426699
-0.926893
0.014940
-1.050553
0.299168
0.017888
0.231305
-0.239948
-0.160472
0.509670
-0.765201
0.018489
0.463142
-0.518764
0.124673
-1.199942
0.080031
1.391994
0.204191
-0.567753
-0.087687
0.656309
-0.799515
0.110012
-1.173035
0.340654
0.198812
-0.128909
-0.886778
-0.582185
0.096993
0.468695
-1.377480
1.282226
-0.147047
-1.436092
-0.229693
-0.248690
-0.180679
1.041417
1.263670
-0.460067
0.043496
-0.938186
-0.112349
0.778098
-0.176485
-0.142796
-0.927837
0.220381
-0.297213
-0.305299
-1.251465
0.831787
-0.743603
0.227011
-0.376495
0.520797
0.091632
-0.009152
-0.029720
-0.099127
0.995362
-0.460324
-0.096367
0.322994
-1.444891
-0.749800
-0.572109
-0.377521
-1.202154
0.795877
0.638700
-0.021568
0.117213
0.216521
-0.302544
1.095187
0.087944
-0.073403
1.273932
-0.352149
-0.857478
-0.328723
-0.695497
-0.204798
0.098327
-1.511490
0.661968
0.066700
0.594399
-0.170659
-0.807197
-0.746473
-0.910429
-0.379602
1.881565
-0.378816
0.300181
-0.735479
0.112372
-0.811673
-0.027580
0.612990
1.024605
-0.963923
-0.184966
-0.365769
0.254875
0.291833
-0.145155
-0.140667
0.088232
-0.598140
-0.608624
-0.318538
-0.660831
-0.118473
1.552804
1.694131
0.909239
-0.746604
1.259731
0.908296
1.574410
-0.635115
-0.372070
-0.219465
-0.756932
0.349459
-0.026719
-0.651056
-0.494096
1.240074
0.898995
-0.465048
0.082583
0.199521
-0.548562
-0.560169
-0.720564
0.879395
0.453983
-0.471167
1.471729
-0.312248
-0.125517
0.726879
-1.129152
-0.575475
0.826068
0.450156
-0.497394
0.844793
-0.029669
-0.249036
-0.753575
0.920103
-0.915368
0.357544
-1.035828
0.353876
0.438037
0.485978
-1.380616
-1.548854
0.223889
-0.043197
-1.348421
0.598553
1.877820
-1.131888
-0.068045
0.183974
0.839807
-0.640943
-0.510131
1.040789
0.113733
0.240279
-0.239509
0.055159
-0.720370
0.016261
-0.364155
-1.961610
0.331978
-0.036700
0.040733
-0.889909
-2.475884
0.157640
-1.516395
-0.763771
0.185595
0.180413
-0.752542
-0.782466
-1.362651
0.246436
0.770289
0.874749
-1.189839
-0.590524
-0.454975
0.080145
-0.370251
0.627662
-0.132180
-0.119791
-0.163849
0.814356
0.705575
-0.073202
0.844316
-0.927498
-0.773438
-0.387907
0.294009
1.476819
0.594164
0.425871
-0.677340
0.633654
0.696030
-0.225368
1.652092
0.324025
-0.955419
-0.891937
-0.192992
0.511876
-0.090046
0.030816
0.604903
-0.240634
-0.239124
1.196261
0.013102
1.276513
-2.370066
-1.315429
1.062673
0.402741
0.231085
0.015555
0.395723
-1.958721
0.466730
-0.578873
0.620231
-0.608656
-0.510085
-1.365229
-0.728097
0.837270
-1.296677
-0.514455
0.124150
-0.432515
-0.593053
-0.019666
0.231112
0.182195
0.075374
1.325497
0.646683
-0.202699
-0.489489
0.180361
-0.150600
0.183423
-0.585818
-1.112825
-0.796026
0.071408
-0.112639
1.104257
0.725205
-1.347945
-0.694204
-0.557386
0.140824
-0.169489
-0.182910
0.917526
-0.080285
0.571398
-0.536199
-0.248812
0.627544
-0.614484
-1.967246
-0.510726
0.566253
-0.435096
0.997739
0.454155
-0.544628
0.178245
0.956992
1.193121
0.757956
0.655094
0.169798
0.923118
-0.041953
-1.581985
-0.585114
0.258170
-0.182162
0.252079
-1.504767
1.344177
0.459554
0.972074
-0.750495
-0.583764
0.064154
-0.414320
0.416482
0.606831
-0.229580
-0.512337
-1.111493
-0.019399
-0.445745
-0.085180
-0.499173
-0.207508
0.368553
0.434807
-1.795544
-0.591716
-0.920000
-1.039344
-0.083020
0.360223
-0.486724
0.010614
-0.167889
-1.104104
0.216490
1.033316
-0.740060
0.257998
-0.994872
-0.107955
-0.230982
2.051534
-0.568836
0.641866
0.271627
-0.348314
0.218591
-0.071008
-0.701490
0.475116
-0.188756
0.722994
0.149242
0.350822
-0.139285
-0.654505
-0.613798
0.484066
0.107097
-0.056996
-0.419443
-0.984203
0.093006
-1.264153
1.005106
0.726797
0.244452
1.013169
0.271198
0.429245
0.268512
0.206099
-0.314056
1.055709
-0.314042
0.828482
-0.966663
-0.332449
1.280918
-0.677491
0.429314
-0.527858
0.337854
0.016651
-0.314407
-0.239044
0.135159
1.655332
-0.994535
0.866616
-0.736016
-0.528587
-0.046265
-1.055255
0.755360
-0.301498
0.554647
0.458278
0.457850
-0.088528
-1.319136
-0.211315
-1.878548
0.785244
-0.397043
0.850764
-0.258110
-0.375815
-0.156103
-1.015087
0.123960
1.085541
-0.514175
-0.488286
-0.971410
-2.553651
-0.937062
-0.008484
-0.116815
-0.737442
-0.714788
-0.508978
-1.103387
-0.676961
1.008002
-0.215152
-0.173319
0.430360
-0.046813
0.868405
0.562366
-0.589977
-1.263624
0.126362
-0.101790
1.511586
0.185258
1.109423
-1.205761
0.721096
-0.424678
0.128515
0.227896
0.561711
0.302376
-0.880441
-0.541681
0.210686
1.037124
0.871897
-0.262166
0.630324
-0.078263
0.538938
0.304960
-0.120017
0.721214
-0.482895
0.082529
-0.325917
1.387116
-0.080949
-0.259629
-0.198894
-0.617145
0.267617
-0.702595
0.234448
0.889557
0.091266
1.184130
-0.510752
1.099534
-0.392674
0.046158
0.360625
0.070973
-0.946895
-0.004193
0.377294
-0.055940
-0.611015
0.623818
-0.958916
-0.461952
-0.878693
0.271223
0.178456
-0.199108
0.461296
0.757786
1.003614
0.248599
-0.712962
-0.370817
-1.829574
0.938287
-0.306472
0.222885
-0.587308
-0.774395
-0.834209
0.025369
-1.010679
0.593103
-0.763130
-0.030028
0.550225
0.471172
-0.452158
-0.638605
-0.348492
0.244235
0.664895
-0.062575
-0.521057
-0.059637
0.202081
-0.437652
0.052850
-0.626207
0.846923
0.561246
1.397544
-1.294897
-0.492825
0.347032
-0.018692
0.027078
-2.078573
1.619887
0.136570
-0.531375
1.531902
0.041256
0.116019
-0.521108
0.729467
-0.048620
-0.831225
-0.430592
0.101960
-0.021737
1.622881
0.506409
0.795055
-0.091862
0.809909
1.710308
0.219945
-0.369325
-0.965818
-0.609312
-0.235955
1.179203
0.020915
-0.874047
0.630077
-1.333344
0.763357
0.052225
2.057355
-1.295305
0.673196
-0.043623
-0.440164
-0.251298
-0.251636
-0.500761
0.277602
0.288758
0.003264
0.141052
-0.004727
0.220554
0.416794
0.310492
-0.545777
0.278865
-0.169500
-0.405302
-1.192285
-0.588366
-0.322870
0.269713
0.089854
0.131731
-0.142679
-1.355148
1.031846
-1.106777
0.476084
0.201182
-0.058551
-0.168807
-1.677985
0.082149
-0.237880
0.525407
-0.397883
-0.660060
-1.521304
0.108717
-0.428265
-0.936809
0.089878
-0.171321
-1.249485
1.665088
-0.153540
1.386302
-0.594168
2.141862
-0.963417
-0.345291
-1.115795
-0.502582
-0.141532
-0.873273
-0.036358
1.065263
-0.452882
0.498536
0.462234
-0.346080
-0.683302
-0.031981
-0.173141
-1.308707
-0.509365
0.086777
0.531029
-0.294821
-0.280747
0.910902
0.181859
0.956293
-2.217991
0.323959
-1.641912
0.636983
1.204365
-0.689210
-0.778688
0.035498
-0.470367
-0.126624
-1.142006
-1.105587
0.462467
0.039896
0.115980
-1.021380
0.217934
0.120836
-0.997693
0.523892
-0.064653
-0.677067
0.366977
-0.190187
-0.717299
0.485256
1.829183
0.761628
-0.383707
0.352752
-0.386375
0.187377
0.958949
0.304761
-0.716813
0.261215
1.364060
0.710902
-0.548098
-1.209116
-0.884362
-0.106665
0.622691
0.046819
-0.425820
0.131507
-0.941638
-0.332241
1.223391
-2.201513
-0.223539
-0.506101
-0.593140
-1.864223
-0.093319
0.090002
-1.478117
-0.834684
-0.684698
-0.038832
-0.234460
0.539669
-0.357648
1.082716
-0.139356
-1.315982
-0.847785
0.429324
-0.020207
-0.261121
0.786507
-0.543237
0.435880
-0.930719
0.373640
0.049943
-1.239458
0.047101
-0.436009
-0.198614
-0.144055
0.408261
0.053881
-0.764402
-0.135956
0.217258
0.697492
-1.169905
0.617080
-2.456501
-1.016141
-0.677900
-0.199667
-0.591731
0.028765
0.015920
0.228335
-0.077875
-1.122392
-0.974334
1.064062
-0.358950
0.061958
-0.143115
0.232144
0.236611
-0.569231
-1.366849
-1.469551
-1.812903
-0.046006
0.342600
-1.039255
-0.074748
-1.245033
0.089249
0.608580
-1.579864
1.120315
0.185233
0.113129
-0.631409
0.286573
0.073619
0.570906
1.237030
0.708461
1.445691
0.046454
0.525303
-0.000195
0.232674
0.264905
0.566513
-0.589539
0.326605
1.178119
0.998770
-0.479911
-0.562623
-0.320986
-0.238541
0.601919
-0.406864
-0.266380
0.129220
-0.767669
-0.142362
-1.188390
0.159840
-0.609252
-0.650218
0.533075
-0.681203
-0.057734
-0.224864
-0.542071
-1.467109
-0.126792
-0.000126
-0.061831
-1.024550
-0.116042
0.655673
0.552443
-1.581859
0.013428
0.052294
-0.177658
0.192863
-0.369583
0.159768
-0.642853
1.500009
1.437742
-0.221117
-0.537341
0.554019
-1.370516
0.381165
-0.068013
0.016324
-0.046787
0.019458
0.040861
0.356393
-0.205516
0.996329
0.053536
0.531780
0.764644
-0.474415
-0.569949
-0.438241
-1.147951
-1.579507
1.560760
0.465301
1.333018
-0.788870
1.524702
-0.194590
-1.107604
-0.069809
0.438900
0.320980
1.399451
0.085389
0.034327
-0.629631
0.753965
0.460415
0.353230
0.047120
0.187358
0.558000
-1.729118
-0.244173
-0.647863
-0.816768
0.841201
1.291805
-0.217527
0.039772
0.957495
-0.688654
-0.368651
-0.516215
0.704976
0.848403
-1.218587
-1.764152
-0.023799
0.344642
-0.129017
-0.221280
-0.895112
0.703343
-0.540424
0.084334
-0.422121
1.305755
0.000070
0.271754
-0.913726
-0.192688
2.559000
-0.383627
-1.085993
-0.070946
0.279516
1.066505
0.464477
0.265056
-0.496337
-0.805435
-0.608148
0.630733
0.598934
-0.791434
0.192728
-0.567473
0.089358
0.130380
-1.102088
-0.031301
-0.920992
0.339434
0.430040
-0.841213
1.499154
0.074386
0.440220
0.734820
-0.088651
0.010999
-0.909590
-0.032734
-0.316510
1.190719
-0.265626
-0.696761
-0.705270
0.451028
-0.182765
0.196626
0.598944
0.033523
0.595462
-0.316556
-0.933511
-0.405740
-0.061764
0.022553
-0.281136
1.106196
-0.351507
0.310763
-1.783813
-0.854584
0.192369
-0.495259
-0.304496
-0.116825
-0.942269
-0.256217
0.542481
-0.719592
-0.317304
1.345278
-0.105558
0.641333
0.070267
-0.049821
-1.674739
0.131385
0.971561
-1.517507
-0.575347
-0.257984
-0.454895
-0.122176
-0.148006
-0.633455
-0.971693
1.017278
0.021713
-0.190061
0.013661
0.144517
0.788075
-0.225710
-0.672159
0.037334
0.088191
-0.045846
0.735609
-0.596526
-0.355524
-1.454101
-0.467904
0.102082
-1.014493
-1.124838
-0.427795
0.154475
1.471986
0.841988
-0.277335
0.649378
1.041562
-0.347123
0.884594
-1.187563
0.431080
0.093764
0.910655
-0.411337
-0.211865
-1.725803
-0.010021
1.247009
0.453599
0.327923
-0.438851
0.776637
0.347146
-0.498770
-1.236822
0.150669
-0.283350
-0.862643
-0.574912
-1.606294
0.563123
0.809379
0.237905
0.914275
-0.418426
0.147418
-0.959435
-0.752243
-0.068378
0.508559
-0.372000
-0.186634
-1.719622
-0.374389
-0.716907
1.599029
-1.106794
0.090817
0.243761
0.448411
-1.195703
-0.450147
-1.643581
-1.319454
1.694007
0.907362
-0.997491
0.184582
0.473561
-1.457910
-0.754596
-0.870194
0.346042
-0.357617
-0.345626
-0.286954
-0.529592
-0.692627
0.437938
-0.511389
0.454921
-1.303579
0.931595
-0.266990
-1.285847
-0.337582
-0.204295
-1.251686
0.300814
0.982002
-0.175314
0.213416
0.344428
-1.908143
-0.375514
0.349074
0.001363
2.116187
-0.441915
-0.995685
-0.062434
-1.013296
-0.654134
-0.087172
-0.604729
-0.135838
-0.220386
-1.592588
-0.300813
-1.055736
-0.289300
0.054249
-1.541795
-0.083024
0.990143
1.347471
-0.145360
0.146370
0.844878
-0.201427
0.405942
-1.473127
-1.091664
-0.275514
-0.614624
0.237942
-0.306536
0.467743
0.409151
0.602885
0.159170
-0.120980
1.866987
-1.301650
-0.441611
-1.231755
-1.007597
-0.674497
-0.827132
-0.085932
0.896438
0.019290
0.888457
-0.594853
-0.914337
-0.218879
-0.884977
-0.922717
0.289443
0.332181
0.097855
0.241420
0.318569
-0.512229
-0.488250
-0.704728
-1.167513
0.171588
0.923691
0.066640
-0.433371
0.434467
-0.177468
0.454072
1.024011
-0.305449
-1.062812
-0.476198
0.162465
-0.108693
-0.579542
-0.387251
-0.290374
-0.119121
0.896181
-0.322257
0.795312
-0.259872
-0.036580
-0.488397
0.263884
-2.762196
-0.472357
-0.469628
0.009325
0.321149
1.284863
0.492724
-0.801680
-0.617670
0.483325
-1.296209
-0.235931
0.002829
-0.590378
-0.374610
-0.177891
0.079915
0.066150
-0.002263
0.884929
-1.035411
0.408362
-0.582321
-0.050883
0.823380
0.799609
0.698128
0.596144
0.215337
-0.091122
-1.734765
-0.104285
0.791927
0.415173
0.105678
-0.149357
0.086470
0.905134
-0.112504
0.026045
-0.326625
-1.068176
0.350623
-0.295301
-0.842201
0.726826
-0.277337
0.838091
0.089868
-0.804826
-0.030750
0.152858
-0.602150
-0.396070
-0.186922
-0.879138
0.893349
0.544073
0.000149
-0.106245
0.291469
-1.831481
0.887419
-0.318763
1.021767
0.853593
1.356305
0.469076
0.060882
-1.062036
-0.400387
0.119241
0.301365
0.064408
0.113515
-0.146065
0.180287
0.223506
-0.796634
-0.599943
-0.485389
0.016475
-0.684872
-0.869173
-0.177276
0.343400
0.239103
-0.517152
-0.030648
0.053447
0.501803
-1.082276
0.309756
-0.002614
-0.055256
0.138150
-1.051218
-0.929467
1.225368
-0.621043
-0.442633
0.136136
-0.108086
-0.232554
-2.402353
-1.018043
0.616352
0.832282
0.706914
1.759843
0.082456
-0.712700
0.224437
0.902735
0.090512
0.184684
0.473813
-0.458009
-0.620169
-0.178557
1.068557
0.164153
-0.264589
0.051697
-1.556787
-0.739339
0.228557
0.658989
-1.385115
-0.952088
-0.080470
-0.119731
0.281527
0.343134
0.395876
-1.714536
0.145230
-0.627715
-0.981533
-1.065425
0.236466
1.137336
0.268859
-0.920140
0.233427
0.619351
-0.184451
0.591053
0.176796
1.061324
-0.319043
-0.094455
0.128836
0.016862
0.519896
1.305166
-0.199598
0.327481
0.612531
-0.820894
0.199109
0.463173
1.013336
-0.397777
1.125891
-0.005174
-0.336077
-0.746617
0.795474
0.379380
0.737535
0.246850
0.748811
1.752630
0.207655
-0.828664
0.586915
0.331789
-0.913572
-0.644129
-1.672596
1.018246
0.848783
0.473315
0.176771
0.022155
-0.534979
-0.690410
-0.022481
-0.358122
-0.211424
1.128137
0.750540
-1.155720
-0.496036
0.177919
-0.641587
-0.935901
-0.846150
0.668406
-1.057589
0.512833
0.162971
-0.337316
0.584422
-0.657576
-0.675085
1.193157
0.861805
-0.026812
-0.436054
-0.268570
0.497317
-0.554760
1.954488
0.283570
0.153252
-0.371126
-0.174316
-1.409896
-0.065983
0.090714
-0.982467
0.185733
0.223139
-1.159666
-0.370690
-0.148015
-0.103821
-0.381610
0.608349
-0.330196
0.524309
-0.759058
0.229758
0.961278
-0.366457
-0.847835
-0.260674
0.764060
0.026851
0.896991
-0.767366
0.913879
-1.410304
-0.445944
0.290382
-0.071757
0.078136
-0.109356
0.317857
0.366393
-0.977354
-0.238729
0.262354
-0.900955
-0.392601
0.713938
-0.425015
1.455362
-0.427476
-1.309240
0.395787
-0.567082
-0.075044
-0.372543
-0.764491
0.327696
-0.786575
0.701535
2.036088
0.087712
-1.265995
-0.204569
-0.473352
0.061445
-0.235585
-1.409807
0.850289
-0.476938
-0.945158
-0.106973
0.629349
0.173867
-0.793089
-0.919717
-1.922949
0.947288
-0.070432
-0.969977
0.541883
0.695603
0.336651
0.882419
-0.848838
0.789897
0.506198
0.629565
0.616283
-0.213991
-0.357479
0.444279
0.940843
0.147784
0.229572
-0.959031
-0.765214
-0.264050
-0.161790
-0.198829
0.142511
-0.720273
0.615756
0.122668
1.188357
-0.228099
-0.029005
0.108935
-0.456829
-0.084394
0.104698
-0.309288
-0.415987
1.915172
-1.338053
0.577142
-0.050344
-0.014744
0.556108
-2.202147
-0.446073
0.448790
1.071178
0.165806
-0.384855
-0.701527
-1.789564
-0.437697
0.705875
1.368275
0.990169
-0.900308
-0.139052
-0.335623
-0.043319
1.282317
0.242164
-1.723816
0.126088
-0.994118
0.420419
0.166621
0.761170
-0.287688
-1.536829
-0.411557
1.184427
-0.644144
-0.202790
-0.131572
-0.594465
0.048490
-0.415764
-0.951586
-0.935736
1.119053
0.428459
0.855402
0.059393
0.473969
0.791595
-1.050468
-0.051765
1.234218
-0.106259
-0.153137
-1.171435
0.598084
0.443113
1.298434
1.641691
1.159597
0.305173
0.841121
1.180750
-1.384510
0.615593
-0.258410
0.450564
0.630637
0.253990
-0.656427
-0.786180
-1.565500
-0.261161
0.975552
0.897028
0.105896
0.295643
0.029352
0.370450
0.469442
0.341367
-0.161980
0.319926
-0.531362
0.049666
0.823061
1.112421
0.134875
0.778291
0.155563
0.515592
-0.239449
-1.383846
0.773899
-0.348394
0.260777
-0.834262
0.331320
-0.026888
-0.953241
-0.362393
0.341181
0.716098
-0.370056
1.160772
1.211053
-0.541054
0.264995
-1.386551
-1.486187
-0.328596
1.111516
1.224304
-0.291979
-0.451895
-0.476679
0.339632
0.809943
0.021447
0.659796
0.163161
-0.558129
-0.957210
-0.641368
-0.987131
-1.153502
-1.020102
-0.057654
-0.123431
-0.109532
-0.125053
0.079064
-0.129878
0.041966
-0.054704
0.158047
0.403201
0.964198
-0.201845
-0.784355
-0.956022
0.254926
1.167330
-0.134098
1.572092
-0.499830
0.301645
0.228376
1.159832
-0.691218
-1.624274
0.013856
-1.606660
0.203173
-0.090829
-1.020927
-0.132000
0.084693
0.767067
-0.808559
0.752602
0.126472
1.935453
-1.227556
1.105944
1.168315
-0.548792
0.008638
-0.220109
-0.170132
0.826658
-0.321692
-1.022928
1.706925
-0.109374
-0.801167
-1.684410
-0.732933
-0.449113
-0.353567
0.587729
-0.401938
-0.799993
-0.407589
0.490451
0.345771
0.016522
-0.855816
0.060451
-0.966304
-0.030269
-0.530279
-0.459250
-1.689849
0.048650
-0.223127
-0.358584
-1.674906
1.090941
-0.089786
-0.714221
-0.013582
-0.421970
0.927491
-0.255107
0.738017
0.316848
0.941536
-0.289496
-0.379352
-0.085709
-0.405157
-2.324952
1.020960
-0.388122
1.472858
-0.749802
-0.550859
-0.388860
0.159538
0.534276
-0.421886
-0.266235
0.041816
-0.590125
-0.315473
-0.429237
0.432305
0.026917
-0.241919
0.005309
0.257504
-0.937315
0.216482
0.263139
-0.139446
0.006717
-0.525107
-0.496526
-1.296371
0.628960
1.083612
-0.637778
-0.063695
-2.083915
0.044662
-1.119546
-0.058408
1.229214
0.738085
-1.173745
0.300011
0.339321
-0.301214
-0.860524
0.455603
0.022259
1.165451
0.531857
-0.306361
-0.737273
0.242191
0.167800
-0.690153
-1.202838
0.111719
0.633135
-0.303853
-0.183417
-1.102009
-0.872867
-0.696878
0.341787
0.537942
-0.624249
-0.695236
-0.268517
-0.598175
-1.337484
-0.645299
-0.128353
-0.077618
0.153039
0.395386
-0.208717
1.149698
0.154623
0.451920
-0.982073
0.432452
-0.626769
-0.114613
-0.203789
-0.076754
-0.748043
-0.148881
-0.246582
-0.259457
-0.264709
0.171919
0.740146
0.543659
-0.146934
-0.169840
-0.308729
0.555765
-0.603162
0.912823
0.269578
0.927545
1.745761
0.793626
-1.025704
-0.001693
0.365735
0.146221
1.090282
-0.885770
0.339231
-0.019897
-0.272660
-0.573648
-0.295625
0.323538
-1.190255
-1.421665
0.404230
1.447834
-1.332252
1.362612
-0.481084
-0.647887
-0.026129
-0.310947
-1.802839
-1.227027
-0.212023
0.820765
-0.732235
-0.063886
0.224874
0.436215
-0.881235
0.570310
-1.544777
-0.153171
-0.463973
-0.201816
0.436625
-0.699748
-0.531508
0.174726
-0.005898
-1.073851
-0.768420
0.189114
0.035023
0.326170
1.092204
0.833626
0.210039
-1.128311
-0.007305
1.427045
-0.679038
-1.605470
-0.641184
-0.536650
-0.151388
1.212867
-1.116654
-0.094930
-0.414459
0.231662
-0.641848
-0.685127
-0.317828
-0.741910
0.373972
-0.616977
-0.218943
0.058616
-0.162146
1.454925
-0.519605
-1.572789
-0.684712
-0.820715
0.605799
-0.346355
-0.876462
0.163651
-0.016669
0.149345
0.737487
-0.229347
-0.508381
0.026175
1.281147
-0.248276
0.836680
-1.269499
0.393069
-0.267768
-0.179131
0.192263
-0.399315
-1.046841
0.695811
0.061603
-0.836069
-0.074538
-1.613462
-0.454879
-0.970010
1.593951
-0.731738
-0.656690
-1.700580
0.539982
0.570206
-0.764583
-1.817361
-0.392755
-0.981675
-1.755254
-0.830768
-1.104240
-0.430945
-0.954031
-0.739580
-0.166663
1.528859
0.826466
-0.646219
-0.576719
-0.620310
-0.925612
0.664515
0.213984
-0.185546
-0.031368
-0.240933
0.587558
0.885019
0.879637
-0.490439
-0.152895
-0.018449
-0.056253
-0.524145
-0.304798
-0.661597
-0.357430
-0.186123
-0.216828
-0.230573
-1.567293
0.470499
-1.068736
-0.070347
-0.280714
-0.909409
-0.371176
-1.429550
-0.825933
-0.087625
1.138917
-0.121598
-0.540474
0.684877
-2.386537
-0.120856
-0.040655
0.011673
0.740106
0.490681
-0.233837
0.280994
-0.543418
0.354520
-0.609356
-0.184691
1.184502
-0.618914
0.290837
0.641230
0.747981
-1.046539
-3.566370
0.386130
-1.606680
0.501686
0.225545
-0.965444
0.631399
-1.160272
0.844913
-0.455598
-0.017802
-0.332144
0.059870
-0.721473
-0.164888
-0.876209
-0.760270
0.036154
-0.958477
-0.431378
0.137806
-1.110842
-0.087180
0.789950
0.116485
0.372672
-0.962197
-1.449647
-0.309232
-0.667372
0.522837
-0.308668
-1.018635
0.464284
0.305757
-0.505187
1.757320
-0.443629
-0.165806
-0.498334
0.417226
1.021594
1.571321
0.244021
-0.416531
0.532925
0.812632
-0.416820
-0.935287
-0.723563
-0.408455
-0.383122
0.651314
0.140894
-0.040301
-1.106063
-0.051245
-1.129938
-0.519808
-0.010032
-0.278557
-0.335349
0.031212
1.049749
0.106882
0.715895
-1.103905
-0.186222
-0.035984
-0.640872
-2.327745
-2.010922
0.800484
0.541316
0.088891
0.086935
-1.273357
-1.394313
0.739986
-0.560416
-0.579230
1.677674
-0.725207
-0.974306
-0.569764
-1.086427
-0.014435
0.529183
-0.314261
-2.366238
-1.038584
0.495689
0.010341
0.236126
0.043079
0.023602
-0.088565
-1.846497
-0.073346
1.096099
-1.528641
-0.973245
-0.359849
0.659496
-0.330257
0.912791
-0.931978
-0.107316
-1.508901
-0.478034
1.074451
-0.799750
0.172999
0.001376
-0.654313
1.227376
-0.541765
0.469262
-0.047127
1.616372
0.405296
-0.676253
-0.920345
-0.727893
-2.082110
-0.650951
0.229441
-0.087216
0.219124
0.248109
-0.713856
-0.058137
1.022194
0.821018
0.780146
-0.110588
-1.119525
-0.254345
0.194512
0.101282
0.091163
-0.499310
-0.657720
-0.829301
1.603166
-1.000547
-1.268806
-0.190444
-0.395070
0.393843
0.214935
0.848540
0.431016
0.666159
-1.631806
-0.551063
-0.111237
0.785853
-1.707575
-0.238146
-0.464564
-1.008160
-0.455419
-1.299909
-0.349601
0.204216
-1.050328
-1.335272
-0.987359
-0.879101
-0.428791
-0.200795
0.137214
-1.364787
-0.662314
-0.497088
-0.367755
0.216758
0.791304
-1.273870
0.411116
-0.271645
-0.702192
0.079675
0.021809
0.030506
-0.753862
0.921922
-0.849445
-0.180899
0.178000
0.016594
0.420311
-1.697540
-1.176076
1.516786
0.291109
0.209381
-1.192306
-0.702600
-1.104977
-0.969371
0.371746
-1.009197
0.158825
-1.056629
0.663028
-0.276596
-0.047430
1.038677
0.161176
2.671317
-0.159374
-0.405751
-0.802662
-0.510705
-0.287681
-0.738023
1.807228
1.262381
-0.342814
0.136332
-0.135952
0.342583
1.189666
-2.825641
3.075911
-1.281661
0.563218
-0.740338
0.506034
0.110854
0.555120
0.396013
-0.148805
-0.655654
1.143392
0.503142
-0.188413
-0.418688
0.134500
-1.159660
0.612017
-1.077063
0.141698
1.014953
-0.814889
0.237126
0.566741
-0.074129
-1.511799
-0.785508
0.690208
-0.414379
-0.145143
0.346717
-0.604242
-0.647629
-0.902653
-0.843842
-0.866857
2.956897
-1.071257
-0.192610
-0.625414
0.875356
-0.905993
1.566941
-1.581844
0.781149
-0.371105
-0.498589
0.244089
-0.136209
1.159012
-0.924325
-1.694963
-0.041933
-0.070957
0.044912
0.096623
-0.013617
0.025239
-0.081089
-0.091433
-0.079937
0.059912
-0.053235
0.084798
-0.069609
0.000398
0.044562
0.004387
0.069978
0.000657
-0.098689
-0.021583
-0.031828
0.013573
0.096848
0.055082
0.049630
-0.082300
0.027888
0.096191
-0.070671
0.089365
0.026512
-0.012604
-0.081592
-0.028576
-0.015981
0.004791
0.096664
0.002930
0.013357
-0.083274
-0.037157
0.060122
-0.098475
-0.006767
-0.039480
0.046086
0.097620
-0.069502
-0.053256
0.098932
0.008915
0.014916
0.012505
0.005763
-0.030002
-0.037865
0.023463
0.097885
-0.041674
0.052792
0.087251
0.084838
-0.059812
-0.094341
-0.043738
0.024207
0.010450
-0.047074
-0.072862
-0.076193
-0.030348
-0.010020
0.083929
-0.028823
0.083213
-0.055551
-0.082737
0.080834
-0.025052
-0.035993
0.079765
0.083862
0.078922
-0.007730
-0.010374
-0.051080
0.054405
-0.086911
-0.053194
-0.087270
0.065881
-0.065944
0.097568
-0.093931
-0.060285
-0.046169
0.030277
0.050165
0.006756
0.057415
0.073972
0.076408
-0.052605
0.057901
-0.052415
-0.069392
-0.097650
-0.035152
-0.088558
-0.022702
0.028855
0.091208
-0.038840
0.007777
-0.016522
0.050786
0.056697
-0.062118
0.063875
-0.096497
-0.049387
0.029756
-0.062441
-0.051819
0.035825
-0.022726
0.002011
-0.033898
-0.072561
-0.091232
-0.076483
-0.098589
0.085176
-0.029089
0.059312
-0.067239
0.001520
0.061662
-0.002390
0.012962
-0.061040
-0.073536
0.004170
0.000120
0.034241
0.087647
-0.049094
-0.009061
-0.074470
-0.085219
-0.005559
-0.023858
0.044536
0.032000
0.024323
-0.019638
-0.090726
-0.073665
0.046464
-0.063287
-0.064898
0.069980
-0.061876
-0.079721
-0.059108
0.097436
-0.046960
0.042411
0.059098
0.050650
-0.044627
0.098058
0.077114
0.059543
-0.001822
0.011355
0.047190
0.049084
-0.097706
0.072720
0.063864
-0.003265
-0.051138
0.008401
-0.071265
0.073185
0.088762
-0.061990
0.099520
0.035226
-0.025277
-0.065378
0.005206
0.012847
-0.045099
0.046098
0.010283
0.007941
-0.011491
-0.030619
-0.041409
0.043883
-0.032562
-0.064295
0.003426
0.065616
0.047061
-0.049384
0.014700
0.049355
-0.076664
-0.021436
-0.053910
-0.027802
0.086965
-0.025175
-0.054617
0.075727
0.012835
-0.055097
0.010953
0.087558
-0.020475
-0.083841
0.000405
0.317956
0.252924
-0.336605
-2.055374
-0.424693
1.878068
-0.533317
-0.266067
-0.221524
0.115477
0.402056
0.550633
0.616853
-1.371782
1.321817
-0.456465
0.982740
-0.664581
0.339166
1.400258
0.863983
-0.089834
-0.198142
-0.093905
-0.062506
0.547202
-1.384583
1.238932
-0.233691
-0.044715
-0.717939
-0.109866
-0.832231
-0.664060
-0.584508
1.576834
-0.438449
1.111873
0.067512
0.344468
-0.045275
0.230236
0.332183
0.046043
-0.745057
0.476618
1.111873
-0.354419
1.395777
0.472706
-0.148689
0.176102
0.078886
-0.018607
0.287295
-1.543630
0.937941
0.599911
-0.392170
-1.061599
2.122670
-1.341738
-0.127240
0.152695
-0.163591
0.296859
0.024042
0.449113
-0.251715
-1.021948
0.251899
-0.220333
0.067350
-0.090277
0.250215
-0.204293
0.108987
-0.042756
0.094885
-0.124270
-0.312160
-0.803042
0.535996
-1.045942
-1.231983
0.145514
0.263527
0.046752
0.122975
0.834782
0.721646
-0.865220
-0.293486
0.763206
0.402359
0.153811
2.326612
-0.280136
0.482423
-1.270501
0.807012
-1.063252
-0.704117
-1.106012
-0.581215
-0.828459
-0.379329
0.702834
0.216051
-0.499468
0.625239
0.304867
-0.585697
0.074700
0.339822
1.809123
-0.645156
0.374989
1.804017
0.488458
1.268614
0.030769
-0.275237
