-4.680554
-5.491982
-5.002877
-5.442473
-5.518626
-4.617313
-5.241454
-4.399742
-4.960871
-5.391904
-5.353982
-6.317068
-5.538638
-5.401592
-4.795913
-5.013366
-5.973303
-6.458385
-5.395604
-6.395674
-5.171514
-5.415400
-5.436058
-5.510351
-5.968256
-6.101231
-5.592130
-5.520791
-5.759933
-5.298073
-5.112831
-5.435309
-5.384540
-5.274721
-5.608759
-5.687190
-4.553247
-4.309915
-4.833779
-4.587520
-5.206278
-3.708684
-5.537293
-4.762204
-4.352272
-5.632026
-5.067283
-5.315413
-6.459805
-5.021161
-4.838492
-5.660610
-5.661700
-5.316049
-4.814538
-4.603140
-5.127456
-5.876779
-5.652863
-6.314194
-5.443043
-5.119284
-5.255637
-4.627819
-5.674254
-5.729146
-6.133110
-4.941106
-5.171599
-6.118221
-5.158966
-5.752880
-6.251346
-5.309988
-5.438813
-6.054301
-4.453187
-5.298356
-5.529024
-5.525188
-5.388404
-7.077703
-5.539370
-5.566811
-5.086586
-4.841439
-6.083673
-4.903013
-4.857965
-4.032532
-5.095041
-5.105765
-5.755270
-5.620754
-6.267325
-6.099102
-4.806958
-5.736340
-5.296394
-4.935864
-6.376575
-5.460138
-5.220487
-5.669046
-4.447420
-6.344462
-4.843685
-6.084648
-5.705942
-5.211578
-5.495073
-4.515556
-6.334349
-4.987397
-5.481901
-4.835329
-5.598621
-6.234995
-5.636508
-4.838090
-3.854926
-4.932967
-5.018320
-6.749725
-6.011813
-6.268024
-6.304119
-5.344988
-6.628973
-5.428151
-4.833797
-4.493920
-4.497246
-5.780355
-6.085629
-5.363252
-4.628420
-5.406437
-4.562053
-4.669936
-5.349884
-5.747387
-5.313649
-6.128198
-6.087204
-4.902543
-4.525870
-5.280406
-5.733946
-5.149179
-5.940229
-5.229092
-5.377728
-3.767124
-5.586933
-5.046571
-4.351216
-6.374887
-4.834134
-5.908428
-5.648904
-5.673760
-5.112346
-5.403486
-5.189709
-4.654134
-5.203611
-5.443780
-5.963389
-6.427338
-5.435056
-6.164739
-6.379061
-5.366809
-5.044562
-4.209498
-5.581378
-4.717870
-6.047509
-6.266429
-6.378444
-6.119162
-5.202531
-4.536636
-6.104800
-5.239018
-6.628213
-5.789386
-5.138206
-5.303888
-5.352336
-6.382568
-5.271473
-5.305672
-5.522927
-5.155533
-6.022297
-4.578436
-5.431643
-5.634304
-5.760447
-5.529610
-6.121154
-6.213332
-5.024275
-5.091570
-5.506750
-5.889179
-5.690462
-4.617257
-4.914262
-4.603350
-5.564693
-5.379414
-5.489271
-6.008183
-6.578377
-5.123302
-4.847798
-6.317036
-6.148890
-4.452451
-3.985446
-6.461013
-6.354124
1.255095
-2.152553
-0.245750
0.060409
-1.608356
2.458650
-1.379154
0.218174
0.610678
0.057309
-0.419258
0.436138
0.843476
-1.562452
-0.546101
1.632440
-1.343603
1.020071
-1.090542
0.078834
-0.196221
-1.004165
0.014956
1.138700
2.065186
-0.572144
-0.819087
1.402312
0.838213
-1.726353
-2.098718
0.373075
-2.468935
0.792714
1.210950
-0.993487
0.259471
-0.269857
-0.694339
0.028696
-0.257013
-0.473076
-0.426739
0.840848
-1.100216
1.020715
0.614240
-2.049958
-1.304537
0.664470
-1.145211
0.183640
-0.259106
-0.776611
-0.967267
0.451390
0.354372
1.836754
-0.181695
-0.995117
-0.706719
-0.434559
-0.403903
1.176575
-3.601464
-0.036648
-0.283780
-0.386184
1.414991
3.758210
0.013391
-2.260994
0.317034
0.848629
-1.098776
-0.292313
0.324426
0.474194
-0.863914
0.273113
-0.003172
-0.800754
-0.167897
-0.200877
-0.525522
-0.902339
1.653387
-0.927987
-0.561820
0.062546
1.057400
0.697944
-2.532147
0.664959
0.535924
-0.037535
-0.125746
0.214626
0.488013
-2.242189
0.416144
-0.465710
0.084320
-0.291033
1.069601
-1.806811
1.727367
-2.175462
1.904901
0.875505
-1.572634
-0.222067
-0.818769
-0.064423
-0.116587
0.298238
0.188299
-0.949177
0.783122
0.256094
-0.010978
0.261262
0.214331
0.522500
0.953021
-0.504202
0.305279
-0.594441
1.654940
-1.730481
-0.695292
0.713312
-0.082328
0.944297
-1.801609
-0.720962
2.741268
-0.272224
-0.153767
-0.456872
0.793018
-0.320380
-0.113853
0.930384
0.645501
0.755491
0.619300
2.104644
-0.418064
-1.178616
0.372677
-2.759739
-0.327229
1.306635
1.104734
-0.309784
0.087073
0.479769
0.483466
-0.681351
1.042712
-0.089122
0.625655
1.552769
1.577304
-2.935315
0.273040
-1.575252
-2.005872
-0.857983
-0.878822
0.234940
0.188263
1.617500
0.383190
0.143047
-1.594612
-0.394700
0.207914
-0.824717
-1.591681
-2.290837
-0.075721
0.063411
-1.650335
0.856057
0.940851
0.789830
-0.548540
0.110098
0.670451
0.481658
1.180253
-0.446729
0.827059
-0.362871
-1.725242
2.223617
0.362848
0.571862
0.592679
0.038216
1.280182
-0.546781
-0.000819
-0.941232
-1.354996
2.260485
0.472147
-1.382645
-0.661170
-0.180780
-0.787820
-0.274433
0.774057
0.172785
0.306237
1.264880
1.159902
-0.854500
0.148775
-0.076359
-1.081970
-0.686057
-1.178391
1.363921
-1.757730
-0.486571
0.375786
-1.446164
0.933514
-0.847729
0.238410
0.529588
0.094877
-0.732853
0.468017
0.067028
-1.621313
-0.478996
1.923793
-1.772118
1.005603
-1.183275
-1.199909
0.979477
-1.609671
0.039931
0.499305
0.007662
-0.548425
-0.419104
0.995089
0.176542
-0.227173
-1.365901
0.020104
-1.191827
-0.392354
0.220583
-1.620126
-0.125827
-0.019411
-1.348793
0.103613
-0.150552
-1.124153
0.187988
0.314441
-0.795233
1.129787
-0.018491
-1.428627
-2.112665
0.141202
-1.209445
0.613034
-0.894861
1.395051
-1.216668
1.296390
-0.058331
1.156278
0.244128
-0.274361
-0.687661
0.261006
-0.531400
1.110274
-4.045897
0.270376
-0.246706
0.096851
0.163453
2.775200
-0.173731
-2.836068
0.461729
0.267956
0.648678
-0.545830
0.387898
0.320334
-0.570286
-0.166173
-0.277179
-0.825516
1.027787
-0.960333
-0.618551
-0.682403
0.984868
0.199264
-0.616864
0.205764
-0.083025
0.260137
-1.356135
-0.727417
0.379590
-0.850636
0.359612
0.403227
0.633633
-0.261758
0.557758
-0.191843
0.213452
-0.965028
1.365694
-1.580811
1.125750
-2.064290
0.453565
1.364025
-0.745320
0.371344
-0.359178
-0.549601
-0.661462
0.564212
0.031808
-0.698206
1.077090
0.001479
0.328555
1.273906
0.279470
1.685657
-0.157705
-0.373749
0.576990
-0.049548
0.369682
-0.263244
-0.490670
0.727617
-0.025399
1.082635
-2.036289
-1.555708
2.888692
-0.762838
-0.043164
-0.859633
0.857191
0.671332
0.436385
1.101812
-0.538500
0.464675
0.694242
2.203539
0.216616
-1.042689
1.240737
-0.560921
-0.681366
1.062791
0.572386
0.337727
-0.002216
0.909345
0.716729
-1.242299
2.555293
-0.168154
0.027060
1.023333
1.327757
-2.515170
1.143806
-2.226588
-1.642904
-0.502766
-1.171798
-0.419224
-0.703049
2.938458
0.630525
0.740880
-0.628964
0.074773
-0.405259
0.636945
-1.938291
-2.596163
0.916519
-0.090637
-2.138896
0.874286
1.327620
1.848247
0.442596
0.055215
0.706872
0.833172
-0.825188
-0.002222
0.845256
0.003291
-0.731723
0.873028
0.379260
-0.314775
1.127400
-0.743781
0.520964
-0.799075
0.592963
-2.124053
-2.094072
0.855455
1.424953
-0.465974
-1.029228
-0.220091
-0.550972
-1.009411
0.184568
0.395768
0.221945
2.384440
1.115578
-0.940187
-0.318871
-0.162777
-0.402510
-1.320385
-0.290921
1.982222
-0.951359
-0.768082
0.814013
-1.297934
0.857954
0.211401
0.385714
0.640827
-0.222232
-0.389997
0.265329
2.325822
-1.285969
-1.363201
0.128053
-2.219621
0.481567
0.083514
1.238511
1.397971
0.483375
-0.116634
-0.078874
1.431080
-0.613162
0.566823
1.019411
0.227013
1.032736
-1.123655
0.010557
-0.473207
-1.036072
-0.732731
-2.134954
-0.088659
0.113641
-0.957872
0.082613
-0.153561
-1.231002
0.462893
-0.341471
-0.067021
0.586425
-0.941680
-1.341056
-1.226343
0.243919
-1.678573
-0.117972
-0.121620
0.288788
-0.874713
0.626504
-0.786454
0.817836
-0.251063
0.419460
-0.943606
-0.494062
-0.429441
1.232630
-2.133168
0.877950
0.695753
0.313334
1.304368
-0.702978
-0.891869
-1.933492
0.842691
0.949331
1.848570
0.149887
0.086454
0.898288
1.574666
-0.850790
0.226680
0.160152
-0.211493
-1.832867
-0.501792
-0.384737
1.005352
0.162979
-0.687583
0.939818
-0.578374
-0.654993
-0.749894
0.201474
1.687098
-1.299183
0.468706
-0.553812
0.793640
-0.604673
1.088327
0.981218
-0.724662
-0.240731
1.050575
-1.015067
0.391372
-1.571472
1.181959
0.862498
-1.671682
0.139551
1.299637
-0.376631
-1.139175
-0.373453
0.934899
-1.435892
1.220500
0.105759
0.533004
1.504015
0.635039
0.114070
-0.613122
-0.598301
-0.165112
0.417238
0.498933
-0.608501
-1.244144
0.380226
-0.197001
0.596674
-1.671164
-0.632599
0.919845
-0.239698
-0.220158
-0.113394
-0.888283
1.829244
0.371943
1.060139
0.670403
0.304971
2.244504
2.040858
0.149570
-1.267797
0.021735
-0.725933
-0.699012
0.100075
1.484710
0.841153
-0.355582
0.106227
1.277033
-1.466592
2.260074
1.306627
-1.192812
0.461865
1.312579
-1.099043
0.309498
-2.147505
-0.653191
-0.179272
-0.268376
0.402085
-0.789014
1.787639
1.094454
-0.100706
-1.013793
0.868339
0.271685
-0.161187
-1.262751
-2.883439
-0.035776
0.882325
0.258065
0.708337
0.227134
1.644462
-0.303131
-0.482040
1.110172
0.461925
-0.109408
-1.263563
0.248346
1.172603
0.219985
0.845627
-1.000203
-0.375364
1.576288
-1.284734
0.519352
0.120371
0.576792
0.317821
-1.186416
1.490430
-0.371632
-1.031706
-0.360233
-0.160883
-0.698486
0.114928
0.568341
-1.383962
0.080654
0.890268
0.813491
-0.845386
0.949812
-0.135644
-0.626134
-1.075525
0.359594
-0.548047
0.278206
-0.846933
1.184996
-1.969156
0.104087
0.731078
0.071122
0.192558
-0.598789
-0.909334
0.053149
0.697069
-0.615252
-1.860689
-0.432041
-2.735839
-1.330360
0.167193
1.346390
-0.118797
0.979438
-1.030966
0.475732
1.182006
-0.622109
1.236405
0.776919
0.400548
-1.145452
-1.170771
0.084169
1.243972
-0.658148
-0.743976
-1.970281
0.265933
-0.040220
-0.121005
-0.003783
0.014996
-0.201370
-0.446907
-0.298040
-0.495895
1.363685
0.333236
-1.704124
-0.146698
0.541694
-0.348820
-0.373931
0.443745
1.343798
-0.846572
-0.314764
0.283570
1.654982
0.610289
0.330491
0.174423
-0.312844
-0.019218
2.141405
-2.683503
0.018522
-1.241996
0.144053
1.195222
0.125656
-0.361599
-1.747872
0.943469
-0.279893
1.260100
-1.334405
-0.129704
0.433052
1.042957
-1.532997
-0.554661
-0.754913
-1.478777
0.527641
-0.676975
-0.347593
1.190120
0.713445
-0.794906
0.029681
-1.558896
-0.762266
-0.354974
0.349435
2.052068
-2.084164
0.703380
-0.206254
1.085246
-0.227147
0.350579
0.658849
0.462957
0.668033
2.409269
0.492238
0.922567
-0.858293
-0.970566
0.938980
-1.877950
-0.187781
-1.040410
-0.145883
-1.221380
-0.572239
-0.463547
0.242519
0.595161
0.396155
0.937350
1.802145
0.524823
-0.615022
-1.238359
-0.937990
0.424035
0.507260
0.512430
1.918118
-1.528482
0.476675
-0.055851
-1.374316
-0.576386
-0.688772
2.083507
1.551672
-0.267342
-0.385782
-0.127287
-0.193405
-0.035636
0.509575
-0.052142
-0.375968
0.740341
1.244694
0.384839
-1.148063
-0.384590
-0.071350
-2.199945
-0.706614
-1.054548
0.798075
-0.160553
-0.260452
0.573714
-1.655750
2.414906
1.473928
0.251461
0.414474
1.221354
-1.123548
2.049447
-1.685623
-3.062133
-0.722383
0.136309
-0.296712
1.022072
-0.237756
0.680887
0.135192
-1.109079
1.500720
0.386533
-0.130883
0.962219
-2.690730
0.024884
0.716543
1.487918
0.546316
-0.236136
0.949861
-0.256512
0.107586
-0.705835
0.589155
-2.044974
-0.618869
-0.062287
1.027113
0.456817
1.150448
-0.158690
-0.753466
1.052812
-0.799334
-0.240602
-1.319961
0.296852
-0.896771
1.434644
0.072731
-1.427293
-0.891197
-0.793551
-0.337961
-0.622404
0.752492
-0.432075
-0.194171
0.746890
1.346744
-0.340551
-0.793765
0.734246
-0.038959
-0.539944
-0.920734
-0.999451
0.076548
0.048958
-0.907549
0.274884
-2.995728
-1.391341
0.063388
0.296019
-0.560887
1.756707
-0.580813
-0.283753
0.519231
-0.903131
-1.187085
-1.896068
-2.129401
-0.561198
-0.093983
0.703703
0.742469
0.197059
1.111257
0.212257
1.063545
-0.965967
-0.067181
0.681634
-0.140942
-0.158510
-0.874551
0.402869
0.935328
1.299402
-1.151158
-0.861988
0.161756
0.306020
0.320483
0.015066
0.217528
0.911948
0.324812
0.362968
0.061713
2.506739
-0.520753
2.055947
-1.642421
0.625680
-0.147703
0.175403
0.352694
0.813090
-0.209351
0.573152
2.590009
1.073511
0.122612
1.206641
0.013422
-0.047411
-0.715287
1.844684
-3.477243
-0.076794
-1.679216
-0.062919
1.119190
-0.211024
-0.193458
-1.762453
0.569876
-0.297528
-0.280932
0.653176
-0.078449
0.706394
0.153910
-1.122613
-0.378365
0.746680
1.165487
0.022567
-0.386133
-1.219111
1.754817
0.229711
-0.912722
0.169139
-1.250172
-0.832138
-1.683577
1.024689
1.610443
-0.249277
-0.732532
0.840132
0.347556
-0.184774
0.602435
0.610711
-0.005937
0.009979
2.605953
-1.075418
0.671570
-2.244638
0.973727
-1.860938
-1.715906
-1.373437
-0.414943
0.301316
-0.816616
-0.299295
-1.085478
-1.034261
0.650989
1.437200
1.584361
1.838666
0.218051
0.472650
-0.316852
0.494811
-0.192738
-0.007846
0.331506
0.410115
-1.464835
0.448123
0.070967
-0.712812
-0.665982
-0.941630
2.364021
0.850693
-0.295911
-0.032919
0.130750
0.053932
-0.164639
0.355611
0.527250
-0.654230
-0.091320
0.639790
1.368522
0.316771
-1.057212
-0.501997
-0.866610
-0.332412
0.476807
0.389048
-0.108754
-0.315284
-0.410120
-1.432938
0.909194
1.295652
0.532785
-0.415254
1.869161
-2.361864
1.049183
-2.206744
-2.034724
-0.841385
-1.027211
-0.774004
0.171018
0.290596
-0.502157
-0.387212
-0.899079
0.141663
0.074519
0.157008
-0.939779
-0.888429
0.317407
-0.778813
1.005767
0.930706
-0.154799
0.826627
-1.067588
0.055751
-0.384566
-1.231162
-1.280537
-0.127031
-1.289617
0.022667
0.191308
1.933309
-0.622220
-0.781742
0.376957
0.214982
0.676511
-1.570030
-0.153517
-1.245754
-0.082271
1.238523
2.426517
0.364300
-0.429770
-0.569790
-1.309127
-1.406125
0.505890
-0.422725
0.630147
-0.283424
-1.245623
-1.239610
0.525489
-0.022324
-0.685598
-1.367671
0.320689
0.779028
1.092033
0.649762
-0.283470
-1.471954
0.361976
-0.691275
0.122681
-0.129090
1.389827
-0.110592
-1.887635
0.671811
-0.052363
0.383027
-0.650537
-1.380095
0.728130
0.439649
-0.402093
0.560440
0.076067
-0.021071
0.522881
0.095556
-1.598373
1.182548
-0.657893
-0.998466
0.823672
-0.161786
-0.371819
1.650278
0.133861
-1.250916
0.814298
0.182979
0.150410
0.376629
0.016401
0.110172
0.920813
0.848285
0.675352
-0.641328
1.375276
-0.374951
0.199491
-3.312203
0.475765
0.203900
-0.982186
0.142869
-0.063289
-0.879544
-0.566395
1.643866
-0.690031
-0.473861
-0.278503
-0.833198
-0.889963
0.468048
1.365747
-2.234492
1.407513
-0.914084
0.084556
-0.414644
0.763475
-1.206064
-1.209254
1.547157
1.838921
1.124779
0.080999
0.529128
0.097347
0.566244
-1.337609
0.460372
0.922279
2.465722
-0.229529
0.710948
-0.051656
0.840906
0.566366
-0.173060
0.344966
-0.457313
-1.123374
-1.834182
0.051858
1.522864
-1.546825
-1.363724
1.256212
0.273320
1.099323
0.463893
-0.620692
3.488811
-0.479148
-0.102294
-0.410476
0.947927
-0.474247
1.816263
-1.672643
-1.144508
-0.567492
-0.750891
0.460103
-0.247458
0.172454
-1.201698
-0.587119
1.304262
0.447551
0.962701
1.175866
-0.193147
-0.331856
0.217949
-0.602936
0.649589
-0.937272
-0.353507
1.218144
-1.367232
-0.002193
-0.076929
0.784705
0.069657
-0.089051
2.439180
1.143294
-0.178665
0.018216
-1.839284
1.175786
-0.982379
0.541853
0.691081
-0.551205
-0.590024
0.057676
1.276786
0.007544
-0.982658
2.018910
0.060097
0.168814
0.535880
0.899408
-0.129454
0.113928
0.955300
-3.679008
0.935035
-0.285299
1.630363
1.181746
0.022758
0.889872
1.075854
-2.406055
-1.059440
-0.465968
0.402350
0.063179
0.462117
-1.037771
-2.090786
-0.851062
0.398288
0.060655
1.277114
-1.870946
0.172944
-0.568563
0.273140
-0.913698
0.852876
1.150024
-0.522692
1.438085
-1.024782
-0.521143
0.257695
-1.669649
1.381664
-0.962188
-1.111270
1.635767
-0.813411
-0.281437
0.545353
-0.320457
0.938761
-0.135446
-0.397077
-0.501357
0.002923
-2.267033
-0.002541
0.647011
0.675061
1.042677
-0.671504
-0.344491
-0.967087
0.001938
-0.239449
-0.473479
0.752278
-1.554903
-0.149705
-1.832669
1.321040
-0.065583
0.027553
-0.248026
0.864243
0.906966
0.485876
-0.242512
-1.436882
0.162181
1.425251
-0.235934
-0.113341
-0.814087
1.671938
-0.791301
-0.322018
-1.759676
-0.574761
-0.003106
0.431806
0.051009
-0.169866
0.165554
-0.735538
-2.059031
1.078408
-0.225753
-1.288948
-1.389576
-0.213096
0.178955
0.591240
-0.692295
2.306045
-0.342860
0.024642
1.418928
0.517181
0.850304
-0.874446
0.092537
-0.022912
-0.314234
-0.025904
0.090482
-0.565432
0.666133
0.596805
-0.216965
0.688951
0.782725
-0.080567
-0.842053
1.127782
-1.277418
-2.512857
0.600183
-0.032242
1.034085
1.103460
0.427728
-2.522618
-1.452011
-1.109380
0.076290
-0.151576
-0.547947
1.585324
-0.321449
0.037578
-1.889530
-0.122960
-0.631370
0.927250
-1.292296
-0.039718
-0.778243
-0.962549
1.198030
-0.615404
-0.091663
-1.949489
0.955581
1.142596
0.105428
1.183919
1.282154
1.510835
-0.092467
1.005367
-1.097140
0.419665
-0.247911
0.443601
-1.340293
-2.064184
-0.204805
-0.509146
-0.066939
-0.289439
-1.521319
-0.376806
-1.165816
-0.488602
-0.023520
1.008439
1.569799
-0.948056
-0.388136
-0.799352
-0.947144
0.336762
1.822842
-0.542444
-1.426922
-0.446760
-1.398990
1.008718
0.600306
0.130680
-0.759781
0.107489
0.254050
1.145367
0.175149
1.204312
0.318872
-1.130228
-1.123432
-1.077816
-3.041065
-0.107107
-0.245123
-0.845360
-0.543639
0.071158
0.002073
0.819780
0.305167
0.650109
-0.070199
1.558453
-0.120550
0.008192
-1.373926
-0.045776
-0.777720
-0.690680
1.737333
-0.532001
0.079682
-0.750976
-0.125396
0.197045
-1.860956
0.955006
1.108584
0.066545
0.197406
0.601608
-0.228905
-1.244645
0.295286
-3.150868
-0.302925
-1.187104
1.066014
-0.423558
0.967195
-1.042931
-0.198815
-0.721803
-2.468082
0.136435
-1.059811
1.051911
1.546707
-0.067651
-1.316577
0.785727
0.739280
0.555883
0.816338
-0.559174
-1.418826
0.003736
-0.241831
-1.416309
0.211216
0.412784
-0.432817
1.488509
-1.584624
-1.077275
0.070622
-0.755260
0.866461
0.959540
0.646673
1.101558
-3.083838
0.353226
0.630419
0.331236
0.395861
-1.794639
0.005870
0.817672
-0.170466
0.004358
0.517458
-1.372184
1.396303
0.009973
-0.435936
-0.160716
-0.000589
0.075393
0.290703
-0.371348
0.674756
-0.024266
0.798716
-1.253156
-0.320359
-0.229451
0.566151
-0.383774
0.171323
-1.601764
-0.552931
-0.549267
-0.344529
-1.042515
0.589174
-0.072790
0.057491
-0.679417
0.112887
-1.462491
0.021452
-2.147845
-0.040026
0.286599
0.123814
0.135264
0.930551
-0.770009
0.639457
-1.565176
-0.341731
-0.798290
-1.083806
-3.084373
-0.227541
-1.855357
0.769581
-0.100928
-0.413245
-0.545664
-0.206231
1.259716
0.034878
-1.932339
0.271616
-0.087450
-0.401543
-0.537945
-0.121387
0.213128
-0.370590
-0.381341
0.224093
1.171249
1.530069
-0.077057
1.233745
-1.534303
0.669317
-1.553124
-1.610350
0.506307
-0.910011
1.084581
0.338595
0.457343
-0.044614
-1.464661
0.867453
-0.692672
-0.873355
0.130509
1.019543
-0.164778
0.257130
-1.311373
-0.593174
-0.313621
-0.562665
-0.007357
-0.333619
-1.053554
-0.120793
1.426969
-0.222921
-0.163701
-1.675609
-0.439087
2.059211
0.465194
-1.192153
1.042063
-1.324457
-0.855841
0.203312
-1.081355
0.166913
-0.151306
0.460119
-1.077714
-1.846944
-0.311710
0.094113
1.764044
1.145489
-1.132134
0.486633
-0.418212
-0.810554
0.112837
0.645234
0.760228
-0.923908
1.850424
-0.454943
-0.160764
-0.657342
0.996376
-2.142446
-1.162546
0.075991
-1.207007
1.033326
-1.237145
0.002293
-0.809233
-0.118741
-0.403614
0.403099
-0.626177
-0.448502
1.947753
-0.647500
-1.304949
-0.577030
-2.452281
-1.342800
0.023859
-1.541400
-0.013988
0.637164
-0.009275
-0.915297
1.537359
1.262962
0.987197
1.350899
0.379533
-0.139807
-1.871811
0.116095
-1.387830
-0.788033
0.677017
0.232931
-0.942024
0.860209
1.921614
-0.155208
-0.452695
1.400312
-0.387558
0.425839
-0.007074
0.394113
-0.342685
-1.478028
1.009394
-2.475384
-1.143022
-1.035446
1.376658
-0.949187
0.379349
-3.375841
-1.004418
-1.024729
-0.549729
-0.579911
0.065239
1.914213
-0.245720
-0.685036
0.428787
2.229057
0.960894
-0.281696
1.099568
-0.616954
-2.218408
-0.465105
0.194515
-1.071827
0.411672
0.790460
0.510845
0.985704
-2.667504
0.012969
-0.424319
-0.300575
-0.559824
0.942067
-0.068537
0.451203
-2.270753
-0.463243
0.681692
0.673970
-0.667011
-1.685703
-0.617437
-0.446492
-0.775398
-0.171598
-1.308725
-1.535744
-0.154647
-1.283707
-0.134026
-0.094256
0.378358
-0.100210
-0.065564
-2.219697
0.543364
0.591435
0.425680
-1.928641
0.655663
-0.218178
0.587525
-1.045765
-1.146764
-2.058516
0.642453
-0.618423
-0.003800
-0.056911
0.646915
0.578897
-0.190703
0.468029
-0.416284
1.365352
0.146744
-1.321658
-2.424557
0.256022
0.027807
-0.271731
-0.083284
-1.697265
1.560387
0.347697
-1.413406
1.006885
-1.493845
-2.958436
-0.534313
0.799997
-0.158103
-0.220151
-1.334328
-0.844448
-2.101121
2.449175
-0.370155
-1.224486
0.200114
0.123165
-0.704268
0.235498
-0.114802
0.451427
-0.434426
-1.287872
-0.404868
-0.250649
0.465451
-0.578242
0.714178
-1.476277
0.246057
1.035334
-2.237221
0.421109
-1.257976
0.103210
-1.023133
0.238820
1.951048
-1.695732
-0.571032
0.477945
1.603942
1.355637
1.688958
-0.882879
1.124593
-1.583670
-0.042510
1.004812
-1.239492
0.834237
-0.644796
-0.220873
-1.377326
0.322967
0.584726
-0.115641
-1.251424
0.078835
0.780615
0.500910
-1.410854
-0.332507
-0.166236
0.075541
0.522093
-0.794731
-0.417169
-0.193843
0.724962
-0.516870
-2.656499
0.588891
-0.418177
0.681802
1.394548
-0.515279
-0.595732
1.387061
-1.254923
0.863669
-0.501559
0.097569
-0.180636
1.506689
-0.359530
-0.212903
-3.028294
0.224431
-1.873558
0.407069
0.740782
-2.151881
1.355063
-0.914718
-0.084138
1.227817
-0.318315
-0.516040
-0.294582
-0.893392
0.000756
-0.225464
-0.026228
-2.711932
-1.024979
-2.316031
-1.971187
-1.884819
-2.946104
0.269266
0.483410
-0.115065
-2.376442
0.887502
1.598490
1.794667
0.586552
-0.067774
0.285658
-1.135810
-1.450519
-0.890454
-0.418043
-1.089215
0.163631
-3.332083
0.388387
0.541161
0.201162
-1.733420
0.390801
-0.151723
-1.712302
-1.440103
-0.641955
-0.241279
-1.771632
1.356934
-0.763632
-1.968140
0.018275
1.233038
-0.605429
-0.075334
-4.639425
-2.145173
-0.534688
0.436840
-1.237057
0.811910
0.402335
0.721571
1.329122
-0.428807
2.180475
1.381926
-0.104554
1.739702
-1.802363
-3.341826
-2.106350
0.601522
-1.196160
-0.709002
0.003065
0.334704
0.299196
-1.791397
-1.261905
-0.635932
-0.052765
1.496225
0.876238
-0.351693
0.127789
0.560327
-0.509187
-1.956109
0.331322
0.329678
0.645380
-1.742835
0.433679
-0.628471
-0.086761
-0.314748
-0.831496
0.315928
-0.068114
0.009277
-0.632376
0.922971
-0.467419
-0.339023
-1.826898
-0.363793
0.018413
-0.690841
-2.304226
0.559754
0.106676
0.879394
-0.406588
-1.523530
-2.145716
0.197889
-1.011638
0.902972
-0.219455
-0.164579
1.078371
-0.426018
2.148566
-0.197663
1.205608
-0.927941
-1.744179
-0.788021
0.272730
-1.701968
1.343348
0.567477
-1.988301
1.220053
0.175688
-0.159231
0.783212
-0.269090
-1.165390
0.016595
0.532559
-2.129665
1.201593
-1.413982
-0.814312
-0.856452
1.711403
-0.490702
-1.895867
0.950869
0.532119
-0.662926
-0.566869
0.012444
0.099212
-1.777687
-0.967554
0.231636
1.025134
-0.371806
-1.636700
1.716076
0.457126
-0.933217
0.462294
-2.428218
0.701186
0.119712
0.846124
0.115018
-0.057996
0.125759
-2.497090
0.010212
0.626102
1.275869
1.708424
2.244819
1.769119
0.711884
-2.853396
0.735665
0.159018
0.655470
-1.182714
-1.045410
0.753611
-0.327276
1.145581
0.914801
-0.189677
-2.704946
0.667958
-0.025822
0.829245
-1.093656
1.025200
-0.528464
1.781810
0.761432
0.447224
0.284117
-0.774090
1.697293
-1.002023
-1.107243
-0.889453
0.295266
1.216919
-0.230912
-1.584077
-1.253978
1.559109
-1.258057
0.626137
-3.465696
0.309570
-0.993987
0.714033
-0.495834
0.506968
-1.195956
0.466780
-1.353613
0.062964
0.666839
-2.530347
0.902547
-0.005018
0.200115
1.936798
-1.444885
-0.884466
-0.540134
-1.306909
-0.699111
-1.896868
1.664222
0.312773
-0.145509
-1.820670
-0.205242
-0.274692
-2.702425
-0.119662
-0.309104
-0.020881
-2.584884
0.816344
1.921933
0.636640
0.251174
-0.775467
1.070478
-0.983157
-0.497329
-1.509781
-0.221260
-2.185177
-0.226976
0.905548
-0.444519
-0.349003
-0.411588
-0.101366
-0.444895
0.341702
-2.028466
-0.559229
-1.938930
-0.186140
-1.971131
1.721031
0.004606
-1.615963
-0.234182
-1.251900
-1.811123
-0.664688
-1.814398
-2.695256
0.018785
0.026918
-0.485129
1.181549
-0.004767
0.865780
-0.327280
0.949340
0.159769
0.447419
-0.914687
1.310432
-0.344482
-3.077157
-0.870559
-0.293499
1.420128
-0.697559
0.415882
0.047249
-0.267850
-1.120178
-1.251179
0.649106
1.042795
0.982172
0.165653
-0.884750
-0.928939
0.288980
-0.714938
-2.077285
-0.619119
-0.006345
0.884823
-1.281501
-2.074187
-0.937641
-0.628673
1.049207
-1.048229
-0.328074
0.966881
0.774785
-0.417561
-0.605545
-1.574239
-1.142814
-0.275961
-0.727249
-1.766084
-1.634834
-1.919520
-0.663114
0.114733
0.729092
0.274497
-3.026814
-2.261455
-0.179445
-0.940239
0.703156
-0.972264
-1.210232
0.553880
-0.587716
0.917287
0.328931
-0.209364
-0.882798
-0.470904
-2.519887
0.136749
-0.950169
-0.080032
1.795596
-0.278930
-0.139275
1.128696
-1.144049
0.579603
-0.543119
0.499496
1.086648
-1.358371
-1.105252
-0.785254
-0.898520
-0.338088
-1.017425
1.347013
-0.627558
-1.453687
0.442471
-0.403156
-0.117462
-2.085608
-0.123702
0.320305
-3.137621
-0.672875
-1.289119
0.903727
-0.827215
-1.270615
0.975258
0.064291
0.960169
-0.085405
-0.440694
-0.030125
1.003920
1.403339
1.106195
-2.774019
-0.321009
0.460308
0.410256
-0.345642
0.686868
0.691794
0.576778
1.424003
-1.534920
-0.693397
0.258230
0.345082
-0.653746
-2.924250
-1.051544
0.226836
-1.719071
-1.661659
0.942761
0.114209
-2.508508
1.147064
0.166158
1.265255
-0.383889
-0.145204
-2.605392
2.123637
0.788717
-0.645014
0.856749
-0.506582
1.728174
0.101863
-0.262253
0.621994
-0.012840
-0.138037
-0.759982
-0.735374
-1.291244
-0.102112
-0.794743
0.960832
0.514510
0.362600
0.280716
0.340453
-0.568932
0.202666
-2.425782
1.206003
-0.538616
1.546812
0.647644
-2.186430
0.505097
0.390440
0.773590
1.107027
-0.144350
-1.043887
-0.216474
-1.061193
0.435151
-0.473915
0.736869
0.845451
-1.083967
-2.087320
-0.953916
0.589825
-1.172029
0.603306
0.300306
-0.017762
-0.462410
-1.041310
-0.594558
1.450678
-0.273848
-0.768604
1.397905
-1.139022
-1.255727
-0.600490
0.453534
-2.219712
0.647526
0.048023
0.837115
0.798281
0.482851
-0.331620
0.949919
1.244776
-1.803152
-0.883525
-1.085341
-0.436920
-0.726298
1.025147
-0.929934
-0.785206
-0.584263
-0.742893
-0.666190
-0.205800
0.284758
-0.414560
-0.299699
0.548664
-1.033428
0.557050
-0.269738
0.385800
2.112663
-0.737161
-1.419377
-0.907021
-0.670071
0.913610
1.255616
-0.598312
-0.536044
0.691179
0.873711
0.481252
0.473405
0.387828
-0.920315
-0.823214
-1.022115
-0.991580
0.093632
2.104481
-0.427898
-1.210903
-0.266074
0.944249
-0.388507
0.846081
0.896497
-0.154850
-0.765883
-0.824399
-1.358112
0.233715
-0.850426
0.403772
-2.041990
2.351838
0.175095
-0.082192
-0.443429
-0.668983
-1.427028
0.472377
-0.853885
0.168972
-0.497824
-1.921151
-0.339166
0.583237
-0.678630
1.608818
0.819820
-0.436373
-1.282547
-0.637596
-1.085864
1.367125
1.034728
0.679260
0.513324
-0.718454
0.677694
-0.034015
-2.044117
-1.132062
0.243013
-1.266456
-0.738816
-0.610359
-0.699864
1.472370
0.349808
0.632477
0.906832
-0.446341
1.418967
-0.126953
-0.980972
-0.240763
-0.140645
-2.154775
0.142433
-1.137092
0.522098
-0.530367
1.859919
-0.738653
1.778673
-0.273049
-1.205400
0.694261
-0.696683
-0.211157
0.097861
-1.079385
1.481926
-1.622922
0.369508
-1.370633
-0.802494
0.479179
-0.858865
-0.670367
-0.842298
0.022545
0.374455
0.983363
1.687248
0.372340
-1.450166
-0.024338
0.134076
-1.703671
0.347057
1.176271
0.783774
-0.252637
2.016734
-0.979343
-1.553671
0.555658
-0.056492
-1.016596
-1.764480
-0.682365
-0.573328
-0.589573
-0.117076
-0.520687
-0.087282
-1.895793
-3.151901
0.381156
1.548658
-0.037784
-1.030037
-0.496924
0.177399
1.091206
-0.398265
0.632615
-0.154917
2.716077
0.513507
0.597437
1.425459
0.413515
-1.031836
0.052004
0.163382
2.271432
-0.294834
-0.633300
1.213508
-0.133350
1.295575
1.619222
0.263595
1.019945
-0.522831
-1.486284
-0.600095
-0.101806
-0.383334
0.766636
-1.684675
-1.495895
2.100163
-1.236554
0.488719
0.981594
-0.990128
-1.144142
-0.280360
-0.422940
-0.384826
-0.067006
0.977916
-0.283725
-0.007961
1.161597
0.682474
-0.541339
0.015505
-0.275076
-0.055738
-1.474320
-0.434447
-0.012548
-0.894116
-1.180769
-0.420827
-0.065377
-0.107967
-1.532487
-0.072963
0.453574
-1.955113
0.774695
-0.131694
-0.510209
1.060712
0.210931
0.788614
1.532533
2.424711
-0.174979
0.760989
-0.071574
-0.389995
-0.295367
-0.581253
-0.473354
-0.329884
-1.118032
-0.518103
0.754551
-0.203275
2.889036
0.268488
0.625821
1.266839
-1.137443
-0.848383
0.136710
-0.704441
2.197333
-0.927612
-1.350211
-1.076004
-0.801666
0.449562
2.283095
-0.840442
-0.758849
0.726726
-0.174703
-0.752005
1.460575
-0.024650
-1.715118
-2.534021
-0.512472
-0.467080
1.391328
0.403885
0.319724
-0.217775
0.255477
0.794233
-1.086851
-0.201542
0.490976
-0.986806
-1.193066
0.373315
-0.351622
0.455992
0.783716
-0.399406
-1.858437
0.697500
1.451146
-0.346738
0.302464
-0.192638
-0.766680
0.454895
0.203692
-1.257380
-1.538979
-1.028493
1.008744
0.695180
-0.926204
1.183733
0.133691
0.867777
-0.098000
-0.723438
-0.032611
1.602647
1.933292
0.190551
0.984198
-0.371068
1.366312
-0.359956
-2.003554
-1.454015
-0.424050
1.559311
1.359483
-0.593492
-0.880696
1.840457
-0.944743
0.285790
0.485337
-0.635183
0.331867
-1.389667
-0.377645
0.589106
0.070412
-1.745112
-0.473927
-0.511535
1.375881
-0.635619
1.024781
1.264710
1.509944
-0.006980
-0.732803
0.595275
-0.754305
-0.282209
0.193522
0.520386
0.619983
-1.116248
0.064878
-1.331736
-0.618526
0.343518
-2.484233
-0.317322
0.539391
-0.272947
0.230823
0.884566
1.177136
1.612249
-0.472280
-0.999141
-0.705581
-0.149662
1.247480
-0.400290
1.138466
0.414783
1.927554
0.597320
0.880122
-0.026199
-1.096652
1.377720
-1.105413
-1.302422
0.547588
-0.407012
-1.616048
-0.428015
-0.066062
0.070785
0.514265
0.187120
0.795068
1.227219
0.099654
0.727093
-0.820386
1.220436
0.101117
0.802871
0.421273
2.572065
-0.122774
0.692586
0.304429
-1.083037
-0.326337
-0.418669
1.693153
0.341848
0.242238
1.565700
1.319490
-0.150557
1.698361
0.364413
1.349285
-0.461362
-0.282643
-2.233114
-1.856436
1.315946
-0.024127
0.626106
-0.175477
-1.335121
2.490999
-0.875382
-1.017388
0.458049
-0.314689
-0.755017
0.050792
-1.127255
1.197756
0.714115
0.888869
-1.534102
-0.737483
0.701672
-0.019256
-0.675006
0.133791
-0.226377
-0.065549
-0.745300
0.073047
0.725228
-2.284069
0.961736
-0.562524
-0.635864
-0.296335
-0.062416
0.402223
0.647146
-0.468777
0.284025
1.102044
-0.436288
2.087157
-0.245779
1.803941
0.538404
0.764775
1.623938
0.885276
-0.702998
-0.210163
0.003080
-1.918945
0.103375
0.263106
-1.621829
1.293517
2.767010
-0.159189
2.705292
-1.282252
1.211921
-0.881416
-1.749837
0.832366
-0.273256
-1.611860
0.704814
-0.905747
-2.838876
-0.998068
-0.674792
-0.055246
1.239573
-1.141844
0.132461
-0.948515
1.291658
2.102330
1.886124
-0.464043
-1.649529
-0.101263
0.787033
0.134958
1.142199
1.613775
0.184813
-0.162314
0.134919
-0.538189
-0.148570
-0.343861
-0.420377
0.015235
-1.274608
0.397816
-0.722530
-0.024113
1.802008
-1.257350
0.725760
1.912177
0.156800
-1.482101
0.417203
0.064671
-0.074130
2.169576
-0.772934
-0.791365
-0.446664
-0.366838
1.648396
0.792332
-0.877604
0.495634
0.550691
0.669892
-2.480927
-2.365837
0.433364
0.650168
1.295108
0.834668
-3.110073
0.784652
-0.480520
0.038983
0.982023
-1.272118
0.754200
-1.833301
0.658527
-2.611921
4.981469
1.834148
-0.436631
1.960458
0.672789
2.766332
1.532903
0.388785
-2.299097
0.693898
-0.992202
0.488818
0.503719
1.298961
1.788899
-0.296981
-1.716290
0.113998
0.558411
0.027120
0.596157
0.042188
-0.439916
-0.180613
0.331673
0.953451
2.122005
1.571428
2.907849
-0.246191
0.976742
-0.786360
-1.921968
-2.668234
2.992097
-1.837784
1.121550
-0.686798
0.266661
7.068621
2.280559
0.048867
-1.040552
1.689414
1.414983
-2.912519
2.166713
-3.346944
1.598987
2.487052
1.078292
0.251165
0.756460
2.026042
-1.407279
0.280468
1.804897
0.678222
1.876508
1.209207
0.091169
-0.208195
3.739937
-2.345040
1.718301
1.591823
-2.653028
2.604985
-3.040009
0.934882
-1.053198
1.273979
0.216599
1.590265
-2.986631
1.541639
-1.467318
-5.552204
-2.373145
-0.387698
0.644001
-2.021555
-0.804802
1.260259
1.274532
1.885366
-0.488735
-2.226994
6.366476
3.814007
-1.187708
-0.795150
1.248414
2.338798
-0.563554
-1.212920
2.084448
0.162300
1.412776
0.553702
-2.841040
-2.124547
-2.361083
1.232807
-0.202375
0.262100
3.014926
-2.741407
3.151693
1.701763
-0.256297
2.696255
0.424410
-0.937027
-1.274731
0.769750
0.000484
-0.191077
1.656995
-0.855929
-3.284084
1.092395
-0.131072
-0.401058
0.745798
-0.540248
-1.954766
0.583150
1.270598
0.258563
0.729243
1.192287
2.100715
1.173591
0.912931
-1.732306
0.413301
3.239257
0.094838
-2.183280
0.005071
-0.483126
-3.130494
1.727171
0.778535
-0.481124
-0.179924
-2.330448
1.709993
3.219876
-1.432371
3.389325
0.282872
-1.399108
0.978296
0.354228
0.388930
0.310422
1.590819
-3.778475
-1.761949
-2.818124
1.039612
-0.656581
0.707852
-3.208295
-0.809971
-0.711210
2.182354
2.137257
0.804556
-3.791538
0.391231
1.305418
1.630035
1.291057
-0.206322
-0.579338
-0.531850
-0.034567
-0.356676
0.570249
-3.450804
-1.627718
0.978651
-0.615519
-1.223803
-1.100093
-0.298878
-0.144431
-0.960356
1.633067
4.495393
-0.709833
-1.056361
1.256532
-0.701846
-2.298041
-2.481655
-1.305820
-0.137979
-0.610432
-0.559601
1.652284
0.321795
-0.226575
2.525846
0.394025
1.371979
0.004277
-0.072605
0.043502
-0.088241
-0.058801
-0.067950
0.037913
-0.039190
0.028666
0.062316
-0.030426
0.043409
-0.044813
0.064417
-0.003828
-0.011414
-0.012414
0.024015
0.052027
-0.060656
-0.046892
0.086662
0.043434
0.098625
-0.031400
-0.019136
0.017926
-0.064764
0.090143
-0.034563
-0.007099
-0.005580
-0.007168
-0.063597
0.006178
0.034030
-0.031548
-0.055908
0.094840
0.097119
-0.093592
-0.035586
0.040528
-0.038406
-0.071169
-0.063300
0.050180
0.016417
0.060715
0.002208
0.055761
-0.086177
-0.011130
-0.000805
-0.087552
0.057469
0.080059
0.030374
0.092705
0.070201
0.095810
-0.014394
-0.035379
-0.011358
0.022009
0.070800
-0.077327
0.090462
-0.085108
-0.082487
0.087580
-0.078701
-0.018073
0.028108
-0.017107
0.010758
0.064808
-0.066926
-0.072825
0.025523
0.035281
0.082936
0.039346
-0.075849
-0.017870
0.051794
0.081621
-0.037811
-0.017833
0.074326
-0.067610
-0.022022
-0.040067
-0.002988
0.066620
0.081942
-0.032188
0.089292
0.072403
-0.017297
-0.093195
0.059983
0.004002
-0.011268
-0.011908
0.086896
0.099490
-0.047100
-0.080031
-0.073335
0.078423
0.055251
-0.090399
0.017769
0.079402
-0.008269
-0.030437
0.061023
0.053920
0.051730
0.035349
0.086310
-0.070292
0.095282
-0.016678
0.096327
0.077223
0.051133
0.085620
0.049626
-0.066164
0.092425
0.009610
0.037839
-0.018843
0.097701
0.024734
-0.019353
-0.049399
0.044704
0.007313
-0.070976
-0.000045
0.016914
0.046794
-0.020643
-0.091356
-0.083643
-0.059620
0.062564
0.068087
0.075729
0.048874
0.097794
0.071010
-0.067804
0.094122
0.048233
0.083330
0.079742
-0.002140
-0.082834
0.072167
-0.092531
0.055005
-0.046676
-0.094829
-0.020260
0.033971
-0.044228
-0.075557
-0.058716
-0.015204
0.024398
0.058198
-0.068410
-0.096245
0.066842
-0.052054
-0.055865
0.029407
-0.083967
-0.080137
-0.021719
-0.086172
0.090874
0.010477
-0.092051
0.039107
-0.006193
0.087691
-0.063033
0.010973
0.059858
-0.055564
-0.034022
-0.086818
-0.050393
0.045718
0.047153
0.005378
0.070161
0.088438
0.090175
-0.005441
0.046636
-0.078235
-0.001686
0.013478
-0.030289
0.042449
-0.057116
-0.014256
0.062312
0.021165
-0.000428
0.053186
-0.068357
0.007521
-0.007708
0.025450
-0.004788
0.029259
-0.063577
-0.044930
-1.012217
0.598835
0.419376
-0.407892
1.457425
-1.834271
0.015828
-0.341270
-0.007314
-0.178402
-0.817649
-1.129090
-0.075961
-3.330005
-0.656391
-0.860795
-0.146286
-0.503691
-2.036596
0.506795
0.662149
0.699094
-0.311271
1.445326
3.006888
-1.829248
0.222852
2.761117
-0.982342
-0.107820
-1.192649
0.135411
-1.621629
-0.207911
1.248289
-0.689904
-0.031701
-0.079987
2.330391
0.348950
-0.189667
1.333886
3.044259
-0.261590
-0.270505
0.854745
0.289061
-0.815953
0.333734
0.644004
-0.089145
0.161991
0.583382
-0.981734
-0.911440
0.938320
2.455133
1.364437
0.037056
-0.848266
-2.946384
1.432635
-1.959261
1.055922
-1.874779
0.232955
-1.779441
-0.123425
0.344536
2.808588
1.677355
-0.675377
0.335461
0.807661
2.438697
0.483923
0.524892
0.903713
2.378272
-1.580345
-3.704402
-0.370918
-3.358326
-1.896545
-1.302974
0.203474
2.653068
-0.733959
-0.561145
-0.971140
1.031274
1.544011
-1.560815
-0.847523
-1.151500
-1.131020
-0.669703
0.356732
-0.360036
0.765033
0.262317
2.484865
-0.152985
-0.540113
0.257574
0.582183
-0.658493
0.621444
-0.273336
0.320746
-0.505416
-0.305422
0.379433
0.283914
0.455151
2.218657
-1.066887
-0.360059
-0.621217
-0.628194
0.120300
1.972714
0.027280
0.504240
2.078073
0.802681
-0.249413
0.696772
-0.455607
1.340582
-0.653256
-0.158267
-0.167499
-0.157458
-2.799770
-1.568221
0.942067
0.273603
0.379664
-1.148419
0.205815
0.564506
0.290490
0.119695
-0.987271
0.074631
-0.691519
0.934519
0.543556
-0.010529
0.163537
-1.714162
-2.599004
0.493101
0.852977
0.368188
-0.220621
1.762558
-0.185932
0.200914
0.278579
-0.438605
0.742988
-0.007144
0.829198
2.985466
0.127235
0.104951
-1.127556
-0.548446
0.293509
-1.098346
0.591405
-0.335167
-0.776761
0.443306
-2.869318
-0.915206
-1.175092
-0.629632
2.733170
-0.349882
-0.238030
0.947638
1.035217
-1.163826
-0.349706
-0.955647
-1.726530
-0.473606
2.127840
-2.028608
0.701956
1.070527
-3.022582
-0.733199
-0.959306
-0.303945
-0.388608
-0.998185
0.045894
-1.187298
0.904096
-0.760124
-0.458850
0.344503
2.612926
-0.070977
-0.424922
0.725328
-0.014808
-1.309247
-0.755422
-1.411726
0.215649
0.095053
0.114505
0.859571
1.819813
-1.248649
-0.105888
-0.024121
-0.242111
-0.298452
-0.707614
-0.377641
0.101530
0.540786
-0.521235
-0.491385
-0.073181
-0.654535
0.022062
-0.234928
-0.094859
-1.220707
0.654916
1.614835
-0.759614
1.051614
0.794363
-3.412301
-3.230040
-1.023331
0.443370
2.299288
0.159295
0.967012
0.788689
1.281309
-0.660870
-1.553574
1.397423
-0.311213
1.004673
-0.973248
1.206859
0.633253
0.029486
0.784196
-0.523274
0.201523
-0.024013
0.853902
0.168503
-0.240076
0.333541
1.394508
-0.156478
-1.675080
-0.169611
0.099789
-1.398474
-2.611259
0.220885
-1.223599
0.121737
-0.491940
-0.225761
-1.177860
1.516649
1.501128
2.317672
-0.992876
-0.528389
-0.965877
0.517363
-0.659386
2.509716
-0.919242
1.605534
-1.573029
0.415310
0.192544
1.018790
2.083422
-1.296039
0.809004
0.339827
0.997346
0.023607
0.080507
1.109747
0.507523
0.808572
-1.917285
-0.830965
0.731061
-0.388867
-0.998458
0.372871
0.393472
-0.081841
-0.339690
-0.415336
0.722681
0.835423
-1.678828
-1.766746
-1.726660
-1.453210
-0.632523
0.147279
0.849217
-0.712456
0.224376
1.206834
0.926724
-1.042682
0.152090
-0.219342
-0.833291
-0.695692
-0.443439
-0.151173
-0.646151
0.220926
0.213754
-0.432599
0.616261
0.135636
-0.765537
-1.027902
1.455247
-0.809138
-0.160772
1.189306
0.727546
-0.585323
0.614000
-1.479586
-0.030352
0.249910
-0.145370
-0.158891
-0.053422
0.116706
-0.111661
0.527560
-2.319012
-1.269754
1.656004
1.411950
0.226189
-0.411870
-1.077081
0.044425
0.183160
0.200725
-1.249172
-0.619057
1.294909
2.143168
0.930741
-0.852501
0.878088
-2.065048
-0.060302
0.464906
-0.271368
-0.331857
0.036300
0.211301
-0.550506
0.373509
2.249205
0.069094
1.118444
1.630357
-0.004014
1.784244
0.596294
1.201786
-4.073437
-0.424042
-1.270970
-0.488476
-0.417848
-0.506081
-1.326995
0.790350
-2.458126
-0.911532
-2.650364
-1.065854
-0.861889
0.018588
0.029260
0.408333
0.716456
-0.621865
-0.159316
0.415125
-0.624671
0.605373
0.571513
-2.622489
-1.472636
-0.407823
-1.765008
-0.781855
0.686227
0.525139
-1.156380
0.643939
0.747130
-0.990126
0.561811
-0.490396
-0.194911
-0.192719
0.698706
-0.383040
3.653428
-0.635020
-0.553742
0.037163
-0.598943
-0.805432
0.187900
0.550715
-0.505844
0.968523
0.514811
-0.575186
0.552494
0.138758
0.035093
-0.053488
-1.708598
0.816851
-0.056957
-0.585953
1.907407
-0.777912
-0.537894
0.329844
-0.187853
0.159181
0.779091
-1.687095
0.620024
0.492299
1.237031
-0.785544
-0.592426
-0.938119
-1.931541
0.059994
2.095359
1.126879
1.977405
0.309013
0.179734
0.547236
-0.560825
-0.952961
0.367393
0.740174
0.199724
-0.343611
-0.322251
0.974032
-1.510158
0.101137
0.073148
-0.072742
-0.226873
0.783018
0.069404
-0.201911
-1.272717
0.517250
0.039359
-1.087663
-0.205549
0.885950
-0.337083
-0.667497
2.101421
-1.330013
0.038958
1.969070
-0.269243
-0.507485
-0.124926
1.500118
1.032081
-0.498871
0.057606
-1.671613
-1.402975
-0.987173
1.360385
0.183333
2.156208
1.588972
-0.215716
1.249497
0.259024
1.527881
0.247121
0.700793
0.502107
-0.578396
0.857073
-0.531609
-0.896801
0.538660
-0.830674
-0.550706
-0.429793
-0.826039
-1.787002
-1.025157
0.257519
0.080206
-0.986150
-0.611602
-0.260200
0.179349
0.148043
-0.117093
-3.162642
0.403008
-1.386253
-0.518799
1.525004
1.461008
0.443183
0.685779
1.245542
-0.429354
0.144759
-1.598931
-0.555637
-0.427112
0.188331
-0.478119
0.642772
-0.483003
-0.188319
0.157667
-0.038922
0.316983
-0.235021
0.407195
-0.856902
2.314269
-1.515012
0.332265
1.908343
1.886318
-1.632466
0.327585
-0.923780
-0.470383
-0.273785
0.741615
-1.142001
0.344706
-0.402238
-0.061652
1.424766
-0.874336
-1.028323
0.937228
1.053542
0.035331
-0.781804
0.233422
0.893710
-0.457213
0.291234
-1.700866
-0.154954
1.569888
1.928982
1.468040
1.189608
1.413118
-0.569465
-3.021564
0.658463
0.580183
1.678300
-0.292315
-0.494583
0.543842
-0.982589
1.084739
0.872933
-0.278911
1.671085
-0.157418
2.208962
0.673405
-0.005026
0.168331
0.460998
-1.325613
0.282486
-0.658388
-0.541837
0.005912
0.993325
-1.600623
-1.132728
-1.609328
-0.142003
0.446863
-0.052794
-0.387911
0.985362
0.656845
-0.765576
0.104183
-0.186254
-1.096161
0.156612
0.318316
-0.475842
-0.033072
0.338461
-1.658102
0.710079
1.773041
-0.530363
-0.719847
0.526730
0.832287
-1.354384
0.607323
0.150698
0.397261
0.354281
0.473066
0.808953
1.594518
0.013275
0.117219
-0.444719
-0.890710
-0.995762
1.806381
0.744697
-0.694327
0.661649
0.661764
-0.755661
-0.370686
0.090765
-0.673194
-0.487076
-0.100036
-0.768122
0.882177
-0.566360
-0.317902
-1.653753
-1.020301
1.022312
0.257229
-0.164778
0.239051
1.083672
1.500369
2.911373
2.330079
0.643915
-0.934129
-1.859137
-2.661114
1.102057
1.153607
0.868685
1.372117
-0.386404
-0.529294
0.340499
-1.183383
-0.661547
1.761201
0.018467
0.203510
-0.833288
-0.902500
1.397467
-1.063559
-1.186514
0.153930
0.574858
-0.005127
0.564679
-0.044073
0.105130
0.746857
0.547120
-1.837560
-0.958417
-0.340115
0.786249
-0.855557
0.641334
1.362764
-1.416888
0.830264
-0.689357
0.726309
-0.307512
-0.327286
0.411653
0.879922
0.218865
1.599018
0.940565
-1.331336
-0.129773
1.643781
-0.722060
0.714095
-1.415387
0.278469
2.030355
-1.066795
0.347926
0.625349
0.965644
-0.819371
1.841602
-0.948218
-0.415807
1.147828
0.751812
-0.825737
-1.765463
-3.144689
1.078092
-3.028461
-0.568954
-0.218354
1.442533
-0.903997
-0.256823
1.049582
-1.124495
-1.793821
-1.176402
-0.718018
-0.529541
-2.938506
0.137641
0.413357
0.460561
-1.384639
0.380154
1.245111
1.158561
-0.272271
1.506990
-0.900493
0.344809
-0.831816
1.922996
1.156893
-0.127148
-0.122245
-0.144777
1.093946
-0.691339
0.024384
0.998555
1.158118
0.322397
0.303805
0.810397
0.303083
0.413587
-0.168057
0.014303
0.235300
0.175697
-1.095588
0.142456
1.108569
0.487654
0.404780
-0.084960
1.003156
-1.640597
-1.148114
-0.340769
2.723523
0.179183
-1.030177
-1.722850
-0.172271
-0.451501
0.121229
0.274648
-0.794857
2.069781
2.769718
1.587783
-0.642088
-0.985433
0.487446
-0.082821
-0.922146
-0.961365
-0.507743
-0.338109
1.213924
-0.303326
1.166574
0.829138
1.561491
0.661761
0.523521
0.433121
1.379414
1.440912
-0.468138
-3.165671
0.140923
0.780838
-0.080994
2.053208
-2.126902
0.040185
-0.212446
-0.597532
-0.012810
-1.586196
0.426783
-0.117772
0.008629
-1.976976
0.399167
0.335568
-1.007414
-0.802773
1.718512
1.060113
1.071290
-0.017509
-1.327974
-1.158352
-0.077008
-1.961868
1.202641
1.333416
0.573113
0.446346
-0.068820
0.844336
-0.530616
-0.149848
0.033260
-0.006564
0.084726
1.797834
1.703417
-0.167782
-1.899315
-0.700386
-0.046226
-0.761024
-0.377820
0.883134
-1.216077
-1.738622
0.520521
0.279493
-0.785394
0.496538
-0.288006
0.062834
0.396118
-1.202863
0.729005
-0.826528
0.234111
-0.673185
-0.390596
0.300375
-0.191657
-0.349721
-0.143080
1.265646
1.534654
0.543472
0.006320
1.121342
0.189226
0.271486
-0.434163
0.238323
-0.469049
0.744364
-0.158361
1.011385
1.151857
0.354894
1.616102
-0.423573
2.638678
0.942050
-1.757521
-0.963520
-1.386442
-0.610244
0.310496
2.492675
1.032763
-0.857662
-0.729436
0.306848
0.758667
-0.313267
0.332439
-0.485297
0.820391
-0.122497
0.165669
0.685482
0.218967
0.547921
0.471861
0.764012
-0.743151
1.067134
0.607157
0.206570
1.152941
0.784591
1.748541
0.667870
1.449629
-3.102029
-1.215121
-0.182098
-0.742698
0.428016
-1.287754
-1.533057
-0.044564
-0.095187
0.781069
1.499580
2.182397
0.423504
0.789522
-0.303779
-0.900263
-0.004752
0.147390
-0.663989
-0.648947
-0.727201
-0.488310
0.009284
1.366828
0.292262
-0.202465
-1.048470
0.616885
-0.867922
-0.580999
-0.470963
-0.290076
0.023225
-0.600545
-0.278611
-0.246950
-1.286801
-0.921485
0.194533
0.304822
-0.182582
0.002075
0.182979
0.398663
1.632153
0.114615
0.197244
2.657390
0.235334
0.184509
-0.531521
-1.865306
-0.323286
-0.778899
0.634486
1.417098
-0.304133
-0.803389
-1.395104
0.522552
-0.137715
0.897525
2.954217
0.221065
-2.467208
0.438998
0.027594
1.772497
0.583231
0.428610
1.264215
-1.262498
0.217915
0.046006
1.712378
0.330715
-0.567111
0.328132
0.893910
0.158244
0.304058
-0.476787
-0.936915
0.078123
-0.058869
1.247579
0.261735
-0.701596
-0.634935
0.839617
1.027312
0.121681
0.492797
-0.378097
-0.905758
0.251189
0.841426
-0.468473
0.744930
-0.358503
-1.440652
-0.945432
1.161676
-0.513542
-0.686633
0.620387
1.221404
1.476718
-1.045161
1.024645
0.336721
-0.914239
-0.655223
-0.842963
0.372544
-2.503646
-1.446471
0.402383
-0.271120
0.033721
1.462070
0.496526
0.247308
-2.266560
-0.471067
-0.678275
-1.588620
2.055572
-0.239215
-0.931845
0.370128
-1.413957
0.368472
-1.040264
-0.639385
0.184650
0.639804
0.263522
0.234420
-1.358089
-0.667867
-0.869191
-1.437757
0.381136
-0.686615
0.203523
-0.494322
-1.375204
-0.332465
0.717499
0.052591
-0.238913
-0.771731
-0.042769
1.079361
2.681525
0.071035
-0.290145
0.005302
0.507921
-0.862419
-0.854293
-0.178297
0.322962
-1.747758
0.352528
0.120535
1.181612
-0.070050
-0.782683
1.703073
0.466882
0.741614
-0.062267
-1.477051
0.308229
0.466908
0.288783
0.379729
1.822722
-0.520110
0.096842
0.323346
-0.650506
-0.869850
2.123201
-1.232328
0.314722
1.793141
1.302217
0.114356
-1.767380
-2.237373
-0.507243
-0.366101
1.155116
-1.223757
-0.741935
1.680454
-0.104657
-0.495064
0.510984
-0.684596
0.369120
-0.364398
-0.429778
0.458355
-0.673562
-0.122535
-0.147320
-0.444364
-0.291530
0.793595
0.219284
-0.429920
0.226486
-1.026145
0.980629
-0.086322
0.296278
-0.423669
-0.868503
-0.002910
0.592746
1.228515
1.589422
-1.640646
-0.430397
-0.953184
-0.450452
-2.572469
-2.345746
-1.718949
-1.939156
0.195526
1.023204
1.381407
-0.343274
0.058772
0.289161
0.067732
0.086150
-0.001969
1.363193
2.657614
0.967577
-0.006565
0.150478
1.250173
0.934349
0.287173
-0.238163
0.700395
-0.575279
-0.208288
-0.150367
0.886417
-0.603330
0.460033
0.663779
-1.689195
-1.508704
-1.220202
0.056787
-0.788882
-0.395546
1.073990
-0.472740
0.615147
-0.855550
-0.223854
-2.075696
0.415174
-0.308439
-0.976993
-1.179311
-0.650974
-0.566514
0.595522
0.162160
-0.357293
-1.144743
-0.441898
-0.561186
-0.055426
0.512902
0.365378
0.953488
-0.527991
-1.181243
-1.067254
1.000246
0.949295
0.800251
0.058328
1.929094
-0.538560
-0.063656
0.027910
-0.089990
0.034386
-1.140061
0.246546
0.536865
0.074821
0.633923
0.408084
0.898663
-0.285774
-0.567041
1.822144
-0.591893
0.957309
0.170847
-0.116629
0.672885
-1.434453
-2.256083
-2.350111
-0.516548
-0.376427
1.171275
-0.273757
1.060114
0.042304
-0.906422
-0.056643
-0.337171
-0.401763
-1.874303
-0.613023
-0.080767
-0.071691
-0.840750
-1.232101
-0.537110
-0.009086
-0.276562
-1.160880
-0.091904
-0.939594
-0.264773
0.880217
0.290294
0.634812
0.448585
1.107138
-0.291552
-1.493773
0.506571
0.941063
-1.626018
-0.360776
0.190966
-0.370988
-0.267809
0.331830
-0.877072
0.469868
0.520238
1.214594
-0.693972
-1.154236
-0.685801
-0.192390
-0.037022
0.035878
1.597757
-0.230949
0.149552
0.239609
-0.425550
-0.747633
-0.123399
2.101046
-0.199117
-1.567488
-0.615440
-0.887719
-2.893949
-0.280286
-1.875036
0.089867
-1.939918
1.050364
-0.531045
0.631514
-0.024982
0.384430
-1.457432
-0.608452
-1.747915
-0.095296
-1.262426
0.342932
1.859493
0.902121
0.302564
-0.071900
-0.109336
-0.869822
-2.039432
0.319925
-0.785719
-0.637061
0.711689
-1.046839
-0.207907
-2.438029
0.329607
-1.580812
-0.952733
1.123639
-1.062464
-0.857967
-0.578610
-1.085088
0.821425
-0.172453
-0.344099
0.250152
-0.292844
-1.310400
1.137248
0.748191
0.394126
0.003668
-0.457151
0.037009
0.568626
0.103295
0.356199
-1.426839
0.945794
0.850574
-0.534912
0.534613
0.933869
-1.890312
0.121950
-0.896412
-1.304491
1.714685
-0.415585
-0.638818
0.903820
-0.534052
0.009641
-0.406935
2.789325
-0.312732
-0.050135
0.257138
0.540272
0.175877
-0.163234
0.360527
-2.064512
-1.175827
-0.321214
-0.039908
-0.915155
1.184784
-0.570543
0.430694
1.194891
0.222716
-0.111429
0.415626
1.118683
-2.108264
-0.158444
-0.468782
0.616876
1.545039
1.782325
1.047679
-0.637759
0.654435
-0.399227
0.065514
-1.832143
-0.933970
0.684863
-0.616581
-0.463943
-1.628415
-2.210632
0.931906
-0.903313
0.772887
-0.026026
2.134019
-0.261445
-0.785421
-0.264169
-0.763841
-0.850064
0.541127
1.747474
-0.300393
-0.110409
0.180990
-1.278505
0.151669
0.457092
0.878644
0.978706
-1.002224
0.242661
0.401479
-0.476818
0.971278
-1.027543
0.340686
-0.936822
0.830188
-0.388817
1.293111
0.896083
0.720262
-0.246583
0.336832
-0.001873
0.633326
0.677070
2.138245
-0.041887
0.886860
0.531465
1.041926
0.983980
-1.358305
0.095873
-0.231033
0.867584
-1.451130
1.758331
0.418494
-1.152910
1.502735
-2.420345
-1.082294
-1.332868
-1.373129
0.845891
-0.267821
-0.242707
0.169531
0.303446
0.827616
-0.788923
-0.233032
1.003322
-0.605168
1.043222
0.427273
0.063720
1.332244
-1.584021
0.203897
0.182847
1.151211
0.044343
-0.627626
-1.162948
0.334443
0.779266
-1.634916
0.020290
-1.484067
-1.179759
-0.796021
1.009389
-0.158847
-1.189314
-0.314304
-0.751891
1.313671
-1.708973
-0.844906
0.339193
-0.882934
-0.534245
0.775249
1.300177
0.170671
-0.987070
0.453057
-1.536454
2.154554
-0.909781
0.428413
0.241279
0.195415
-0.896728
-0.199983
-1.206964
-1.551472
0.957893
-1.104840
0.058956
-0.117738
0.278163
-0.649474
-0.403210
-0.283948
0.420869
-1.345265
1.318646
-2.061406
-0.312500
0.035950
0.772604
-0.360438
-1.121726
-0.840118
-0.310995
-1.128536
1.148049
-1.200527
0.427442
0.017721
0.071945
0.049440
-1.956253
-1.300053
0.385741
-2.048110
-0.925849
1.229625
-0.191969
-1.242011
1.332286
0.458784
-0.189482
-0.137270
0.583795
0.092663
-0.722264
-0.908417
-1.427768
-0.274131
0.576324
0.613868
0.353624
-0.012711
0.365164
-1.093429
-0.161880
-0.562276
-0.614407
-0.498919
0.059668
0.383450
0.095568
-0.107086
0.819366
0.317776
0.956418
0.651980
-0.294997
1.903347
1.584350
-1.888643
-0.573468
0.448866
-0.384212
0.260670
0.842817
-0.060073
-0.794402
1.176086
-0.515695
-0.301169
-0.109522
-0.237634
1.005470
-0.698799
0.755129
-0.316091
-1.022635
-0.513731
-0.365053
-0.337031
0.111558
1.046887
1.179853
0.174328
-0.321008
-0.185158
-0.013556
-0.036600
0.210531
1.834717
0.341423
-0.411496
-0.691701
-0.448164
-0.953478
0.473366
0.671486
0.040100
0.028305
-0.060315
0.274603
0.671407
-1.727245
0.299036
-0.321561
0.266679
-0.283824
-1.208252
-1.343819
-0.223987
-0.633368
-0.291969
0.657067
1.746405
-1.073455
0.742817
0.234531
0.777677
-0.095585
0.242319
-1.919085
-0.752927
-0.147334
0.092543
0.663215
-1.451096
0.712898
-0.975991
-0.117021
-0.387979
0.106067
0.023052
-0.236024
0.902538
-0.588875
-0.221642
0.316479
-1.199415
-0.249708
-0.520564
0.063825
1.405062
0.215016
-0.060146
-0.014484
-0.012074
0.136329
0.172455
1.489163
0.004104
0.332091
-0.960431
0.918696
-0.315203
0.133678
-0.567227
-1.040210
2.330135
-1.055246
0.464332
1.306646
0.481644
0.679406
-0.222313
-0.158960
-0.739302
0.256783
-0.108409
-0.806021
0.098979
-0.317855
-1.941619
1.063799
0.144504
-0.790699
0.070558
-2.039061
-1.494533
-0.188495
-1.324493
0.369308
-0.645937
1.060299
-0.125945
0.281225
-0.673838
-0.234525
2.532992
0.401415
-0.392555
0.140402
-2.197710
0.363742
-0.069727
-0.135306
-0.555057
0.237526
0.229136
0.029532
-0.359860
0.953023
0.783727
-2.744971
-0.874522
0.201274
-0.476978
-1.086997
0.346407
-1.208767
-0.361641
0.140474
-0.503173
-1.831315
-0.071970
0.040988
0.442120
0.076879
-2.563299
-2.085859
-0.181966
-0.633067
0.644722
-0.564912
0.530855
-0.763314
-0.468178
-0.752699
1.028718
-0.179038
0.026323
-0.140198
0.720754
-0.134495
0.709696
1.715595
-0.293107
-1.306876
1.218564
-0.996996
2.191762
0.915955
-0.235066
0.950898
0.050175
-0.716943
-2.098011
-0.448325
-0.694456
-2.076916
1.493483
-0.373672
0.135787
-0.991741
1.035210
-0.601927
-0.349699
-0.622570
0.611467
-0.791776
-1.158879
-1.685931
-1.091257
0.527627
-1.359380
2.328462
0.155607
-0.628287
-0.578780
2.051409
-0.753897
-1.135643
-0.025645
-0.028259
-0.638398
0.615194
0.125023
-0.334039
0.342816
-0.347183
0.702238
-0.572017
-0.540939
0.591565
-0.006388
-1.131248
-0.143241
0.938058
0.524216
0.866169
-0.265408
1.306023
-2.132951
1.373713
0.088966
-0.835988
-0.549535
-0.692820
0.248131
0.983370
1.335732
1.394608
-0.463327
-1.212299
-0.286774
-0.285681
-0.981727
0.994491
1.215797
0.371293
1.055618
0.089957
0.139569
0.143340
-1.442583
-1.879285
-0.668715
-0.374436
-1.295514
0.639716
0.851342
1.218542
0.020182
-1.419969
-1.098589
-0.131433
0.542087
-1.555947
-2.229132
0.429976
-1.839578
-0.884908
-1.278536
-1.461361
-1.601528
-0.238592
-1.371322
0.679521
-0.397936
0.570430
-0.503994
-1.917155
-0.384066
0.064224
0.511401
0.210109
-1.535380
-1.093892
0.641900
-0.956913
0.537993
-0.018031
0.310076
1.066585
0.442320
-0.477383
-0.030467
-0.719685
0.256469
-0.985682
-0.709016
-0.638149
0.235117
-0.881284
-0.682600
-0.321734
-1.039520
0.421369
-0.574130
-0.192163
-0.255860
1.688812
0.463107
0.301032
-0.851405
-0.141193
-0.145456
-0.361557
-1.261753
0.465603
-0.026531
-1.091060
-0.074513
1.129965
0.624955
0.504013
-1.122040
-0.315821
0.527123
1.575056
-1.311239
-1.941603
0.203693
0.014978
-1.197137
-0.432192
-0.827679
-1.830883
0.089255
0.839622
-0.666111
0.262505
-1.774019
-0.571189
-0.232705
-2.382811
-0.164815
-1.029962
0.242900
-0.315220
1.181800
-1.449257
0.938067
2.106115
-1.152679
-1.194299
-0.085336
-1.557921
0.039150
0.141463
-1.033133
-1.024313
-0.254049
-0.250026
-0.444959
-2.188412
-0.059461
0.149088
0.536930
1.255487
-1.014639
-0.554757
0.420196
1.121669
-0.984432
-1.401542
0.223853
-1.087682
0.045839
-0.631152
0.586037
-0.519952
1.059405
-1.596864
-0.920967
-0.563344
-0.446251
0.507965
-0.352034
0.485391
-0.626120
-0.020015
-1.084517
-1.674029
-1.423921
0.087021
0.165128
0.464276
0.558553
-0.091742
0.345370
-0.292969
-0.168973
-0.961260
-0.664245
1.915190
-0.856927
0.787855
0.576519
-0.050022
0.969272
-1.266951
0.489737
-0.296961
-0.491277
-1.881449
0.043852
0.131829
-0.681700
0.846562
0.600953
-0.456221
0.522351
0.445290
0.656566
-0.613478
0.794476
-0.228005
1.720803
-0.998812
-0.596066
1.937487
-0.742028
0.628616
1.839525
-1.194664
-0.120799
0.245397
0.491153
-0.007885
0.120084
0.093407
-0.007226
-1.952473
-1.377478
-0.291511
-0.083582
-0.320631
-0.812371
0.764729
-0.896279
0.700528
1.720345
-0.600416
0.826546
0.553198
0.613492
-0.135214
-0.482379
0.650534
-1.234801
-0.602543
0.807095
-0.698718
0.628318
-0.615841
1.269285
-3.611678
-0.284275
0.671308
-0.308785
1.641049
-0.111071
1.551141
1.098245
0.175189
2.930131
-0.786876
-0.063596
-0.171306
0.588209
1.275226
2.308879
-0.327083
0.425384
-1.032009
0.135285
-0.175242
0.243772
0.160651
-0.116131
0.568603
-0.228201
-0.503506
0.330435
0.077286
0.766947
0.205196
-0.642698
0.562644
-1.816937
-0.671139
0.376340
-0.455494
-0.506854
0.253668
-0.898923
-0.264022
-0.112185
0.346114
0.716061
1.410626
0.468333
1.457756
-0.451002
-1.095364
-0.545912
-0.415592
0.644525
0.146619
-2.132983
0.183319
0.431777
-0.045896
-1.741692
-0.519428
-0.386571
-0.115054
-2.800924
0.043587
0.245692
-2.882838
0.623758
-0.430529
-0.110223
0.339862
0.184054
0.258085
-0.606110
0.102318
-0.565867
-0.934796
-0.712751
-0.242111
0.729967
0.543289
-0.332954
0.477849
-0.648772
0.105931
0.467105
-0.770714
1.566197
-0.324059
1.004196
-0.304203
-0.387694
-1.160767
0.029808
-1.445150
0.835422
-1.167237
1.012732
0.617130
-0.857333
0.928749
-0.736600
-0.880936
-0.931607
1.479294
0.307897
0.040162
1.527573
-0.058360
0.559155
0.263124
1.931866
0.023002
1.961447
-1.138831
0.579050
-0.293203
-0.059272
1.159899
-1.208680
0.469603
-1.392779
0.333281
0.798975
-0.042054
-1.034888
-0.287768
0.919347
0.894546
0.130002
0.813978
-0.497271
-1.584856
0.182847
0.430720
-1.206517
0.696549
-0.261899
-0.019157
-0.535185
-1.162199
-0.797562
-0.624391
-0.389606
-2.625781
1.460245
-0.239682
1.074682
-0.259938
0.816688
-0.103831
-0.240893
-1.625424
0.961699
0.807751
-1.718513
-0.648005
1.357386
0.559361
-0.346748
-0.195699
-1.770745
-1.226208
-0.674763
-1.653362
-0.485659
0.907772
0.510188
0.286163
-0.049886
0.231468
-0.414575
-1.547812
-0.145808
0.168368
-0.384969
-0.569443
0.049043
-1.477842
-1.285906
0.895021
-0.154744
-0.110517
-1.295279
-0.144532
0.375578
-0.732212
0.501222
0.267265
-0.481961
-0.304035
0.109481
1.330456
-0.597106
-0.854944
-1.868557
-1.400668
0.231009
0.128690
-0.263972
-0.942964
-0.136438
0.347455
-0.300087
-1.197715
-0.391543
0.840621
-0.460426
0.447140
1.372052
1.212569
1.130517
-0.325416
0.895155
-0.489695
0.129414
1.218476
0.847460
-0.914470
0.140781
0.230047
0.128769
3.222915
0.524984
-0.168586
-0.626023
1.079882
-2.600180
1.038207
-0.258912
-1.138933
-0.195125
-1.966192
1.493914
0.918811
-0.015554
-0.476996
-1.241670
-0.120745
-1.760698
-0.076424
1.721221
0.951563
-0.129463
0.520960
-0.184745
0.412640
-0.935600
-0.539708
-0.184677
-0.253979
0.442566
-0.288538
0.216179
-0.613027
-0.515321
1.460806
-0.721977
-0.186562
-0.299127
-0.325862
-1.388570
0.054728
-1.036519
1.735316
-0.565406
1.099247
-1.269517
-0.337372
-0.757442
-0.319212
1.917884
0.194824
-0.918177
-0.383570
1.229387
2.564762
0.023377
0.796147
-0.654755
-1.211537
0.388574
-0.557247
1.074170
-1.234304
-1.331627
0.105620
0.595245
-1.351523
-0.061234
0.119295
-0.385459
0.696223
-0.461087
0.044412
-1.195514
-1.392718
0.585686
-1.617180
-0.291018
-0.578335
1.070829
0.653584
-1.249413
-0.564881
0.662947
-0.973720
0.417834
-1.595293
1.750771
-0.001577
-0.668463
-0.275787
1.445059
0.367584
-0.813024
-1.302252
-1.684651
-0.457084
0.295955
0.720440
0.184373
0.445358
0.027298
0.246902
0.387786
-1.073714
0.093008
-1.021005
-0.693528
0.334097
0.058221
-0.105624
-0.577960
-0.386904
-2.355352
1.428038
1.304148
0.442210
-0.690778
-0.082525
1.069687
-1.059120
-0.142386
-1.313730
0.655772
-0.797469
0.347725
1.643888
0.018981
1.542407
-1.121065
-0.732848
0.522077
0.414980
0.243462
-0.929752
-0.713494
2.468472
-0.124684
2.113168
0.234932
0.237321
1.017148
-0.452286
-0.893066
-0.640889
2.051578
0.037128
-0.732655
0.418043
0.155928
0.451031
0.262086
0.547947
-1.729869
1.007988
-1.129318
-1.425376
-0.506685
-0.744947
-0.657048
-0.124764
-0.270020
1.240564
0.973540
1.265026
0.894812
-1.027243
-1.444537
1.038684
0.521119
0.514663
0.984417
-0.333469
-0.086324
-0.512663
-0.714374
-0.661066
-0.624537
-0.045145
-0.473956
-0.220728
-0.105221
-0.889249
-0.404406
-0.641447
1.699455
-0.832807
-0.625320
0.704574
-0.572443
-0.434941
1.778760
-2.486870
0.017928
1.040894
-0.556699
1.284452
0.986005
0.065895
0.140212
-0.118302
-0.514729
0.029001
-0.420996
-0.113593
0.020434
-2.492082
0.878007
-0.050373
0.065610
-0.645477
0.409008
0.521148
-0.613644
-1.150208
-1.105552
-0.120970
-0.316474
1.139786
-0.035217
-0.839176
-1.996875
-0.191930
0.099065
-0.460097
0.228237
1.185512
-0.427887
-2.149668
1.049903
0.497228
-0.047050
0.353783
-0.590698
0.899495
-0.133285
0.616240
0.554008
-0.366918
1.815283
-0.419046
0.105336
-1.311630
-0.202946
-0.306910
1.972537
-0.787809
-0.181892
-0.424334
0.407509
-0.293431
-0.124054
0.877231
-0.397056
0.222971
-0.907945
-0.475255
-0.620386
0.759650
-1.751509
-1.887772
-1.407109
0.950110
-0.923996
-0.940568
0.737552
0.446064
0.511099
1.039260
-1.218330
1.073415
-0.094983
-0.954770
-0.898139
2.338185
-1.503391
-0.468352
-0.848056
-0.628955
-0.587516
-1.297528
-0.018041
-0.157333
-1.294365
-0.777794
0.315309
-0.980234
0.102607
-1.568511
1.328139
1.167641
0.712386
-0.835645
-0.721536
0.827376
-0.081370
0.231094
-0.101935
-1.200714
0.675927
-0.068606
-0.190785
-1.807597
-0.468622
-0.196342
0.259185
-1.498705
-0.823096
1.088216
-1.046167
-0.451913
-2.051560
-1.133787
0.341482
-0.476513
1.855326
-0.580016
0.679662
-0.530861
0.776943
0.726064
-0.531196
0.055483
-0.765026
-0.694056
0.079514
0.732607
-0.715529
1.491362
0.693292
2.850912
0.342601
-0.602086
0.186372
-0.447942
0.676585
-1.181538
-0.247631
0.127641
1.432073
-1.402085
-0.409278
0.012619
0.619453
0.263823
0.707325
0.256926
0.684927
-0.642359
-1.217668
-0.660569
-0.035244
0.028613
-1.488368
-1.738374
0.890490
0.000323
1.510018
0.133433
-0.173617
0.240040
0.172398
-1.259229
1.346387
-0.741551
-0.017937
-0.121198
0.192778
-0.797553
0.461736
0.261866
0.014140
-2.258223
-1.637570
1.396795
-0.347209
0.159342
0.608633
-0.661197
0.013639
0.174858
-0.872290
0.324635
0.724190
-1.144430
-0.337884
-0.375465
0.457511
0.353530
0.168495
-0.893804
-1.565698
-0.400096
-2.562961
0.797147
-0.306452
0.942423
-0.214488
-0.826941
-1.222765
-0.259193
-0.075980
-0.866926
-1.058980
-0.503369
-0.077895
-0.687169
-0.085915
-1.032752
-0.300748
0.317097
1.362518
0.529549
-0.419038
-0.436674
-0.633506
-2.108261
-0.468759
0.996269
-1.478346
1.159470
1.051183
-0.731603
-0.232270
-0.117469
-0.379357
-0.661892
-0.259773
0.219327
0.010655
0.149432
0.991280
-0.797822
-1.380541
0.514058
-2.098039
-0.368154
-0.357724
0.209130
-0.363806
1.420976
0.238561
1.427884
0.468796
-0.803076
-0.818945
0.206982
-1.348366
0.361517
-0.793504
1.506349
-0.611206
-0.472921
1.889691
0.401981
0.042121
-0.532295
-0.449120
-0.034334
0.755040
-0.484378
-0.975686
0.573799
0.853767
-2.064935
-0.536544
0.212248
1.349874
1.723701
-0.552793
0.312876
-0.714839
0.089663
0.029536
-0.347687
0.361979
-0.593521
0.168905
-0.230730
0.442823
-1.184870
-0.952041
-0.723630
-0.256988
-0.198417
-1.725725
0.650350
-0.118447
-0.006144
-0.807905
0.543776
-0.823767
-0.392440
-0.869357
3.861440
-0.784879
-1.107359
-0.287838
-0.258959
0.209029
-0.993799
-1.109291
1.016282
-0.702136
-0.197505
0.073734
-1.006758
-1.739482
-0.924970
-0.785679
-0.320444
-2.289451
1.609163
1.032105
0.353658
1.018888
-1.251840
-0.331316
-0.708694
-0.738990
-0.735805
-0.830004
-0.069910
-1.673598
0.504119
-0.692894
-1.319707
0.738911
-0.057202
0.111525
0.322427
-1.757745
0.275816
-0.046421
-2.633138
-0.228292
-1.004324
-1.505625
0.368535
0.160482
1.827901
0.365508
-1.047769
-1.406126
-0.317464
0.688704
-0.372872
0.220835
-0.898911
0.541680
-0.119334
-0.006015
-0.187424
0.136361
-0.188112
1.459591
-0.929668
-0.012408
-3.620517
-1.112342
-0.532346
-0.472634
-1.338453
-0.204984
0.355575
-0.538349
-0.562992
0.992670
-0.898754
-0.070490
-1.609938
-1.531530
-1.501435
-0.457049
-0.079304
0.735878
-1.157207
-0.952253
-0.359709
-1.195267
1.250893
-1.309213
0.443462
0.267831
-0.475585
0.768351
-0.136429
-1.969054
-1.106150
-0.625768
0.098293
0.651097
-0.397836
-1.250583
0.144993
0.472138
-0.269894
-0.045689
0.816885
1.841760
-1.311142
0.075924
0.087903
-1.619005
-0.799061
-0.173066
-0.970690
-0.708517
0.080092
0.463975
-0.560711
-0.407425
0.855598
0.013505
0.096692
-0.396654
1.295450
0.355842
0.394059
0.117987
-1.376064
0.312485
0.069446
0.198723
-1.143928
-0.085708
-0.832799
1.433485
2.130556
0.333275
-1.820265
1.312998
-2.585861
-0.260988
0.249717
2.485954
1.489659
-0.766224
-0.633360
0.107902
-0.154222
-0.493620
1.382514
1.057882
0.078815
1.264269
-0.333222
0.701860
0.515866
0.589410
0.614470
-0.329419
-0.164925
-0.578491
-0.205965
0.409013
1.560895
0.767962
-1.466601
0.643266
-0.045519
-0.154793
0.932798
-2.059622
-1.272676
-0.855765
0.711807
-0.302239
0.650481
1.219752
1.316961
2.284416
-1.760469
0.724405
0.836334
1.090120
2.965754
0.556702
-0.046116
1.233421
3.928884
0.453941
1.177111
-0.569212
0.740067
-2.495589
-0.768690
0.820553
0.944644
-1.163169
-0.279145
0.466436
0.425147
0.395021
0.005033
0.210325
0.378128
1.449100
-1.120493
-1.064640
-0.963107
-0.353257
0.832946
0.255700
0.656939
-2.632211
0.939641
-0.967076
-3.569990
-1.080539
-3.004056
0.235389
0.972927
-0.279453
-1.251144
1.298074
0.913399
0.955366
-1.539353
2.644272
1.136071
-4.140616
-1.448102
-1.764819
-0.006726
1.258020
-1.424706
-0.109155
-0.563048
0.082475
0.938310
-0.343005
-1.844520
-1.161150
-1.579225
-0.812912
-1.710158
0.931117
0.525450
1.027587
-0.426906
0.581027
0.869667
-0.987138
-0.041040
0.577064
0.052463
-0.101659
-0.546117
-0.174346
-0.537826
-0.097408
-1.839002
0.334793
-1.098985
0.580727
-1.041994
-1.137332
-0.087488
-0.172316
0.627649
-0.075881
0.889829
0.791470
1.750479
-0.564442
-1.527445
-2.354795
2.079318
-0.852140
0.642133
-1.212452
1.306829
-2.407197
-0.502976
2.465852
1.310286
-1.443361
-0.127681
0.727409
2.864053
-0.617435
1.303124
2.329504
-0.839732
1.225659
-0.020288
-0.129850
0.294196
0.897619
0.368510
-0.078330
-1.594130
-1.582094
0.205357
0.545085
-1.836655
0.235290
0.443637
-0.127686
0.623777
-1.580732
1.527175
-0.443931
-0.207148
2.078481
0.867738
-1.073725
-0.817901
0.437370
-0.736385
-0.030039
-0.804562
0.691366
0.001971
0.128167
-0.467598
0.209190
-2.342694
0.402588
0.410284
-0.494236
-0.384559
0.056880
3.131838
-0.665199
0.732051
-0.121355
-1.558495
-1.566182
-0.821231
0.124924
-1.121893
-1.641099
1.821870
-2.735539
-1.027329
1.205441
-0.128752
-1.263618
0.038465
0.044050
0.056344
0.015633
0.070906
-0.082890
-0.088481
0.088434
-0.033383
0.046962
0.001424
0.060072
0.068572
-0.029216
-0.087024
0.036380
0.037178
0.086399
0.041306
0.041376
0.013591
0.027439
-0.019029
0.057090
0.054661
-0.059056
-0.082021
-0.033019
0.062890
0.016904
-0.023184
0.001355
-0.039046
-0.066840
-0.083011
-0.068139
-0.049730
-0.071493
-0.079705
0.016886
0.075469
0.021720
-0.023041
0.044041
0.092503
-0.010065
-0.019579
0.029681
-0.023666
-0.078273
-0.028943
0.089925
0.049166
0.052028
0.047015
0.003826
0.092973
0.064993
0.070808
0.055863
-0.018102
-0.052376
-0.042782
0.042852
-0.019217
-0.025793
0.074713
0.031053
0.002714
0.095008
-0.052060
-0.021817
0.016728
0.024899
-0.077776
0.009231
-0.085166
0.002644
-0.061088
-0.008833
0.024371
0.009969
-0.018908
-0.026463
-0.038003
-0.071893
0.077363
-0.045030
0.093100
0.048171
-0.089167
-0.025002
0.095794
-0.031950
-0.082149
-0.023422
0.042257
0.092564
-0.092369
-0.055029
0.087572
-0.044429
0.023154
0.004300
0.080469
0.045378
-0.086469
0.095303
-0.051978
-0.047556
-0.013530
0.072393
0.062413
0.067563
-0.054070
-0.075590
0.095669
-0.076707
-0.020620
0.088770
0.071464
-0.009787
-0.036232
0.067258
0.058263
-0.018381
-0.056164
0.000520
-0.025817
-0.048533
0.045491
-0.038245
0.007038
-0.031355
0.066055
-0.012493
-0.085977
0.079586
-0.017190
-0.037955
-0.067970
0.069280
-0.065562
0.094443
0.036843
-0.019633
-0.081147
0.032512
0.003660
-0.001766
0.021282
-0.024876
0.088447
0.085050
-0.057618
0.046710
-0.033331
-0.013782
-0.052770
0.040851
0.037684
0.092722
-0.097394
-0.055278
-0.038633
0.068661
0.032229
-0.024610
0.048248
-0.084961
0.037434
0.080278
0.084319
0.071872
0.074721
0.021162
-0.047760
0.093574
-0.046326
0.055900
-0.008192
0.074956
-0.068976
-0.019745
0.060006
-0.026594
-0.073035
-0.073325
0.059623
-0.025805
0.067526
-0.002692
-0.033083
0.070133
0.042030
0.028284
0.038794
-0.025742
-0.096327
-0.012958
-0.010703
0.041108
-0.032680
-0.026384
0.012980
-0.057960
0.094778
0.065219
-0.064385
-0.051548
0.021119
0.027422
-0.076592
0.052143
-0.092323
0.083414
-0.074452
-0.065359
-0.089911
0.085172
0.008837
0.077616
-0.017521
0.075753
0.047749
-0.153707
0.735676
0.418550
0.049840
0.001568
-0.109614
-0.846088
-0.041229
-0.121537
1.161602
0.778762
0.156388
-0.566249
-1.150294
1.052843
-1.338936
0.080521
-0.723038
-0.526160
0.082091
-0.023503
1.064235
-0.408368
-0.015685
2.242165
-0.372176
0.801083
0.464499
-0.091945
-1.885102
-0.662780
0.272228
0.204464
-0.671425
-1.341107
0.476866
-0.141340
-0.246489
0.514060
0.264443
-0.202497
2.321666
0.704408
-0.475502
1.255639
-0.323254
0.353706
0.397351
-1.282317
0.074529
0.892149
0.443671
-0.389836
-0.108882
-0.745108
0.079602
0.768558
0.257270
0.350110
-0.345348
0.218560
-0.538682
-0.669736
-0.118966
-1.443190
2.491519
-0.516108
1.202929
-0.218131
-0.909302
0.723963
-0.741522
0.318524
-0.528295
-0.235221
-1.056113
-0.030337
2.028732
1.648325
-1.749194
-1.842625
-0.675825
-0.006762
-2.675328
-0.648205
-0.211253
2.208926
-0.455228
-0.153980
0.213790
0.618700
-1.388211
-0.397829
0.599945
1.023606
-0.810350
1.079212
-0.391430
-0.199958
-1.420700
0.018687
-0.147537
-0.320050
1.471290
2.113724
-2.007075
-0.642088
-0.425844
-0.286752
0.213808
0.058354
-0.169779
-0.677955
-0.189610
-0.071336
1.201663
-0.482389
-0.220066
-0.324938
-0.673895
0.468820
-0.420052
-0.263499
0.190002
-0.123191
1.756037
-0.415423
-0.401787
0.522752
1.583016
0.176074
0.089593
-0.043489
0.115699
1.352674
-1.487733
0.691604
-0.882165
-0.080597
-0.016127
0.564654
0.491796
-0.712540
-0.085511
0.376158
-0.088230
1.576110
-0.395353
0.310210
0.393084
-0.207093
-0.465550
-0.436237
1.213192
-1.037052
-0.933757
-0.412590
0.768009
-0.102431
-1.024672
0.231994
0.390903
0.943781
-0.075963
0.943613
-0.958438
-0.722799
-0.165399
0.192230
-0.433385
0.000499
-0.269876
1.399302
-0.102385
-0.733522
2.697559
-2.092131
0.582023
-0.396210
-0.464178
-0.660251
0.637082
-0.876400
0.848305
0.715508
-1.422973
-1.020383
1.634095
-0.946791
0.846539
0.393560
-0.564704
0.331739
-0.995092
0.125522
-0.562808
1.558679
0.131196
1.486035
-0.371241
0.410891
0.902200
0.245475
1.048946
-0.228989
0.059351
1.009470
0.857302
0.004177
-0.674613
0.455260
-0.015641
-0.167056
-2.020330
-1.002825
-1.012128
0.311602
-0.292529
-0.042838
-0.739417
2.101357
-0.120713
0.016647
-0.696637
0.260425
1.120818
0.256395
0.731704
-0.711369
-0.519368
-0.148228
-0.552487
-0.183208
-0.017220
0.778487
-0.343595
0.121280
1.282264
-0.520953
1.296075
-0.883221
1.372097
-0.520142
-0.805158
0.014482
0.535168
0.442361
-0.013525
0.029837
0.703459
0.217979
-0.423109
0.411049
0.022969
-1.270071
-1.215192
0.141827
0.125494
-1.220800
-0.086391
0.278520
0.076144
-0.359944
0.103264
0.206010
-0.248484
0.481075
1.417050
-0.181782
0.918224
-0.347095
0.312655
-0.438004
-2.048352
0.294005
0.710054
1.106166
-1.388394
0.446546
-1.519477
3.552407
-0.356025
-0.448148
-0.405893
-0.263910
-0.920010
-0.132721
-0.659922
-0.254030
-1.558957
0.539395
-1.071255
-0.143766
0.237797
0.128140
-0.753560
-0.908954
0.525466
1.427786
-0.430008
-1.403273
0.081737
0.094110
0.717060
-1.257445
-1.237655
0.584348
0.648626
-1.852119
-0.118300
-1.077987
-0.074412
-0.410685
-0.082060
-0.570780
0.431037
0.457357
-0.100285
-0.470602
-0.149820
-2.624555
1.717272
-0.299082
-0.667514
-0.769324
-0.256188
-0.173039
-0.541663
0.813175
1.846886
0.274904
0.731261
-1.425718
-0.572122
0.598720
-0.272691
-0.308669
-0.729900
0.288343
-0.188898
0.640880
0.426885
-0.523585
-0.419656
-0.081095
0.756557
-0.908079
-0.122307
1.134756
1.156431
0.493629
-1.305766
0.896920
0.484226
0.668641
-0.068302
0.127747
0.047125
0.118367
0.757066
-1.083615
0.246226
-0.420805
0.200509
-0.553339
1.049209
0.721844
-0.413761
0.001703
0.600862
0.543692
0.026077
-0.024609
0.780935
0.503812
0.786021
-0.752784
-0.377976
1.374627
0.115949
-0.015013
-0.165708
0.427007
-0.716648
-1.586678
1.139689
-0.074839
0.420536
-0.386170
0.538614
-0.378413
-0.170507
-1.261730
0.788425
0.057048
-1.042573
-0.566953
0.396295
-0.837854
-0.220043
1.640752
-0.670245
0.323709
-1.032192
-0.214190
-0.424586
0.292747
-0.796170
1.306081
-0.048949
-0.657908
-0.367095
0.659951
-0.757455
0.988387
-0.173445
-0.883982
-0.070079
0.559658
-0.399961
-1.376428
1.253005
1.098378
0.366174
-0.448103
0.441456
-1.873930
0.265111
0.876004
-0.166217
-0.010503
0.126499
-1.640802
2.420508
-0.079875
0.187004
-0.660858
-0.333473
0.175103
-0.930043
0.590362
-0.725979
0.721041
0.374357
-0.038727
1.224576
-0.229125
-0.038408
-0.246487
-0.229123
1.834309
-1.224851
0.206121
1.025442
-0.594313
-0.012665
0.308812
0.095470
0.646328
0.672940
1.132579
0.129820
1.531344
0.382935
0.331752
0.657598
-0.664081
-2.416262
-0.035116
-0.514401
1.018726
-0.248480
0.475895
0.433903
0.050878
0.339244
-0.508639
0.472569
-0.367072
0.168862
-1.590922
0.386288
0.304628
-0.897470
-0.385308
-0.040632
0.470651
-0.270806
-0.005154
-0.398830
0.250536
2.342803
0.440249
-0.617999
-0.133353
0.652411
1.057090
-0.315962
-2.287109
-1.306564
-0.583489
0.721756
-0.753637
1.140529
-0.919390
-0.515046
0.495612
-1.018049
0.962063
-1.187871
0.587869
-0.255144
-0.521187
0.137039
0.453262
2.140612
-0.098021
-0.435514
0.704327
-0.387017
-0.570322
-0.390396
0.311383
0.401875
-0.800877
-1.475882
-0.496069
0.316385
1.415963
0.996136
-2.036944
-0.377466
0.491583
-2.274362
-1.319058
-0.012942
-0.153407
-0.430812
0.238100
-0.137191
-0.805020
0.056855
-0.357133
-2.029365
-0.458032
-2.029515
2.476740
0.199326
-0.706907
-1.155549
0.461073
-0.425413
1.672122
-0.435747
1.187302
-0.977789
0.427602
-2.125412
-0.865400
1.188518
-1.578485
0.130783
-1.093765
0.296558
-0.612423
-0.062327
0.202197
-0.988855
0.607838
-0.269532
-0.020777
0.131361
1.838695
-0.781479
0.674765
-0.037223
1.044586
-0.173421
0.610396
0.297931
0.642560
0.401377
-0.150771
-0.086390
0.632732
-1.141228
0.100743
1.886309
0.118500
0.027555
-0.100187
0.952474
-0.202064
0.589744
0.072722
0.423790
1.793103
-1.636848
0.760118
0.378330
0.492611
0.084453
-3.347385
0.985089
0.683366
0.639119
-0.491178
-0.343436
0.034956
1.158997
0.790020
0.379403
-0.384750
0.639434
-0.145825
0.728241
-0.553171
-1.439463
-1.801452
0.121076
-1.459712
0.006293
2.205559
-0.013789
1.181877
2.758001
0.848791
0.446626
-1.647082
0.591940
0.565015
0.056343
-0.624760
0.949885
0.935699
-1.088835
0.123137
0.596435
-0.202754
-0.094591
-2.448452
0.789420
-2.226846
-0.850876
-1.121482
1.230626
0.896353
-0.572934
0.656124
-1.726010
0.234316
0.012049
-0.262630
2.290377
0.394508
-0.873939
-2.568102
-0.147642
1.090457
1.387923
-0.064056
0.113919
0.258923
-0.944305
0.462726
0.236741
-1.638720
0.222455
0.287011
0.332977
1.557174
-0.389721
-0.220500
0.910412
-1.414263
0.171419
-0.296485
-0.181091
-1.532753
0.484821
0.873210
-0.544640
0.116657
0.978375
-0.765074
0.710795
1.027782
0.760838
-0.178643
1.015754
0.751914
1.636311
-0.983602
-0.090152
-1.233846
1.104828
0.212241
2.776908
-0.302355
-1.422938
0.214465
0.790611
-0.486832
-0.578163
0.786982
-1.205575
-1.262357
0.483071
-0.797685
0.546406
0.007860
0.574246
-0.226570
0.309246
-0.291362
0.420096
0.028054
0.178178
-0.606447
0.511290
0.174981
0.999686
-1.546338
0.463791
-0.143221
1.992073
0.534985
0.191622
0.315067
0.566665
0.222899
0.278398
-2.023108
0.576758
-1.331504
1.094867
-0.689166
-0.275157
-0.986091
0.479781
-0.020473
-1.473261
0.439458
0.674945
0.057341
-1.368066
-0.706243
0.880555
-0.066857
-1.586829
1.396035
-0.327673
1.672524
1.075089
-0.723915
-0.881170
0.538748
0.779614
-1.200514
2.206336
-0.361657
0.704950
-0.474016
-0.075262
-0.099613
-0.761319
-1.072480
-1.095716
-1.803012
-1.273230
-1.287692
1.328472
-0.711544
0.530745
-0.261625
-0.455114
-1.603351
-1.190904
1.226950
0.754598
0.672151
0.690071
0.231897
0.872905
1.659370
0.016831
-1.118827
-0.870413
2.184823
-0.268946
-0.466086
-1.295399
0.619612
-0.055472
0.799101
-0.665109
-0.984873
-0.060076
1.052434
0.034615
-0.638899
0.859572
2.181668
1.043731
0.578716
-0.249787
0.267480
-0.065364
-0.966118
1.598434
0.432486
-0.401777
0.519350
0.539193
0.686603
-0.067840
-0.612842
1.188880
0.136362
-0.122031
0.203744
1.249382
-0.524441
-0.924423
-0.349408
-0.786304
0.944128
-0.502299
0.088824
0.999220
-0.738331
-0.341346
-0.040379
-0.087190
1.798742
-1.056581
0.124890
-0.898220
-0.221864
1.463223
0.679350
-1.027581
-0.281959
-0.496549
-1.042297
0.910720
0.291431
1.232832
-1.955429
0.189342
1.686471
0.264776
-0.070330
-0.578377
-0.299718
-0.421459
-0.751718
-1.484681
-0.673003
-0.085434
-0.934981
-0.054683
-0.669564
2.387942
0.110062
-0.817545
-0.076138
-0.435983
-0.690902
0.037215
-0.831088
2.041022
-0.079858
-0.971402
-1.115658
-0.421881
-0.037008
-0.838215
-0.279760
0.509872
-2.260865
-0.390123
-0.594668
0.191462
0.715211
-0.133443
0.059536
-0.038239
-0.912208
-0.258299
2.550154
-0.593472
-0.189081
0.330777
-0.353538
-0.596551
-0.456827
0.666611
0.792533
-0.796758
-0.317916
0.031944
-0.165436
-1.708695
-0.620687
-0.231429
0.371731
0.131634
-0.076227
-0.371236
0.609620
-1.121525
0.082003
-0.199861
1.218513
-1.214145
0.759606
-0.690978
-1.698828
0.159788
0.477861
1.199637
1.762640
0.437840
1.391146
-0.184449
0.606412
0.083065
-0.562830
-0.078746
-0.246528
-0.820410
1.419806
1.758203
-1.602882
-0.418381
-0.365278
0.574538
1.037588
-0.205263
0.477857
-2.048953
-0.125942
-0.636420
0.349699
-0.556468
1.106855
-0.241379
-0.755694
-0.585616
-0.961219
1.037516
0.676890
-0.452776
1.161113
-0.505019
0.841019
0.473675
0.955255
-0.235722
0.034592
-1.030357
0.559418
-0.632633
-1.411658
0.828558
0.288563
0.213345
0.005729
-1.680962
-0.707303
-1.747424
-0.518397
0.762866
-1.260028
-0.247057
-0.319656
0.343683
1.005578
0.001340
-0.383835
-0.289921
-1.437756
-1.408025
0.410335
0.881857
-0.366173
0.511879
-0.014110
0.780531
0.624435
-0.142990
0.348296
-0.991096
0.180958
-0.941348
1.288341
-0.310542
0.727107
-1.011425
-0.066973
-1.624692
0.868781
0.566751
-1.061954
0.884336
1.021189
0.450479
-0.091744
-0.477751
-0.450806
-0.906473
-0.793850
1.613225
1.884006
0.067276
0.149150
0.415525
0.027074
-0.114723
0.063389
-0.489386
0.345482
-0.153658
0.327922
-0.281561
1.022234
-0.491275
0.256195
0.894876
-0.299892
0.327120
-0.097203
-0.260616
0.239488
0.970002
1.379469
0.513444
0.792957
1.386971
-0.697793
-1.218584
0.308880
-0.008192
0.323667
-1.408349
1.787245
-1.695343
0.287208
1.440561
-0.604088
0.869720
0.321076
-0.976981
-0.707863
0.532756
-0.494045
-0.536038
-0.094170
0.138790
-0.740202
0.022311
-1.958863
0.344700
-0.613244
-0.555581
0.278046
-1.239987
-1.009825
0.110744
0.356122
0.712328
0.789643
-1.495562
0.396002
0.837402
1.576562
0.259103
0.006029
1.144763
0.457637
-0.254395
-0.290362
0.390347
0.080753
-0.592859
-0.965397
-1.389800
0.655141
0.400325
-1.089237
-0.195190
-0.762571
0.007214
0.001553
-1.416828
-0.465706
-0.157360
-0.769448
-0.456890
-0.202886
-0.206176
0.270703
-0.761814
0.627585
0.128667
-2.241873
0.420281
0.620956
-0.160598
-0.135622
0.066850
0.139080
0.107483
-1.073137
-0.160916
0.007727
-1.664800
0.829501
-0.861227
-0.273063
-0.412159
-0.054120
-1.024901
0.824914
-1.220018
1.466848
0.064223
-1.568555
1.030338
1.180598
0.439599
-0.099217
-1.032006
-0.859558
0.706625
-0.377483
-0.401409
0.158032
0.489960
-0.717624
1.382278
-0.809648
-0.640603
0.242427
-1.618994
0.190301
1.785630
0.150126
0.740812
0.148473
-0.798502
0.174797
-0.811131
1.106187
-0.163050
-1.910587
0.600831
-1.070574
-1.979979
0.009888
-0.645073
0.363893
0.235795
-0.307748
0.524710
-1.195282
1.931088
0.045709
1.713157
-0.698864
-0.218537
0.271809
-1.789543
-1.318731
0.129100
-0.474846
-0.294167
-0.055218
1.102614
-0.648881
0.466353
-0.194612
-0.802311
-0.403797
-0.220942
0.629703
-0.676301
0.207204
-0.824098
0.133349
-0.026919
0.820160
0.225150
-0.850549
-0.487354
1.709687
0.442044
0.325221
-0.226764
-0.096839
-0.204510
0.195579
2.002976
0.201771
0.324301
-0.563465
-1.133583
-1.957919
0.654354
-0.108953
-0.724616
0.118898
0.383162
0.041691
-0.041634
-1.354046
1.063397
-1.370422
-0.177735
-1.453006
0.145617
-0.254735
1.322981
-0.804566
0.581305
-0.292729
1.731754
0.953802
0.548940
-0.366061
-0.675898
-0.330339
-2.093723
-2.108300
-1.209612
-0.988862
0.065165
0.221166
1.917815
-0.038111
0.108070
0.270374
-0.418331
-0.168240
-0.167527
-0.184455
-0.116226
-0.745038
-0.384671
-0.272296
0.753790
0.449259
1.124436
0.118924
-0.465781
0.212488
0.013210
-0.249134
-0.073072
-0.901313
-0.723460
-0.215200
0.621956
0.636858
0.392412
-0.933932
1.878949
0.390716
1.190051
0.047132
-0.930993
-2.250083
1.198328
1.396874
-0.784255
0.928737
1.743280
-0.493761
0.728706
-0.967503
-0.341647
0.302226
0.995662
1.970163
-0.010691
0.885334
0.152468
-0.553028
0.202454
1.337647
-1.935485
-0.347726
-3.509226
-0.626204
-0.404225
0.326852
-0.712251
-1.049712
1.040129
-0.594609
1.548246
0.115997
-0.802415
0.812515
2.030236
0.131384
0.776007
0.192947
0.467234
-1.270481
0.259227
0.331736
1.587672
0.134944
-1.145694
0.713610
0.429819
-0.757808
0.034161
-0.295042
1.036078
-0.675030
-0.770438
-1.015755
-0.406232
-0.415107
-0.194616
1.182735
0.061727
-0.767590
-1.557421
0.527058
-0.923874
0.418355
-1.104037
0.153535
-0.404850
-0.408432
-1.098640
-2.543836
0.403219
-1.366987
-0.716764
0.348419
-1.046482
-0.615957
0.955143
-1.673042
1.466636
-1.008247
0.841253
0.258725
-1.419653
-0.731336
0.840061
0.814772
-0.194163
-0.131722
-1.027504
1.250465
-0.602207
-0.373288
-0.458054
0.359490
-0.488013
1.811487
-0.449201
0.067048
-0.223016
-0.393753
-0.143700
-1.237094
-0.302493
0.055618
0.208553
-0.334758
-0.114038
0.422022
-0.114896
-0.001687
-1.671802
0.262146
-1.244944
0.105282
0.298504
-0.516074
0.484321
-0.464850
-0.120126
0.347541
-1.021026
-0.192920
0.485487
0.736182
-1.817207
0.681608
-1.268036
-1.630979
-1.330780
1.033497
1.557536
0.472133
0.992859
-0.131698
-0.292251
-0.260056
1.212966
1.339077
-1.173145
-0.937172
0.962687
-0.953595
0.274252
-0.271927
-1.172975
-1.538131
-1.467741
-0.206815
-1.683668
0.058260
0.556451
1.027045
0.705081
2.237911
-1.009720
-0.340627
1.302588
1.243000
-0.446324
-0.006245
-0.529814
-0.075778
-0.139836
0.041610
-0.092287
-1.622987
0.841868
0.814934
0.543088
0.356421
0.401629
-0.132206
0.525334
-2.199464
-1.947707
0.129876
1.663589
-0.088769
-1.220206
0.590934
-1.233881
-0.025439
1.703220
0.245587
0.901129
0.124426
0.272647
-1.238251
-1.049517
0.761964
-0.832792
-0.328779
-0.934108
-0.453447
-0.017360
0.300579
-0.323169
0.136903
0.597880
0.233649
0.839105
-0.450968
1.208636
0.558508
-0.852454
0.249597
0.481479
0.644152
-0.243204
-0.237001
0.177134
0.079392
0.569127
0.821336
-0.442699
-0.871828
-0.947877
0.374698
0.866888
-0.728499
-0.262712
0.188044
-0.284877
-0.194722
0.236889
1.294911
0.108587
0.082691
0.624837
1.527558
0.580481
1.731592
-0.870104
1.297254
0.580391
-0.104430
0.426002
-0.031714
1.718435
-0.323827
1.176527
1.440225
-0.894344
-0.289943
0.275196
-1.599033
0.164368
0.064726
-0.693335
0.720685
0.035568
0.652150
-0.138860
-1.868563
-1.263581
0.216644
-0.533260
-0.020920
-0.711066
-0.179359
0.715832
0.411905
1.363392
0.222980
0.049507
0.334019
0.215067
0.371437
-0.358241
0.147076
-0.500811
-2.483618
-1.417769
0.969756
-1.608334
0.081529
1.495606
-1.341748
1.432990
0.341426
-0.638922
-0.305617
0.451689
0.025431
0.569665
-2.466456
-0.943717
0.676109
-2.332735
-0.070948
0.310454
-0.185382
-0.823206
1.661002
-1.110851
0.775423
-0.147399
0.391602
0.582105
0.234360
-0.220958
0.891349
0.339125
-0.157251
-0.195670
-0.305101
-0.721147
-0.855100
-0.829755
1.097267
-0.510349
-0.220498
0.516100
-1.667328
1.277376
0.362389
0.786787
-0.610211
-0.358113
0.274313
0.997649
0.372529
-0.318995
-1.084798
-1.100035
-0.379552
0.231500
-1.954513
-1.436985
-0.417864
-0.004303
0.686398
-1.086693
-0.286723
-0.484206
0.370345
1.436620
0.914726
1.437001
-1.171428
-0.244434
0.122774
0.026645
-0.010664
-0.474885
-0.020077
-0.643048
0.915797
1.160397
-0.673059
0.053962
0.696875
1.058809
-1.542740
1.492323
-0.135498
-0.127042
1.392659
0.140499
0.666509
0.929766
0.765787
0.211874
1.991226
-0.701586
-0.718185
-0.175403
-0.224179
0.962892
-0.151240
0.122162
-1.355209
-1.308555
-0.171811
0.749796
-1.334078
-0.179663
-0.439905
0.700889
-0.655659
-0.224383
-0.412987
1.193186
-0.368829
-1.099144
-0.772386
0.562733
0.562872
-0.941340
0.287600
-0.827782
0.959939
0.230690
0.029500
0.297467
-0.845616
-0.678233
1.245004
0.234741
-1.499710
-0.830944
1.517774
0.076786
-0.205837
0.171185
1.041176
-0.512825
-1.169205
-1.457615
1.016943
-0.127258
0.721449
0.232914
-0.604127
-1.108527
0.908188
0.596249
-0.938754
1.106850
0.573686
0.273371
-1.293802
-0.226229
-0.183141
-0.326738
0.272266
0.899090
1.168580
-0.913389
-0.810919
-0.522588
-0.752905
-0.951536
0.702457
-0.806483
0.088584
-0.004864
0.032669
0.300360
0.822161
-1.439661
-0.020679
0.070594
0.331610
-1.319780
-0.421963
0.538972
0.488408
0.306715
-0.963324
0.997836
0.338440
-0.269966
-0.734884
2.014262
0.535287
-0.042860
-0.694193
0.618622
-1.044952
-0.023234
-0.018960
-0.890227
1.698643
0.001200
0.934877
-0.526584
0.524164
-1.182992
1.014742
-0.427753
1.032328
-0.360516
0.752896
-0.092471
-0.819529
-1.003984
-0.309830
-0.931337
-2.203211
1.579373
-0.328724
-0.511685
1.142310
-1.268140
0.251797
0.187197
1.188072
-0.954676
-0.071394
0.938454
-1.201841
-0.205942
0.179316
-0.579067
-0.441946
0.111514
0.802761
2.059377
-1.654020
-0.601012
1.220935
-0.280446
1.803032
0.016745
-0.676505
-0.382829
-0.377035
-0.211569
-2.427905
-0.259599
-1.283896
0.604441
-2.279731
-0.178963
0.054526
-0.511741
0.706447
2.928994
0.556064
0.129054
-0.178545
-0.145117
0.133076
2.103888
-0.111537
0.795482
1.002041
0.003283
0.260265
0.438198
-1.231682
-0.527912
-1.182689
1.561417
0.031028
-0.272308
-0.429734
-1.331482
0.914375
-1.273556
-1.003166
1.141052
-0.504946
1.346259
0.768445
-0.447892
0.307232
0.828126
-0.709127
-0.111585
0.714755
-1.358966
-2.324048
0.304580
1.324740
0.520835
-0.325432
0.458816
0.962838
-0.225977
2.197012
1.400190
1.789818
-2.023031
-0.375675
0.384898
0.359081
0.096085
-0.417341
-0.436024
0.439135
-0.263561
-0.070206
-0.666279
0.588919
-0.634832
-1.012906
-1.506553
-0.906867
-0.788441
-1.133435
0.715009
0.617907
-1.812357
0.896688
-0.554668
-0.028810
0.077608
-0.932980
-0.996867
1.060927
0.327253
2.570593
1.254268
-1.239422
0.181557
-0.866291
-0.564336
0.749215
-1.079215
-0.416194
0.424780
-0.664564
-0.858170
-0.133387
0.117545
0.187663
-0.189602
0.229571
0.293820
-0.793133
1.639521
-0.122588
0.752633
-0.102756
0.076257
0.064068
0.726110
0.316667
-1.674670
-0.144063
-0.406567
2.136745
-0.589327
-1.267625
-0.892366
-0.139154
-1.063202
0.446394
0.621776
-0.684250
-1.679582
0.059778
-0.444993
-1.021735
1.197136
0.052815
-1.561174
-0.220779
1.443018
-1.411057
-0.608063
0.310297
1.039147
0.679808
0.180144
2.042419
-0.525989
-0.278632
1.519129
0.061163
0.191411
-0.506424
0.417374
-0.904001
0.882212
-0.439121
-0.965403
-0.459471
-0.324075
-0.121499
-0.812218
0.673489
-0.328048
-0.415817
-0.235120
-0.426711
-0.207222
-0.967046
-0.664293
-0.426418
0.695640
1.072059
-0.366857
2.123043
0.223735
-0.930119
-0.187536
2.132086
0.334283
2.556450
-0.535904
-1.224825
-0.610632
-0.159954
1.114249
0.790572
0.407592
0.127543
1.113450
-0.705377
1.066766
0.263286
-1.050476
1.089648
-0.222779
1.472026
-0.160245
-0.295588
-0.383467
-0.212236
2.102751
0.353402
-1.491645
0.937324
0.950312
-0.191790
0.728839
-1.962076
-0.892267
1.147032
-0.312229
-1.001938
0.402926
-0.783659
-0.676547
-0.490284
-0.411276
0.108676
0.320964
1.058533
1.993538
-0.508844
0.618566
0.363615
-0.187324
-2.585578
1.224450
0.480204
-0.003621
-0.965096
-0.810006
-0.450361
-1.525295
-0.497246
-0.259613
-0.617179
-1.154947
0.325967
-0.024374
-0.093654
1.632410
-0.138268
-0.279058
-0.968587
0.267971
-0.936226
-1.273501
1.287445
0.033315
-0.295856
1.107840
1.753332
-0.610270
0.217990
-0.695616
-0.212646
-0.586475
0.759721
0.048887
0.122307
0.698762
-0.534421
0.493545
-0.188714
-0.914049
0.985861
0.482172
-0.218923
-0.025803
0.425206
-0.080172
0.527901
-1.152187
-0.020472
0.032406
-1.343810
-0.643243
0.410515
1.413619
-0.438449
-1.395552
2.467861
-0.118355
-0.268108
-0.020200
0.604266
-0.096122
0.101060
0.717712
-0.195062
-0.122134
0.132932
-0.231786
-0.971644
-1.572331
-0.008004
0.974153
-0.134937
-0.009418
-0.006673
-1.994740
0.350399
-0.303695
-0.800284
-0.170218
-0.104421
-0.376876
-0.616164
-0.192735
0.279343
-1.170500
0.756674
-0.319497
-0.371732
0.037280
-0.641598
0.574754
0.373744
-0.485865
0.420306
-0.356617
1.188280
-0.826874
1.359407
-0.802251
0.548472
0.665589
-1.488020
-0.163536
0.025613
0.865253
0.520132
0.935948
-0.113707
2.066915
0.344972
-0.216166
0.686906
-1.172227
0.090447
-0.269485
0.835002
-0.083565
0.072611
-0.834688
-0.043670
-0.342163
0.368467
-0.205795
-0.948518
-0.946019
-1.210595
0.009796
-0.966491
-0.603148
-0.044315
1.244888
0.095448
-1.350628
0.934887
-1.812046
-0.430828
0.730887
-0.272770
-0.726280
0.130914
-0.678902
-0.101104
-0.030899
-0.753122
0.029169
0.205686
0.018493
0.299458
0.005498
-0.380901
0.251054
0.492478
-1.271644
0.273363
-1.168191
-0.205191
-0.170677
-0.466737
-0.002650
-0.018047
-0.106912
-0.147588
-0.701411
-1.263912
-0.506389
-0.390068
0.539691
-1.089661
-0.458972
0.001912
-0.238323
-0.054398
-0.259557
-0.306410
-0.782143
-0.034936
0.401339
1.273612
0.648513
0.110297
-0.323090
-0.302126
0.207360
-0.074506
0.552436
-0.911039
0.094121
0.280555
-0.763844
0.723740
1.235397
-1.076097
-0.930788
0.738380
-0.586926
-0.712781
-0.055562
-0.214911
1.178052
-0.446101
1.837129
1.122051
1.072946
-0.187811
-0.495225
-1.459365
-0.343015
1.914480
-1.044379
0.453197
-0.028705
-0.170603
-0.218197
0.182470
-1.168293
-0.721843
0.585122
1.390629
2.626683
0.067806
-0.107764
-1.128299
0.237521
0.438701
1.386789
-0.322659
-0.636707
0.262733
-0.321621
0.877377
-0.649906
-0.941278
-1.073063
0.101086
-1.062114
1.145810
1.015287
0.443040
0.021534
-0.472060
0.461401
0.344905
-0.335191
1.452062
-0.615642
-2.257552
0.680053
0.517805
0.931711
-0.857523
-0.221035
-0.353878
0.750542
-0.996944
-2.127981
-0.662454
0.385944
-1.126880
-0.309889
-0.146984
-0.436315
-0.498961
-0.225717
-0.458156
1.089118
-0.768875
0.911068
-0.368620
-1.531775
0.120248
-1.000329
-2.203873
0.188847
1.321547
-0.536786
0.073511
0.442906
0.571273
-0.826135
0.000748
1.079569
-0.486946
-0.975879
-0.355336
0.551741
-1.163273
0.116479
0.410832
-0.297963
-0.651328
-0.112788
0.020434
-0.486866
0.622275
0.452548
0.543794
-0.110847
-0.574755
1.526277
-1.644748
0.761776
0.044301
0.293591
1.029856
0.726924
-0.284469
0.536547
0.276027
-0.654711
1.040533
0.400665
0.083111
-0.103285
-0.743267
-0.839452
-0.641788
0.374674
-0.135678
-0.123607
-0.585821
0.359035
-2.727792
-0.232949
-0.166224
0.506142
0.173665
-1.911673
-0.331809
-0.911302
0.364274
-1.059357
-1.160588
0.232193
0.713920
1.305718
1.647034
-0.213428
-0.799364
0.319597
-0.708164
0.612073
-1.357800
-0.704834
-0.154151
0.891581
-0.522855
-0.392523
-0.665982
-0.349923
-1.091679
-1.292364
0.053547
-1.328959
-0.943780
-1.165928
1.769808
1.426519
-0.007721
-1.069972
-2.087770
0.313766
0.083158
-0.562878
-1.089333
-0.263997
1.820517
0.575572
-0.869245
0.445559
0.045797
0.263436
-0.587706
1.113571
0.169467
0.197906
-0.793103
-0.186545
-1.173728
-0.049803
-0.766950
-0.940728
-0.268731
-0.215095
-0.061988
-0.174792
-0.363134
1.138738
0.698615
-0.615174
-0.333089
0.318593
-0.235709
-0.521615
-0.366594
0.241297
0.184947
-0.133902
-0.920288
-0.441788
-0.865123
-0.594176
-0.332815
0.170004
0.794927
-1.247005
-1.359070
-0.676946
0.100155
-0.300216
-0.086385
-1.789291
2.219024
-0.098627
1.392564
-0.502786
1.723806
-0.443972
-0.596617
-0.910397
0.137295
-0.808275
0.384801
-0.683544
1.547677
0.024995
3.115920
1.262742
-0.473362
-0.610730
0.589313
-1.474020
0.722715
1.579791
-1.030951
0.692108
-0.648833
-0.620260
0.473433
0.249969
-0.871278
-1.015809
0.026618
1.069983
1.491059
0.480329
-0.360453
-0.555015
-0.129092
0.884665
-0.567192
-0.460873
0.417633
1.087207
-0.369151
-1.159273
-0.825665
-0.203898
-0.769749
-0.258204
-0.877054
-0.092613
-0.016804
0.410983
0.209886
-1.134764
1.532710
-2.444908
-0.589838
1.934146
-0.428593
-0.390387
0.498856
0.270435
-0.187255
-0.467954
-0.725001
-0.981986
-1.840502
-1.439477
0.136443
-0.626313
-0.394486
-0.328917
-0.233012
-0.305135
0.122090
-0.886673
-0.618125
0.789751
3.669656
-0.485714
-0.892487
1.496695
-0.778796
-0.066415
-0.572248
-0.615243
1.074039
0.782326
0.044901
-0.633996
-1.292866
-2.554655
-1.236971
0.640208
0.732108
0.036796
0.544138
-0.010984
0.293374
-1.776418
-0.959133
-0.392852
-0.266420
-0.347084
-0.138214
0.107163
0.068058
-0.375247
0.145280
-0.405143
-0.506526
0.707651
-0.653926
-2.490201
0.968850
-1.150876
1.748841
0.968065
-0.447657
-0.616977
-0.653207
1.866722
0.365265
0.975308
-1.288576
0.076627
-0.801719
-0.400686
-1.947863
1.059635
0.435250
-1.050844
0.610275
-1.048533
0.399441
-1.001682
-0.224724
-0.718404
0.123830
-0.679123
-1.855576
-0.081887
-0.543549
-0.596242
-0.524739
-0.182635
-2.191090
0.025892
0.361050
0.689835
-0.715996
-1.172237
-0.207911
-0.584287
0.090265
-0.650466
-0.611367
-0.677299
-0.724024
-1.215108
-0.544604
0.113756
-0.180619
-0.947912
-0.594137
0.408821
-0.161356
-0.344381
-0.175130
0.675508
-0.837123
-0.496514
-0.684584
-0.075870
0.859420
0.166866
-0.625882
0.489617
-0.524854
2.068816
0.430205
-2.303914
0.657691
0.145218
-0.386506
-0.572278
0.020361
-0.460512
-2.023870
-0.080308
0.392904
-0.932066
1.364233
0.032338
-1.083900
-0.202674
-0.352226
-0.044416
-1.395643
-0.119070
0.063761
0.626971
-1.561473
-0.362815
-0.450836
-0.577053
-0.788665
0.278643
0.202288
-3.177927
-0.601076
-1.255979
-0.070438
-2.017391
-0.284484
0.516478
0.281236
1.030962
-1.671221
-0.055601
-0.254373
-0.142678
0.794662
-0.816828
-0.777263
1.502378
-0.226961
0.463593
-1.133424
1.566912
1.029718
-0.895471
0.096517
-2.743485
-0.052754
0.840995
-0.091336
0.472316
-0.063160
3.470508
1.332230
-1.295642
-1.159657
1.087859
-2.577551
-0.378815
1.067246
-1.044399
0.154462
-0.991775
0.628179
0.027429
-0.923907
-0.912302
-1.110482
-0.545327
0.099928
2.092009
-0.945839
-0.818758
-0.094986
0.411348
-1.060418
-0.335547
-0.688614
-0.038442
0.964712
-0.502499
-1.070121
-0.503912
-0.081383
-1.370063
-1.245916
1.091637
1.028476
-0.661188
0.057956
0.135424
-0.028833
0.741173
-1.512358
-0.592179
0.072778
-0.244053
-0.294951
-0.894643
-0.287240
-0.076788
0.961187
-0.092283
0.110166
-1.785850
-0.175241
0.401421
1.359471
-2.439369
0.272618
0.101054
-0.069705
0.126347
0.517286
-0.373942
0.633349
-1.275811
-0.589200
-0.283868
0.802305
-1.966618
-1.022715
-0.088149
-0.692281
0.526998
-0.757907
0.504685
-0.654567
-0.114681
-0.197830
-0.686038
-0.723382
-0.776551
0.503396
-0.098700
1.118404
-0.476834
-1.853147
-0.745751
-0.214369
-0.044278
-0.444403
-0.017001
-0.128357
-1.064756
-0.406466
0.223430
-1.872010
-0.466723
-0.520009
-0.268033
-0.765007
-0.325182
-0.890208
-0.252488
0.584226
0.225454
-1.293261
-0.414948
2.203414
-0.461493
-0.595200
-2.133745
-0.532502
-0.730876
-0.299780
-1.025560
1.083834
-0.966133
-0.489055
0.321859
-1.572415
-0.708056
-1.269773
0.685344
0.549227
1.015324
0.197100
-1.435878
0.224715
-1.614402
0.577474
0.236682
-0.428600
-0.709789
1.064010
1.236250
-0.319969
-1.166957
0.281703
0.888229
-0.502312
0.113473
-0.455022
-0.014194
-0.792946
-0.890893
-0.748621
-1.740901
0.650601
-0.215682
-0.201483
-0.751873
0.176936
-0.374278
1.058342
-0.675584
1.050354
0.692494
-0.752211
-0.172290
0.242529
-1.105147
-1.995904
-1.369560
-1.182485
-0.324544
0.506187
1.355208
-1.474932
0.178003
1.198282
-0.042869
-0.679811
-1.399898
-0.791478
-0.782435
-0.388647
1.639616
0.282489
0.398557
-0.144341
0.330185
-1.106268
-0.419575
-0.084993
-0.632637
0.393640
-0.767551
-1.519058
-1.076382
-0.227270
-0.387248
-0.016155
-2.203370
-0.341500
-0.275816
-4.637691
-1.790462
-1.012052
-3.169675
-0.037569
0.359233
0.180955
-1.984520
0.044585
-2.045370
0.411108
0.589187
-0.213839
0.114220
-1.628424
-1.597522
1.002966
0.223158
0.753001
-0.925877
0.247010
0.087537
0.934660
-0.424793
2.038217
0.467607
-1.144696
1.046562
-0.960272
-0.879436
1.045376
1.177248
0.743573
0.118234
-0.476885
-1.752697
0.719408
1.037053
-1.583206
-0.284231
-1.836627
0.144414
-0.448039
-0.580146
0.226298
-0.897017
-0.654784
0.596334
1.378837
-0.471273
0.310424
-1.032563
-0.414810
-2.109139
0.340998
0.262848
0.992869
-0.561112
-1.747439
-0.476724
-0.130925
1.499852
-0.957763
-1.127449
-1.154263
1.750489
-0.749022
-0.363593
0.125735
1.927905
1.846996
-0.797689
-1.678785
-0.596775
0.269010
-0.167578
-2.383092
0.088978
-0.623696
-0.781952
0.479149
-0.633805
-0.459087
-0.119563
-0.046025
0.399115
-1.465337
1.098472
0.102331
1.957343
-0.471062
0.796641
0.353861
1.931224
0.137968
0.059466
1.182283
1.859923
-1.947236
0.323542
-0.146272
-0.097191
-0.415968
-0.492278
-0.763525
0.361960
-1.876922
-1.927669
0.940177
0.331175
0.038182
-1.177893
-0.462968
1.184837
-0.176137
-0.628657
0.588611
-0.306919
-0.031428
-0.990763
-0.099187
-0.118616
-1.143565
-0.326944
0.116009
0.069659
0.332946
0.451837
1.327185
-1.111629
0.383383
-0.840841
0.006520
-0.546955
1.428653
-1.862880
-0.203055
0.664011
0.667908
0.028684
-3.163277
0.353225
1.480863
-0.399946
-0.090535
2.912672
-0.636575
1.772570
1.026063
0.612630
0.462578
-2.095080
-1.753799
-0.713827
0.400995
0.793162
-1.110780
0.380668
-1.017322
-1.451637
-1.174987
-0.398672
0.147586
0.599881
0.719769
-1.579837
-0.857464
-0.705057
-0.103476
0.068013
0.382491
-1.970434
0.441669
-1.818220
-1.691612
0.653770
-1.367245
0.783193
-0.527764
2.752560
-1.169733
0.268304
0.339304
-0.522383
-1.350319
1.053887
1.812311
-2.085723
-0.563124
-0.583226
-1.353701
-0.454866
-1.618542
-0.892576
0.700909
0.204734
0.789760
-0.233509
-1.064713
-0.577124
-0.572324
-0.909512
-1.075139
0.493470
-1.088356
0.833657
0.924045
0.462915
0.075102
1.461397
0.795950
-0.216067
-0.039588
-0.025393
0.415925
-0.556628
1.916157
0.049179
-2.668104
0.226711
0.378462
-0.244816
-2.284692
-0.672152
0.455251
-1.802778
0.426694
1.577761
-1.708571
-0.788057
0.138878
-0.593073
1.950181
-1.330672
-0.669587
-1.301717
0.400510
-0.234965
-0.151631
-0.172386
0.309212
-0.173180
0.560161
-0.346487
0.280103
1.060396
0.618378
1.438499
0.830564
-0.297082
-0.511461
1.601125
0.874560
-0.520934
-0.451753
1.469500
-0.256686
0.865182
0.144764
-0.012523
0.235773
1.073386
0.048751
-2.015305
0.217735
-0.233515
0.915405
0.158391
0.495800
0.067068
-1.182700
-0.568257
-0.815457
1.648887
0.061267
0.668495
0.874613
0.691006
0.131233
-1.556812
0.211306
-1.032583
-0.752908
-0.889524
-0.932669
-0.028815
-0.259587
1.370648
-0.828313
-1.402504
0.948596
-0.327220
-0.160315
0.010606
-0.340292
-0.009481
0.945006
-0.328084
1.378746
0.329839
-1.418281
-0.458550
-0.419271
-0.009092
-1.594659
-0.244909
-0.041933
-0.070957
0.044912
0.096623
-0.013617
0.025239
-0.081089
-0.091433
-0.079937
0.059912
-0.053235
0.084798
-0.069609
0.000398
0.044562
0.004387
0.069978
0.000657
-0.098689
-0.021583
-0.031828
0.013573
0.096848
0.055082
0.049630
-0.082300
0.027888
0.096191
-0.070671
0.089365
0.026512
-0.012604
-0.081592
-0.028576
-0.015981
0.004791
0.096664
0.002930
0.013357
-0.083274
-0.037157
0.060122
-0.098475
-0.006767
-0.039480
0.046086
0.097620
-0.069502
-0.053256
0.098932
0.008915
0.014916
0.012505
0.005763
-0.030002
-0.037865
0.023463
0.097885
-0.041674
0.052792
0.087251
0.084838
-0.059812
-0.094341
-0.043738
0.024207
0.010450
-0.047074
-0.072862
-0.076193
-0.030348
-0.010020
0.083929
-0.028823
0.083213
-0.055551
-0.082737
0.080834
-0.025052
-0.035993
0.079765
0.083862
0.078922
-0.007730
-0.010374
-0.051080
0.054405
-0.086911
-0.053194
-0.087270
0.065881
-0.065944
0.097568
-0.093931
-0.060285
-0.046169
0.030277
0.050165
0.006756
0.057415
0.073972
0.076408
-0.052605
0.057901
-0.052415
-0.069392
-0.097650
-0.035152
-0.088558
-0.022702
0.028855
0.091208
-0.038840
0.007777
-0.016522
0.050786
0.056697
-0.062118
0.063875
-0.096497
-0.049387
0.029756
-0.062441
-0.051819
0.035825
-0.022726
0.002011
-0.033898
-0.072561
-0.091232
-0.076483
-0.098589
0.085176
-0.029089
0.059312
-0.067239
0.001520
0.061662
-0.002390
0.012962
-0.061040
-0.073536
0.004170
0.000120
0.034241
0.087647
-0.049094
-0.009061
-0.074470
-0.085219
-0.005559
-0.023858
0.044536
0.032000
0.024323
-0.019638
-0.090726
-0.073665
0.046464
-0.063287
-0.064898
0.069980
-0.061876
-0.079721
-0.059108
0.097436
-0.046960
0.042411
0.059098
0.050650
-0.044627
0.098058
0.077114
0.059543
-0.001822
0.011355
0.047190
0.049084
-0.097706
0.072720
0.063864
-0.003265
-0.051138
0.008401
-0.071265
0.073185
0.088762
-0.061990
0.099520
0.035226
-0.025277
-0.065378
0.005206
0.012847
-0.045099
0.046098
0.010283
0.007941
-0.011491
-0.030619
-0.041409
0.043883
-0.032562
-0.064295
0.003426
0.065616
0.047061
-0.049384
0.014700
0.049355
-0.076664
-0.021436
-0.053910
-0.027802
0.086965
-0.025175
-0.054617
0.075727
0.012835
-0.055097
0.010953
0.087558
-0.020475
-0.083841
0.000405
-1.061549
0.447372
-1.221159
0.066611
1.720754
1.554229
-0.559350
-0.267952
0.408933
2.064665
0.429782
0.997883
-0.196118
-1.961372
0.897873
-2.346208
-0.415370
-1.107558
2.366214
-0.756929
0.102471
-0.112228
-0.344859
-0.527535
0.401234
0.189225
-0.173423
-0.126046
-0.369949
-0.058830
0.012051
-0.208455
-2.200049
-0.982761
-0.527900
0.644132
-0.460608
0.134913
-1.111589
0.254731
-0.192000
1.089249
0.580224
-0.422233
0.223664
0.843023
-0.023620
0.108013
0.678071
-0.324545
1.069513
0.483249
-0.775019
0.441435
-1.025671
-0.454174
0.509939
0.306521
0.054225
0.279552
-0.036127
-0.706910
-0.108297
0.615515
0.957213
1.119173
-0.112584
0.903792
-0.152749
-0.473875
0.662339
0.608387
0.499027
-0.436410
-0.475042
-1.071953
0.327657
0.308583
0.564720
0.010455
-0.502789
-0.198737
-1.100659
-1.675395
-0.094959
-0.243222
0.042689
-0.353690
-0.254862
0.481969
0.816013
-1.059047
0.586976
1.245413
0.848404
1.033789
-0.638881
-0.577556
0.058484
0.014688
0.415175
0.121014
0.293599
-0.213165
0.290859
-0.407289
-0.484250
0.275288
0.306463
-0.390555
0.535598
0.056795
-0.415463
-0.012236
0.121396
0.744230
0.559561
0.095090
-0.840038
-0.143084
0.370482
-0.408845
-1.459355
0.612594
-0.391828
0.883558
-0.687360
-0.633400
0.054863
0.544885
