0.892505
0.470538
-0.895452
-0.258452
-2.286364
-0.352425
1.478100
-3.274377
-1.096600
-0.619563
-0.999949
2.680602
-3.803484
0.095277
-2.204334
-5.322190
-3.747483
1.041535
2.623613
-2.694180
0.021596
-2.645220
-4.014494
2.685367
-1.010360
-1.659232
2.269048
0.355722
2.318692
-1.925855
-1.264329
3.431167
-2.079396
-4.284486
0.168717
2.450197
-1.392329
-0.254609
1.404756
-4.874760
1.350802
0.761867
2.004647
3.731382
1.330962
1.174573
-1.475174
4.804829
0.232540
0.526419
-5.186468
0.646588
4.288014
-1.438260
2.157895
0.214983
-0.179236
-0.350119
-1.159389
1.091736
-2.592596
-1.260319
0.065112
-2.542964
-4.891421
-1.347209
4.754344
0.112351
-2.412868
0.207393
-4.234547
-0.828644
-4.265827
0.972349
1.398207
4.126110
0.198759
-3.281640
0.841694
-0.722436
-0.838239
1.698093
0.765137
0.089095
-0.911440
-4.209367
0.950361
2.248385
-1.671246
-3.367541
0.117631
4.367732
0.356340
2.851275
-1.883948
3.644541
3.485787
0.244190
2.026000
-2.008184
5.116212
-0.842944
-1.858915
-2.156956
0.084389
-0.578585
3.994063
5.077961
1.556021
-1.064586
1.076166
0.215590
-0.314476
3.547605
1.679005
-1.729060
-0.870337
-1.971817
0.085496
0.118987
2.501628
-3.119758
-0.442847
0.789692
-4.817456
0.267433
1.872904
-5.738402
-5.955406
-4.107718
4.300776
-0.678607
0.129847
-2.278503
-3.202113
4.187779
-0.911181
2.232534
1.180409
0.208089
-0.761804
2.542578
5.087763
-2.756612
1.359650
2.415981
0.021250
-1.612308
0.168287
-1.188806
-5.120873
1.582965
1.857616
0.270820
0.194734
1.225182
-1.065263
1.707729
-0.349419
-2.178277
0.192107
-3.922856
1.603057
-0.615151
0.749025
-2.617311
-4.624584
0.089394
-3.170483
-1.283698
-5.647487
0.683067
-0.728598
1.860137
0.252904
-1.627750
0.802896
1.052305
4.002098
-2.028298
5.083706
0.345743
1.061467
3.093208
-3.245464
-3.110601
3.188156
-4.660562
0.209471
2.899765
-3.584439
-0.864655
-0.865773
1.589566
-4.720671
0.193778
-4.371847
5.190520
1.623706
-2.894316
4.284221
2.442399
0.203131
3.788696
-1.621053
4.975549
-1.298248
-1.912473
0.054750
0.180403
-1.846955
-2.411675
0.276990
4.950834
1.710204
3.836891
0.204183
-0.581935
-5.699219
1.469359
0.151532
1.364435
-0.261978
0.201866
3.956485
-0.730353
2.050915
4.713262
0.017592
-1.047257
0.135151
-2.004637
1.177493
-1.640029
1.170264
-1.215334
-0.714692
0.297441
2.246989
1.758234
-1.029250
0.900473
-1.381540
-3.386222
0.183799
0.314386
0.472766
2.329164
-2.063317
-1.057057
-4.231731
0.112153
7.056739
-3.205198
-3.930527
-4.361887
2.592298
6.093909
0.185967
-0.402000
2.028934
-1.070793
0.414108
-1.234787
0.866202
0.113998
-0.697388
1.722579
0.458801
-3.090508
0.803262
4.582755
0.136688
0.236854
3.286307
-2.850258
0.985075
-2.957770
2.668507
0.015809
-0.783022
-0.949961
-1.847350
1.907564
-0.086625
-0.279851
0.263265
-0.412266
-0.034235
-0.642644
-0.116173
1.116829
0.485804
0.058076
5.247978
0.445216
1.388395
-6.109345
-3.290798
-0.386850
0.259678
-1.958979
-1.950490
-0.521728
1.729212
3.474905
2.854312
0.238489
-0.435613
-0.284147
2.153031
0.928733
-0.532999
3.284589
0.152215
1.873092
4.053452
-2.800504
0.913174
-1.469141
4.428040
0.197457
1.112546
1.188256
-1.936919
-1.007418
-0.502568
-0.091062
0.296049
3.544130
-2.709408
-1.733969
1.708611
0.411779
2.363559
0.038143
-2.027221
1.821755
-3.352781
-3.367394
2.937028
3.258177
0.270556
-3.109842
-1.226249
1.092677
-2.719871
1.561320
3.993295
0.167959
3.494419
-1.746981
1.674998
-2.098928
1.246944
-1.830544
0.119632
-0.055340
0.241700
-0.988985
-0.896028
-1.668433
-0.555590
0.297265
-2.230329
-2.414821
-6.065723
-2.665375
4.552449
2.502460
0.234347
0.097957
0.476604
0.466693
0.688667
-0.452498
2.038983
0.481557
-1.110902
-1.805532
-0.745348
1.985720
-0.263992
-3.357465
0.149981
-0.123023
1.438678
4.315927
-5.302435
-3.678723
-2.498989
0.120782
1.123812
-2.063965
2.670612
5.368416
-2.972431
-2.552222
0.070070
-1.907978
3.981421
-0.691654
-1.713828
0.240591
3.766314
0.142938
0.822949
-0.342327
-1.556453
2.197993
1.560279
4.857841
0.298769
0.441218
-2.975572
-3.962982
-0.145226
3.885404
-3.152606
0.071600
0.511899
6.004012
3.555684
-1.792239
-2.730883
-4.344978
0.158596
0.077770
5.484645
2.923693
-1.718005
-1.185132
2.317593
0.055432
-1.623113
-2.239032
-4.897499
2.617352
1.659544
-2.475632
0.188569
-4.847466
-0.089683
0.737182
1.721617
-2.165755
4.869442
0.183494
-2.909890
-1.142883
3.196350
-2.250534
0.381927
1.212042
0.321043
0.601291
1.314344
-0.598701
-2.923548
0.678831
0.057162
0.342062
-1.519765
2.522306
1.313647
-1.769461
3.000626
3.757503
0.136958
-0.303525
1.086453
-0.700889
0.138825
-0.269607
2.874704
0.365583
-3.854937
-0.971326
5.510359
1.667874
0.458489
-3.066595
0.126874
1.762221
-0.371033
5.323970
2.178618
-2.474987
-3.392505
0.038492
4.353585
-3.103256
1.821970
-1.659956
-2.329638
-2.123338
0.104834
0.708999
1.348101
-0.618271
0.015355
-2.193106
-4.826298
0.177206
-1.291503
0.513528
2.324191
-1.628641
0.045142
4.893914
0.161954
-3.718066
4.387277
1.103285
2.094155
-0.243976
-4.092774
0.231251
0.588279
3.272905
-2.015461
5.325346
-2.190884
2.722760
0.233231
-5.536760
-0.303050
-1.857062
-0.659345
4.992477
-1.840359
0.153373
-1.586626
2.214272
0.147360
1.545187
-0.278155
-1.133923
0.168253
0.640532
-1.037514
-0.172604
0.001919
0.011782
-0.427438
0.081164
-0.307500
0.907820
-2.033583
1.638287
1.856614
3.035141
0.156231
1.616609
1.213082
3.805728
-2.145602
2.708097
-1.565734
0.123196
3.670869
-2.906857
2.864111
1.079891
-0.318423
0.110851
0.179913
-5.033365
1.978392
0.928800
-1.610247
-0.306015
-2.258510
0.135170
-2.420615
4.245621
-2.618114
2.725903
3.964230
0.981338
0.091311
-3.427452
4.059540
3.466313
-2.993390
1.045599
-3.578775
0.245343
4.723201
-4.288568
-2.062933
2.836190
-3.528838
-1.582492
0.085303
-2.527135
2.434371
2.587793
6.947226
-4.124349
-4.455053
0.289738
-0.267013
-1.033084
2.265151
1.534032
-2.100379
-2.041505
0.207330
-3.677925
-1.946350
-1.966026
-0.883998
0.345935
-5.053843
0.263197
-1.666527
0.776613
-1.842189
1.454632
0.727599
2.790336
0.295141
0.200801
-1.595539
1.513447
1.873494
0.476803
-2.105705
0.094610
-3.452740
1.191197
-0.319482
-0.236076
0.143153
4.695348
0.109562
-5.001179
-2.042470
5.148767
-0.370916
1.359975
-0.805669
0.135083
1.976729
-5.759725
-1.890372
1.107149
1.224128
-0.735082
0.065089
2.255988
0.313984
-3.085547
-1.237796
2.790249
-0.901961
0.367547
-4.342436
0.044910
0.826062
-4.500853
0.879761
3.027267
0.138823
-2.970999
-0.503100
2.040307
1.104239
-1.374680
-0.881165
0.255851
3.536955
-2.331593
1.738326
-1.066623
2.569699
0.796226
0.307228
-1.631728
-8.764750
5.319288
-0.710729
0.797183
-3.653690
0.122617
-1.114519
3.048788
-3.313837
-1.111698
2.248302
5.006323
0.165553
-0.577229
0.263414
1.835103
3.219343
-2.585938
-5.349082
0.173168
2.159979
1.125618
-4.797422
-1.254209
1.883771
-4.569695
0.242949
2.832890
-4.489945
1.522121
-3.126773
1.154397
3.206318
0.498561
3.094792
3.130119
0.568393
-3.495178
2.639352
-4.566853
0.091935
0.668386
5.592919
-0.545569
1.544936
-0.470980
-0.446933
0.071415
1.497445
-1.973861
3.286468
3.830501
-3.323694
3.343569
0.152868
0.620517
0.129772
-1.861916
-1.438282
1.408213
1.185454
0.881299
-3.451470
3.447487
-6.145555
3.825245
-0.394941
-5.300475
0.180750
2.279895
0.521477
0.537964
1.404249
-1.542993
5.327676
0.171145
-4.880312
3.683973
3.503983
-2.457441
-0.010735
2.676368
0.163548
-1.445161
3.371593
-2.195217
-1.968746
4.000885
-2.261397
0.156932
2.538174
-0.284164
0.538606
-0.137360
-0.495080
-4.029226
0.160950
1.540847
1.549492
-1.109279
4.684256
-0.803382
-5.938994
0.141268
-1.674370
0.631580
6.029907
0.295308
2.198481
-1.216244
0.108306
-4.842243
-0.907902
1.924048
-0.501255
-4.240829
0.378341
0.096566
-1.258231
1.687209
3.110500
-0.554811
0.932955
1.147686
0.215792
-0.940380
4.170395
0.135934
1.945706
-4.365394
2.587254
0.077184
1.545278
-0.026891
-0.282960
-0.157066
0.612737
0.336422
0.242792
4.580821
-5.436156
-0.332356
-5.286312
-2.639842
-7.482945
0.404247
2.076335
0.691645
-1.794904
-0.172704
-3.128205
-4.943668
0.173012
3.751587
0.590773
2.748954
-4.992013
3.141041
2.560762
0.144258
2.195180
2.788696
-1.652714
0.450103
-3.158475
2.133742
0.046346
1.906095
3.012335
1.282040
4.715970
-3.286279
1.825569
0.233194
2.892779
-2.076305
-2.928501
-6.694735
1.691709
-1.032541
0.260425
-0.609242
-3.717153
-0.031900
-1.465334
-1.647643
3.273908
0.569796
-4.343466
-0.960803
-0.478641
-0.182905
-3.417822
-4.772284
0.114459
-3.381196
-2.938732
5.439373
1.808657
0.814654
-0.438496
0.308933
2.374146
-0.672134
1.550644
-1.037405
0.717490
4.566257
0.206610
0.240639
-3.412399
-3.173857
2.117330
0.904012
-5.712961
0.106734
-2.047574
-7.225167
-4.782099
3.105921
-0.775218
-2.185278
0.245295
-0.274682
-0.393014
-6.615263
4.990923
6.033897
-0.166654
0.281238
1.248592
-6.664598
1.141397
-2.475245
-0.561148
2.493078
0.206254
-0.026316
1.615541
2.138878
0.613917
0.522399
-2.232148
0.110789
0.184757
0.400426
0.330391
0.861560
-0.487270
0.772371
0.168943
-0.145466
0.881479
-0.417272
0.290263
-0.084523
0.585800
0.058213
-8.210708
-2.969052
-0.090691
0.598113
-1.693502
0.812843
0.163649
0.102758
-1.359555
2.140336
0.525614
-3.606352
-2.797400
0.237372
3.808377
-1.940591
-3.680743
1.195101
1.899765
1.745725
0.224880
-0.101072
0.680434
4.576996
-1.569638
-1.483193
0.929292
0.139670
-2.550828
4.125571
3.574167
-2.317021
-0.354680
1.654136
0.113589
-0.181116
-1.266036
0.542022
0.996453
2.033130
0.591216
0.164808
-1.205410
1.190967
1.415462
0.585073
1.206967
0.392719
0.045567
1.133112
0.086853
-0.482163
-2.220963
-2.612099
-2.823928
0.148136
-0.621452
0.125554
-8.874718
2.255057
-2.179372
4.388337
0.269775
0.597915
-0.347952
0.075295
-0.012396
-1.276852
-5.429612
0.010613
-1.773742
2.639317
1.586627
-1.003264
1.025283
-2.416895
0.195062
1.777515
-2.471328
1.662032
2.903354
-2.615052
1.175166
0.249921
-0.205513
3.920925
-1.142192
-1.148350
2.021452
0.326414
0.272530
-1.686783
0.742659
0.051778
3.286244
-0.268616
3.248815
0.153367
-0.171042
-0.695118
-1.234046
1.576856
0.999541
-3.365826
0.064446
-1.476486
2.139010
0.339098
0.933097
-0.391340
1.931037
0.379621
2.908048
-2.018668
5.122542
0.337733
1.746319
-3.065758
0.527835
3.567227
-0.810303
-5.377347
-1.619760
1.749960
-4.491980
0.278827
-2.592148
2.227523
-2.756411
-0.080365
-1.745713
-0.922832
0.241333
-0.425455
1.148422
-2.529459
-0.481824
0.529751
-3.310265
0.145161
-3.349803
4.782891
4.724691
-0.981983
0.656409
-3.513430
0.211832
0.317668
-0.087926
-1.321799
2.042811
1.163520
1.155711
0.250736
0.811329
-2.415856
0.795078
-3.557411
3.477756
1.851059
0.266836
-1.270107
-0.239415
-0.660587
0.208119
-0.663577
0.223984
0.039735
2.219524
6.341802
1.565655
4.154216
-3.360678
-1.518582
0.283082
-2.760410
-4.369226
-4.257653
0.418517
2.316052
0.957604
0.224864
0.278145
-4.568711
-2.461086
0.428324
3.134211
4.978981
0.301655
2.337138
-0.394174
3.118656
-2.774644
4.203247
-3.329741
0.102691
1.606160
0.890033
1.227523
2.448970
0.412440
-5.686498
0.159304
-0.399955
-1.603539
0.411178
-0.642144
-0.118748
-2.263555
0.302387
-1.990849
1.692344
2.287210
0.557420
0.124691
-2.781511
0.031701
-3.766923
1.545961
-4.234957
0.602798
2.275283
4.131916
0.091652
-2.897126
-0.358709
-3.022330
-2.990532
2.040067
3.605882
0.217299
4.339561
-1.419878
1.401388
2.058851
-4.458473
-5.982837
0.373245
-1.605595
2.167293
2.442528
1.817346
-4.226154
2.987356
0.216751
2.874595
2.314927
-6.708228
-1.550835
5.343945
-1.819385
0.183600
-0.476411
-0.769325
1.572233
4.233882
1.897324
-1.524196
0.100246
3.325291
2.189354
-3.380694
-2.531594
5.481384
-0.604893
0.149896
-0.926516
-0.185423
2.138830
1.318353
-1.197840
3.382726
0.148891
3.388930
-3.368819
3.631001
8.060364
-5.127612
3.161391
0.060254
1.728703
-2.816344
-0.559255
-2.771738
2.912249
-4.946660
0.295482
0.341769
-5.566887
-2.516334
0.057134
2.028829
0.174441
0.399620
3.415712
0.283189
-1.447593
-4.861587
1.032172
0.685981
0.290638
0.190873
-0.824330
-0.078909
1.734509
-1.511743
-1.859961
0.330696
1.025621
4.073641
-1.284895
1.220922
-1.000345
-6.797205
0.258315
2.206498
-8.030577
-2.439468
0.074247
3.978985
-1.914564
0.182886
-2.201942
2.268291
3.008068
0.877780
-1.527283
2.206757
0.147097
2.422451
-5.255445
-2.634690
3.097250
2.631769
-2.056043
0.248579
2.005135
-0.360201
2.158240
-3.627508
4.645752
-3.229313
0.193063
2.694904
-2.390639
-1.844137
2.748255
-2.836398
-2.333139
0.149865
3.873892
-3.568538
-1.590538
-0.400675
-1.301679
-3.234259
0.185176
2.742986
1.219473
-1.937708
-3.814500
4.228874
6.596583
0.270793
0.338156
-4.747405
3.192672
-4.390755
-3.164035
3.031832
0.151825
2.579971
-1.679295
-2.833985
4.142017
-1.535158
3.179971
0.131034
-4.532930
3.260101
-0.016030
-0.759266
-2.622177
0.173624
0.319491
3.932547
2.762553
-3.507770
-0.618808
-0.464231
0.752129
0.151158
0.476064
3.322164
-1.886080
-0.649257
-1.767087
-1.036785
0.136408
2.391816
1.132971
0.787505
-0.259060
-4.680784
-0.605838
0.356147
-0.902584
5.762676
-2.868825
0.165720
2.910756
1.103538
0.074288
2.104941
-0.687328
1.521216
0.087106
-1.424299
4.885371
0.139767
-0.059502
-0.216027
5.798653
4.764377
-1.016036
3.749032
0.459313
1.425599
0.712003
-0.680444
-0.436907
1.277033
-1.492348
0.459296
-4.248431
-3.891820
3.808123
-2.827151
2.140906
-1.006594
0.163314
1.160780
2.270501
1.841324
5.616371
-2.103150
4.851928
0.133968
-2.788645
2.894201
2.677542
5.083718
-1.072863
-0.862839
0.199339
-1.656734
0.345042
-2.349891
-1.608214
1.511766
-2.743905
0.264261
3.270669
0.312106
0.761845
-1.139790
5.292878
4.286642
0.111870
-2.344581
1.348210
-1.480220
2.944069
-0.416286
1.938570
0.235988
-2.160757
-0.285556
2.649299
2.317285
-5.886225
3.612215
0.297459
-1.789007
2.977576
-1.120237
0.577188
-0.009292
-3.418039
0.226972
-3.291718
-4.438848
-2.909012
-2.894716
0.812703
5.477921
0.094876
-5.007238
-4.324535
-2.344774
-1.039048
-2.562836
-0.538650
0.187503
-4.442366
2.134835
-0.678873
2.928711
-5.144824
3.389891
0.314981
4.085073
1.927380
-1.007172
-1.200707
1.010708
3.632626
0.461499
1.093159
2.011930
-2.318070
1.063867
-1.322091
-1.691453
0.354027
-5.404245
3.556566
-1.904970
0.161086
-2.553326
-0.519513
0.302697
-3.626354
5.551652
-1.421750
-4.182955
4.470722
1.055910
0.187925
1.655286
0.927523
4.343960
-2.495672
-1.032051
1.623145
0.065451
-0.789811
1.794000
-0.531975
-0.032631
-0.103940
0.308432
0.034079
2.525571
2.941880
-3.403658
-1.956114
3.799855
0.236036
0.237137
2.849766
-4.898463
-5.659215
-4.286097
1.637201
3.393205
0.122898
5.424396
1.218982
-1.125769
-0.046084
-2.755741
-0.387678
0.274479
2.448827
4.661663
-1.605267
2.897413
-2.210002
-4.208657
0.263653
-3.378693
0.105597
0.140802
-0.383526
-0.395582
-2.400882
0.263094
-1.858412
0.307857
0.623115
-2.237304
1.970681
-3.055481
0.162534
2.114080
-2.989841
5.458014
2.775178
-1.928142
3.254822
0.194213
-5.590743
-2.477562
1.130763
-4.066307
1.419421
0.411427
0.278759
1.089661
-0.035095
-3.096163
-2.362273
-2.555524
0.898499
0.190652
-2.033242
0.618669
-3.177741
-1.939765
-0.950184
3.120926
0.188597
2.404880
3.886982
-4.895289
-2.447156
2.064429
3.421602
0.042432
-0.839974
0.345020
1.435131
2.507741
-1.779464
1.856560
0.355078
-0.648455
-0.071160
2.162071
-4.145650
2.433725
0.877821
0.294862
