-0.434649
0.806379
-0.915583
-0.141934
-0.459418
0.575626
6.318978
-0.229763
1.003971
-1.435339
0.894152
0.423991
-1.905923
0.263112
1.415774
-7.409499
-5.529480
3.750509
4.393920
-3.599913
0.085441
-3.695018
-4.801028
-0.270805
0.908912
2.360335
3.680747
0.481640
1.887279
3.250050
-5.435940
-1.189590
3.239587
-1.376263
0.280863
3.441453
2.906787
3.332059
-3.544517
-2.716307
5.262354
0.322181
2.757359
-3.138785
0.334068
5.511227
-3.066282
-1.389221
0.538646
-2.766013
-6.191889
-0.766150
-0.678246
4.442387
0.106401
0.345814
0.078675
1.075551
-1.456234
-0.479000
0.104855
2.230057
0.333136
-2.552069
-0.493547
1.893584
4.204337
-2.384588
-1.227466
0.302726
-0.200422
1.926273
-0.220013
0.643480
-0.985500
0.032950
0.267860
1.021820
-3.733786
-1.880683
-2.006810
5.116545
5.669901
0.177455
-1.149570
-0.117498
0.988252
1.670198
-1.555958
-7.587631
0.186654
7.636227
-5.043425
-4.170012
-1.341528
6.076150
-1.368230
0.300748
2.058912
-0.177462
5.925528
3.190806
-3.567516
-4.204134
0.166696
-1.889086
0.622487
3.205393
5.291499
0.231644
3.628343
0.302991
1.958956
1.702727
-0.952582
-1.578406
-0.110291
-7.020284
0.194332
0.350699
0.026414
-0.199172
-0.029902
-0.312936
-0.254932
0.791657
-0.413413
-3.801324
0.663653
5.434649
-4.224099
-8.124614
0.223473
-7.463724
1.815166
1.640458
-4.292908
0.256765
0.381002
0.311499
-6.818305
10.387657
-5.603106
5.893879
-0.107160
0.156906
0.102844
-2.700341
0.066196
-1.608081
-3.281950
4.148631
4.982783
0.353294
-7.966992
0.605206
-1.982238
-0.444505
5.104907
-0.973859
0.254832
-4.064405
5.828034
2.579581
0.756917
-0.301723
-5.522259
0.191630
-0.254598
-4.007781
-4.214291
4.693665
2.543135
3.923947
0.334150
1.431212
-0.089834
-2.051455
5.033110
-4.592180
3.380119
0.367288
3.990652
-1.755002
-2.107313
-0.622774
-0.914058
-4.403712
0.252015
3.198184
-7.216612
-5.913813
-4.483489
5.086912
-0.878519
0.240326
2.606069
-0.641843
-5.012001
-0.164254
0.550700
-2.313791
0.317686
-3.655086
0.220257
6.541071
2.344551
-2.995727
4.012640
0.258228
-1.860997
-4.042140
-3.102204
-1.956305
0.880536
7.585617
0.277004
-1.450092
0.676824
1.187607
1.005195
-0.158841
-6.575992
0.292264
8.005094
3.981182
-2.038127
3.796614
-3.218990
-2.136596
0.215547
-3.686813
-2.101832
-0.669630
6.399954
-6.958571
-4.225186
0.466698
2.286353
4.806581
-2.645099
0.312805
-0.340627
-5.158422
0.269627
-0.505707
4.675091
8.299625
-1.183028
-1.124037
-3.702770
0.153012
2.474953
6.622505
0.131285
-1.671118
-4.126640
-4.912515
0.195044
-0.398167
3.196577
-0.732591
-0.147126
-0.835072
1.836074
0.354673
0.050291
0.032944
-0.192507
0.167117
-0.216314
-0.163843
0.330296
3.775733
-3.738257
-0.774017
2.632296
-3.935913
1.964713
0.141826
-0.653985
0.092033
-0.457000
-0.465734
0.523340
0.106897
0.427061
-0.379477
-0.594840
-0.535043
-0.862771
-1.809070
-1.315838
0.162319
1.294979
-0.703033
0.442675
0.073755
0.049265
0.764921
0.745692
-2.839738
-6.348676
-2.627205
3.693786
2.124897
-4.097496
0.254690
-2.017084
1.061879
-0.847058
1.662930
-3.476725
4.284515
0.292206
2.569039
2.325670
-3.095737
0.377268
0.978217
-2.533778
0.286213
-3.787007
-5.516278
1.468041
-6.492544
-1.247950
-4.876713
0.335603
4.124569
-5.448541
-0.928416
2.592097
-1.910164
7.072926
0.139903
2.942192
-5.607088
-2.995748
-2.919552
4.114100
-3.602340
0.295988
-5.633029
-0.306719
-0.431021
-7.434390
0.604439
2.652434
0.187991
2.137959
-4.001730
-2.098787
-1.718404
1.840685
-3.144033
0.249923
-0.913186
-0.040990
-2.237779
-3.417677
2.641233
-0.423268
0.348509
0.193626
-3.058536
-7.665011
-1.697592
5.909523
2.793923
0.271311
2.297217
-6.053961
4.678987
-3.258050
-0.482149
1.893231
0.484461
-5.187804
-0.035427
-5.556198
-0.078498
4.312369
3.020369
0.185069
0.016542
-0.015800
-0.768123
-1.532956
-1.738636
-3.217815
0.247034
2.881855
-0.630149
3.744281
0.017352
0.040081
-3.319309
0.193698
-2.313207
6.262053
-1.767195
-4.095914
3.911898
2.107251
0.229145
4.821342
-1.698381
6.738015
-1.489164
1.546919
0.791150
0.428869
-3.885762
-0.689961
-5.581048
-4.078462
4.663512
-0.299301
0.140688
-3.708803
4.112785
-0.979269
-5.667058
-2.598404
-5.026374
0.209015
-1.590878
5.841315
5.420383
-3.500534
-0.285163
5.045257
0.125000
-0.017539
-6.517040
-2.322569
-1.915890
3.434661
2.856298
0.215072
-6.726814
3.548287
1.582278
0.185619
-2.305270
0.962278
0.280237
-0.652776
5.428972
-0.939162
-0.785075
0.551498
-0.362085
0.347039
6.045029
6.373948
5.718094
0.226845
-5.036878
5.931161
0.283005
-6.441458
2.686099
7.875975
-5.108038
3.981432
3.022500
0.177603
-0.261898
-1.044993
5.527914
1.244811
-1.770562
2.788384
0.522154
-2.991875
0.113841
0.769279
-2.461582
0.129264
-5.305244
0.258497
3.645396
-1.905169
2.832695
0.958848
-3.193742
0.001095
0.160762
0.926466
-4.995794
0.388220
0.128428
-2.163463
4.102354
0.179752
5.102294
3.494665
-2.371487
-1.325554
-0.814494
4.588586
0.332613
-6.076166
-0.301021
5.291319
0.033607
-3.670143
3.066095
0.187645
0.013388
-1.994453
-2.336678
-2.669450
-0.020550
-1.492992
0.408298
0.620801
-2.044678
-3.932221
3.796105
4.882655
2.569401
0.378389
-3.311738
-6.584713
-5.140936
-1.299078
1.573620
-4.036819
0.219287
0.521306
1.324958
0.951585
-2.140488
-0.298371
-5.235665
0.259495
-0.345549
-1.693072
0.410284
-1.751690
-0.079486
-1.753097
0.276568
-1.840400
0.792246
4.292488
4.815344
-2.617285
5.658226
0.363215
-3.194494
1.943921
5.895423
-2.998272
0.333664
-4.560643
0.167524
0.261743
4.619174
5.177438
6.050548
-3.853393
-1.606130
0.228154
1.699225
-3.111807
-2.766858
5.299739
-4.193141
-4.022234
0.193962
-6.216522
4.557242
-5.733031
4.760421
-1.409869
-2.521119
0.174815
-5.044044
0.431387
-3.453929
-5.530353
6.350221
-2.601645
0.300827
-2.238212
-0.014639
0.046347
1.973808
-8.090785
6.404387
0.195039
-0.883315
4.737979
-1.045594
0.703513
-1.552233
-4.114872
0.391148
-3.114933
4.471907
1.995714
0.647887
1.211170
-1.323013
0.368953
-3.432667
0.587891
-0.414010
-2.634330
2.334273
3.315718
0.341684
-4.057129
6.165221
-0.521648
0.701202
0.090783
0.420796
0.347988
-0.062768
-0.659593
2.120006
0.708233
1.135811
-0.427750
0.219201
1.214615
4.162486
-0.992284
-2.081618
0.036454
-1.283348
0.314809
-0.309651
-3.355362
3.681526
-1.037245
1.695088
2.606670
0.187556
-3.341619
-5.539332
-1.286592
0.403046
-0.608434
-4.466482
0.150177
6.772305
-8.140785
-5.613219
-5.285265
-1.626718
-0.262953
0.327247
-2.628953
-4.935802
7.575693
-0.609588
3.622731
-0.107119
0.238642
-6.470083
-3.614976
4.292455
-1.908162
1.332559
-3.868443
0.185194
2.631577
-1.655170
-0.455906
0.831619
2.085060
3.239686
0.439963
-2.321631
2.639954
-3.015109
-0.304884
3.568681
0.769375
0.320199
4.063409
0.697358
-7.444834
1.591690
4.602218
-0.098767
0.248905
-1.780788
0.684744
2.678531
3.397722
-4.183391
-4.944619
0.265722
-4.241120
3.195810
-1.850783
-1.816157
-4.272622
-0.623658
0.381230
0.722342
-0.460522
-1.249073
-2.082646
-0.070703
-1.654144
0.750188
0.946653
-3.816489
8.090655
0.639944
3.406872
0.246351
0.194150
-1.436593
1.133090
4.158647
3.467892
-2.999912
5.042060
0.217815
5.071921
-1.207262
2.624298
-2.946745
-0.526456
7.024631
0.224212
0.374101
-2.141347
-1.733066
-0.449172
0.049589
-1.852428
0.739283
0.018172
3.795074
-7.512069
4.904310
1.357522
-5.107357
0.290265
1.134862
2.698041
1.171336
2.368424
-1.806103
5.388927
0.342401
-0.125591
-0.076185
-0.099409
0.345848
-0.182778
0.026960
0.277793
1.098451
-3.295971
6.479773
4.297578
-4.050955
-6.973376
0.215217
-0.202201
-2.446002
-2.974009
-1.512848
4.485583
-5.202979
0.283066
-0.337527
-0.646763
-1.533568
5.491241
-0.155122
-5.530603
0.212521
-2.470302
0.504572
1.321852
1.393065
-1.066640
-0.040508
0.195515
-7.284151
8.326988
-3.755699
-3.718366
-3.013682
1.997370
0.153883
2.989478
0.127426
4.540649
0.146679
0.171431
2.243775
0.353602
-0.182500
6.370121
-0.983896
0.753101
-2.838918
6.809568
0.149832
-1.978019
-0.009100
-1.452815
-2.725915
-0.107386
-0.391586
0.338844
3.866512
5.027445
-6.480013
-0.821332
2.599123
1.869317
0.507837
5.685384
-0.429579
-2.680369
-2.692263
0.126877
-6.896158
0.239057
1.731214
5.103548
2.391278
-7.361443
3.161910
-0.335685
0.218332
3.803689
2.597272
-1.378286
0.854689
-2.194921
1.877672
0.220821
-0.699046
1.738028
0.183889
2.039814
0.875972
-0.447365
0.365367
-6.485343
3.138450
-1.885150
0.589452
0.301407
1.512236
0.348546
5.150352
-2.034739
1.922963
-1.060526
-0.426026
3.452581
0.657569
-0.515008
2.638260
-1.653926
-0.131366
0.350390
0.781939
0.336332
-1.791184
-0.777638
-5.382314
6.191631
2.269333
-1.802415
0.387109
-4.292155
-1.375620
1.721203
-4.866900
-1.022951
5.137710
0.281869
1.477836
-2.763973
-4.093984
0.888207
0.282755
-6.954712
0.156650
-0.489109
5.502460
-4.184039
0.810325
0.923302
1.269226
0.355076
-0.769164
3.103775
-2.165209
2.672009
6.405915
3.788091
0.342187
6.215900
-5.562373
3.408209
3.381638
1.226548
-3.856967
0.223252
2.272684
-0.203111
1.004074
-0.231126
0.451396
-4.580919
0.266624
-0.475654
1.865630
0.621506
0.635839
-1.180580
1.845141
0.395180
0.112606
0.388267
-0.144521
-0.033286
0.205734
0.046563
0.267452
-5.007317
-5.048744
-1.894124
8.053462
-1.581223
0.582647
0.239646
4.863247
9.462812
-7.470268
1.796688
-1.624954
-2.455517
0.279325
5.608699
-4.095682
-7.632803
-2.921414
1.507637
2.691169
0.290527
-4.574292
2.778877
0.515057
-3.470136
1.883437
0.144296
0.306743
1.298453
1.119386
4.359551
-1.881921
0.620844
4.550653
0.194436
2.337765
-0.734654
-1.071621
0.387473
1.334514
0.316597
0.337794
0.371991
3.488738
3.144215
2.244181
0.353248
1.452570
0.231084
4.415434
5.223783
3.487766
-1.333846
-0.474730
0.786747
0.246024
-3.123243
4.496465
-9.615551
1.183249
-5.377059
8.151937
0.316520
-0.734660
2.239969
3.321519
1.039333
-1.128901
-6.508139
0.094228
0.222175
-2.981324
1.159113
1.110306
-0.637185
-1.247492
0.277867
1.860666
0.159072
-0.644496
-0.600570
-0.409255
5.494990
0.310464
0.812454
-3.082230
-1.217769
-0.386453
-2.258270
-3.324167
0.388932
-0.433402
-1.460400
0.924920
2.114398
-1.280911
2.409050
0.364601
5.565397
-0.585136
0.025683
-3.227505
2.912264
0.850246
0.167992
3.776239
0.322132
-1.339620
-1.160854
-1.336386
-2.717490
0.448111
7.819685
-0.127821
-1.318617
0.788600
-0.629013
1.112805
0.321377
4.374781
-1.560148
-0.428063
-1.314284
-4.959151
-0.530849
0.342524
-0.278601
-3.487609
-3.868745
-3.956724
4.309754
3.577888
0.284449
-5.772999
-1.804795
5.805308
-1.813249
4.019174
8.276166
0.164372
0.285153
0.036696
-0.002013
-0.562373
-0.049077
1.260319
0.469784
-2.486283
-6.864583
-4.796496
3.986267
0.669089
-1.305665
0.323199
1.219096
-5.890979
-4.269857
2.822647
-0.956344
-1.555886
0.350184
-0.819784
-0.234035
-1.391175
0.086363
-1.449712
0.939649
0.270472
1.365386
2.817021
-5.387810
-0.375663
2.660460
4.190058
0.246681
-1.229639
-3.981309
1.717636
2.165256
-0.518125
-1.506989
0.325157
0.032243
-3.395173
4.425508
1.416498
-2.184465
2.927596
0.611191
1.513958
0.281482
4.871068
-5.148611
4.001653
-5.206299
0.168291
-1.047087
-1.517498
5.817822
3.308811
-4.223869
-2.722743
0.216737
-2.027323
5.077590
0.232886
0.608203
-0.436733
-3.854199
0.404990
-5.607248
1.879876
6.638455
2.689419
1.043801
-3.707019
0.105771
-3.731104
-1.254999
-2.312443
4.152118
0.081227
4.335630
0.198435
-1.988586
0.051693
4.485907
3.013322
-0.509654
0.247317
0.556751
2.887020
-0.649872
-7.515327
0.959186
-2.426961
-3.322047
0.421187
-2.901587
1.547933
-2.001757
0.710663
-3.839489
5.578232
0.274805
3.095046
-8.284386
0.092154
-5.474598
-1.694199
6.317266
0.272067
-3.910076
-0.492899
3.478316
2.158701
2.094661
-2.656249
0.164928
1.094896
-1.025234
-2.489223
-6.719989
5.297120
2.943185
0.271516
-1.146655
1.306280
0.478090
2.220691
0.717074
2.667785
0.250000
1.709940
0.291187
2.957255
-1.298538
-3.047055
2.697795
0.171014
4.801773
-1.091961
-2.309490
-0.415523
5.800974
-4.152103
0.326909
1.577640
-4.243052
0.599625
-1.076966
-0.418336
-4.092870
0.541451
1.066702
-0.074092
-0.544240
-0.664981
2.403596
-1.168758
0.453549
0.280923
1.275072
-1.376464
0.289672
0.596909
-1.408937
0.453432
-0.437639
0.177607
-0.187665
0.263862
0.107786
0.234966
0.405938
2.441844
-5.354684
4.898051
-4.573038
-0.255070
-0.501030
0.274690
-0.770258
1.204946
-4.241773
-2.714003
0.627641
1.915538
0.242705
2.250461
-4.059065
3.111863
0.910141
-3.583586
-3.042084
0.357665
-1.630466
0.304030
3.117188
3.170055
-0.579144
-0.553132
0.284781
1.125045
-1.504594
3.413345
1.085722
2.571993
-7.224146
0.193165
-1.048263
0.509756
2.191780
1.713629
-0.185483
4.454051
0.347692
4.320356
2.663440
2.167778
-8.261296
6.644455
3.316735
0.293513
-2.139533
-1.013369
-0.039118
1.535491
-4.865221
-2.861799
0.236732
3.301708
-0.061410
-0.917599
6.306362
-0.525584
-0.585957
0.180631
-5.663134
0.409491
-1.564508
-2.336382
-3.636810
-6.526660
0.428405
-2.443376
-1.597511
0.082172
-0.566255
2.055891
-7.061006
0.225302
-5.816101
3.630274
1.535667
1.430771
-4.738905
0.051268
0.219025
-4.657291
2.748332
0.991845
-5.902288
-2.648016
-0.513979
0.251452
5.523320
3.053659
-4.121768
-2.504301
3.854189
-0.481760
0.116811
1.123459
-1.440669
5.978959
0.970821
-1.152593
6.131196
0.246642
0.418499
0.385702
-5.589285
-4.200522
4.884203
4.454390
0.556208
6.642020
-4.562278
-0.627440
-4.386938
3.506999
-4.681355
0.354090
-1.354598
-3.642211
-1.785120
-1.777788
2.072523
-3.471052
0.291088
-2.188901
1.906487
1.178290
2.889037
0.092122
4.686884
0.259915
0.246608
2.640655
-0.601575
2.166213
-0.080740
-2.690812
0.425405
-0.922272
1.245873
-7.247809
-1.383294
-6.173061
0.581324
0.302412
5.093855
0.492609
-4.678786
-2.546910
8.644734
2.855697
0.202887
-1.668406
3.849786
1.715697
3.378131
3.676860
0.444402
0.193913
-1.359129
-0.269058
6.168934
-1.076316
-1.603367
5.296714
0.386429
4.068179
1.731693
-2.270884
0.000963
-0.570851
1.078904
0.294169
4.530283
0.597312
-2.364780
-2.847187
3.437371
6.239591
0.156649
-1.834100
-1.829128
-3.564528
2.446168
-1.587813
-0.068179
0.301052
-5.020562
0.047694
2.595546
1.150373
-2.624592
4.727817
0.372006
-3.064186
2.780449
-0.078992
-0.491286
-1.342684
5.285213
0.313687
2.422015
-4.788752
3.353080
5.878519
-1.831857
1.467896
0.663557
5.411908
-2.338647
5.125806
-4.922741
-0.189852
-4.419468
0.330706
-1.219894
4.232423
-1.399462
-1.570164
0.523348
3.069730
0.637864
-2.439338
0.468837
-0.656489
1.220178
1.651288
0.867707
0.189608
-2.230536
3.221884
-0.248462
-0.361519
0.417737
1.291884
0.242744
3.154290
0.183310
-2.157237
-9.088100
-1.789820
-2.471459
0.296296
4.675005
-0.093584
1.035231
-3.559030
-1.142239
-6.950489
0.194870
1.159646
-0.867753
4.320874
6.190644
-4.453009
4.173609
0.252976
0.176631
0.288101
1.758619
6.032257
-3.918605
-5.129974
0.405581
-0.224447
0.205954
3.272306
0.769142
2.479954
-3.882017
0.278362
2.079549
3.747526
1.127418
-2.731692
-1.240999
-4.779878
0.282922
0.164844
-4.641061
-2.144263
2.434122
-1.698879
3.767816
0.335594
-4.644505
-2.251359
1.546865
-3.064414
-1.358166
-5.650712
0.307288
1.065605
-2.906118
1.978717
2.147543
-2.312022
-0.169404
0.233113
-0.669101
1.024794
-1.821742
-0.100217
-1.007007
1.792083
0.447727
-0.608001
-0.309490
-0.730980
-1.222708
0.164121
-1.139494
0.137488
1.816805
1.463191
5.953882
-1.624468
-1.354490
-3.272033
0.279144
-0.265463
3.384286
-3.706799
-3.903880
5.341443
6.147068
0.321014
