-4.958791
-5.924841
-5.428771
-5.835449
-5.890789
-4.476178
-5.625569
-4.767345
-5.227259
-5.477706
-5.666698
-6.888824
-5.937516
-5.675500
-5.148352
-5.450021
-7.398389
-7.144151
-5.692677
-6.712317
-5.497300
-5.843094
-5.725624
-5.878233
-6.643931
-6.435879
-5.953864
-5.854268
-6.009606
-5.623985
-5.463151
-5.800512
-5.626793
-5.621446
-5.858129
-6.020228
-4.929938
-4.389090
-5.209335
-4.906240
-5.554238
-3.966895
-5.907223
-5.091819
-3.929209
-5.963151
-5.388533
-5.740417
-7.126453
-5.514086
-5.178369
-6.043772
-5.983317
-5.645548
-5.119667
-4.213438
-5.424023
-6.175551
-5.963679
-6.884448
-5.807790
-5.589057
-5.589455
-4.838678
-6.056122
-6.074295
-7.001826
-5.294278
-5.553926
-6.795834
-5.467383
-6.040202
-7.028066
-5.637603
-5.800982
-6.730912
-4.791515
-5.759367
-5.827175
-5.907860
-5.750711
-7.413216
-5.881718
-5.955378
-5.331724
-5.201527
-6.778124
-5.231115
-5.025217
-4.134927
-5.331906
-5.506252
-6.097421
-5.938830
-6.920993
-6.658508
-5.151174
-6.057874
-5.674546
-5.247762
-6.211963
-5.810197
-5.604053
-6.060577
-4.848223
-7.034703
-5.290488
-6.128031
-6.090620
-5.566681
-5.855338
-4.898375
-6.918887
-5.328956
-5.719639
-4.708647
-5.984065
-6.908651
-5.976249
-5.260449
-3.939046
-5.223384
-5.487254
-6.521211
-6.321522
-7.044945
-6.942559
-5.720608
-7.077032
-5.740643
-5.218403
-4.871654
-4.805638
-6.261851
-6.322633
-5.745869
-4.549081
-5.774450
-4.892766
-5.034240
-5.697710
-6.125278
-5.608126
-6.388011
-6.869986
-5.241468
-4.893630
-5.611719
-5.905620
-5.501799
-6.174801
-5.621773
-5.758514
-4.370214
-5.959742
-5.462172
-4.706542
-7.124893
-5.228218
-6.704453
-5.961752
-5.922984
-5.349067
-5.760569
-5.500189
-4.963662
-5.658438
-5.716486
-6.352210
-7.015484
-5.827477
-6.731793
-6.983479
-5.762490
-5.391882
-4.165181
-5.422191
-4.867416
-6.389505
-6.917608
-6.979892
-6.233996
-5.561597
-4.809211
-6.418279
-5.585337
-7.294668
-6.065403
-5.506177
-5.731996
-5.688212
-6.980866
-5.597274
-5.701298
-5.919046
-5.479760
-6.648106
-4.617209
-5.821600
-5.988989
-6.015159
-5.810545
-6.816647
-6.783247
-5.361470
-5.461010
-5.620614
-6.514609
-6.028881
-4.947064
-5.202712
-4.979993
-5.927495
-5.756373
-5.749051
-6.657564
-7.023204
-5.415702
-5.246675
-7.013261
-7.147760
-4.811281
-4.066093
-7.106158
-6.848309
1.250118
-2.128306
-0.277692
0.052351
-1.630594
2.467473
-1.378163
0.204406
0.615199
0.056114
-0.408605
0.419212
0.866015
-1.541703
-0.586248
1.643423
-1.453602
1.088138
-1.059759
0.053258
-0.164224
-1.006685
0.054514
1.159805
2.065474
-0.618915
-0.857059
1.377666
0.793249
-1.772514
-2.107531
0.385256
-2.485934
0.810854
1.154848
-1.017635
0.226701
-0.312770
-0.744171
0.030948
-0.225349
-0.507374
-0.443423
0.807487
-1.187606
1.020960
0.585823
-2.012255
-1.288352
0.707263
-1.165598
0.229640
-0.247372
-0.763959
-0.947956
0.453951
0.392976
1.872815
-0.169145
-0.970589
-0.691499
-0.468933
-0.354059
1.160258
-3.599555
-0.025905
-0.277473
-0.356996
1.445803
3.763107
0.005379
-2.271122
0.345147
0.886797
-1.068252
-0.221180
0.369510
0.537789
-0.830829
0.252296
0.026909
-0.836723
-0.160067
-0.214647
-0.624231
-0.891233
1.580376
-0.940668
-0.587173
0.052018
1.041181
0.676571
-2.561919
0.661982
0.636168
-0.047442
-0.056656
0.208035
0.503714
-2.270752
0.396395
-0.455509
0.064000
-0.309462
1.148204
-1.800522
1.691674
-2.233118
1.872404
0.880234
-1.477804
-0.242415
-0.808442
-0.061883
-0.064161
0.302501
0.145542
-0.944965
0.808460
0.216699
0.003492
0.246121
0.194242
0.449430
0.972323
-0.471760
0.328846
-0.574046
1.737440
-1.678384
-0.665410
0.745013
-0.082333
1.010812
-1.812658
-0.751181
2.791921
-0.316483
-0.170997
-0.502732
0.804662
-0.324558
-0.092599
0.960266
0.613221
0.701405
0.595604
2.160777
-0.447802
-1.172177
0.274011
-2.826405
-0.267870
1.214414
1.047377
-0.295932
0.081655
0.439301
0.502335
-0.697240
1.065283
-0.081315
0.620386
1.534821
1.612053
-3.208298
0.266037
-1.720771
-2.007285
-0.823776
-0.908277
0.254829
0.159560
1.691149
0.427601
0.020643
-1.603651
-0.399137
0.123444
-0.813248
-1.602673
-2.305857
-0.030737
0.120639
-1.737781
0.868985
0.877418
0.745540
-0.515818
0.094991
0.686072
0.496327
1.182338
-0.504334
0.828987
-0.352192
-1.738103
2.204728
0.329786
0.590453
0.641389
0.069774
1.266623
-0.527270
0.001237
-0.988775
-1.765687
2.315186
0.423666
-1.401370
-0.695069
-0.137150
-0.813089
-0.280628
0.785098
0.157886
0.385999
1.293273
1.107299
-0.849668
0.184668
-0.086340
-1.273300
-0.682326
-1.187560
1.392576
-1.744131
-0.519792
0.395751
-1.458112
0.937577
-0.833895
0.225654
0.534906
0.083992
-0.694944
0.440078
0.117650
-1.609989
-0.519106
1.953612
-1.885219
1.052221
-1.174819
-1.227149
1.015450
-1.606335
0.067632
0.514912
0.041072
-0.594495
-0.444756
0.992176
0.112915
-0.239606
-1.351522
0.014151
-1.169173
-0.370982
0.170076
-1.637729
-0.164762
-0.071084
-1.429276
0.106625
-0.117116
-1.149842
0.180586
0.272099
-0.865365
1.118632
-0.024864
-1.401070
-2.087407
0.173548
-1.246009
0.660517
-0.895584
1.409285
-1.198258
1.285488
-0.013201
1.165025
0.256563
-0.236265
-0.662736
0.223033
-0.471952
1.096452
-4.058662
0.285788
-0.219006
0.146739
0.160520
2.783311
-0.196434
-2.854971
0.489506
0.304290
0.666411
-0.483447
0.424995
0.354105
-0.525404
-0.177510
-0.256643
-0.847830
1.036985
-0.977319
-0.713741
-0.658263
0.905094
0.178360
-0.646757
0.187480
-0.097079
0.250286
-1.375086
-0.740705
0.475781
-0.861468
0.410666
0.384857
0.642255
-0.306542
0.538070
-0.162128
0.192144
-0.940246
1.445469
-1.540377
1.112740
-2.120549
0.423140
1.346178
-0.649179
0.366358
-0.366967
-0.557511
-0.624357
0.574214
0.026380
-0.694428
1.107116
-0.036223
0.376463
1.242576
0.214858
1.640866
-0.148486
-0.360589
0.640979
-0.043735
0.376371
-0.265468
-0.459881
0.766528
-0.025342
1.160886
-2.044889
-1.596645
2.944133
-0.768031
-0.053598
-0.914603
0.895419
0.677907
0.409882
1.129491
-0.527101
0.411684
0.679515
2.221837
0.205844
-1.028314
1.169596
-0.583584
-0.619173
0.972870
0.529208
0.376013
-0.004042
0.889911
0.738896
-1.280983
2.569005
-0.176763
0.026207
0.999144
1.360564
-2.792418
1.141559
-2.372971
-1.628953
-0.514240
-1.202006
-0.413781
-0.755087
2.998372
0.674371
0.616267
-0.652373
0.071993
-0.512056
0.665672
-1.938933
-2.610037
0.966326
-0.041888
-2.202540
0.882701
1.273701
1.811860
0.493146
0.050924
0.722563
0.878831
-0.853933
-0.051969
0.833692
-0.016974
-0.738187
0.835748
0.360334
-0.299511
1.166459
-0.706729
0.536778
-0.786983
0.626999
-2.161839
-2.511734
0.884351
1.392032
-0.487496
-1.077136
-0.178640
-0.570170
-1.017885
0.198200
0.390302
0.310193
2.386317
1.092219
-0.947511
-0.284281
-0.170206
-0.581023
-1.357078
-0.263221
2.011658
-0.946764
-0.786883
0.825607
-1.292905
0.863629
0.252167
0.401944
0.654084
-0.208043
-0.369853
0.252542
2.372104
-1.299564
-1.395517
0.152042
-2.329484
0.549661
0.089547
1.256368
1.404315
0.512016
-0.101428
-0.080164
1.448392
-0.707693
0.580531
0.984934
0.175115
0.967461
-1.173141
-0.001109
-0.440300
-1.029834
-0.791889
-2.146406
-0.098144
0.052736
-0.997192
0.085821
-0.135495
-1.259561
0.461340
-0.379851
-0.116284
0.551975
-0.940001
-1.304850
-1.294798
0.270019
-1.695820
-0.068394
-0.127057
0.277533
-0.905538
0.599420
-0.691932
0.822825
-0.263543
0.436698
-0.923629
-0.525053
-0.365373
1.207260
-2.148768
0.891569
0.738131
0.368192
1.349565
-0.748765
-0.949484
-1.923848
0.873324
0.952117
1.874364
0.195595
0.112038
0.927900
1.621623
-0.907566
0.223601
0.147770
-0.233698
-1.890086
-0.587622
-0.335403
0.974567
0.128689
-0.729033
0.920556
-0.597767
-0.634642
-0.756128
0.193208
1.729310
-1.317963
0.471941
-0.566899
0.784052
-0.633252
1.067642
1.001297
-0.734557
-0.235383
1.060283
-1.031909
0.370656
-1.625660
1.164304
0.853825
-1.620335
0.129142
1.319568
-0.413203
-1.120708
-0.364647
1.017935
-1.414262
1.248701
0.094720
0.576694
1.514164
0.599771
0.067779
-0.613124
-0.534544
-0.128675
0.452895
0.551014
-0.604332
-1.261173
0.406194
-0.196973
0.573871
-1.648455
-0.686913
0.892269
-0.255028
-0.231742
-0.185935
-0.884480
1.844352
0.316146
1.084122
0.760185
0.291422
2.234515
2.083424
0.086691
-1.268850
-0.028649
-0.724448
-0.618839
0.000485
1.446817
0.883500
-0.373276
0.086853
1.275047
-1.471882
2.253836
1.313031
-1.180659
0.445848
1.322824
-1.313088
0.303612
-2.285416
-0.674951
-0.190035
-0.268230
0.444313
-0.865336
1.868042
1.127051
-0.226139
-1.023402
0.865500
0.251782
-0.100025
-1.237079
-2.893146
-0.036952
0.964286
0.272200
0.650793
0.117149
1.608283
-0.258662
-0.509652
1.073910
0.477648
-0.095924
-1.303611
0.190451
1.133116
0.213315
0.812487
-1.028522
-0.367392
1.599078
-1.269063
0.525694
0.053791
0.631171
0.299405
-1.590906
1.486021
-0.401505
-1.077710
-0.385024
-0.127865
-0.714310
0.138842
0.586376
-1.436738
0.181248
0.896255
0.754930
-0.895481
0.984780
-0.141059
-0.841591
-1.155277
0.402469
-0.521418
0.297124
-0.894799
1.223356
-1.987944
0.046684
0.733275
0.089067
0.242994
-0.570783
-0.946361
0.055845
0.765081
-0.636680
-1.895315
-0.417113
-2.846093
-1.279511
0.135048
1.376413
-0.148227
1.011984
-0.962376
0.469383
1.211588
-0.708351
1.183053
0.727451
0.356992
-1.193378
-1.150471
0.059179
1.241049
-0.633907
-0.809857
-1.966198
0.275853
-0.088821
-0.121413
-0.000189
0.101541
-0.222967
-0.419638
-0.324317
-0.547499
1.306474
0.304553
-1.704724
-0.162014
0.560968
-0.348887
-0.355879
0.446023
1.304562
-0.871780
-0.334777
0.356833
1.656320
0.625478
0.345687
0.162563
-0.330503
0.065698
2.128284
-2.627822
0.035617
-1.244219
0.176012
1.219736
0.130325
-0.400395
-1.745420
0.984804
-0.290597
1.278874
-1.384841
-0.119905
0.556125
1.063646
-1.563591
-0.573856
-0.785708
-1.524266
0.552277
-0.687432
-0.300540
1.142810
0.716546
-0.842078
0.005244
-1.574843
-0.724875
-0.385257
0.345186
2.109275
-2.110484
0.719978
-0.175399
1.115083
-0.178366
0.302417
0.667198
0.507994
0.660840
2.405144
0.496253
0.915168
-0.915059
-0.931333
0.942256
-1.862187
-0.210364
-1.032492
-0.221324
-1.197597
-0.575264
-0.420404
0.240816
0.582127
0.412432
0.992894
1.816033
0.448306
-0.599620
-1.241150
-0.947074
0.454136
0.538247
0.547452
1.904866
-1.567574
0.509808
-0.055696
-1.396115
-0.587711
-0.696600
2.057207
1.550067
-0.278907
-0.421848
-0.102118
-0.201823
-0.052371
0.532723
0.046221
-0.384792
0.747452
1.190285
0.341890
-1.153134
-0.393054
-0.071835
-2.177692
-0.805894
-1.052105
0.828271
-0.182387
-0.212553
0.578392
-1.692339
2.365848
1.476737
0.263504
0.369714
1.228349
-1.341129
2.034638
-1.811570
-3.089763
-0.794398
0.120489
-0.290619
0.970874
-0.214401
0.706158
0.003616
-1.123289
1.497835
0.377851
-0.077262
0.920563
-2.720851
0.008079
0.786888
1.470923
0.505474
-0.311437
0.977979
-0.285242
0.143178
-0.785689
0.603259
-2.053091
-0.714764
-0.113438
1.033265
0.430042
1.147346
-0.164982
-0.760030
1.071301
-0.806887
-0.226937
-1.386013
0.330364
-0.935957
1.026546
0.071133
-1.434232
-0.975212
-0.845337
-0.319217
-0.632089
0.767331
-0.432893
-0.150865
0.747825
1.360506
-0.365240
-0.834030
0.744443
-0.041587
-0.757127
-0.952490
-1.039603
0.104042
0.053322
-0.914770
0.297428
-3.010379
-1.434558
0.074840
0.310324
-0.605844
1.795927
-0.662608
-0.200556
0.514071
-0.974578
-1.201163
-1.885159
-2.142191
-0.540013
-0.096758
0.723441
0.770419
0.217742
1.179450
0.195813
1.047948
-1.043999
-0.078701
0.626301
-0.129949
-0.148098
-0.893991
0.372889
0.979507
1.356834
-1.192882
-0.820636
0.165932
0.272698
0.353209
0.018131
0.320968
0.933672
0.356569
0.341111
0.056353
2.508166
-0.515409
2.069680
-1.701344
0.612092
-0.126256
0.165431
0.359871
0.733083
-0.230083
0.580621
2.695755
1.073421
0.119316
1.324876
-0.035386
-0.048422
-0.698781
1.844869
-3.395738
-0.043787
-1.704869
-0.038911
1.169058
-0.182973
-0.186326
-1.783976
0.611393
-0.235257
-0.281997
0.602761
-0.061804
0.717529
0.101338
-1.149844
-0.399689
0.767099
1.161736
0.003459
-0.398047
-1.198897
1.721695
0.229173
-0.956187
0.187417
-1.272460
-0.818751
-1.714373
1.016801
1.633647
-0.294192
-0.740160
0.815970
0.354285
-0.177933
0.589541
0.619200
-0.016666
-0.018408
2.552608
-1.115498
0.659583
-2.298633
0.991877
-1.904538
-1.692385
-1.367050
-0.388256
0.324650
-0.739631
-0.277517
-1.039566
-1.056857
0.636701
1.473672
1.605609
1.794390
0.274327
0.484573
-0.360940
0.604441
-0.183952
0.035380
0.331112
0.400380
-1.458699
0.466150
0.071013
-0.780136
-0.653288
-0.959719
2.380169
0.872867
-0.303878
-0.030539
0.225507
0.066249
-0.180414
0.361972
0.569522
-0.669173
-0.097007
0.651188
1.366932
0.316996
-1.046044
-0.562097
-0.863481
-0.425776
0.490982
0.401024
-0.120907
-0.302100
-0.400632
-1.470708
0.861837
1.275279
0.489861
-0.470890
1.872824
-2.348419
1.028043
-2.098286
-2.046726
-0.922712
-1.041225
-0.768186
0.141004
0.349864
-0.510095
-0.546848
-0.901090
0.138134
0.104875
0.250726
-0.995153
-0.855926
0.328774
-0.739973
1.003736
0.909982
-0.251667
0.748111
-1.118802
0.039766
-0.401848
-1.162563
-1.286212
-0.125784
-1.355147
-0.005847
0.151018
1.937817
-0.609837
-0.778547
0.425466
0.184056
0.717911
-1.547786
-0.234704
-1.273933
-0.000507
1.354754
2.387158
0.347317
-0.450414
-0.588191
-1.339294
-1.422384
0.529157
-0.434397
0.626411
-0.259771
-1.285838
-1.284441
0.553533
-0.020288
-0.906173
-1.414191
0.341717
0.806172
1.131899
0.636122
-0.280562
-1.459414
0.386153
-0.809981
0.152612
-0.108310
1.438647
-0.105847
-1.873557
0.662174
-0.086180
0.438880
-0.542347
-1.422258
0.727108
0.443925
-0.397242
0.579079
0.069913
-0.027570
0.543725
0.069066
-1.701960
1.193071
-0.747629
-1.039185
0.847881
-0.159611
-0.386812
1.642016
0.154395
-1.255403
0.850450
0.212278
0.102311
0.334953
0.020242
0.237545
0.921005
0.879657
0.701890
-0.612689
1.416541
-0.344075
0.182124
-3.308544
0.418888
0.252301
-1.013136
0.195723
-0.103771
-0.907449
-0.628022
1.669306
-0.703651
-0.504547
-0.221505
-0.829871
-0.877190
0.486367
1.382842
-2.179870
1.467437
-0.871422
0.128537
-0.373238
0.747659
-1.236075
-1.238096
1.663784
1.940483
1.132651
-0.020686
0.550290
0.123920
0.553991
-1.360068
0.446842
0.969943
2.525551
-0.217952
0.759617
-0.037219
0.790457
0.597572
-0.182555
0.351538
-0.432454
-1.142923
-1.871090
0.038063
1.535802
-1.647949
-1.384542
1.244890
0.304875
1.148313
0.446557
-0.588617
3.583592
-0.553763
-0.180545
-0.415454
0.990254
-0.520525
1.830789
-1.761996
-1.156024
-0.552832
-0.731291
0.484678
-0.283929
0.223499
-1.222478
-0.581848
1.300095
0.461737
0.974098
1.194387
-0.135169
-0.385712
0.187169
-0.545169
0.749188
-0.939791
-0.393300
1.200132
-1.327001
0.005223
-0.076911
0.728140
0.152265
-0.076512
2.461806
1.187209
-0.168732
0.002807
-1.774036
1.216067
-1.074619
0.577003
0.760790
-0.566835
-0.606502
0.063276
1.265566
-0.018296
-0.967200
1.960497
0.077249
0.066932
0.538198
0.888369
-0.141978
0.207522
0.978180
-3.728274
0.983076
-0.297201
1.626201
1.161651
-0.010982
0.949828
1.062954
-2.373452
-1.051112
-0.376687
0.434350
0.061335
0.450989
-1.003333
-2.154970
-0.980054
0.410710
0.054799
1.286232
-1.816134
0.145796
-0.505084
0.254921
-0.897603
0.899410
1.109949
-0.647551
1.384039
-1.033181
-0.559048
0.258076
-1.570543
1.369399
-1.001943
-1.149363
1.596496
-0.858554
-0.243207
0.557766
-0.328981
0.995582
-0.159803
-0.397685
-0.515553
-0.079143
-2.291518
0.056026
0.681728
0.660943
1.052146
-0.709778
-0.347083
-0.943616
-0.000557
-0.214342
-0.405720
0.727221
-1.521780
-0.195392
-1.881772
1.415855
-0.062458
-0.175761
-0.384211
0.885293
0.901553
0.503128
-0.218261
-1.427447
0.173652
1.491297
-0.340802
-0.098001
-0.725582
1.701512
-0.814686
-0.291967
-1.721926
-0.605865
0.078758
0.450570
0.004836
-0.176745
0.172975
-0.721351
-2.096199
1.088520
-0.215473
-1.317316
-1.429661
-0.245042
0.196766
0.404771
-0.685307
2.345734
-0.351066
0.049168
1.579107
0.577750
0.867861
-0.893517
0.130545
-0.059533
-0.304816
-0.020777
0.154667
-0.595792
0.713248
0.638866
-0.266189
0.714099
0.825485
-0.068578
-0.889776
1.106563
-1.320435
-2.521530
0.643870
-0.035860
1.003763
1.142028
0.415741
-2.505697
-1.454290
-0.995339
0.093460
-0.120574
-0.536277
1.562543
-0.331796
0.070299
-1.887944
-0.098577
-0.622663
0.949072
-1.332407
-0.047866
-0.678417
-0.880694
1.263209
-0.679905
-0.082661
-1.956094
0.977982
1.165168
0.060247
1.202414
1.322168
1.563897
-0.079167
1.025341
-1.168836
0.459715
-0.236054
0.448436
-1.346671
-2.092770
-0.191923
-0.494878
-0.123914
-0.191221
-1.555108
-0.400733
-1.142322
-0.480679
0.009913
1.100574
1.609300
-0.903465
-0.479209
-0.861710
-0.976506
0.295055
1.870399
-0.562586
-1.464491
-0.417995
-1.423032
1.028022
0.686711
0.122740
-0.815883
0.139274
0.255401
1.171680
0.170959
1.231205
0.333444
-1.198177
-1.104988
-1.126651
-2.976902
-0.143040
-0.293717
-0.866017
-0.561375
0.070803
0.001987
0.846221
0.294897
0.644965
-0.036859
1.602649
-0.106745
0.018521
-1.300884
-0.003228
-0.851648
-0.610220
1.703762
-0.526730
0.053570
-0.754466
-0.127701
0.151357
-1.844533
0.981491
1.171303
-0.051071
0.244116
0.567028
-0.256260
-1.226634
0.348194
-3.122319
-0.242492
-1.152826
1.056291
-0.444137
0.938252
-1.042705
-0.181092
-0.770999
-2.536601
0.237945
-1.010260
1.085345
1.540087
-0.070055
-1.297070
0.684524
0.731450
0.549925
0.844352
-0.588304
-1.507885
0.088682
-0.243854
-1.406485
0.194157
0.405687
-0.485392
1.457990
-1.551378
-1.059261
0.096209
-0.699165
0.934326
0.944622
0.666809
1.119657
-3.151179
0.421142
0.665223
0.375522
0.382664
-1.762612
-0.043458
0.780060
-0.195539
-0.005875
0.524086
-1.291488
1.395985
0.056071
-0.469896
-0.176351
0.007477
0.098744
0.332241
-0.329224
0.695673
-0.035667
0.818583
-1.295539
-0.214179
-0.231357
0.407621
-0.479083
0.098003
-1.635288
-0.545085
-0.509659
-0.313552
-0.982480
0.531576
-0.037971
0.067082
-0.650553
0.072852
-1.433560
0.023408
-2.161775
-0.047095
0.234810
0.115728
0.126141
0.931324
-0.754042
0.672903
-1.559376
-0.330130
-0.845095
-1.109542
-3.182617
-0.229656
-1.815237
0.850903
-0.081599
-0.396972
-0.554483
-0.169615
1.256415
0.024568
-1.922396
0.312517
-0.052509
-0.609052
-0.554845
-0.116653
0.188901
-0.357367
-0.323874
0.259071
1.155666
1.594435
-0.071476
1.246410
-1.555496
0.624904
-1.556375
-1.583293
0.565273
-0.875911
1.113568
0.412796
0.518905
-0.018077
-1.464069
0.880730
-0.633495
-0.825651
0.148328
1.053650
-0.192025
0.266860
-1.326891
-0.567958
-0.282448
-0.567590
0.016909
-0.357053
-0.888969
-0.073290
1.466475
-0.200832
-0.160416
-1.699237
-0.452232
2.041184
0.427185
-1.177373
1.116003
-1.286991
-0.751604
0.223360
-1.126883
0.216232
-0.122901
0.467070
-1.103531
-1.841286
-0.326436
0.114743
1.756472
1.292824
-1.078955
0.534940
-0.403167
-0.745505
0.153231
0.709913
0.810758
-0.877306
1.687520
-0.457434
-0.193532
-0.703745
0.986047
-2.180531
-1.213609
0.103086
-1.209539
1.076023
-1.257088
0.013705
-0.825516
-0.077706
-0.410229
0.414560
-0.642112
-0.412037
2.012229
-0.551740
-1.281151
-0.507520
-2.482852
-1.357536
0.036797
-1.531840
-0.021350
0.630119
-0.009292
-0.872450
1.517837
1.320315
1.070438
1.370067
0.398673
-0.133751
-1.874016
0.169081
-1.399509
-0.700633
0.791167
0.197706
-0.948725
0.813608
1.863610
-0.187492
-0.416961
1.451886
-0.394459
0.310010
0.038562
0.416354
-0.367760
-1.476593
1.080718
-2.423723
-1.143543
-0.986606
1.377259
-0.963678
0.337917
-3.387688
-0.982788
-1.069297
-0.599042
-0.556538
0.035214
1.990236
-0.231953
-0.711544
0.475212
2.132345
0.958501
-0.280620
1.088272
-0.578982
-2.183465
-0.444997
0.206964
-0.975825
0.425036
0.742856
0.478658
1.033767
-2.680860
0.164213
-0.363070
-0.215263
-0.584765
0.994984
-0.121176
0.439153
-2.282768
-0.530125
0.721616
0.679883
-0.698525
-1.644008
-0.664586
-0.461996
-0.826372
-0.145929
-1.280347
-1.554824
-0.175094
-1.283390
-0.153596
-0.104890
0.430445
-0.111654
0.009032
-2.214214
0.583138
0.576050
0.486153
-1.954753
0.735446
-0.210157
0.449125
-1.020003
-1.189261
-2.065141
0.652257
-0.639566
0.020737
0.009779
0.600833
0.588041
-0.195071
0.513686
-0.452362
1.401142
0.159858
-1.256878
-2.434923
0.213010
0.034994
-0.295592
-0.014512
-1.699524
1.677621
0.320826
-1.419244
1.012451
-1.485355
-2.964828
-0.529607
0.832691
-0.078068
-0.256464
-1.355732
-0.856583
-2.106165
2.449657
-0.439561
-1.210301
0.262948
0.177226
-0.905232
0.302403
-0.110077
0.493106
-0.460232
-1.225504
-0.384625
-0.232976
0.521910
-0.583964
0.724534
-1.511034
0.252423
1.056296
-2.251697
0.419105
-1.256262
0.141730
-0.957601
0.296846
1.997030
-1.763730
-0.504742
0.520536
1.646368
1.341580
1.666425
-0.903971
1.168033
-1.596571
-0.029414
1.045105
-1.295437
0.850401
-0.606073
-0.052204
-1.393736
0.307061
0.613726
-0.088113
-1.296082
0.048716
0.806317
0.564186
-1.412723
-0.309527
-0.143427
0.212552
0.501228
-0.858137
-0.363836
-0.159926
0.725061
-0.506990
-2.659102
0.637990
-0.369300
0.698015
1.475622
-0.508055
-0.589101
1.436968
-1.197255
0.905763
-0.470103
0.159088
-0.130635
1.404036
-0.364933
-0.245277
-3.081124
0.259378
-1.876437
0.410396
0.765051
-2.172177
1.396270
-0.883006
-0.060950
1.198774
-0.290352
-0.519383
-0.287938
-0.884586
0.039435
-0.171795
0.091259
-2.631911
-1.024180
-2.288377
-1.956771
-1.910581
-2.916261
0.285963
0.475338
-0.115117
-2.368372
0.926955
1.661211
1.837147
0.616403
-0.056872
0.323097
-1.113536
-1.456504
-0.853609
-0.305037
-1.028828
0.205590
-3.342580
0.382526
0.491177
0.182014
-1.706542
0.350304
-0.152755
-1.826433
-1.461117
-0.612764
-0.247183
-1.812899
1.428096
-0.732462
-2.015976
0.063462
1.282825
-0.612733
-0.142083
-4.663733
-2.146259
-0.539463
0.419046
-1.231397
0.781506
0.439325
0.737925
1.321390
-0.411377
2.117731
1.289829
-0.104184
1.789854
-1.777693
-3.333735
-2.131591
0.610654
-1.239872
-0.673932
-0.025036
0.300504
0.292109
-1.815590
-1.237079
-0.590004
0.011231
1.447083
0.959002
-0.394320
0.050800
0.529689
-0.570441
-1.931986
0.334654
0.326924
0.639840
-1.777591
0.496308
-0.714225
-0.126484
-0.294313
-0.810248
0.273250
-0.078072
-0.031926
-0.671002
0.996823
-0.435235
-0.305806
-1.829329
-0.335173
0.040114
-0.719982
-2.294868
0.689685
0.126948
0.771609
-0.407275
-1.513733
-2.152730
0.237019
-1.027721
0.911335
-0.215694
-0.099570
1.086982
-0.442552
2.272614
-0.242956
1.234370
-0.946605
-1.703337
-0.715837
0.233505
-1.711978
1.248923
0.700414
-2.014400
1.300806
0.139066
-0.136804
0.740605
-0.257412
-1.185048
-0.012958
0.527556
-2.151452
1.242793
-1.427536
-0.836388
-0.847447
1.716934
-0.538655
-1.933503
1.004334
0.567507
-0.873721
-0.510599
0.017049
0.116269
-1.797729
-0.960136
0.285177
1.012659
-0.438340
-1.637341
1.741136
0.432956
-0.962106
0.412668
-2.440140
0.691653
0.112091
0.874658
0.126955
-0.014039
0.191243
-2.520991
0.004493
0.660517
1.369319
1.697715
2.192229
1.769407
0.725298
-2.797440
0.742107
0.202039
0.627958
-1.172729
-0.964214
0.915558
-0.342597
1.109398
0.936959
-0.153465
-2.721472
0.676445
-0.033741
0.852999
-1.119660
1.006694
-0.527570
1.953923
0.783483
0.395943
0.337479
-0.764324
1.701317
-0.989113
-1.038023
-0.875757
0.271672
1.219887
-0.160637
-1.593722
-1.242388
1.522407
-1.251662
0.637999
-3.406282
0.373285
-0.998929
0.625106
-0.538930
0.526241
-1.247366
0.513375
-1.401964
0.072314
0.686716
-2.601878
0.902271
-0.002781
0.283116
1.891541
-1.498351
-0.881660
-0.474375
-1.329441
-0.658145
-1.838134
1.662435
0.335980
-0.167545
-1.804464
-0.189332
-0.302558
-2.699811
-0.123551
-0.306476
-0.021048
-2.614887
0.807486
2.027190
0.634668
0.267150
-0.781785
1.077643
-0.920827
-0.475454
-1.486076
-0.080372
-2.163442
-0.187084
0.897037
-0.392838
-0.418655
-0.408327
-0.057334
-0.435202
0.384029
-2.129678
-0.638986
-1.972076
-0.189514
-2.073034
1.761515
0.081218
-1.564726
-0.205232
-1.239402
-1.821302
-0.723317
-1.758112
-2.695232
-0.004465
0.046695
-0.467707
1.185156
-0.014283
0.895775
-0.349199
0.941967
0.083107
0.436742
-0.914314
1.379556
-0.332443
-3.060887
-0.889034
-0.313781
1.478785
-0.633619
0.389213
0.002713
-0.293948
-1.118204
-1.320953
0.711018
1.107928
1.009173
0.234758
-0.912092
-0.951422
0.278394
-0.780342
-2.049237
-0.600327
-0.088050
0.882850
-1.285187
-2.112281
-1.007188
-0.616097
1.109157
-0.978420
-0.325629
0.943531
0.738140
-0.439768
-0.562925
-1.552542
-1.100983
-0.240113
-0.681927
-1.789980
-1.674356
-1.953542
-0.511767
0.134192
0.598058
0.269821
-3.129551
-2.324878
-0.145984
-0.977369
0.704354
-0.989865
-1.181365
0.589460
-0.573157
0.988844
0.309405
-0.251845
-0.932598
-0.451403
-2.401572
0.172568
-0.881254
-0.145441
1.948587
-0.291886
-0.042127
1.156105
-1.137609
0.599968
-0.511706
0.499433
1.165105
-1.320718
-1.053273
-0.713498
-0.928768
-0.335813
-0.957990
1.341207
-0.576011
-1.443981
0.465035
-0.363484
-0.421006
-2.075977
-0.117593
0.431556
-3.172814
-0.699129
-1.250532
0.825357
-0.859102
-1.278648
0.975457
0.087617
0.961839
-0.126513
-0.425340
-0.048432
0.980698
1.439240
1.207180
-2.943291
-0.289627
0.464157
0.363617
-0.349115
0.746997
0.720138
0.547821
1.462685
-1.504665
-0.656104
0.248676
0.396665
-0.666237
-2.996081
-1.037705
0.386939
-1.794554
-1.660781
0.983937
0.140709
-2.494808
1.198015
0.159494
1.243605
-0.380482
-0.178412
-2.618182
2.316086
0.866956
-0.657964
0.925001
-0.473436
1.738552
0.145856
-0.220358
0.661393
-0.017868
-0.114147
-0.808310
-0.752597
-1.296668
-0.073790
-0.728171
0.962127
0.613588
0.393292
0.181336
0.309475
-0.614126
0.206555
-2.465852
1.326948
-0.554519
1.561577
0.674682
-2.240983
0.561351
0.315705
0.732672
1.058321
-0.182058
-1.048254
-0.167501
-1.044056
0.497747
-0.453768
0.766484
0.906269
-1.091607
-2.015463
-0.926513
0.610747
-1.194827
0.692088
0.334468
-0.017836
-0.491077
-1.108551
-0.575403
1.433332
-0.290841
-0.770889
1.449537
-1.098632
-1.251680
-0.613485
0.586607
-2.200007
0.714805
0.099876
0.904043
0.725831
0.501562
-0.311031
1.006407
1.247531
-1.724625
-0.915583
-1.112282
-0.419406
-0.829418
1.055341
-0.897377
-0.703653
-0.524994
-0.736611
-0.662048
-0.208314
0.355964
-0.394931
-0.339501
0.599739
-1.001394
0.553095
-0.294010
0.493709
2.103578
-0.747842
-1.530187
-0.862850
-0.670328
0.992938
1.349589
-0.530916
-0.534282
0.666565
0.890039
0.466041
0.485223
0.326478
-0.939530
-0.794806
-1.009671
-0.932212
0.149352
2.164844
-0.456859
-1.214528
-0.301863
0.944104
-0.264978
0.892755
0.926039
-0.200088
-0.799192
-0.859698
-1.343801
0.178093
-0.851992
0.507243
-2.001051
2.314334
0.201039
-0.139369
-0.431500
-0.646667
-1.415778
0.443959
-0.796797
0.230227
-0.504555
-1.954520
-0.314309
0.773825
-0.669489
1.690987
0.786184
-0.348934
-1.261067
-0.589954
-1.160225
1.395851
1.074738
0.735712
0.562321
-0.696312
0.723425
-0.129019
-2.051084
-1.223542
0.214136
-1.271687
-0.750039
-0.576969
-0.788937
1.565300
0.305718
0.660608
0.977006
-0.419345
1.361061
-0.078811
-1.045666
-0.183183
-0.164387
-2.123766
0.210203
-1.050918
0.522833
-0.497588
1.869816
-0.637811
1.800450
-0.268123
-1.188484
0.679191
-0.669118
-0.206949
0.176657
-1.058226
1.452620
-1.601383
0.237821
-1.369315
-0.730788
0.474171
-0.782563
-0.722149
-0.861913
0.061127
0.347864
0.990952
1.749521
0.481359
-1.426533
0.059078
0.148976
-1.769968
0.328872
1.206605
0.841716
-0.326369
2.086156
-0.960117
-1.528525
0.562040
-0.026443
-0.964420
-1.751201
-0.716618
-0.429477
-0.602494
-0.149277
-0.481916
-0.063639
-1.903206
-3.194993
0.388535
1.586890
0.004505
-1.016125
-0.488076
0.401463
1.161285
-0.444765
0.713164
-0.128001
2.723159
0.560439
0.612142
1.451873
0.399164
-0.995525
0.088351
0.142195
2.340358
-0.327550
-0.567891
1.226404
-0.088886
1.302696
1.681885
0.275213
1.001392
-0.496274
-1.482081
-0.591662
-0.117763
-0.431123
0.765547
-1.731949
-1.495992
2.090047
-1.221091
0.432066
0.959693
-1.000360
-1.101175
-0.291184
-0.390183
-0.370087
-0.041942
1.042419
-0.309290
0.016523
1.183399
0.718996
-0.567311
-0.019712
-0.259156
-0.055768
-1.503494
-0.397032
0.055835
-0.917609
-1.215999
-0.415447
-0.065618
-0.092481
-1.502878
-0.045191
0.508210
-1.903178
0.840133
-0.116714
-0.462384
1.067263
0.260575
0.814380
1.592539
2.475539
-0.089433
0.737323
-0.080775
-0.367184
-0.317683
-0.557308
-0.517339
-0.335607
-1.117799
-0.501020
0.784862
-0.156038
2.966219
0.302854
0.650337
1.375753
-1.148239
-0.786974
0.085371
-0.749245
2.176892
-0.938438
-1.481111
-1.118970
-0.785919
0.468389
2.360151
-0.811754
-0.764436
0.699095
-0.202623
-0.777875
1.477679
-0.098876
-1.690883
-2.580696
-0.550409
-0.434423
1.454699
0.413497
0.335559
-0.219069
0.228903
0.828504
-1.093358
-0.216364
0.478836
-1.041760
-1.250478
0.343442
-0.227713
0.377713
0.847484
-0.359323
-1.820362
0.662693
1.563374
-0.362713
0.317867
-0.203158
-0.779632
0.444302
0.238145
-1.207411
-1.575729
-1.019070
1.003815
0.797332
-0.926994
1.554248
0.101574
0.918544
-0.046203
-0.755829
-0.104982
1.594850
1.935847
0.170753
0.995658
-0.347062
1.400534
-0.374767
-1.992692
-1.567843
-0.447458
1.656102
1.371377
-0.549112
-0.963393
1.925744
-0.977392
0.289883
0.515686
-0.621998
0.273130
-1.379847
-0.280576
0.621069
0.054734
-1.707757
-0.478510
-0.417157
1.391528
-0.600747
1.139978
1.349206
1.561711
0.031960
-0.724362
0.978964
-0.733210
-0.279812
0.307069
0.922513
0.615939
-1.094743
-0.102413
-1.339423
-0.585339
0.344042
-2.377504
-0.369140
0.485744
-0.232902
0.242541
0.865092
1.250641
1.553077
-0.457484
-0.986100
-0.732057
-0.119673
1.220926
-0.393556
1.194878
0.406624
1.953469
0.612086
0.931839
-0.024560
-1.088944
1.475539
-1.044719
-1.308268
0.647730
-0.396708
-1.624302
-0.355448
-0.028313
0.119916
0.485562
0.199687
0.785778
1.253541
0.019906
0.715738
-0.675989
1.285770
0.046669
0.868659
0.455476
2.573309
-0.062573
0.769586
0.310214
-1.130646
-0.262388
-0.425549
1.619998
0.331914
0.222114
1.629010
1.271527
-0.157582
1.702182
0.311256
1.693513
-0.448956
-0.303424
-2.234188
-1.854260
1.305293
-0.078109
0.658571
-0.130835
-1.314235
2.582918
-0.839741
-0.992055
0.448819
-0.326933
-0.746076
0.079625
-1.135274
1.204958
0.756963
0.905827
-1.563983
-0.767447
0.675527
0.018637
-0.676851
0.093545
-0.204701
-0.065631
-0.747011
0.087682
0.683556
-2.417589
0.964721
-0.558191
-0.681058
-0.304476
-0.030010
0.404999
0.683718
-0.362741
0.352854
1.131424
-0.430138
2.044783
-0.263095
1.856010
0.641170
0.849678
1.701239
0.839180
-0.700926
-0.184834
0.016404
-1.919421
0.141153
0.262893
-1.617208
1.307341
2.796804
-0.077058
2.772953
-1.251175
1.251043
-0.851240
-1.736038
0.837699
-0.356480
-1.513129
0.632244
-0.904204
-2.958737
-1.028914
-0.662270
-0.055041
1.401188
-1.046086
0.114436
-0.949290
1.317331
2.172735
1.901012
-0.710237
-1.511224
-0.102806
0.750920
0.134257
1.130148
1.607235
0.230373
-0.126260
0.078447
-0.499618
-0.163214
-0.355946
-0.403885
-0.037988
-1.360043
0.379634
-0.653828
-0.080400
1.852340
-1.686390
0.748566
1.912344
0.158969
-1.517681
0.448860
0.039728
-0.077199
2.136919
-0.698016
-0.739314
-0.428943
-0.358341
1.665419
0.952959
-0.887670
0.979768
0.549878
0.763589
-2.497448
-2.380272
0.382347
0.665022
1.303294
0.834355
-3.117434
0.823258
-0.483094
-0.413957
1.004076
-1.296067
0.755675
-1.746566
0.578008
-2.590952
4.944141
1.913706
-0.507505
1.996964
0.756549
2.793606
1.477399
0.390119
-2.306355
0.605157
-1.086958
0.638580
0.469915
1.349459
1.856085
-0.259533
-1.593604
0.202370
0.594224
0.017793
0.630287
0.025610
-0.447901
-0.179988
0.345193
1.104265
2.166870
1.585017
2.758492
-0.254818
1.002468
-0.781827
-1.999079
-2.713334
2.979728
-1.825200
1.217484
-0.619980
0.289791
7.097248
2.440724
0.014288
-1.035939
1.737770
1.403930
-2.879441
2.275381
-3.247618
1.691298
2.546046
1.118948
0.292868
0.750536
2.009173
-1.480358
0.294846
1.857170
0.740297
1.916716
1.261704
0.102897
-0.206478
3.746693
-2.307055
1.680004
1.625004
-2.625072
2.565401
-2.967163
0.988407
-1.124557
1.334371
0.253377
1.580646
-2.958047
1.574854
-1.453208
-5.586868
-2.321251
-0.323695
0.682448
-2.020794
-0.816586
1.271821
1.226735
1.871011
-0.422466
-2.211975
6.424392
3.928584
-1.159826
-0.796212
1.303247
2.422756
-0.527174
-1.156219
2.102975
0.216814
1.428045
0.623293
-2.795491
-2.175434
-2.403268
1.296567
-0.181586
0.293562
3.009988
-2.767442
3.225195
1.762446
-0.302779
2.748575
0.411930
-0.913454
-1.302867
0.820077
0.000559
-0.243023
1.634007
-0.899468
-3.284667
1.164406
-0.131878
-0.389284
0.748061
-0.481075
-2.028036
0.603419
1.257442
0.316056
0.779192
1.206493
2.118509
1.205582
1.021659
-1.716447
0.455442
3.318169
0.110886
-2.193896
0.031101
-0.424747
-3.147253
1.762426
0.775608
-0.452181
-0.216805
-2.386089
1.797671
3.300468
-1.384074
3.395888
0.322013
-1.408793
0.961931
0.390951
0.323797
0.281836
1.550157
-3.735065
-1.798558
-2.812872
0.992640
-0.602269
0.761184
-3.220480
-0.750852
-0.634736
2.217607
2.202219
0.866902
-3.792350
0.404707
1.286301
1.618591
1.307711
-0.141185
-0.523392
-0.479678
-0.119593
-0.329588
0.630914
-3.496574
-1.629554
1.026438
-0.640476
-1.266231
-1.112645
-0.345590
-0.121934
-1.380959
1.651677
4.522393
-0.751826
-1.083843
1.274646
-0.726891
-2.270627
-2.477593
-1.293086
-0.107914
-0.590350
-0.533232
1.673315
0.392720
-0.236766
2.159985
0.469516
1.480503
0.004277
-0.072605
0.043502
-0.088241
-0.058801
-0.067950
0.037913
-0.039190
0.028666
0.062316
-0.030426
0.043409
-0.044813
0.064417
-0.003828
-0.011414
-0.012414
0.024015
0.052027
-0.060656
-0.046892
0.086662
0.043434
0.098625
-0.031400
-0.019136
0.017926
-0.064764
0.090143
-0.034563
-0.007099
-0.005580
-0.007168
-0.063597
0.006178
0.034030
-0.031548
-0.055908
0.094840
0.097119
-0.093592
-0.035586
0.040528
-0.038406
-0.071169
-0.063300
0.050180
0.016417
0.060715
0.002208
0.055761
-0.086177
-0.011130
-0.000805
-0.087552
0.057469
0.080059
0.030374
0.092705
0.070201
0.095810
-0.014394
-0.035379
-0.011358
0.022009
0.070800
-0.077327
0.090462
-0.085108
-0.082487
0.087580
-0.078701
-0.018073
0.028108
-0.017107
0.010758
0.064808
-0.066926
-0.072825
0.025523
0.035281
0.082936
0.039346
-0.075849
-0.017870
0.051794
0.081621
-0.037811
-0.017833
0.074326
-0.067610
-0.022022
-0.040067
-0.002988
0.066620
0.081942
-0.032188
0.089292
0.072403
-0.017297
-0.093195
0.059983
0.004002
-0.011268
-0.011908
0.086896
0.099490
-0.047100
-0.080031
-0.073335
0.078423
0.055251
-0.090399
0.017769
0.079402
-0.008269
-0.030437
0.061023
0.053920
0.051730
0.035349
0.086310
-0.070292
0.095282
-0.016678
0.096327
0.077223
0.051133
0.085620
0.049626
-0.066164
0.092425
0.009610
0.037839
-0.018843
0.097701
0.024734
-0.019353
-0.049399
0.044704
0.007313
-0.070976
-0.000045
0.016914
0.046794
-0.020643
-0.091356
-0.083643
-0.059620
0.062564
0.068087
0.075729
0.048874
0.097794
0.071010
-0.067804
0.094122
0.048233
0.083330
0.079742
-0.002140
-0.082834
0.072167
-0.092531
0.055005
-0.046676
-0.094829
-0.020260
0.033971
-0.044228
-0.075557
-0.058716
-0.015204
0.024398
0.058198
-0.068410
-0.096245
0.066842
-0.052054
-0.055865
0.029407
-0.083967
-0.080137
-0.021719
-0.086172
0.090874
0.010477
-0.092051
0.039107
-0.006193
0.087691
-0.063033
0.010973
0.059858
-0.055564
-0.034022
-0.086818
-0.050393
0.045718
0.047153
0.005378
0.070161
0.088438
0.090175
-0.005441
0.046636
-0.078235
-0.001686
0.013478
-0.030289
0.042449
-0.057116
-0.014256
0.062312
0.021165
-0.000428
0.053186
-0.068357
0.007521
-0.007708
0.025450
-0.004788
0.029259
-0.063577
-0.044930
-1.000627
0.631714
0.383055
-0.353126
1.445677
-1.793800
-0.008364
-0.363724
0.009143
-0.207323
-0.824407
-1.128561
-0.064336
-3.342121
-0.701288
-0.885494
-0.252296
-0.573931
-2.036739
0.458890
0.684399
0.679992
-0.301370
1.456286
3.074088
-1.863014
0.266753
2.692050
-1.059353
-0.109306
-1.185532
0.129200
-1.600655
-0.205333
1.206943
-0.710226
-0.038409
-0.126389
2.302408
0.349697
-0.176948
1.324605
3.042711
-0.262596
-0.317956
0.841090
0.283628
-0.807902
0.352663
0.663653
-0.144249
0.141221
0.597018
-0.998358
-0.951805
0.933239
2.440738
1.364845
0.020555
-0.839055
-2.974356
1.385101
-1.960081
1.075586
-1.849966
0.222891
-1.877681
-0.108973
0.356413
2.849343
1.719972
-0.703043
0.362672
0.837467
2.457957
0.503680
0.544048
0.917061
2.364724
-1.566011
-3.704357
-0.404648
-3.392196
-1.869948
-1.419530
0.218161
2.536062
-0.739180
-0.595600
-0.954086
1.002660
1.505516
-1.576844
-0.866988
-1.091761
-1.104011
-0.683816
0.350169
-0.356454
0.756242
0.240224
2.476351
-0.180524
-0.604696
0.291792
0.661834
-0.670867
0.572356
-0.280404
0.323299
-0.416342
-0.345870
0.363344
0.263413
0.474194
2.184253
-1.136746
-0.385041
-0.674564
-0.674182
0.146257
1.959059
0.014955
0.388282
2.122051
0.816875
-0.172356
0.701650
-0.498483
1.361640
-0.639128
-0.168246
-0.167531
-0.144125
-2.836856
-1.611321
0.954519
0.240692
0.386918
-1.210495
0.196906
0.563789
0.297696
0.124833
-1.006396
0.048218
-0.731963
0.959057
0.504479
0.031372
0.139674
-1.763923
-2.686500
0.394957
0.808958
0.377577
-0.213267
1.734104
-0.176904
0.168717
0.235068
-0.484688
0.754064
-0.014624
0.840503
3.036762
0.119154
0.192241
-1.111341
-0.571892
0.281527
-1.109517
0.566684
-0.339057
-0.649344
0.322120
-2.838679
-0.924052
-1.213889
-0.657360
2.746673
-0.347441
-0.229333
0.948006
0.942874
-1.130715
-0.486871
-0.998389
-1.684617
-0.488127
2.204040
-2.019449
0.644589
1.042356
-3.046284
-0.719314
-0.995071
-0.309225
-0.461047
-0.964600
0.057601
-1.170256
0.896677
-0.727172
-0.456643
0.296784
2.710288
-0.122838
-0.414294
0.731684
-0.052307
-1.318297
-0.750444
-1.415517
0.118936
0.094344
0.138361
0.881032
1.805504
-1.264456
-0.074678
-0.016979
-0.419962
-0.301618
-0.753160
-0.368951
0.144867
0.492907
-0.490217
-0.535753
-0.061473
-0.662506
-0.011190
-0.200396
-0.131930
-1.262652
0.655813
1.646796
-0.695244
1.096771
0.792977
-3.524847
-3.297358
-1.058251
0.360886
2.355268
0.170903
1.020908
0.779988
1.352327
-0.706940
-1.491508
1.364321
-0.380696
0.991413
-0.950727
1.210789
0.660393
0.049188
0.757120
-0.531920
0.184644
-0.077799
0.812794
0.169559
-0.196876
0.307963
1.395321
-0.166499
-1.749149
-0.139016
0.107630
-1.401382
-2.573700
0.233603
-1.277872
0.113890
-0.526432
-0.264715
-1.209318
1.523429
1.483536
2.327128
-1.012776
-0.500390
-1.003246
0.488312
-0.658987
2.546130
-0.873544
1.575585
-1.627683
0.449804
0.162239
1.004395
2.090564
-1.315616
0.851581
0.354541
0.983478
0.037600
0.090405
1.048245
0.506181
0.802052
-1.920019
-0.841170
0.746295
-0.372465
-1.109943
0.395572
0.320857
-0.066901
-0.362957
-0.405281
0.693324
0.818818
-1.650777
-1.733299
-1.705488
-1.473894
-0.708716
0.139749
0.877923
-0.709670
0.194695
1.179226
0.932196
-1.086285
0.153538
-0.146428
-0.857773
-0.745997
-0.408129
-0.136309
-0.574434
0.175071
0.247167
-0.494602
0.642381
0.108729
-0.809684
-1.055829
1.456267
-0.865445
-0.111269
1.191273
0.628457
-0.681823
0.669873
-1.519109
0.048819
0.248795
-0.181249
-0.159686
-0.042408
0.116110
-0.111688
0.550547
-2.324643
-1.337293
1.613936
1.431058
0.233815
-0.452474
-1.042765
0.083283
0.217220
0.226517
-1.324423
-0.639910
1.248801
2.182944
0.945340
-0.859383
0.811516
-2.087190
-0.098585
0.363703
-0.307674
-0.306956
0.035063
0.097666
-0.563330
0.403199
2.236516
0.038305
1.186700
1.681317
-0.003171
1.833686
0.590998
1.300719
-4.060562
-0.475559
-1.284362
-0.478952
-0.440406
-0.520656
-1.242756
0.676443
-2.452577
-0.920332
-2.697140
-1.081465
-0.851457
0.055103
0.060417
0.370790
0.626088
-0.578411
-0.320666
0.523970
-0.574055
0.612251
0.641315
-2.624872
-1.569954
-0.422960
-1.748842
-0.763791
0.723850
0.499111
-1.187187
0.653968
0.718138
-0.959669
0.563693
-0.476628
-0.169727
-0.202507
0.775794
-0.377332
3.664846
-0.652143
-0.593805
0.039539
-0.595681
-0.798947
0.124857
0.541795
-0.484075
1.001162
0.496826
-0.548246
0.574898
0.139773
-0.134201
-0.081548
-1.771667
0.832194
-0.044384
-0.609517
1.980431
-0.835275
-0.507558
0.343287
-0.173726
0.138539
0.741220
-1.669134
0.570470
0.563381
1.212062
-0.803254
-0.589511
-1.046895
-1.951033
0.041026
2.030924
1.147363
1.994387
0.302446
0.167721
0.572212
-0.741892
-0.934370
0.298826
0.658869
0.160691
-0.367564
-0.311810
1.056426
-1.521663
0.065941
0.086960
-0.091175
-0.278942
0.771197
0.069848
-0.211711
-1.279552
0.503536
0.013637
-1.151144
-0.220716
0.939134
-0.284387
-0.700456
2.134279
-1.389170
0.043236
1.998547
-0.291968
-0.552061
-0.150480
1.510229
1.025389
-0.509553
0.034691
-1.698239
-1.412472
-0.966430
1.354167
0.182138
2.155518
1.585513
-0.172877
1.334769
0.243207
1.468692
0.251489
0.722524
0.468743
-0.574476
0.895524
-0.529152
-0.914774
0.543718
-0.835413
-0.527742
-0.430895
-0.848321
-1.818149
-1.158126
0.244473
0.038791
-1.028659
-0.646902
-0.281765
0.167515
0.139835
-0.084249
-3.107543
0.390344
-1.438030
-0.580400
1.545170
1.424929
0.408147
0.649330
1.240805
-0.448283
0.158652
-1.655628
-0.548330
-0.448549
0.135916
-0.478400
0.645416
-0.439134
-0.222431
0.186843
-0.043638
0.327514
-0.238442
0.475170
-0.849616
2.320576
-1.518895
0.367362
1.904226
1.908130
-1.726610
0.356438
-0.918006
-0.457338
-0.252978
0.751780
-1.125532
0.339409
-0.409728
-0.061575
1.406362
-0.832933
-1.053616
0.848014
1.077320
0.040403
-0.829695
0.209299
0.923954
-0.553934
0.295508
-1.673356
-0.164544
1.582268
1.960955
1.472925
1.199673
1.362010
-0.571055
-3.010368
0.560423
0.585540
1.707231
-0.312511
-0.522305
0.527990
-0.947244
1.072824
0.834277
-0.292982
1.678711
-0.177310
2.339395
0.650339
0.062434
0.132605
0.422247
-1.268770
0.303380
-0.737856
-0.500925
0.045990
0.861592
-1.617206
-1.139731
-1.596081
-0.112066
0.472555
-0.062016
-0.398156
0.962623
0.605901
-0.827781
-0.041014
-0.304161
-1.052809
0.133564
0.308413
-0.460930
-0.068429
0.319347
-1.694384
0.711992
1.789334
-0.572264
-0.770792
0.498466
0.803353
-1.346217
0.618388
0.121021
0.441892
0.328849
0.513599
0.765983
1.583418
0.004373
0.101132
-0.451370
-0.878822
-0.985816
1.787469
0.700308
-0.671756
0.627335
0.612465
-0.775544
-0.357451
0.098187
-0.843941
-0.512736
-0.131494
-0.750460
0.856354
-0.629121
-0.277730
-1.735059
-1.050828
1.026815
0.280697
-0.164632
0.234309
1.064115
1.529851
3.001227
2.316768
0.666892
-0.886870
-1.958741
-2.696081
1.098236
1.108384
0.864371
1.367504
-0.363644
-0.518410
0.387703
-1.248830
-0.688775
1.739179
0.007426
0.121261
-0.827783
-0.870554
1.416635
-1.055509
-1.135786
0.199029
0.594213
-0.037710
0.541849
-0.045993
0.132821
0.743891
0.525075
-1.860807
-0.980940
-0.421297
0.730854
-0.824503
0.681748
1.357923
-1.407467
0.831786
-0.688036
0.662555
-0.286519
-0.306068
0.399408
0.927678
0.222810
1.619041
0.928792
-1.378257
-0.112445
1.645911
-0.712471
0.718034
-1.403068
0.305656
2.048236
-1.068705
0.317299
0.620269
1.028303
-0.863314
1.867224
-0.937273
-0.419710
1.239832
0.776566
-0.820932
-1.699626
-3.250583
1.056997
-2.961369
-0.563894
-0.230973
1.526393
-0.910079
-0.292486
1.106115
-1.166607
-1.777518
-1.195207
-0.677976
-0.510299
-3.060961
0.179133
0.440319
0.478125
-1.361808
0.374324
1.211127
1.182119
-0.259848
1.480686
-0.893539
0.380928
-0.887149
1.909953
1.160124
-0.148999
-0.136637
-0.107913
1.096786
-0.642759
-0.024177
1.057458
1.205163
0.366140
0.320186
0.820317
0.321628
0.321002
-0.298226
0.031754
0.173649
0.223098
-1.079686
0.138693
1.070458
0.505436
0.454573
-0.084960
1.009090
-1.608063
-1.138347
-0.342844
2.735638
0.184920
-1.074765
-1.713477
-0.161695
-0.491726
0.158751
0.315150
-0.819060
2.085928
2.741406
1.666381
-0.652194
-0.895610
0.385708
0.018534
-1.021326
-0.910901
-0.488984
-0.356440
1.248422
-0.313975
1.133403
0.816850
1.554491
0.681219
0.560159
0.436516
1.516192
1.480007
-0.404692
-3.145312
0.083812
0.803480
-0.095299
1.974841
-2.143908
0.047129
-0.209951
-0.609564
-0.017147
-1.657146
0.481905
-0.131752
0.021609
-2.008643
0.430826
0.286809
-1.010734
-0.582147
1.680684
1.127587
1.061951
0.023920
-1.314776
-1.176883
-0.091274
-1.964096
1.222304
1.278694
0.584429
0.427057
-0.080743
0.852394
-0.520557
-0.112588
0.070508
-0.001845
0.073900
1.793473
1.637607
-0.109112
-1.929653
-0.760736
-0.036421
-0.734615
-0.353927
0.865281
-1.184948
-1.782211
0.513417
0.283141
-0.808271
0.501037
-0.297364
-0.087329
0.396331
-1.206201
0.766320
-0.899387
0.249826
-0.639900
-0.446322
0.293624
-0.216432
-0.322530
-0.118246
1.326746
1.560156
0.598196
0.001400
1.114175
0.208028
0.359841
-0.413085
0.199508
-0.443826
0.741457
-0.157821
1.016707
1.243241
0.345978
1.711788
-0.528431
2.670134
0.864668
-1.760616
-0.913601
-1.384286
-0.650298
0.300876
2.499977
1.113868
-0.836303
-0.741942
0.260456
0.819618
-0.316503
0.359503
-0.577843
0.842093
-0.140492
0.206895
0.704619
0.160192
0.599675
0.540455
0.794458
-0.767404
1.043823
0.666158
0.279938
1.175765
0.849256
1.763705
0.669593
1.478286
-3.134555
-1.253244
-0.204557
-0.745619
0.456598
-1.209096
-1.587922
-0.006278
-0.072329
0.824459
1.573542
2.187101
0.410890
0.847486
-0.280224
-0.875952
-0.015783
0.166796
-0.646621
-0.594461
-0.741018
-0.537269
-0.047239
1.322346
0.302142
-0.269590
-1.050577
0.511528
-0.891166
-0.610675
-0.429476
-0.280713
0.033065
-0.605357
-0.245786
-0.277603
-1.321635
-1.020968
0.254338
0.361296
-0.134696
0.070421
0.202162
0.385383
1.622592
-0.018596
0.180157
2.640164
0.184245
0.242273
-0.557488
-1.892251
-0.311603
-0.730452
0.662336
1.401687
-0.275715
-0.850363
-1.397403
0.506421
-0.142404
0.902801
2.939570
0.299179
-2.514340
0.444247
0.035624
1.784866
0.586495
0.406914
1.293495
-1.297320
0.232947
0.046236
1.691569
0.396483
-0.539002
0.291533
0.963676
0.184476
0.316977
-0.459295
-0.914352
0.074499
0.031224
1.206098
0.241022
-0.727869
-0.694235
0.847533
1.060170
0.187546
0.405663
-0.372628
-0.889135
0.263805
0.879518
-0.472842
0.807843
-0.349629
-1.388252
-0.980738
1.104074
-0.593867
-0.685131
0.594028
1.282162
1.496449
-1.000766
1.013360
0.277096
-0.830984
-0.679104
-0.874225
0.436217
-2.478662
-1.584081
0.402399
-0.280107
0.100813
1.456362
0.462703
0.277206
-2.278666
-0.487742
-0.705020
-1.594249
1.949590
-0.396179
-0.931682
0.404307
-1.406251
0.337772
-1.025736
-0.685568
0.165440
0.660406
0.227144
0.217621
-1.406191
-0.668632
-0.863073
-1.432379
0.407609
-0.770173
0.233068
-0.494671
-1.330918
-0.365917
0.725830
0.076799
-0.270334
-0.789486
-0.005057
1.099521
2.624630
0.135029
-0.366319
-0.015748
0.562742
-0.907346
-0.825241
-0.171584
0.369409
-1.743157
0.352694
0.160056
1.223733
-0.034685
-0.763826
1.678638
0.495500
0.651198
-0.051463
-1.525609
0.343659
0.502292
0.332630
0.390342
1.807283
-0.532346
0.081495
0.326397
-0.669732
-0.882379
2.121658
-1.204878
0.301410
1.830583
1.309972
0.158301
-1.798344
-2.250484
-0.655933
-0.402322
1.172588
-1.247224
-0.749793
1.596722
-0.070700
-0.502175
0.576998
-0.721001
0.298959
-0.375900
-0.434440
0.520197
-0.793829
-0.085123
-0.149565
-0.388868
-0.266131
0.818414
0.200477
-0.384694
0.189813
-1.056642
1.014951
-0.040389
0.347776
-0.467155
-0.851069
-0.034153
0.646855
1.276547
1.590312
-1.663378
-0.450891
-0.986184
-0.439187
-2.538693
-2.302738
-1.635272
-1.942883
0.280686
1.035260
1.359915
-0.405921
0.144288
0.294870
-0.043967
0.033326
0.027995
1.355972
2.724324
0.943440
-0.006571
0.167128
1.290241
0.969605
0.295443
-0.230463
0.641400
-0.546133
-0.211179
-0.147304
0.916229
-0.632534
0.389271
0.663775
-1.718086
-1.566066
-1.322279
0.090032
-0.794744
-0.333871
1.152367
-0.448639
0.604129
-0.851677
-0.264899
-2.129723
0.461441
-0.354679
-0.965383
-1.209086
-0.679277
-0.573016
0.570467
0.179678
-0.344428
-1.090449
-0.497304
-0.577285
-0.077642
0.549462
0.410666
0.921271
-0.426403
-1.262386
-1.068836
1.079881
0.953659
0.762976
0.118070
2.006020
-0.557325
-0.066866
0.027978
-0.097965
0.081106
-1.095332
0.269335
0.562558
0.095691
0.657447
0.442775
0.905215
-0.323083
-0.509130
1.797088
-0.582307
0.926937
0.167978
-0.159800
0.715552
-1.464656
-2.197658
-2.290295
-0.505715
-0.374338
1.148859
-0.280089
1.158573
0.065792
-0.927872
-0.047718
-0.354373
-0.498353
-1.873950
-0.629157
-0.071002
-0.056516
-0.783317
-1.223899
-0.492191
-0.016948
-0.288130
-1.148514
-0.124405
-0.962031
-0.359170
0.888422
0.281137
0.735496
0.483274
1.081643
-0.214048
-1.468965
0.495673
0.962662
-1.635354
-0.557180
0.123778
-0.306941
-0.316076
0.283145
-0.834731
0.488780
0.522805
1.194373
-0.686752
-1.170190
-0.669763
-0.266624
-0.064760
0.038097
1.637308
-0.210257
0.062949
0.243962
-0.485550
-0.719474
-0.113496
2.109370
-0.226619
-1.579380
-0.640078
-0.884947
-2.923753
-0.323105
-1.836739
0.077017
-1.936477
1.122117
-0.535518
0.726899
-0.027912
0.394960
-1.417203
-0.585715
-1.739455
-0.094165
-1.256676
0.343262
1.858798
0.999592
0.208321
-0.058624
-0.077596
-0.908422
-1.973207
0.322173
-0.733389
-0.650655
0.755039
-1.061983
-0.318358
-2.515691
0.353549
-1.586360
-0.958065
1.159576
-1.031722
-0.842182
-0.553237
-0.955333
0.856519
-0.345813
-0.296639
0.263066
-0.298758
-1.327038
1.218712
0.826292
0.383680
0.053436
-0.479078
-0.003681
0.527333
0.108882
0.441445
-1.457422
0.947847
0.844872
-0.626857
0.546767
0.899039
-1.908236
0.127849
-0.915784
-1.245001
1.799609
-0.437087
-0.614229
0.944531
-0.509285
-0.029504
-0.363666
2.925219
-0.325721
0.019526
0.296858
0.541006
0.209593
-0.187353
0.373672
-2.028851
-1.187444
-0.246822
-0.129690
-0.894589
1.185036
-0.403913
0.476299
1.240185
0.166335
-0.128107
0.416307
1.165815
-2.169128
-0.127356
-0.500672
0.704403
1.560531
1.754362
1.065081
-0.671609
0.615906
-0.405471
0.076987
-1.832562
-0.952689
0.778928
-0.619900
-0.483234
-1.655341
-2.239326
1.015695
-1.010733
0.777795
0.004230
2.202465
-0.340148
-0.838071
-0.175831
-0.773185
-0.796659
0.498582
1.753683
-0.285113
-0.165436
0.217903
-1.243350
0.129229
0.469809
0.874194
1.019537
-1.054623
0.291372
0.400628
-0.438001
0.894468
-1.075814
0.225161
-0.964096
0.775683
-0.402022
1.290508
0.937591
0.820346
-0.238646
0.330017
-0.002028
0.619141
0.679426
2.206040
-0.023066
0.909564
0.560076
1.055013
1.072585
-1.343327
0.100515
-0.138110
0.768528
-1.454793
1.759667
0.478082
-1.111501
1.566465
-2.384222
-1.035717
-1.344086
-1.493975
0.892076
-0.287532
-0.265272
0.156527
0.360788
0.801833
-0.760286
-0.219817
1.073984
-0.558742
0.999131
0.280463
0.117580
1.288729
-1.654543
0.219985
0.195733
1.139382
0.040339
-0.590705
-1.118490
0.346407
0.765196
-1.645103
0.094518
-1.398836
-1.269775
-0.775867
1.003310
-0.148830
-1.228125
-0.291520
-0.544313
1.309662
-1.673500
-0.814308
0.304042
-0.832162
-0.533975
0.830237
1.354704
0.198699
-1.024898
0.446296
-1.505215
2.231105
-0.995823
0.442387
0.262441
0.165473
-0.962253
-0.267412
-1.254905
-1.485772
0.975307
-1.108141
0.045063
-0.131963
0.296204
-0.652644
-0.401915
-0.184781
0.464010
-1.380122
1.381814
-2.102774
-0.233257
0.042424
0.653527
-0.410355
-1.232956
-0.843942
-0.299710
-1.114568
1.149605
-1.167570
0.394984
0.036919
0.066113
0.041767
-1.994964
-1.346349
0.371755
-2.060164
-0.912806
1.205496
-0.259118
-1.240727
1.347252
0.454485
-0.231311
-0.109576
0.582222
0.132112
-0.702052
-0.941660
-1.391330
-0.291571
0.649099
0.613895
0.390992
-0.001565
0.343810
-1.170206
-0.222520
-0.546529
-0.609405
-0.542120
-0.161622
0.385746
0.100882
-0.083604
0.742175
0.325960
0.949636
0.724784
-0.268238
1.850803
1.577842
-1.899553
-0.571622
0.468411
-0.327856
0.251731
0.899197
-0.026635
-0.730739
1.204429
-0.509956
-0.335953
-0.087806
-0.197660
1.064368
-0.724679
0.764604
-0.222897
-1.048398
-0.589911
-0.361346
-0.304314
0.139416
1.062375
1.130584
0.370899
-0.286109
-0.189646
0.021676
-0.016637
0.206243
1.932608
0.285459
-0.418375
-0.634520
-0.352458
-0.952447
0.600480
0.668188
-0.045882
0.009790
-0.029217
0.272330
0.702359
-1.722491
0.314990
-0.311298
0.330707
-0.263037
-1.254164
-1.342707
-0.189751
-0.622737
-0.225152
0.669670
1.775712
-1.094665
0.686758
0.330533
0.718437
-0.150354
0.215454
-1.965736
-0.779753
-0.117380
0.126294
0.744643
-1.454666
0.780223
-1.039521
-0.187979
-0.427409
0.104215
0.049943
-0.323969
0.872362
-0.525703
-0.192449
0.361652
-1.247462
-0.250389
-0.526784
0.036168
1.385902
0.201301
-0.060153
0.051992
-0.003304
0.100850
0.258513
1.495435
0.020753
0.297810
-1.046122
0.935371
-0.266556
0.158551
-0.538879
-1.059183
2.307377
-1.133599
0.441862
1.247701
0.462306
0.707008
-0.295592
-0.186804
-0.657311
0.290185
-0.117847
-0.817021
0.140239
-0.278957
-1.928443
1.058321
0.115442
-0.789641
0.027385
-2.071225
-1.482729
-0.279164
-1.333440
0.391256
-0.622559
1.072974
-0.100678
0.244923
-0.588590
-0.377557
2.596038
0.398554
-0.431153
0.180137
-2.191364
0.385823
-0.099365
-0.116062
-0.566552
0.239372
0.133098
0.091096
-0.247363
1.005787
0.777478
-2.771307
-0.950542
0.108426
-0.488685
-1.152408
0.339757
-1.287591
-0.364415
0.143831
-0.569618
-1.835464
-0.090624
-0.024755
0.474107
0.021912
-2.574646
-2.073047
-0.271274
-0.615492
0.649558
-0.573857
0.529355
-0.808024
-0.359841
-0.816955
1.008662
-0.215348
0.108256
-0.134248
0.779625
-0.122309
0.743653
1.811009
-0.281836
-1.307141
1.245984
-1.035094
2.180655
0.926770
-0.286765
1.002427
0.042603
-0.735644
-2.174002
-0.410075
-0.713909
-1.989837
1.437597
-0.428968
0.099333
-1.080242
1.116658
-0.608485
-0.296368
-0.610614
0.594969
-0.794007
-1.144003
-1.675861
-1.060296
0.489668
-1.350625
2.300871
0.184326
-0.635104
-0.596953
2.071847
-0.813837
-1.158809
-0.031862
-0.048709
-0.853380
0.677000
0.129707
-0.351188
0.334791
-0.323574
0.717988
-0.585310
-0.493457
0.547930
0.040588
-1.153935
-0.130902
0.993207
0.537534
0.840778
-0.300030
1.408689
-2.096833
1.398392
0.154463
-0.835873
-0.482584
-0.594473
0.274515
0.997485
1.342266
1.359646
-0.421164
-1.228837
-0.285879
-0.230363
-0.967211
1.004981
1.232546
0.539809
1.057477
0.088672
0.159831
0.163002
-1.468057
-1.915136
-0.661832
-0.390228
-1.310873
0.665926
0.841770
1.329273
0.063411
-1.492388
-1.138054
-0.120377
0.539607
-1.525770
-2.189445
0.440479
-1.862514
-0.835578
-1.209926
-1.426249
-1.613959
-0.349785
-1.428766
0.669250
-0.422670
0.549834
-0.469191
-1.997826
-0.377671
0.033501
0.463009
0.161845
-1.489580
-1.113990
0.678711
-0.961676
0.554567
-0.027782
0.372787
1.055740
0.402719
-0.491504
-0.021760
-0.716834
0.166532
-1.025473
-0.515057
-0.619569
0.253627
-0.899048
-0.647444
-0.315498
-1.037348
0.422120
-0.585947
-0.192271
-0.225627
1.705062
0.538276
0.316748
-0.857256
-0.145669
-0.122085
-0.447531
-1.273086
0.459919
0.070290
-1.103160
-0.011878
1.127711
0.594761
0.535711
-1.156652
-0.291165
0.484372
1.702424
-1.440386
-1.885636
0.232988
0.013601
-1.269925
-0.389641
-0.865849
-1.814751
0.065776
0.836650
-0.654265
0.214746
-1.848513
-0.565078
-0.263764
-2.362588
-0.152018
-1.029385
0.285238
-0.296187
1.164223
-1.398011
0.784238
2.036515
-1.157708
-1.231472
-0.024647
-1.539151
-0.000483
0.102691
-1.008084
-0.939560
-0.153750
-0.290246
-0.451007
-2.192233
-0.087091
0.209144
0.530454
1.204731
-0.975805
-0.520630
0.394356
1.097816
-1.083919
-1.414531
0.258505
-1.143210
0.046702
-0.616897
0.688934
-0.575559
1.044965
-1.589712
-0.848030
-0.548764
-0.382519
0.493091
-0.384874
0.431453
-0.657606
-0.001245
-1.135024
-1.696731
-1.479079
0.061061
0.191798
0.593111
0.584370
-0.258038
0.297902
-0.179258
-0.139660
-0.977933
-0.676148
1.962674
-0.887455
0.817694
0.550370
-0.063029
0.971620
-1.282652
0.445114
-0.352480
-0.510041
-1.894733
-0.045205
0.079354
-0.763614
0.885388
0.581137
-0.442128
0.497212
0.440086
0.682390
-0.623943
0.894943
-0.273962
1.730016
-1.016387
-0.645127
1.934916
-0.753799
0.637368
1.931462
-1.195266
-0.128628
0.273757
0.486152
-0.232032
0.157430
0.091061
0.064147
-2.058181
-1.403007
-0.275123
-0.032170
-0.304797
-0.833700
0.752262
-0.975302
0.686754
1.772604
-0.635923
0.765753
0.635360
0.661231
-0.158363
-0.452873
0.675295
-1.177531
-0.533445
0.837189
-0.647456
0.678417
-0.609852
1.284276
-3.657701
-0.352807
0.648377
-0.312255
1.634138
-0.110882
1.579974
1.250448
0.168934
2.884119
-0.786730
-0.056409
-0.187516
0.654240
1.251339
2.399246
-0.350313
0.477550
-1.053686
0.296647
-0.120056
0.150641
0.167019
-0.093268
0.581452
-0.258438
-0.480526
0.353684
0.054195
0.779378
0.154269
-0.680273
0.582254
-1.825827
-0.662610
0.404650
-0.451963
-0.511303
0.301085
-0.952705
-0.201652
-0.095711
0.289828
0.790058
1.339403
0.523630
1.485732
-0.436294
-1.155328
-0.564385
-0.350086
0.607919
0.129084
-2.114702
0.186565
0.491585
-0.038922
-1.736821
-0.503340
-0.336668
-0.178870
-2.826558
-0.037242
0.258888
-2.884598
0.621283
-0.441342
-0.110221
0.304528
0.153619
0.292364
-0.606230
0.098884
-0.576267
-0.970425
-0.667294
-0.221260
0.737673
0.607277
-0.351489
0.500271
-0.693908
0.181716
0.475056
-0.786405
1.569560
-0.398486
1.075430
-0.314595
-0.362544
-1.172068
0.021943
-1.569794
0.806528
-1.172393
1.060524
0.635576
-0.898358
0.976314
-0.771638
-0.852250
-0.926280
1.441356
0.294469
0.029117
1.564875
-0.124539
0.562070
0.294705
1.993090
-0.067659
2.018539
-1.144302
0.578159
-0.354559
-0.003321
1.187677
-1.212900
0.451660
-1.397272
0.364637
0.755055
-0.055182
-1.051725
-0.372088
0.936704
0.868507
0.106748
0.705745
-0.538995
-1.680678
0.141688
0.352198
-1.172902
0.725685
-0.334103
-0.095375
-0.521657
-1.211310
-0.809468
-0.647166
-0.346875
-2.623096
1.468804
-0.213172
1.074556
-0.285642
0.794203
-0.078605
-0.181217
-1.710447
0.943627
0.782945
-1.778723
-0.645016
1.429534
0.591525
-0.305813
-0.177244
-1.813928
-1.255165
-0.681987
-1.650435
-0.493623
0.915330
0.459823
0.279420
-0.053502
0.296738
-0.486346
-1.586975
-0.218749
0.119423
-0.370199
-0.564131
0.080177
-1.530753
-1.199472
0.882086
-0.109884
-0.013190
-1.307643
-0.088090
0.387952
-0.737660
0.527098
0.245854
-0.484748
-0.347598
0.151963
1.339151
-0.517029
-0.853268
-1.846992
-1.404079
0.236450
0.161035
-0.572483
-0.932465
-0.134558
0.372532
-0.294810
-1.223339
-0.353736
0.758003
-0.478064
0.462514
1.351204
1.135041
1.141628
-0.331186
0.898762
-0.516982
-0.002103
1.169465
0.887043
-1.031404
0.204512
0.170038
0.118154
3.264483
0.545273
-0.148503
-0.641038
1.086470
-2.632635
0.990824
-0.294547
-1.117643
-0.189034
-1.982479
1.490891
1.041200
-0.046054
-0.496277
-1.287768
-0.116316
-1.721355
-0.130675
1.764916
0.983731
-0.135461
0.504098
-0.244412
0.505606
-0.932586
-0.567032
-0.187991
-0.203842
0.467282
-0.286716
0.227220
-0.610298
-0.545431
1.491537
-0.731156
-0.221286
-0.309469
-0.354789
-1.502869
0.040920
-1.001301
1.742073
-0.621814
1.114866
-1.284252
-0.320397
-0.796239
-0.281539
1.912507
0.134810
-0.905349
-0.413037
1.227757
2.529564
-0.124051
0.769893
-0.638439
-1.184286
0.379638
-0.494881
1.089509
-1.276040
-1.251956
0.152296
0.632755
-1.387746
-0.088411
0.168226
-0.375321
0.679799
-0.457823
0.044481
-1.172142
-1.406472
0.608473
-1.687461
-0.310844
-0.577420
1.088140
0.746004
-1.238980
-0.565988
0.764092
-1.001469
0.380821
-1.549198
1.810917
0.063852
-0.708233
-0.254171
1.440452
0.441125
-0.737222
-1.272034
-1.729521
-0.461740
0.239834
0.701905
0.145932
0.469391
0.029321
0.267542
0.405275
-1.085913
0.108967
-0.990605
-0.701543
0.372551
0.101054
-0.077041
-0.594301
-0.301606
-2.377260
1.447045
1.235575
0.481433
-0.691422
-0.063382
1.091415
-0.990481
-0.130829
-1.307110
0.650770
-0.838250
0.375986
1.568213
0.073497
1.617478
-1.146725
-0.741647
0.465660
0.356497
0.307376
-0.960420
-0.783561
2.468037
0.037596
2.134006
0.290095
0.248631
1.006733
-0.414346
-0.854428
-0.703102
2.092085
0.128179
-0.633593
0.397811
0.294875
0.424281
0.271773
0.556151
-1.696056
1.004878
-1.213436
-1.492158
-0.506605
-0.721068
-0.726439
0.019217
-0.259621
1.248120
0.969052
1.348207
0.922070
-1.038503
-1.478169
1.092796
0.509365
0.510946
0.995513
-0.302551
-0.062159
-0.588326
-0.744653
-0.671349
-0.674117
-0.059848
-0.436056
-0.273126
-0.172332
-0.912569
-0.431947
-0.664302
1.725756
-0.859098
-0.643256
0.735322
-0.565390
-0.415514
1.794777
-2.558341
-0.001664
1.080921
-0.566710
1.311470
1.077641
0.140339
0.131183
-0.073388
-0.491933
0.004074
-0.376449
-0.114672
0.055956
-2.564792
0.873814
-0.039683
-0.007204
-0.674424
0.481578
0.498950
-0.622242
-1.204813
-1.127393
-0.124879
-0.284845
1.177396
-0.009769
-0.747826
-1.986414
-0.213214
0.052960
-0.567435
0.192804
1.137186
-0.414940
-2.232126
1.192616
0.441321
-0.093600
0.304286
-0.584527
0.931490
-0.145231
0.569393
0.663556
-0.376871
1.798108
-0.416551
0.099979
-1.379643
-0.222205
-0.207946
2.092282
-0.759697
-0.131124
-0.405877
0.576189
-0.261021
-0.169037
0.923024
-0.375834
0.263766
-0.893648
-0.499203
-0.587699
0.758736
-1.794629
-1.870931
-1.444776
0.987183
-0.896706
-0.899666
0.773704
0.399889
0.563339
1.082458
-1.165454
1.132217
-0.071894
-0.947853
-0.845215
2.391534
-1.542006
-0.494597
-0.920911
-0.654072
-0.578894
-1.334152
-0.056672
-0.157561
-1.293186
-0.718589
0.338400
-1.034279
0.060399
-1.487138
1.387267
1.154960
0.721071
-0.856393
-0.794440
0.789487
-0.088844
0.232410
-0.102061
-1.182581
0.701072
-0.064303
-0.258645
-1.849688
-0.459439
-0.191592
0.258813
-1.479605
-0.812970
1.146452
-1.092758
-0.394908
-2.069826
-1.069037
0.410480
-0.408254
1.831733
-0.623593
0.668637
-0.347453
0.804389
0.720068
-0.524682
0.050576
-0.768420
-0.731647
0.023196
0.690165
-0.673080
1.508993
0.666675
2.885184
0.384641
-0.629979
0.205665
-0.419926
0.698325
-1.205852
-0.313053
0.107364
1.418238
-1.498575
-0.366183
0.025124
0.595207
0.162334
0.790886
0.270645
0.696295
-0.693071
-1.293340
-0.659781
-0.063895
-0.021375
-1.531492
-1.810305
0.879529
-0.051889
1.566129
0.145410
-0.233636
0.168327
0.126571
-1.206851
1.296727
-0.758470
-0.063714
-0.159059
0.252824
-0.824903
0.521349
0.275772
0.008090
-2.314691
-1.681587
1.519890
-0.379842
0.159318
0.589412
-0.654777
-0.021993
0.115388
-0.813065
0.334183
0.797648
-1.242211
-0.292231
-0.368494
1.004725
0.404203
0.165534
-0.847893
-1.631292
-0.480874
-2.502448
0.753854
-0.254594
0.904490
-0.177353
-0.877902
-1.244745
-0.216213
-0.115356
-0.881796
-0.996116
-0.462589
-0.076381
-0.742889
-0.176787
-1.090708
-0.363887
0.326531
1.365919
0.495352
-0.420753
-0.356284
-0.621533
-2.103126
-0.365577
0.997349
-1.437842
1.152065
1.067268
-0.737521
-0.209495
-0.054505
-0.336989
-0.603702
0.095934
0.242427
0.013281
0.259517
1.288592
-0.855531
-1.380553
0.532271
-2.058148
-0.333380
-0.405147
0.330381
-0.362892
1.398040
0.241375
1.405088
0.563104
-0.756814
-0.863278
0.243882
-1.318217
0.308725
-0.887652
1.532782
-0.617715
-0.436210
1.928891
0.416909
0.026305
-0.554412
-0.445999
-0.040816
0.802872
-0.446895
-1.037850
0.699370
0.888409
-2.104548
-0.469656
0.215096
1.338072
1.758971
-0.491640
0.351750
-0.680493
0.075999
0.057546
-0.257153
0.391784
-0.683773
0.161053
-0.218739
0.470240
-1.198366
-0.929964
-0.724453
-0.250543
-0.142307
-1.765462
0.606762
-0.115487
0.039613
-0.812786
0.597205
-0.828057
-0.391751
-0.908234
4.173256
-0.720617
-1.114891
-0.281671
-0.198094
0.196834
-0.954815
-1.067887
1.053310
-0.658579
-0.188623
0.130545
-1.004488
-1.817408
-0.914963
-0.774865
-0.350659
-2.335774
1.626674
1.070310
0.343246
0.954173
-1.267209
-0.305497
-0.744977
-0.724274
-0.736417
-0.841547
-0.069989
-1.662268
0.542084
-0.638120
-1.427448
0.772255
-0.052720
0.136485
0.310670
-1.743091
0.290469
0.011388
-2.708764
-0.193860
-0.987300
-1.466339
0.380758
0.204398
1.842041
0.330572
-1.162292
-1.504169
-0.419590
0.665171
-0.350481
0.186332
-0.893509
0.556904
-0.127261
0.015387
-0.123518
0.165270
-0.230810
1.486112
-0.914017
0.008409
-3.565880
-1.104527
-0.542903
-0.533924
-1.261070
-0.193896
0.411325
-0.608039
-0.564178
1.003560
-0.805799
-0.027080
-1.531712
-1.521103
-1.517397
-0.563136
-0.146990
0.752473
-1.327923
-0.907467
-0.454419
-1.186137
1.338703
-1.268166
0.542024
0.192293
-0.498597
0.711762
-0.131454
-1.979259
-1.152656
-0.566601
0.092859
0.605294
-0.412042
-1.285362
0.236250
0.467125
-0.244362
-0.133257
0.861959
1.764464
-1.304614
0.098132
0.088709
-1.619717
-0.914469
-0.172737
-0.926303
-0.707275
0.111252
0.419192
-0.442617
-0.395150
1.537611
0.118997
0.174868
-0.410910
1.323596
0.327385
0.350291
0.066120
-1.386344
0.326062
0.107174
0.193398
-1.611892
-0.018564
-0.837416
1.463347
2.245783
0.310883
-1.760450
1.266336
-2.497433
-0.284251
0.231853
2.540658
1.535557
-0.726015
-0.597273
0.039750
-0.225149
-0.499895
1.587230
1.061127
0.099635
1.289061
-0.319849
0.756815
0.533896
0.603740
0.675220
-0.323750
-0.225195
-0.602396
-0.209921
0.501091
1.697417
0.836558
-1.463981
0.472419
-0.001636
-0.063334
1.033914
-2.044269
-1.261913
-0.906124
0.773989
-0.315585
0.639293
1.274195
1.274543
2.420226
-1.760109
0.688941
0.809901
1.099702
3.052058
0.593737
-0.006156
1.249424
3.910508
0.469167
1.177331
-0.580798
0.762444
-2.589441
-0.875463
0.935415
0.980157
-1.150184
-0.256203
0.479104
0.409260
0.354334
-0.001415
0.171731
0.334272
1.508262
-1.181734
-1.024054
-0.972790
-0.434414
0.778819
0.314622
0.635448
-2.592894
1.034146
-0.931680
-3.544375
-1.011807
-3.053386
0.190267
0.980419
-0.273069
-1.305690
1.294163
0.928390
0.978212
-1.545229
2.678021
1.186429
-4.184235
-1.439702
-1.788430
-0.011690
1.236886
-1.380688
-0.112760
-0.597635
0.015085
0.915884
-0.380503
-1.856702
-1.181411
-1.565878
-0.754574
-1.748966
0.883096
0.570725
1.059895
-0.445469
0.531000
0.904359
-1.038512
-0.007159
0.652965
0.079901
-0.101875
-0.522154
-0.146577
-0.551335
-0.082738
-1.780227
0.354154
-1.097165
0.550534
-1.062260
-1.139581
0.027078
-0.175406
0.648305
0.046881
0.902394
0.870931
1.744379
-0.464318
-1.581383
-2.286376
2.139567
-0.854027
0.654203
-1.203312
1.381099
-2.397933
-0.524055
2.471368
1.389269
-1.412756
-0.136755
0.833028
2.870332
-0.573746
1.253902
2.391315
-0.887527
1.222803
-0.000920
-0.135317
0.300152
0.922802
0.434596
-0.135258
-1.587765
-1.663688
0.240280
0.622118
-1.882536
0.239374
0.380462
-0.087152
0.705948
-1.501848
1.666115
-0.372673
-0.272301
2.015779
0.909445
-1.077262
-0.905323
0.492708
-0.765033
-0.019725
-0.793307
0.699925
-0.073494
0.151249
-0.498716
0.183997
-2.343508
0.398121
0.494170
-0.435984
-0.354063
0.105972
3.101203
-0.694511
0.734343
-0.126614
-1.533961
-1.657050
-0.799117
0.191132
-1.144721
-1.620320
1.882671
-2.669907
-1.047788
0.900619
-0.131508
-1.265252
0.038465
0.044050
0.056344
0.015633
0.070906
-0.082890
-0.088481
0.088434
-0.033383
0.046962
0.001424
0.060072
0.068572
-0.029216
-0.087024
0.036380
0.037178
0.086399
0.041306
0.041376
0.013591
0.027439
-0.019029
0.057090
0.054661
-0.059056
-0.082021
-0.033019
0.062890
0.016904
-0.023184
0.001355
-0.039046
-0.066840
-0.083011
-0.068139
-0.049730
-0.071493
-0.079705
0.016886
0.075469
0.021720
-0.023041
0.044041
0.092503
-0.010065
-0.019579
0.029681
-0.023666
-0.078273
-0.028943
0.089925
0.049166
0.052028
0.047015
0.003826
0.092973
0.064993
0.070808
0.055863
-0.018102
-0.052376
-0.042782
0.042852
-0.019217
-0.025793
0.074713
0.031053
0.002714
0.095008
-0.052060
-0.021817
0.016728
0.024899
-0.077776
0.009231
-0.085166
0.002644
-0.061088
-0.008833
0.024371
0.009969
-0.018908
-0.026463
-0.038003
-0.071893
0.077363
-0.045030
0.093100
0.048171
-0.089167
-0.025002
0.095794
-0.031950
-0.082149
-0.023422
0.042257
0.092564
-0.092369
-0.055029
0.087572
-0.044429
0.023154
0.004300
0.080469
0.045378
-0.086469
0.095303
-0.051978
-0.047556
-0.013530
0.072393
0.062413
0.067563
-0.054070
-0.075590
0.095669
-0.076707
-0.020620
0.088770
0.071464
-0.009787
-0.036232
0.067258
0.058263
-0.018381
-0.056164
0.000520
-0.025817
-0.048533
0.045491
-0.038245
0.007038
-0.031355
0.066055
-0.012493
-0.085977
0.079586
-0.017190
-0.037955
-0.067970
0.069280
-0.065562
0.094443
0.036843
-0.019633
-0.081147
0.032512
0.003660
-0.001766
0.021282
-0.024876
0.088447
0.085050
-0.057618
0.046710
-0.033331
-0.013782
-0.052770
0.040851
0.037684
0.092722
-0.097394
-0.055278
-0.038633
0.068661
0.032229
-0.024610
0.048248
-0.084961
0.037434
0.080278
0.084319
0.071872
0.074721
0.021162
-0.047760
0.093574
-0.046326
0.055900
-0.008192
0.074956
-0.068976
-0.019745
0.060006
-0.026594
-0.073035
-0.073325
0.059623
-0.025805
0.067526
-0.002692
-0.033083
0.070133
0.042030
0.028284
0.038794
-0.025742
-0.096327
-0.012958
-0.010703
0.041108
-0.032680
-0.026384
0.012980
-0.057960
0.094778
0.065219
-0.064385
-0.051548
0.021119
0.027422
-0.076592
0.052143
-0.092323
0.083414
-0.074452
-0.065359
-0.089911
0.085172
0.008837
0.077616
-0.017521
0.075753
0.047749
-0.167695
0.750526
0.411958
0.029499
-0.006657
-0.096728
-0.912271
-0.034399
-0.095263
1.155650
0.776589
0.160981
-0.543164
-1.151754
1.022939
-1.365982
-0.039418
-0.712325
-0.504398
0.083834
-0.001910
1.069149
-0.393752
0.010660
2.235988
-0.318276
0.761225
0.473809
-0.138439
-1.882984
-0.645038
0.254531
0.165440
-0.680686
-1.406260
0.485212
-0.134365
-0.279604
0.513817
0.263635
-0.207106
2.296638
0.667309
-0.464862
1.266633
-0.317327
0.343741
0.386015
-1.306327
0.065335
0.871793
0.423523
-0.409285
-0.119045
-0.778353
0.112377
0.748437
0.248786
0.299276
-0.321133
0.222754
-0.547949
-0.679635
-0.142371
-1.463127
2.549302
-0.565964
1.226019
-0.219415
-0.966366
0.724981
-0.742334
0.360263
-0.544063
-0.241621
-1.050122
-0.043555
2.035284
1.652138
-1.732493
-1.846651
-0.652664
-0.044730
-2.667995
-0.711560
-0.215493
2.188254
-0.455608
-0.184512
0.170397
0.602781
-1.415735
-0.379874
0.583906
1.075115
-0.853843
1.100467
-0.405203
-0.190384
-1.432174
-0.014756
-0.140674
-0.295717
1.443729
2.171657
-1.923584
-0.612282
-0.488524
-0.296732
0.206783
0.122111
-0.240166
-0.692785
-0.163011
-0.056574
1.183170
-0.537976
-0.221815
-0.296869
-0.686130
0.457933
-0.395078
-0.247105
0.141883
-0.115266
1.734353
-0.428834
-0.430208
0.504501
1.578906
0.179754
0.103087
-0.043431
0.156394
1.371308
-1.577978
0.669698
-0.892809
-0.091751
-0.061200
0.537583
0.485223
-0.703138
-0.067995
0.313282
-0.078953
1.581825
-0.416173
0.298784
0.379578
-0.188119
-0.477609
-0.498875
1.107691
-1.068508
-0.956894
-0.414438
0.764447
-0.124106
-1.024700
0.232922
0.397932
1.045075
-0.093412
0.945382
-0.931055
-0.719337
-0.093396
0.243941
-0.423255
-0.069626
-0.262081
1.367027
-0.118169
-0.640567
2.746026
-2.052080
0.576865
-0.450025
-0.417834
-0.688140
0.687276
-0.875688
0.819705
0.673948
-1.397189
-0.997573
1.688826
-0.874773
0.898807
0.409618
-0.562098
0.340448
-1.031776
0.125605
-0.577889
1.582924
0.163625
1.457029
-0.410056
0.445309
0.929632
0.235202
1.046137
-0.235422
0.045859
1.012941
0.815423
-0.029385
-0.647681
0.404769
-0.016848
-0.173929
-2.024630
-1.086596
-1.038119
0.298562
-0.250263
-0.064792
-0.715944
2.161986
-0.115060
-0.171795
-0.717719
0.218326
1.111676
0.271185
0.713745
-0.716789
-0.517684
-0.144086
-0.596032
-0.198336
0.014860
0.763567
-0.353959
0.167535
1.284144
-0.524684
1.283098
-0.904441
1.245849
-0.488771
-0.818505
0.029013
0.553078
0.441899
-0.013767
0.053890
0.703582
0.260260
-0.426070
0.428989
-0.049816
-1.281052
-1.198015
0.127833
0.157172
-1.248978
-0.108555
0.279079
0.087815
-0.405155
0.077414
0.205535
-0.246242
0.454700
1.379080
-0.169176
0.907638
-0.345878
0.298647
-0.455727
-2.085363
0.269350
0.695075
1.089100
-1.416299
0.429580
-1.553364
3.616544
-0.401903
-0.460055
-0.453296
-0.269932
-0.922924
-0.130891
-0.650292
-0.301807
-1.627977
0.575331
-1.123127
-0.128090
0.235616
0.086137
-0.798505
-0.909209
0.565598
1.417074
-0.427301
-1.394966
0.075179
0.114076
0.754578
-1.242644
-1.241575
0.584543
0.612836
-1.839154
-0.185714
-1.090741
-0.125351
-0.424484
-0.100935
-0.600877
0.412041
0.444544
-0.072192
-0.488900
-0.100611
-2.685410
1.742471
-0.304191
-0.685301
-0.786623
-0.278845
-0.177360
-0.518606
0.803405
1.899573
0.367641
0.745630
-1.488921
-0.585076
0.612344
-0.199488
-0.370887
-0.745461
0.289700
-0.183803
0.629905
0.391776
-0.533526
-0.386699
-0.096207
0.783045
-0.914765
-0.104308
1.118237
1.158593
0.481140
-1.294489
0.867020
0.441302
0.661862
-0.041200
0.140962
0.047194
0.136182
0.766516
-1.173575
0.186335
-0.422103
0.178178
-0.589238
1.062246
0.707196
-0.377413
0.027456
0.553727
0.556246
0.014714
-0.039491
0.810649
0.505977
0.776843
-0.793939
-0.489100
1.271875
0.079583
-0.031942
-0.167386
0.392265
-0.730318
-1.575190
1.142703
-0.061397
0.483794
-0.414770
0.515031
-0.343181
-0.144430
-1.212456
0.850605
0.051561
-1.102667
-0.555180
0.367965
-0.850743
-0.156597
1.668501
-0.637022
0.318556
-1.082376
-0.182048
-0.431721
0.340894
-0.787014
1.277115
-0.090601
-0.608665
-0.346634
0.695360
-0.673857
1.017357
-0.171396
-0.879822
-0.073628
0.503611
-0.403285
-1.356299
1.269269
1.125925
0.330171
-0.498756
0.464333
-1.865486
0.267791
0.872433
-0.161493
-0.036497
0.125261
-1.643412
2.427139
-0.075882
0.133430
-0.647428
-0.323364
0.197509
-1.015761
0.581648
-0.710959
0.775581
0.351484
-0.025767
1.286526
-0.222538
-0.210616
-0.256968
-0.315055
1.824304
-1.246350
0.177072
1.045962
-0.607627
-0.011128
0.287176
0.096044
0.662181
0.697635
1.197605
0.150479
1.593505
0.430862
0.373268
0.717265
-0.787819
-2.382113
-0.053689
-0.540957
1.023170
-0.236820
0.506021
0.432697
0.002099
0.263774
-0.469171
0.473159
-0.406647
0.178556
-1.572386
0.376945
0.313787
-0.934394
-0.301019
-0.049620
0.486832
-0.308193
0.006294
-0.401501
0.254096
2.319020
0.465459
-0.619863
-0.118499
0.670538
1.126926
-0.301200
-2.316360
-1.294267
-0.662120
0.737595
-0.757259
1.151430
-0.955671
-0.533756
0.437735
-1.023235
0.944286
-1.220569
0.568100
-0.244467
-0.506896
0.112170
0.404853
2.167095
-0.091624
-0.409382
0.713748
-0.452021
-0.585903
-0.345128
0.382542
0.391028
-0.768537
-1.500525
-0.503744
0.302561
1.433246
1.017504
-2.054104
-0.354569
0.491125
-2.304586
-1.418715
-0.057658
-0.105907
-0.426926
0.234007
-0.159536
-0.834394
0.055422
-0.341814
-2.037191
-0.450364
-2.170009
2.550825
0.173067
-0.722480
-1.154197
0.437723
-0.481287
1.666925
-0.483676
1.194595
-0.901454
0.435152
-2.187447
-0.833836
1.254076
-1.600165
0.097024
-1.077835
0.223629
-0.663798
-0.082025
0.169680
-0.919860
0.620814
-0.272181
0.007755
0.181525
1.869339
-0.798544
0.690150
-0.058698
1.152827
-0.207580
0.483736
0.343752
0.684081
0.409377
-0.150771
-0.149088
0.659608
-1.122849
0.051115
1.895648
0.116740
-0.037553
-0.120264
0.988830
-0.180789
0.640216
0.023272
0.464191
1.810942
-1.652739
0.787685
0.364031
0.517210
0.081892
-3.399531
0.878613
0.706916
0.675199
-0.510853
-0.387696
0.031141
1.195831
0.784407
0.364240
-0.395049
0.612320
-0.185974
0.754188
-0.581974
-1.424996
-1.733184
0.131335
-1.451467
-0.009833
2.177304
-0.006266
1.172593
2.791817
0.814598
0.441976
-1.642585
0.642133
0.599317
0.072352
-0.635873
0.959215
0.905321
-1.048497
0.138630
0.590831
-0.099001
-0.090658
-2.423798
0.810256
-2.321546
-0.838748
-1.133698
1.278543
0.852324
-0.569613
0.615852
-1.758041
0.265246
0.051192
-0.284343
2.312257
0.410962
-0.888193
-2.597449
-0.199952
1.065421
1.389013
-0.099765
0.126922
0.292761
-0.917524
0.444318
0.220356
-1.715109
0.215445
0.255218
0.350274
1.612307
-0.383224
-0.367569
0.891722
-1.454133
0.158984
-0.293620
-0.204541
-1.496178
0.464521
0.854204
-0.593363
0.141747
1.024192
-0.746317
0.773527
1.030165
0.728124
-0.183706
1.074496
0.814600
1.538051
-1.012302
-0.113812
-1.278616
1.158223
0.226045
2.733764
-0.289722
-1.401058
0.145266
0.789310
-0.515274
-0.591157
0.730964
-1.189320
-1.276912
0.438273
-0.779858
0.585088
0.055250
0.586271
-0.264264
0.311989
-0.294166
0.357109
-0.004286
0.158758
-0.619547
0.498746
0.195805
1.013766
-1.591870
0.457552
-0.126393
2.018115
0.474592
0.290183
0.271366
0.607961
0.178725
0.262079
-2.045921
0.602760
-1.375183
1.073413
-0.654016
-0.247896
-1.017576
0.472954
-0.034389
-1.407621
0.495957
0.674426
0.045822
-1.396506
-0.685052
0.990731
-0.075393
-1.562001
1.392763
-0.335915
1.706831
1.079678
-0.735872
-0.903264
0.541676
0.813647
-1.186834
2.186279
-0.372785
0.757309
-0.491666
-0.099436
-0.131842
-0.806687
-1.072988
-1.133000
-1.830915
-1.255076
-1.300528
1.438243
-0.731083
0.535756
-0.237324
-0.409921
-1.594267
-1.197196
1.245413
0.685954
0.745947
0.676517
0.171980
0.804781
1.738402
-0.028001
-1.159120
-0.871586
2.198250
-0.316152
-0.533998
-1.306289
0.646372
-0.059172
0.812120
-0.702882
-0.993791
-0.050348
1.126370
0.068129
-0.591776
0.890381
2.156105
1.097260
0.582256
-0.298572
0.288689
-0.065423
-0.992311
1.580520
0.407565
-0.394629
0.460499
0.569793
0.719910
-0.098826
-0.611648
1.242795
0.240884
-0.173263
0.218838
1.274020
-0.581376
-0.911659
-0.359228
-0.747416
1.010196
-0.527724
-0.015109
1.088396
-0.685099
-0.361073
-0.082281
-0.081293
1.738615
-1.050310
0.165532
-0.923026
-0.232105
1.451711
0.741048
-1.059461
-0.277775
-0.531530
-1.092898
0.959425
0.309433
1.178382
-1.934662
0.193587
1.741431
0.213680
-0.073749
-0.595187
-0.291216
-0.472709
-0.786801
-1.477849
-0.664055
-0.080221
-0.947380
0.030496
-0.708581
2.419610
0.109457
-0.781679
-0.134824
-0.440166
-0.743680
0.069638
-0.821518
1.990334
-0.049295
-1.007469
-1.137082
-0.437002
-0.011377
-0.857202
-0.266645
0.479310
-2.328878
-0.399323
-0.578450
0.203423
0.754196
-0.201554
0.040140
-0.006938
-0.906250
-0.259298
2.633057
-0.647086
-0.172682
0.346265
-0.359680
-0.564479
-0.449427
0.545116
0.756065
-0.743237
-0.313398
-0.000465
-0.151907
-1.754257
-0.576580
-0.268032
0.426417
0.154401
-0.070446
-0.306205
0.561301
-1.151116
0.094889
-0.218283
1.264189
-1.151174
0.765761
-0.636135
-1.660310
0.220889
0.555159
1.198272
1.843975
0.432578
1.420693
-0.218399
0.623272
0.052231
-0.516204
-0.059685
-0.231674
-0.827630
1.434013
1.829550
-1.576961
-0.344654
-0.359246
0.553647
1.086760
-0.208176
0.533418
-2.113650
-0.177275
-0.625971
0.428244
-0.551928
1.058713
-0.285905
-0.791194
-0.607510
-0.982648
1.034620
0.727262
-0.418197
1.208709
-0.532939
0.878472
0.454500
0.990346
-0.240469
0.048773
-1.002318
0.601397
-0.617609
-1.420510
0.864368
0.354592
0.266457
0.036427
-1.626057
-0.727040
-1.712085
-0.434336
0.773163
-1.270910
-0.266265
-0.331837
0.351804
1.077562
0.040407
-0.347295
-0.350935
-1.429186
-1.386431
0.387316
0.902674
-0.302185
0.503780
-0.003177
0.754528
0.609395
-0.141857
0.329269
-1.037246
0.195876
-0.987569
1.296024
-0.304974
0.770130
-0.961778
0.003588
-1.642221
1.024934
0.531671
-1.137495
0.865309
1.050933
0.404838
-0.089833
-0.526696
-0.486502
-0.886547
-0.815711
1.637125
1.944381
0.066926
0.130505
0.414947
0.019201
-0.090883
0.022032
-0.434360
0.308604
-0.090143
0.344158
-0.253409
1.049062
-0.554734
0.260618
0.928008
-0.309378
0.334265
-0.097723
-0.254471
0.227753
0.953028
1.394509
0.505359
0.827830
1.490335
-0.665967
-1.202777
0.299078
0.153153
0.247660
-1.451046
1.778692
-1.805933
0.287066
1.527473
-0.555765
0.892950
0.360035
-0.967805
-0.713813
0.541330
-0.505066
-0.606829
-0.078314
0.115856
-0.721846
0.071352
-1.980942
0.366653
-0.629322
-0.613243
0.271610
-1.222418
-1.020691
0.059026
0.413011
0.734084
0.870942
-1.483132
0.358308
0.898387
1.500435
0.252127
0.095419
1.218479
0.411203
-0.227198
-0.275236
0.436346
0.031993
-0.601505
-0.913004
-1.430576
0.657440
0.432003
-1.136849
-0.207167
-0.732069
0.007874
-0.035912
-1.394442
-0.474316
-0.134609
-0.769832
-0.450136
-0.233412
-0.194360
0.255918
-0.753855
0.621916
0.154512
-2.230728
0.396792
0.580484
-0.124937
-0.132126
0.068302
0.170788
0.142119
-1.088990
-0.151767
-0.010242
-1.652290
1.010676
-0.874239
-0.178326
-0.404270
-0.020557
-0.968487
0.912229
-1.172793
1.439073
0.092129
-1.626851
1.088100
1.198971
0.419843
-0.090814
-1.033741
-0.822839
0.765010
-0.323516
-0.387669
0.138836
0.550312
-0.683087
1.344698
-0.857287
-0.648170
0.281149
-1.518158
0.148878
1.846266
0.133881
0.777782
0.155628
-0.826467
0.104134
-0.787670
1.090242
-0.140012
-1.901178
0.571259
-1.076284
-1.986888
0.048411
-0.687286
0.287935
0.224629
-0.311365
0.564589
-1.266451
1.938516
0.036368
1.810351
-0.714668
-0.233864
0.209402
-1.790495
-1.377510
0.163866
-0.457668
-0.300856
-0.051280
1.123457
-0.666035
0.465408
-0.128297
-0.857057
-0.355949
-0.244181
0.692355
-0.741785
0.258300
-0.828560
0.163469
0.039347
0.817791
0.273060
-0.805542
-0.507328
1.728736
0.487350
0.319955
-0.243736
-0.054985
-0.211392
0.182419
2.053941
0.223719
0.324384
-0.669233
-1.084517
-1.933076
0.634935
-0.172057
-0.716741
0.092224
0.410382
0.022369
-0.028474
-1.381840
1.079688
-1.332826
-0.156020
-1.448641
0.191730
-0.247017
1.365746
-0.768545
0.640276
-0.289489
1.851274
0.927621
0.528603
-0.410680
-0.689468
-0.378491
-2.094333
-2.197089
-1.184910
-0.991043
0.014147
0.210016
1.969242
-0.017273
0.127689
0.237557
-0.417779
-0.181100
-0.167924
-0.216558
-0.186411
-0.711962
-0.347597
-0.284762
0.814784
0.391718
1.058625
0.168560
-0.474934
0.210242
0.012617
-0.273614
-0.123350
-0.921356
-0.672861
-0.213997
0.645532
0.647786
0.421256
-0.934896
1.868993
0.478302
1.066845
0.060460
-0.932272
-2.295296
1.185307
1.447512
-0.749258
0.936802
1.782120
-0.489749
0.719428
-0.984031
-0.344969
0.273033
0.997984
1.964290
0.050847
0.899068
0.103077
-0.490853
0.168630
1.327911
-1.903263
-0.339082
-3.492167
-0.604388
-0.343460
0.319005
-0.644186
-1.096400
1.067024
-0.523247
1.510874
0.107403
-0.813812
0.796092
2.004479
0.115746
0.845689
0.213779
0.495875
-1.292950
0.223819
0.334986
1.611787
0.061490
-1.181118
0.687344
0.452084
-0.696225
0.024150
-0.204527
0.968756
-0.640146
-0.769783
-1.003162
-0.402224
-0.438665
-0.184528
1.206145
0.046184
-0.776090
-1.604644
0.579399
-0.896752
0.467251
-1.121352
0.124979
-0.376304
-0.412554
-1.182260
-2.562021
0.415813
-1.318285
-0.597746
0.338540
-0.975880
-0.636770
0.968661
-1.650910
1.548455
-0.996955
0.827618
0.255900
-1.417299
-0.679276
0.757596
0.868276
-0.203069
-0.135165
-0.992995
1.211710
-0.592937
-0.309761
-0.431974
0.264175
-0.476957
1.674059
-0.497407
0.097446
-0.186867
-0.455501
-0.170012
-1.197887
-0.296650
0.105281
0.196696
-0.308046
-0.227494
0.537508
-0.090614
0.009838
-1.632242
0.248993
-1.224100
0.114415
0.262398
-0.534927
0.418668
-0.537213
-0.120357
0.484064
-1.098327
-0.221010
0.526084
0.753520
-1.870041
0.679474
-1.306735
-1.612321
-1.352608
1.051877
1.670061
0.474625
0.996164
-0.097313
-0.292362
-0.217006
1.193652
1.348907
-1.209087
-0.922554
1.015873
-0.919104
0.287501
-0.274798
-1.166129
-1.557160
-1.471486
-0.146138
-1.671243
0.033934
0.508848
1.121243
0.711148
2.255845
-0.976880
-0.339113
1.329669
1.278883
-0.491738
-0.010356
-0.605971
-0.019437
-0.124022
0.043535
-0.066193
-1.631360
0.882205
0.834044
0.521677
0.374786
0.384413
-0.092226
0.609621
-2.283702
-1.942169
0.138150
1.648158
-0.044150
-1.224127
0.629129
-1.233882
-0.075328
1.653221
0.288405
0.878716
0.119070
0.220401
-1.228635
-1.063501
0.780379
-0.795068
-0.337636
-0.934843
-0.521126
0.023306
0.324865
-0.395422
0.162093
0.603716
0.213298
0.850306
-0.523761
1.156913
0.532754
-0.859554
0.244387
0.460084
0.586316
-0.228181
-0.186840
0.171676
0.078766
0.542696
0.715047
-0.424388
-0.845489
-0.949755
0.374075
0.881351
-0.714631
-0.231624
0.184066
-0.271697
-0.280702
0.221235
1.292308
0.131649
0.080360
0.683465
1.539935
0.646913
1.711696
-0.866974
1.280273
0.527736
-0.120765
0.389012
-0.026448
1.718772
-0.300641
1.129310
1.409306
-0.867993
-0.328441
0.215199
-1.560448
0.207382
0.086888
-0.698007
0.696265
-0.032129
0.757062
-0.142569
-1.843069
-1.196931
0.200372
-0.539296
-0.022240
-0.720306
-0.272000
0.696416
0.388143
1.442302
0.197159
0.063051
0.383740
0.265109
0.338577
-0.312330
0.153055
-0.575173
-2.478392
-1.417833
0.890660
-1.598100
0.017596
1.516813
-1.297183
1.464276
0.283162
-0.673471
-0.336539
0.371353
0.014754
0.483221
-2.554061
-0.962783
0.618513
-2.328191
-0.068298
0.350617
-0.192170
-0.817999
1.571971
-1.108387
0.824047
-0.143146
0.486963
0.562096
0.319459
-0.225620
0.931524
0.370706
-0.211141
-0.217541
-0.260033
-0.734270
-0.879970
-0.862884
1.002833
-0.419612
-0.230542
0.537743
-1.727176
1.186845
0.425688
0.806251
-0.613791
-0.392003
0.267030
0.890853
0.359104
-0.319045
-1.053589
-1.131554
-0.384448
0.241909
-1.915699
-1.444639
-0.398976
0.004511
0.756561
-1.037962
-0.260659
-0.471803
0.328156
1.460513
0.819978
1.422791
-1.205050
-0.262878
-0.120916
0.000097
-0.008389
-0.457040
-0.035104
-0.631171
0.963810
1.151378
-0.607953
0.090762
0.712656
1.098849
-1.551684
1.505398
-0.118498
-0.112139
1.451580
0.184382
0.712018
0.938281
0.801064
0.197108
1.951908
-0.664199
-0.637636
-0.157405
-0.177302
0.923050
-0.143006
0.110128
-1.371015
-1.322451
-0.246769
0.780320
-1.300211
-0.121140
-0.415708
0.729319
-0.655326
-0.217013
-0.382379
1.197840
-0.381068
-1.080418
-0.736603
0.566176
0.584479
-0.845747
0.310577
-0.803790
0.987342
0.262091
0.006508
0.343742
-0.840076
-0.660397
1.325737
0.262663
-1.471272
-0.886199
1.547210
0.106014
-0.214106
0.182180
1.041280
-0.541147
-1.200596
-1.421919
1.038002
-0.130749
0.667681
0.221083
-0.599088
-1.116458
0.966052
0.612553
-0.929259
1.100340
0.599757
0.206217
-1.336992
-0.241183
-0.153813
-0.363392
0.272839
0.864387
1.078770
-0.913933
-0.739555
-0.568990
-0.727340
-0.897930
0.682637
-0.786367
0.087790
-0.005012
0.079552
0.267434
0.844471
-1.471317
-0.037279
0.077494
0.348402
-1.425227
-0.375625
0.500600
0.522424
0.334679
-0.946169
1.008268
0.286287
-0.293073
-0.775143
2.060489
0.577779
-0.109479
-0.702681
0.647777
-1.026489
-0.038112
-0.084441
-0.875613
1.759554
0.019723
0.934895
-0.628773
0.558016
-1.178667
0.976135
-0.402056
1.028905
-0.312190
0.774601
-0.167023
-0.783264
-0.957420
-0.318206
-0.860501
-2.174447
1.621075
-0.329660
-0.487128
1.209113
-1.266024
0.224873
0.176286
1.311516
-0.934483
-0.056292
1.163069
-1.178833
-0.193000
0.253216
-0.562481
-0.529475
0.074699
0.833869
2.042626
-1.640821
-0.590573
1.154719
-0.251883
1.785290
0.010946
-0.684094
-0.381074
-0.431776
-0.205842
-2.442723
-0.330982
-1.340506
0.611902
-2.398066
-0.183200
0.088592
-0.514128
0.648641
2.930179
0.513164
0.144631
-0.188553
-0.129972
0.062206
2.174582
-0.100157
0.787707
0.999364
-0.006795
0.254740
0.466721
-1.237756
-0.515472
-1.185080
1.476796
0.081867
-0.293205
-0.370532
-1.378502
0.884452
-1.276418
-0.987467
1.137454
-0.536942
1.317820
0.661637
-0.439980
0.313928
0.861677
-0.839801
-0.112067
0.731876
-1.339756
-2.316734
0.348803
1.309146
0.587290
-0.293663
0.447202
1.003090
-0.250314
2.196644
1.341554
1.760587
-2.041189
-0.383761
0.120084
0.342649
0.098520
-0.459979
-0.434683
0.473447
-0.253363
-0.060895
-0.607435
0.604998
-0.557284
-1.021484
-1.487176
-0.881483
-0.796781
-1.113047
0.714492
0.694906
-1.841548
0.896955
-0.520109
-0.119926
0.110685
-0.954692
-0.951869
1.078300
0.305159
2.538231
1.276315
-1.208878
0.196884
-0.847714
-0.612032
0.837224
-1.081455
-0.402887
0.383636
-0.713366
-0.844964
-0.114258
0.117747
0.201106
-0.203961
0.277638
0.269753
-0.782251
1.696950
-0.015677
0.777397
-0.060210
0.063238
0.087233
0.729265
0.318225
-1.667110
-0.117438
-0.350761
2.170228
-0.537853
-1.304771
-0.875735
-0.108318
-1.092699
0.424622
0.617168
-0.699501
-1.726106
0.070869
-0.391691
-1.024627
1.141717
0.049884
-1.590243
-0.283430
1.501928
-1.394781
-0.672268
0.276105
1.105123
0.660573
0.131454
2.108267
-0.490063
-0.296557
1.521620
0.006231
0.297255
-0.526321
0.477907
-0.942232
0.895819
-0.440254
-0.999049
-0.452984
-0.309480
-0.121499
-0.800066
0.662011
-0.295238
-0.416042
-0.253057
-0.432217
-0.223739
-1.045267
-0.670942
-0.445502
0.715158
1.094847
-0.310119
2.128997
0.161331
-0.937280
-0.210703
2.227181
0.404661
2.493873
-0.553455
-1.216009
-0.591689
-0.161937
1.085658
0.792362
0.460607
0.141228
1.118091
-0.788942
1.075886
0.220901
-1.087296
1.126284
-0.243139
1.543619
-0.169255
-0.277369
-0.313370
-0.197620
2.080026
0.378196
-1.435632
0.905113
0.949287
-0.141626
0.749907
-1.948351
-0.928969
1.118361
-0.295102
-1.010622
0.470374
-0.637271
-0.665754
-0.555977
-0.418268
0.128638
0.286542
1.029922
2.039037
-0.503981
0.638389
0.376961
-0.262302
-2.609014
1.209067
0.478439
0.004784
-0.958391
-0.897136
-0.403849
-1.562873
-0.512126
-0.205366
-0.630863
-1.178662
0.338008
-0.027210
-0.114865
1.594089
-0.150460
-0.306897
-0.999250
0.187173
-0.946695
-1.336174
1.373510
0.038634
-0.362328
1.064357
1.802874
-0.616655
0.254004
-0.636779
-0.226576
-0.597664
0.751692
0.041592
0.113617
0.710278
-0.570624
0.447038
-0.173837
-0.962011
0.962410
0.437924
-0.229263
-0.128948
0.493981
-0.079366
0.518566
-1.273299
-0.086666
0.006017
-1.363639
-0.580503
0.420046
1.451604
-0.416931
-1.442896
2.524688
-0.117396
-0.267816
-0.006727
0.576042
-0.070392
0.123030
0.722316
-0.473820
-0.102234
0.131876
-0.296339
-0.987537
-1.592578
-0.019135
1.046377
-0.087413
0.060335
-0.016068
-2.037809
0.412844
-0.334611
-0.819560
-0.135345
-0.139310
-0.373222
-0.662280
-0.211230
0.277847
-1.207201
0.791461
-0.297976
-0.297246
0.027974
-0.613603
0.594042
0.386618
-0.517828
0.361696
-0.342660
1.203905
-0.803183
1.358873
-0.822508
0.505367
0.611019
-1.491518
-0.166050
0.048148
0.863682
0.473922
0.902970
-0.115010
2.104710
0.325757
-0.110981
0.701404
-1.292952
0.030954
-0.267861
0.805521
-0.114319
0.070798
-0.828630
-0.017999
-0.388403
0.424300
-0.205722
-0.994241
-0.973840
-1.324062
-0.031447
-0.936517
-0.609467
-0.005754
1.176762
0.123110
-1.369739
0.879405
-1.863063
-0.456545
0.738450
-0.259418
-0.742066
0.080984
-0.691846
-0.059561
-0.027124
-0.729792
0.035730
0.192847
-0.012824
0.263062
0.009325
-0.360745
0.221679
0.461014
-1.333544
0.273066
-1.194618
-0.176400
-0.155171
-0.489525
-0.002784
-0.019346
-0.092821
-0.133552
-0.627474
-1.285173
-0.515703
-0.435269
0.580155
-1.089585
-0.444622
0.023952
-0.296032
-0.078564
-0.280301
-0.339900
-0.830825
-0.044048
0.412711
1.259780
0.645198
0.078947
-0.304217
-0.304377
0.200226
-0.141450
0.546368
-0.929086
0.133730
0.295222
-0.838797
0.735260
1.227123
-1.025119
-0.926470
0.775490
-0.556133
-0.706110
-0.080200
-0.171614
1.210164
-0.430766
1.939866
1.120473
1.153131
-0.191819
-0.484742
-1.491452
-0.339355
1.907352
-1.047776
0.350333
-0.061141
-0.077513
-0.352885
0.215028
-1.130394
-0.769196
0.539720
1.369474
2.614764
0.005557
-0.100170
-1.162646
0.244883
0.387873
1.334187
-0.343510
-0.558173
0.240496
-0.316853
0.879748
-0.652655
-1.006699
-1.042259
0.150790
-1.027938
1.138574
1.040252
0.433968
-0.007262
-0.498519
0.438994
0.354979
-0.349652
1.418262
-0.650368
-2.279207
0.718940
0.541638
0.841975
-0.873997
-0.229905
-0.388141
0.748359
-1.017415
-2.138388
-0.651910
0.375936
-1.215942
-0.314259
-0.115345
-0.426611
-0.573136
-0.194036
-0.505049
1.053616
-0.776685
0.970121
-0.440780
-1.476633
0.140314
-1.023970
-2.245738
0.173117
1.315634
-0.579575
0.059759
0.496706
0.637432
-0.839750
-0.029950
1.100501
-0.481659
-1.010115
-0.363191
0.622061
-1.063148
0.143448
0.417082
-0.615293
-0.662074
-0.109416
0.108098
-0.535346
0.622312
0.476291
0.610623
-0.088327
-0.510350
1.500099
-1.734674
0.791289
0.035507
0.294198
1.046449
0.716495
-0.347176
0.488367
0.234076
-0.628551
1.033029
0.398857
0.104367
-0.072541
-0.766827
-0.809651
-0.705495
0.421734
-0.276196
-0.147603
-0.574714
0.394794
-2.795130
-0.269044
-0.191302
0.495505
0.137327
-1.940066
-0.336021
-0.901408
0.374410
-1.061170
-1.262370
0.274529
0.710077
1.242744
1.740368
-0.210579
-0.805827
0.301459
-0.706765
0.597716
-1.401388
-0.759629
-0.169464
0.856823
-0.531773
-0.399187
-0.644534
-0.415469
-1.127025
-1.326969
0.022484
-1.325775
-0.928902
-1.199215
1.746772
1.448432
-0.064941
-1.106564
-2.122737
0.292456
0.046811
-0.557980
-1.081628
-0.292366
1.821695
0.532374
-0.826827
0.466712
0.078355
0.236847
-0.561780
1.099813
0.193660
0.234698
-0.809922
-0.194614
-1.169162
-0.014791
-0.738399
-0.921434
-0.269327
-0.233028
-0.062048
-0.202071
-0.287061
1.193728
0.775451
-0.622608
-0.346437
0.278805
-0.189953
-0.518701
-0.353000
0.250221
0.198821
-0.132876
-0.932545
-0.472899
-0.859016
-0.589260
-0.326566
0.129329
0.769439
-1.091450
-1.331015
-0.656202
0.112220
-0.346884
-0.099790
-1.837793
2.272336
-0.173907
1.378471
-0.485905
1.713858
-0.448777
-0.581690
-0.921768
0.176331
-0.778279
0.451925
-0.715382
1.616804
-0.020832
3.111859
1.293401
-0.376436
-0.613328
0.626078
-1.435060
0.767558
1.549363
-1.050083
0.725584
-0.653510
-0.574294
0.319326
0.229010
-0.875419
-1.034273
0.035742
1.043727
1.436731
0.415384
-0.339058
-0.527811
-0.177902
1.018802
-0.634174
-0.430683
0.429887
1.153560
-0.358616
-1.220691
-0.800644
-0.290934
-0.694930
-0.312344
-0.847933
-0.118617
-0.026607
0.429893
0.238079
-1.131991
1.512885
-2.448278
-0.608768
1.990369
-0.390473
-0.383642
0.537161
0.285618
-0.072842
-0.489569
-0.700678
-0.939370
-1.834643
-1.473364
0.198382
-0.648294
-0.326036
-0.350743
-0.227872
-0.221482
0.025909
-0.946437
-0.562043
0.753509
3.654439
-0.501359
-0.866794
1.408944
-0.815381
-0.087052
-0.572924
-0.710633
1.069299
0.769011
0.023478
-0.641889
-1.268765
-2.527579
-1.280315
0.601834
0.687549
0.029071
0.544762
0.011266
0.338835
-1.759958
-0.911314
-0.361391
-0.278710
-0.359429
-0.138194
0.124155
0.045641
-0.365926
0.161278
-0.371472
-0.517398
0.735374
-0.685855
-2.587667
1.013626
-1.121721
1.784259
0.981127
-0.471539
-0.638655
-0.618582
1.825952
0.375908
0.982537
-1.314572
0.115744
-0.845073
-0.397924
-2.028628
1.057872
0.428296
-1.188940
0.582397
-1.013056
0.435428
-0.979089
-0.218567
-0.747972
0.150970
-0.690676
-1.882515
-0.097821
-0.556423
-0.565364
-0.544935
-0.224826
-2.164187
-0.045266
0.367615
0.718765
-0.726797
-1.252421
-0.202411
-0.579737
0.107375
-0.685174
-0.610655
-0.697057
-0.719748
-1.186409
-0.466493
0.073547
-0.177626
-0.966070
-0.557857
0.379810
-0.222274
-0.317794
-0.204570
0.707823
-0.823092
-0.498960
-0.670828
-0.053715
0.886392
0.208508
-0.641448
0.449450
-0.591035
2.038068
0.425049
-2.321746
0.664779
0.162962
-0.383532
-0.593524
-0.058849
-0.490155
-2.005946
-0.063926
0.362098
-0.861993
1.386536
0.090180
-1.077413
-0.231966
-0.382850
-0.044606
-1.403257
-0.155629
0.132110
0.667978
-1.606210
-0.352626
-0.434030
-0.599595
-0.788537
0.268565
0.273333
-3.313834
-0.571550
-1.299855
-0.095829
-1.977755
-0.260148
0.525054
0.260301
1.065668
-1.765530
-0.033659
-0.235126
-0.129649
0.742933
-0.829010
-0.760747
1.503083
-0.255840
0.490398
-1.107561
1.566717
1.040387
-0.879246
0.124037
-2.772576
-0.017013
0.862029
-0.115932
0.390155
-0.102285
3.543515
1.344793
-1.273691
-1.150534
1.137519
-2.588330
-0.333356
1.007788
-1.054166
0.100536
-0.966154
0.661408
-0.115492
-0.878782
-0.969904
-1.180339
-0.494842
0.075729
2.087321
-0.998682
-0.819465
-0.091662
0.381656
-1.040964
-0.365046
-0.678970
-0.096703
0.979469
-0.506900
-1.137833
-0.464421
-0.110500
-1.423370
-1.256894
1.165492
0.974169
-0.667602
0.091458
0.096485
-0.001202
0.743519
-1.473803
-0.606654
0.121162
-0.171517
-0.362943
-0.908656
-0.273147
0.372943
0.938880
-0.153002
0.130063
-1.778710
-0.225691
0.416641
1.350326
-2.450913
0.293420
0.144235
-0.008550
0.083167
0.503589
-0.295676
0.623335
-1.313523
-0.593870
-0.285598
0.742945
-2.041505
-1.028307
-0.079012
-0.745002
0.534063
-0.743794
0.522691
-0.589413
-0.075445
-0.179666
-0.722976
-0.760461
-0.801593
0.513177
-0.086630
1.078447
-0.507113
-1.926739
-0.713692
-0.198988
0.334496
-0.453528
-0.015611
-0.075771
-0.749549
-0.425882
0.212428
-1.862172
-0.448219
-0.449679
-0.231367
-0.697205
-0.298667
-0.807089
-0.227641
0.589032
0.267400
-1.262991
-0.555390
2.222356
-0.445164
-0.576229
-2.125623
-0.531026
-0.780850
-0.278065
-1.062633
1.021579
-0.975901
-0.517547
0.305829
-1.539585
-0.691354
-1.211994
0.685772
0.609738
1.103204
0.241894
-1.420313
0.226188
-1.624577
0.577719
0.264325
-0.438814
-0.753639
1.099753
1.256315
-0.245353
-1.183579
0.244561
0.896483
-0.494145
0.157543
-0.480195
-0.001790
-0.780156
-0.847103
-0.761184
-1.751742
0.657918
-0.172679
-0.174452
-0.756378
0.228211
-0.450121
1.161795
-0.647605
1.325459
0.758824
-0.760806
-0.167737
0.247268
-1.089339
-1.989316
-1.349337
-1.228259
-0.357579
0.474428
1.373126
-1.462380
0.159378
1.205010
-0.014985
-0.687337
-1.441498
-0.799251
-0.691745
-0.366372
1.587618
0.336033
0.422789
-0.199326
0.320221
-1.123520
-0.426146
-0.085123
-0.636200
0.423740
-0.737670
-1.616159
-1.072304
-0.222833
-0.402517
0.015543
-2.204151
-0.346299
-0.194915
-4.723368
-1.736183
-1.025617
-3.179779
0.013258
0.348473
0.226168
-2.050556
0.061386
-2.155242
0.355702
0.603388
-0.209782
0.077531
-1.632486
-1.592455
1.032670
0.207964
0.797810
-0.911977
0.210681
0.096342
0.917979
-0.413015
2.037059
0.542918
-1.171953
1.052220
-0.955436
-0.904574
1.091700
1.184332
0.794920
0.128426
-0.434334
-1.821491
0.788360
0.989462
-1.606616
-0.347489
-1.804221
0.121039
-0.595754
-0.541994
0.176467
-0.989424
-0.578003
0.654132
1.433540
-0.480964
0.266067
-1.046972
-0.397216
-2.131208
0.332859
0.274716
0.949289
-0.555581
-1.749867
-0.492595
-0.061972
1.520249
-0.983630
-1.148629
-1.065832
1.725258
-0.754939
-0.342148
0.124787
1.938889
1.872321
-0.823756
-1.720941
-0.586007
0.338905
-0.260844
-2.301384
0.093716
0.032529
-0.825466
0.491058
-0.659709
-0.442077
-0.167163
-0.026021
0.352480
-1.529106
1.130022
0.116572
1.998202
-0.950912
0.867157
0.450404
1.924473
0.182465
0.086378
1.171909
1.861216
-1.952552
0.329482
-0.141364
-0.140361
-0.379004
-0.507441
-0.709181
0.354697
-1.909887
-1.972386
0.964259
0.374601
0.046372
-1.205833
-0.496825
1.233620
-0.177584
-0.598693
0.575796
-0.295007
-0.066653
-1.009395
-0.097525
-0.141155
-1.081996
-0.350252
0.089620
0.030703
0.392203
0.464453
1.364780
-1.185383
0.430203
-0.807023
0.026825
-0.501982
1.499502
-1.829509
-0.251141
0.722856
0.661722
-0.012312
-3.256862
0.333719
1.553478
-0.370158
-0.070404
2.816008
-0.645999
1.773808
1.048051
0.633179
0.432125
-2.097597
-1.785924
-0.559956
0.401840
0.788848
-1.178991
0.402855
-0.978138
-1.482643
-1.169711
-0.392793
0.129710
0.700222
0.755845
-1.522715
-0.865884
-0.653427
-0.124345
0.130348
0.413664
-1.997326
0.471624
-1.792454
-1.665100
0.691200
-1.345081
0.710240
-0.560127
2.786705
-1.153077
0.337617
0.379107
-0.431430
-1.309654
1.117543
1.895547
-2.082407
-0.550781
-0.579952
-1.336851
-0.408359
-1.577775
-0.885097
0.733794
0.122009
0.826628
-0.175777
-1.092315
-0.607795
-0.540662
-0.891198
-1.116851
0.475615
-1.039102
0.855564
0.804496
0.390711
0.081897
1.472478
0.821994
-0.157588
-0.016856
-0.025576
0.440409
-0.504604
1.979638
0.078444
-2.635622
0.228515
0.356525
-0.252979
-2.294608
-0.684304
0.541233
-1.979069
0.452500
1.667146
-1.691809
-0.703995
0.119920
-0.508601
2.005441
-1.385629
-0.770203
-1.372448
0.356519
-0.229130
-0.192212
-0.153857
0.319726
-0.191968
0.569611
-0.296768
0.304864
1.153445
0.651313
1.457853
0.830895
-0.259464
-0.546263
1.593555
0.924138
-0.586288
-0.403527
1.460313
-0.138967
0.894460
0.151012
0.071294
0.295548
1.129004
0.015940
-2.028267
0.212708
-0.236265
0.942130
0.216684
0.507840
0.064978
-1.285132
-0.540499
-0.825229
1.655697
0.044991
0.728458
0.962116
0.699014
0.159175
-1.525750
0.206800
-1.035273
-0.760065
-0.893541
-0.923654
0.062665
-0.226848
1.427158
-0.864191
-1.371383
0.887627
-0.328789
-0.164893
0.024871
-0.365537
-0.081657
0.945259
-0.272531
1.348905
0.373445
-1.478095
-0.426705
-0.416876
-0.119739
-1.623152
-0.209628
-0.041933
-0.070957
0.044912
0.096623
-0.013617
0.025239
-0.081089
-0.091433
-0.079937
0.059912
-0.053235
0.084798
-0.069609
0.000398
0.044562
0.004387
0.069978
0.000657
-0.098689
-0.021583
-0.031828
0.013573
0.096848
0.055082
0.049630
-0.082300
0.027888
0.096191
-0.070671
0.089365
0.026512
-0.012604
-0.081592
-0.028576
-0.015981
0.004791
0.096664
0.002930
0.013357
-0.083274
-0.037157
0.060122
-0.098475
-0.006767
-0.039480
0.046086
0.097620
-0.069502
-0.053256
0.098932
0.008915
0.014916
0.012505
0.005763
-0.030002
-0.037865
0.023463
0.097885
-0.041674
0.052792
0.087251
0.084838
-0.059812
-0.094341
-0.043738
0.024207
0.010450
-0.047074
-0.072862
-0.076193
-0.030348
-0.010020
0.083929
-0.028823
0.083213
-0.055551
-0.082737
0.080834
-0.025052
-0.035993
0.079765
0.083862
0.078922
-0.007730
-0.010374
-0.051080
0.054405
-0.086911
-0.053194
-0.087270
0.065881
-0.065944
0.097568
-0.093931
-0.060285
-0.046169
0.030277
0.050165
0.006756
0.057415
0.073972
0.076408
-0.052605
0.057901
-0.052415
-0.069392
-0.097650
-0.035152
-0.088558
-0.022702
0.028855
0.091208
-0.038840
0.007777
-0.016522
0.050786
0.056697
-0.062118
0.063875
-0.096497
-0.049387
0.029756
-0.062441
-0.051819
0.035825
-0.022726
0.002011
-0.033898
-0.072561
-0.091232
-0.076483
-0.098589
0.085176
-0.029089
0.059312
-0.067239
0.001520
0.061662
-0.002390
0.012962
-0.061040
-0.073536
0.004170
0.000120
0.034241
0.087647
-0.049094
-0.009061
-0.074470
-0.085219
-0.005559
-0.023858
0.044536
0.032000
0.024323
-0.019638
-0.090726
-0.073665
0.046464
-0.063287
-0.064898
0.069980
-0.061876
-0.079721
-0.059108
0.097436
-0.046960
0.042411
0.059098
0.050650
-0.044627
0.098058
0.077114
0.059543
-0.001822
0.011355
0.047190
0.049084
-0.097706
0.072720
0.063864
-0.003265
-0.051138
0.008401
-0.071265
0.073185
0.088762
-0.061990
0.099520
0.035226
-0.025277
-0.065378
0.005206
0.012847
-0.045099
0.046098
0.010283
0.007941
-0.011491
-0.030619
-0.041409
0.043883
-0.032562
-0.064295
0.003426
0.065616
0.047061
-0.049384
0.014700
0.049355
-0.076664
-0.021436
-0.053910
-0.027802
0.086965
-0.025175
-0.054617
0.075727
0.012835
-0.055097
0.010953
0.087558
-0.020475
-0.083841
0.000405
-1.064852
0.447545
-1.239032
0.063763
1.687132
1.567948
-0.601698
-0.270779
0.433173
2.081555
0.425711
1.018389
-0.197869
-1.997849
0.891263
-2.366030
-0.530667
-1.070947
2.375097
-0.763065
0.101807
-0.088612
-0.325740
-0.519828
0.374685
0.186194
-0.193199
-0.108001
-0.407353
-0.059163
0.027039
-0.211649
-2.307160
-0.980925
-0.482394
0.644813
-0.463320
0.103399
-1.133689
0.253459
-0.218394
1.044704
0.578672
-0.412049
0.207289
0.859987
-0.029342
0.125630
0.693592
-0.329824
1.074079
0.474988
-0.824994
0.465097
-1.119595
-0.369275
0.500124
0.340962
0.038185
0.272638
-0.036108
-0.691080
-0.108765
0.582648
0.950366
1.132335
-0.160440
0.921182
-0.180512
-0.455167
0.607957
0.618929
0.538326
-0.451695
-0.473318
-1.090902
0.334657
0.269206
0.538680
0.018802
-0.505326
-0.167520
-1.186360
-1.694084
-0.164635
-0.256526
0.071116
-0.357953
-0.291263
0.477356
0.840029
-1.091156
0.613322
1.220200
0.917263
1.020582
-0.652431
-0.591015
0.063817
0.001581
0.397701
0.142952
0.292108
-0.243478
0.302389
-0.426265
-0.480391
0.211869
0.311865
-0.390211
0.541775
0.012845
-0.417889
-0.012386
0.108221
0.737132
0.561341
0.093736
-0.844367
-0.170417
0.357531
-0.438093
-1.468661
0.600612
-0.406076
0.862637
-0.696977
-0.644368
0.021593
