-4.991381
-5.970183
-5.491144
-5.888048
-5.935212
-4.436753
-5.680209
-4.819314
-5.260256
-5.530656
-5.710416
-6.973979
-5.985481
-5.713185
-5.182189
-5.499270
-7.407471
-7.213223
-5.735453
-6.763041
-5.538444
-5.897356
-5.760916
-5.926932
-6.748766
-6.474697
-6.002021
-5.888683
-6.050278
-5.673318
-5.510159
-5.837453
-5.682168
-5.656849
-5.892836
-6.063215
-4.981903
-4.441709
-5.259054
-4.951456
-5.609251
-4.199501
-5.955210
-5.125460
-3.863478
-6.002805
-5.420613
-5.800415
-7.209934
-5.559070
-5.223469
-6.091917
-6.024520
-5.684524
-5.164166
-4.193154
-5.459551
-6.218966
-5.995265
-6.961479
-5.860678
-5.651472
-5.639521
-4.871585
-6.100844
-6.120857
-7.122448
-5.338926
-5.609848
-6.887799
-5.518220
-6.076752
-7.024411
-5.685339
-5.850916
-6.821043
-4.831501
-5.812505
-5.867429
-5.957792
-5.788711
-7.463682
-5.924153
-5.999445
-5.356823
-5.245785
-6.873916
-5.273343
-5.050934
-4.170196
-5.367600
-5.555197
-6.139125
-5.973406
-6.994842
-6.740023
-5.205434
-6.098548
-5.724252
-5.283698
-6.177584
-5.865760
-5.661860
-6.114417
-4.934365
-7.130959
-5.349887
-6.131092
-6.131689
-5.609990
-5.897542
-4.952990
-6.999627
-5.380280
-5.757032
-4.648904
-6.038054
-7.002768
-6.018042
-5.310097
-3.994899
-5.247092
-5.550012
-6.497065
-6.373285
-7.128649
-7.033151
-5.760935
-7.144569
-5.780044
-5.261969
-4.921033
-4.849531
-6.312858
-6.357337
-5.797612
-4.535261
-5.821335
-4.937132
-5.084201
-5.739981
-6.177107
-5.647507
-6.370955
-6.918470
-5.285342
-4.941966
-5.656249
-5.928092
-5.548247
-6.193019
-5.677889
-5.815722
-4.439677
-6.008449
-5.507666
-4.751884
-7.217351
-5.274333
-6.825028
-6.003726
-5.958426
-5.380090
-5.809179
-5.551922
-5.001170
-5.708053
-5.741873
-6.400492
-7.103810
-5.871105
-6.812033
-7.067094
-5.804637
-5.442940
-4.174835
-5.385518
-4.893380
-6.436262
-7.014430
-7.027258
-6.252947
-5.596424
-4.850962
-6.454629
-5.629431
-7.386474
-6.099862
-5.547219
-5.796690
-5.728143
-7.076711
-5.629466
-5.749890
-5.962540
-5.510171
-6.730100
-4.607887
-5.872112
-6.032729
-6.032917
-5.851670
-6.882870
-6.869514
-5.411698
-5.506981
-5.649280
-6.610865
-6.072627
-5.005414
-5.252688
-5.029900
-5.974768
-5.797756
-5.796928
-6.747056
-7.073105
-5.464783
-5.302980
-7.087088
-7.220775
-4.855020
-4.238869
-7.188668
-6.917320
1.250105
-2.129900
-0.280203
0.051866
-1.629640
2.467750
-1.377269
0.202790
0.608485
0.059799
-0.401619
0.418046
0.869726
-1.545802
-0.590859
1.641257
-1.455646
1.097685
-1.054991
0.043771
-0.152023
-1.003654
0.050918
1.161869
2.073959
-0.619940
-0.862211
1.378224
0.798018
-1.775066
-2.118208
0.390032
-2.498506
0.812515
1.154403
-1.022946
0.223882
-0.312443
-0.751933
0.031929
-0.224625
-0.503595
-0.444876
0.800204
-1.197809
1.023277
0.582015
-1.998668
-1.286044
0.718285
-1.168916
0.233913
-0.250962
-0.756914
-0.944058
0.457064
0.394299
1.879207
-0.170286
-0.962658
-0.692081
-0.471552
-0.346900
1.157275
-3.602743
-0.024055
-0.269594
-0.352721
1.449643
3.767372
0.002835
-2.274806
0.352767
0.900433
-1.057351
-0.212649
0.377519
0.553339
-0.824767
0.249439
0.030476
-0.835433
-0.154987
-0.213577
-0.627217
-0.889623
1.569604
-0.937330
-0.587412
0.046409
1.045840
0.674134
-2.564813
0.661165
0.643571
-0.040260
-0.046210
0.209415
0.503649
-2.273063
0.395515
-0.457556
0.054523
-0.314776
1.154589
-1.793080
1.684435
-2.234643
1.872336
0.880793
-1.462600
-0.246940
-0.807264
-0.061572
-0.059656
0.289833
0.142307
-0.941831
0.815285
0.215486
-0.002701
0.244015
0.182877
0.458025
0.977073
-0.469438
0.331702
-0.570103
1.750539
-1.667745
-0.658349
0.747512
-0.082350
1.027591
-1.811054
-0.752819
2.801697
-0.319569
-0.173155
-0.503368
0.805135
-0.326001
-0.085777
0.964086
0.606528
0.695569
0.596130
2.172789
-0.448674
-1.169732
0.262923
-2.834100
-0.260703
1.211715
1.042355
-0.291336
0.082173
0.431616
0.504347
-0.696871
1.074653
-0.087101
0.617716
1.535211
1.616022
-3.249798
0.265914
-1.738477
-2.004925
-0.818306
-0.907447
0.259041
0.160243
1.699270
0.422741
0.010308
-1.605531
-0.399932
0.120316
-0.812393
-1.607926
-2.308885
-0.017315
0.139634
-1.750195
0.871305
0.879971
0.739350
-0.513258
0.099073
0.686320
0.498546
1.197871
-0.509918
0.838632
-0.350706
-1.741085
2.195129
0.329994
0.597897
0.642912
0.071697
1.274217
-0.530035
0.004938
-0.994177
-1.805778
2.317907
0.415582
-1.400787
-0.700560
-0.131338
-0.814443
-0.280703
0.784314
0.158648
0.389060
1.304333
1.100658
-0.859613
0.187439
-0.087153
-1.283676
-0.683289
-1.183933
1.397731
-1.744899
-0.522743
0.403093
-1.454380
0.936798
-0.831049
0.223788
0.528688
0.087408
-0.682642
0.433411
0.122802
-1.614630
-0.522449
1.954729
-1.887490
1.057084
-1.173794
-1.237974
1.029854
-1.604085
0.062426
0.516744
0.057004
-0.592465
-0.447754
0.993246
0.117046
-0.233235
-1.358264
0.017335
-1.176569
-0.369514
0.172196
-1.641414
-0.168275
-0.070856
-1.438697
0.107715
-0.116777
-1.144848
0.179908
0.263139
-0.874522
1.118725
-0.022624
-1.389403
-2.086111
0.181864
-1.251487
0.664448
-0.899305
1.416284
-1.195279
1.282452
-0.012014
1.170788
0.252772
-0.227392
-0.662991
0.219511
-0.462989
1.095788
-4.065494
0.286364
-0.207240
0.154136
0.158518
2.790497
-0.198655
-2.860521
0.494893
0.315494
0.675794
-0.474890
0.429934
0.368681
-0.518089
-0.178913
-0.254461
-0.844441
1.042352
-0.976559
-0.716638
-0.653347
0.895095
0.181185
-0.647392
0.181138
-0.096020
0.249223
-1.376625
-0.743904
0.476232
-0.854869
0.417225
0.384123
0.641170
-0.314655
0.535251
-0.161110
0.183185
-0.938523
1.450874
-1.523587
1.107962
-2.121854
0.424772
1.341146
-0.632910
0.363951
-0.367682
-0.558725
-0.622602
0.561723
0.032505
-0.691268
1.115340
-0.036787
0.374827
1.239238
0.204615
1.657848
-0.143311
-0.358947
0.648051
-0.041768
0.379237
-0.263113
-0.452282
0.770438
-0.025343
1.177516
-2.043105
-1.600718
2.953357
-0.763034
-0.054966
-0.915637
0.903590
0.675761
0.405832
1.134040
-0.523726
0.405826
0.681760
2.227598
0.204911
-1.022234
1.161805
-0.584264
-0.611314
0.970711
0.522534
0.384956
-0.002504
0.884945
0.741324
-1.282687
2.570634
-0.185689
0.025281
0.999698
1.363806
-2.833750
1.142878
-2.390557
-1.626088
-0.521951
-1.201270
-0.410813
-0.758184
3.005164
0.667468
0.604852
-0.657724
0.071617
-0.520675
0.669266
-1.945215
-2.612831
0.980532
-0.022774
-2.210629
0.883927
1.278676
1.806510
0.499773
0.055597
0.722017
0.883553
-0.845281
-0.055558
0.839114
-0.022664
-0.739149
0.826086
0.362656
-0.293019
1.166351
-0.703496
0.552102
-0.788541
0.636243
-2.167717
-2.551047
0.884480
1.386157
-0.486211
-1.083708
-0.172873
-0.570003
-1.018334
0.200013
0.393192
0.313662
2.396814
1.091268
-0.961449
-0.281612
-0.170434
-0.590217
-1.362139
-0.256893
2.016043
-0.949020
-0.789720
0.829752
-1.293205
0.866303
0.255166
0.403285
0.650995
-0.202148
-0.358959
0.248129
2.375685
-1.310279
-1.398453
0.150952
-2.331724
0.558037
0.090890
1.261341
1.412474
0.515387
-0.106323
-0.080359
1.465437
-0.720126
0.583199
0.981445
0.178106
0.962147
-1.187315
0.000650
-0.443622
-1.031746
-0.791419
-2.148102
-0.098811
0.052086
-1.003365
0.086806
-0.138850
-1.254652
0.464683
-0.386693
-0.119546
0.546063
-0.936773
-1.292027
-1.312412
0.275656
-1.696028
-0.061503
-0.131452
0.279504
-0.909123
0.602898
-0.687928
0.823564
-0.270717
0.439583
-0.923680
-0.529726
-0.353043
1.204111
-2.151422
0.891680
0.747048
0.375276
1.354613
-0.753834
-0.956821
-1.926778
0.877101
0.959569
1.879428
0.203149
0.114960
0.936876
1.631048
-0.912683
0.227037
0.153818
-0.233192
-1.893992
-0.588807
-0.325436
0.973473
0.128630
-0.731111
0.913385
-0.598586
-0.628294
-0.754572
0.192838
1.725615
-1.314707
0.468967
-0.565991
0.786154
-0.636826
1.063272
1.000939
-0.737654
-0.240314
1.055167
-1.023591
0.362374
-1.626839
1.165695
0.843007
-1.618288
0.128049
1.322091
-0.416235
-1.123089
-0.380162
1.026411
-1.409959
1.256595
0.095371
0.577055
1.523434
0.590635
0.081894
-0.608566
-0.528102
-0.121593
0.461984
0.564943
-0.599449
-1.261979
0.406152
-0.196974
0.577190
-1.639431
-0.692537
0.893082
-0.250742
-0.233361
-0.186065
-0.881843
1.845818
0.308616
1.081505
0.770962
0.288429
2.237020
2.091331
0.071770
-1.266738
-0.034018
-0.719789
-0.609077
-0.002810
1.438927
0.898255
-0.374920
0.086869
1.273831
-1.472050
2.252130
1.315195
-1.179365
0.450209
1.323137
-1.338553
0.301504
-2.303357
-0.676621
-0.193797
-0.266319
0.450902
-0.872469
1.870798
1.125058
-0.235787
-1.025367
0.865184
0.245319
-0.093925
-1.242289
-2.894553
-0.031385
0.984143
0.273948
0.647621
0.111852
1.603564
-0.255173
-0.505516
1.073640
0.482070
-0.084767
-1.310849
0.187958
1.122042
0.211236
0.803692
-1.025758
-0.363867
1.604437
-1.272088
0.539095
0.041595
0.642560
0.301496
-1.631623
1.484587
-0.404765
-1.079556
-0.388108
-0.123450
-0.714407
0.144621
0.586702
-1.440632
0.188700
0.900711
0.744756
-0.913584
0.984286
-0.141163
-0.852762
-1.167568
0.410271
-0.517916
0.296542
-0.896351
1.230907
-1.993687
0.038824
0.734210
0.091705
0.240223
-0.563430
-0.942555
0.051845
0.775260
-0.642406
-1.896099
-0.420853
-2.848333
-1.273882
0.132286
1.383594
-0.150192
1.014014
-0.957098
0.472444
1.220708
-0.714967
1.176878
0.721459
0.359734
-1.206275
-1.149688
0.061363
1.231662
-0.636074
-0.812402
-1.966087
0.276383
-0.088691
-0.118907
0.000885
0.110145
-0.219936
-0.413656
-0.330496
-0.554269
1.292371
0.299131
-1.696746
-0.156640
0.568138
-0.339965
-0.351674
0.444877
1.306641
-0.877030
-0.337071
0.361914
1.655678
0.625900
0.348228
0.159961
-0.333054
0.075100
2.125026
-2.625874
0.037166
-1.244186
0.182301
1.220357
0.133256
-0.396185
-1.749698
0.989606
-0.286293
1.283999
-1.397439
-0.120424
0.575248
1.064877
-1.564517
-0.579410
-0.787024
-1.527426
0.558722
-0.685020
-0.294413
1.135225
0.718661
-0.846687
-0.001180
-1.573440
-0.720419
-0.387660
0.343522
2.105407
-2.108321
0.719317
-0.171732
1.116434
-0.173205
0.297088
0.666338
0.509319
0.665805
2.404894
0.499921
0.912502
-0.916942
-0.923222
0.937969
-1.864174
-0.215710
-1.035022
-0.226917
-1.198304
-0.591917
-0.416118
0.238562
0.584897
0.417829
0.995627
1.825042
0.438074
-0.577093
-1.236876
-0.951080
0.449454
0.546172
0.559937
1.908100
-1.572930
0.513441
-0.055696
-1.402786
-0.586111
-0.697783
2.058230
1.553326
-0.279118
-0.421957
-0.102909
-0.204582
-0.052620
0.532607
0.062566
-0.386055
0.752423
1.184233
0.331539
-1.152785
-0.392325
-0.064300
-2.177348
-0.809262
-1.049192
0.840338
-0.185036
-0.197919
0.577205
-1.697871
2.355185
1.477364
0.265988
0.368391
1.236490
-1.371267
2.030881
-1.826839
-3.095626
-0.804915
0.121676
-0.285865
0.976846
-0.216681
0.703020
-0.001007
-1.127314
1.497746
0.377477
-0.069876
0.911322
-2.726152
0.005762
0.801565
1.470616
0.498961
-0.313128
0.981688
-0.293987
0.155374
-0.792840
0.607731
-2.041864
-0.727364
-0.122346
1.029630
0.428146
1.145267
-0.158326
-0.760114
1.073980
-0.809040
-0.216751
-1.397965
0.337243
-0.937606
0.983468
0.062073
-1.437117
-0.983986
-0.847925
-0.316674
-0.632356
0.767370
-0.435974
-0.149732
0.746224
1.364254
-0.369570
-0.848922
0.745142
-0.041149
-0.765197
-0.959482
-1.041718
0.108646
0.052316
-0.915136
0.300256
-3.019104
-1.437571
0.077366
0.311936
-0.609387
1.798925
-0.668437
-0.188975
0.519083
-0.983168
-1.208073
-1.884822
-2.143224
-0.538638
-0.096501
0.728501
0.782885
0.219679
1.183797
0.199143
1.053213
-1.047916
-0.081048
0.623650
-0.123482
-0.148034
-0.895126
0.375420
0.985577
1.364526
-1.189815
-0.825385
0.163132
0.271808
0.357271
0.018953
0.336265
0.939171
0.360319
0.338939
0.060998
2.507105
-0.515813
2.075037
-1.707792
0.617728
-0.118875
0.164241
0.363857
0.726878
-0.234229
0.589066
2.713688
1.076387
0.111950
1.342252
-0.043825
-0.047434
-0.697547
1.843533
-3.400215
-0.042471
-1.710935
-0.036481
1.172266
-0.182640
-0.188510
-1.786549
0.619496
-0.228779
-0.280693
0.598067
-0.061857
0.722397
0.095786
-1.148653
-0.400002
0.774156
1.165684
0.000058
-0.399591
-1.195395
1.706067
0.229257
-0.960039
0.187960
-1.268551
-0.817598
-1.720677
1.017087
1.630812
-0.296937
-0.746733
0.810060
0.356150
-0.183700
0.589975
0.618709
-0.023974
-0.015467
2.552234
-1.115493
0.655472
-2.299690
0.990575
-1.909102
-1.692194
-1.366585
-0.383940
0.329833
-0.729410
-0.300233
-1.032253
-1.058982
0.637033
1.476990
1.605114
1.793787
0.279197
0.491621
-0.361561
0.617773
-0.171293
0.048053
0.327004
0.409275
-1.458327
0.467909
0.070995
-0.786754
-0.648485
-0.957068
2.376351
0.876415
-0.305345
-0.025499
0.234783
0.065204
-0.182943
0.360370
0.575245
-0.670656
-0.094491
0.651311
1.363772
0.317777
-1.046258
-0.557378
-0.873144
-0.427607
0.491775
0.405327
-0.122491
-0.291374
-0.400773
-1.475665
0.851381
1.272063
0.487727
-0.477934
1.873681
-2.345428
1.028697
-2.090035
-2.053394
-0.935542
-1.041410
-0.770983
0.140785
0.353628
-0.522707
-0.550597
-0.901242
0.137539
0.108131
0.258810
-0.997818
-0.850584
0.334680
-0.727661
1.005546
0.906706
-0.257285
0.730112
-1.128206
0.039537
-0.403842
-1.147849
-1.281022
-0.122545
-1.365849
-0.009141
0.147481
1.938110
-0.607977
-0.777081
0.433199
0.177588
0.733766
-1.554339
-0.238652
-1.279822
0.006045
1.369174
2.382019
0.347680
-0.448738
-0.588800
-1.344793
-1.428399
0.532923
-0.438119
0.630406
-0.255810
-1.288537
-1.298244
0.560163
-0.019404
-0.983076
-1.422916
0.345940
0.810429
1.136571
0.635891
-0.285273
-1.466716
0.389972
-0.820298
0.155170
-0.101929
1.443242
-0.107020
-1.863150
0.661295
-0.083167
0.431413
-0.527812
-1.425789
0.725708
0.448233
-0.394927
0.580631
0.069983
-0.030033
0.549063
0.071886
-1.716806
1.199165
-0.753279
-1.040445
0.847487
-0.160088
-0.383420
1.646973
0.155140
-1.247291
0.855335
0.213035
0.100809
0.327632
0.021234
0.258306
0.925421
0.884151
0.703910
-0.606008
1.431022
-0.339603
0.187616
-3.327178
0.417951
0.264685
-1.019257
0.197024
-0.110265
-0.913406
-0.627672
1.674722
-0.701558
-0.520413
-0.211194
-0.832651
-0.874131
0.489825
1.382244
-2.180720
1.470491
-0.862634
0.136766
-0.372710
0.736549
-1.245180
-1.242316
1.680744
1.951133
1.136131
-0.034336
0.553879
0.130559
0.552253
-1.359265
0.442851
0.981243
2.537246
-0.219687
0.761715
-0.030555
0.773511
0.603341
-0.184142
0.350984
-0.427048
-1.140855
-1.875882
0.035613
1.539074
-1.659542
-1.394184
1.238562
0.307111
1.154458
0.447606
-0.586132
3.593341
-0.553833
-0.184682
-0.413399
0.994054
-0.520405
1.826944
-1.770697
-1.155281
-0.549151
-0.731476
0.487495
-0.282402
0.248791
-1.221575
-0.584334
1.302988
0.461571
0.970565
1.201702
-0.134110
-0.396890
0.188231
-0.548210
0.772720
-0.941209
-0.401987
1.207047
-1.318478
0.007043
-0.076946
0.723667
0.161760
-0.073739
2.461258
1.189034
-0.169260
0.001420
-1.765823
1.217883
-1.081658
0.577948
0.767562
-0.566174
-0.610403
0.061838
1.260358
-0.025624
-0.968518
1.964923
0.071246
0.062348
0.540975
0.892535
-0.144192
0.221440
0.978434
-3.740255
0.986401
-0.298847
1.627675
1.159053
-0.015697
0.963119
1.063709
-2.376173
-1.048723
-0.367947
0.436939
0.054409
0.451882
-1.005913
-2.165481
-0.981600
0.410833
0.053757
1.292793
-1.814603
0.144303
-0.496702
0.255399
-0.900723
0.901926
1.109134
-0.657468
1.382804
-1.035270
-0.560830
0.262010
-1.552057
1.372086
-1.006562
-1.156980
1.596540
-0.867007
-0.240684
0.553370
-0.329896
0.999355
-0.164253
-0.392998
-0.519568
-0.082166
-2.299948
0.054077
0.684621
0.653636
1.053910
-0.711716
-0.346856
-0.943408
0.000347
-0.222707
-0.396958
0.741236
-1.510504
-0.193692
-1.894340
1.425640
-0.060932
-0.280867
-0.399111
0.885764
0.899629
0.504098
-0.213172
-1.432015
0.172331
1.497773
-0.351799
-0.097369
-0.723107
1.703487
-0.818705
-0.277582
-1.717110
-0.609553
0.069970
0.452656
0.001167
-0.184393
0.175366
-0.726475
-2.100296
1.089582
-0.213174
-1.321156
-1.432064
-0.243631
0.194688
0.387749
-0.685149
2.351833
-0.352122
0.058448
1.604480
0.585209
0.873613
-0.904472
0.133641
-0.062251
-0.306747
-0.019630
0.166759
-0.591649
0.716685
0.643184
-0.270350
0.732309
0.825225
-0.057985
-0.912308
1.105497
-1.323405
-2.522841
0.644092
-0.041715
0.998415
1.153731
0.412903
-2.499559
-1.462540
-0.977777
0.095678
-0.117521
-0.533135
1.559718
-0.336904
0.071328
-1.893623
-0.092183
-0.621861
0.951220
-1.341702
-0.048835
-0.664729
-0.874903
1.274084
-0.691136
-0.078921
-1.957767
0.979291
1.163706
0.053220
1.204756
1.329648
1.568757
-0.080685
1.027018
-1.189673
0.466497
-0.233871
0.451632
-1.347958
-2.097602
-0.199496
-0.492957
-0.128063
-0.178875
-1.562211
-0.408694
-1.145821
-0.480643
0.010670
1.113467
1.607019
-0.895841
-0.484508
-0.871711
-0.982090
0.295762
1.879061
-0.562801
-1.466687
-0.414896
-1.426546
1.026368
0.698401
0.145235
-0.822696
0.141951
0.260237
1.174603
0.168322
1.235830
0.329521
-1.214560
-1.102441
-1.138383
-2.957963
-0.147633
-0.306398
-0.866921
-0.562969
0.070876
0.001952
0.848424
0.297418
0.650809
-0.033924
1.607337
-0.106322
0.015899
-1.297539
0.000847
-0.856878
-0.609930
1.695668
-0.525970
0.049221
-0.752483
-0.129780
0.143923
-1.845064
0.997166
1.177830
-0.057108
0.249668
0.567858
-0.259196
-1.223642
0.352972
-3.127193
-0.234191
-1.142753
1.056264
-0.448077
0.934676
-1.038074
-0.181465
-0.774342
-2.547457
0.241536
-1.000107
1.077970
1.539139
-0.072658
-1.298215
0.688308
0.731304
0.549316
0.853061
-0.588710
-1.511247
0.096472
-0.243777
-1.410528
0.189849
0.407581
-0.490684
1.460329
-1.537519
-1.057047
0.107554
-0.689214
0.942987
0.932488
0.669891
1.132756
-3.165155
0.426699
0.665345
0.382646
0.373034
-1.759802
-0.044726
0.779047
-0.191763
-0.010713
0.518770
-1.296653
1.391149
0.064253
-0.470515
-0.175165
0.002256
0.102331
0.321252
-0.318845
0.712084
-0.031652
0.823266
-1.310480
-0.199151
-0.230880
0.303943
-0.495954
0.090997
-1.639146
-0.547973
-0.501088
-0.316259
-0.974875
0.524074
-0.036845
0.068049
-0.649691
0.067390
-1.430510
0.031578
-2.162279
-0.044014
0.224381
0.113677
0.124082
0.926700
-0.752385
0.672514
-1.562374
-0.330948
-0.849400
-1.113733
-3.197026
-0.224642
-1.813041
0.844560
-0.079319
-0.386736
-0.553816
-0.161011
1.254461
0.030959
-1.920129
0.314357
-0.049493
-0.609666
-0.556965
-0.115578
0.182751
-0.349195
-0.312094
0.263496
1.155516
1.609835
-0.067929
1.249665
-1.569033
0.622548
-1.559173
-1.583740
0.564325
-0.875642
1.115223
0.423597
0.524104
-0.010735
-1.469778
0.884244
-0.625841
-0.819876
0.154633
1.065070
-0.196542
0.267441
-1.336881
-0.564391
-0.285022
-0.570205
0.019003
-0.360914
-0.876697
-0.072150
1.473839
-0.200022
-0.157151
-1.703103
-0.454544
2.037797
0.417675
-1.174948
1.129370
-1.280882
-0.752556
0.220966
-1.135747
0.223741
-0.121650
0.466524
-1.105924
-1.841690
-0.335341
0.120372
1.762175
1.303213
-1.071859
0.535440
-0.406589
-0.736253
0.154444
0.719886
0.810381
-0.868941
1.672347
-0.455775
-0.202978
-0.702932
0.983245
-2.188846
-1.215596
0.104990
-1.209571
1.084068
-1.250540
0.031742
-0.826761
-0.077023
-0.409216
0.415628
-0.644866
-0.408241
2.016384
-0.549964
-1.276553
-0.505079
-2.485306
-1.361290
0.041358
-1.531575
-0.019728
0.630374
-0.009299
-0.872858
1.515149
1.329621
1.077460
1.373586
0.400410
-0.133047
-1.882705
0.173784
-1.397258
-0.700286
0.786922
0.197382
-0.947783
0.816572
1.854868
-0.193264
-0.413136
1.459679
-0.393618
0.307607
0.046359
0.423613
-0.370240
-1.476316
1.086786
-2.427003
-1.146834
-0.970356
1.376758
-0.972242
0.328605
-3.386000
-0.986443
-1.073424
-0.608780
-0.557438
0.034939
1.993836
-0.231548
-0.712100
0.480043
2.133738
0.957948
-0.281182
1.088187
-0.574471
-2.182030
-0.439648
0.210425
-0.965678
0.422057
0.744066
0.478754
1.047514
-2.669503
0.181621
-0.342743
-0.201463
-0.585990
0.997416
-0.122204
0.447212
-2.286794
-0.541691
0.726989
0.684750
-0.707400
-1.634223
-0.668039
-0.459273
-0.825706
-0.143942
-1.280929
-1.564780
-0.175037
-1.287619
-0.153323
-0.104264
0.431489
-0.108511
0.004826
-2.213694
0.594864
0.579315
0.498264
-1.966566
0.754359
-0.208575
0.347311
-1.022121
-1.206652
-2.059665
0.651469
-0.638910
0.015818
0.021612
0.594066
0.586493
-0.195832
0.516937
-0.457174
1.399909
0.168998
-1.252487
-2.431664
0.201845
0.040560
-0.297277
-0.009202
-1.699933
1.683039
0.308836
-1.427363
1.017252
-1.486479
-2.971814
-0.529368
0.835362
-0.076756
-0.269732
-1.358398
-0.859791
-2.104588
2.446952
-0.441203
-1.208285
0.268545
0.181752
-0.904711
0.306715
-0.109056
0.500537
-0.460012
-1.208716
-0.379013
-0.229873
0.539617
-0.584307
0.734826
-1.517362
0.254493
1.056403
-2.260597
0.414701
-1.258655
0.143675
-0.947476
0.302388
2.005640
-1.778285
-0.498380
0.523405
1.649220
1.337059
1.668665
-0.898224
1.169770
-1.603493
-0.024831
1.050239
-1.305372
0.851548
-0.603934
-0.041693
-1.399379
0.312282
0.612302
-0.081357
-1.306888
0.046792
0.809716
0.570974
-1.412660
-0.302007
-0.142467
0.216186
0.496061
-0.873828
-0.360898
-0.157304
0.724297
-0.506719
-2.658397
0.640805
-0.362234
0.707008
1.458686
-0.512438
-0.596754
1.438679
-1.190040
0.906677
-0.468060
0.164189
-0.122195
1.407225
-0.358633
-0.253409
-3.080930
0.262627
-1.877971
0.413029
0.767335
-2.178942
1.405248
-0.861182
-0.044671
1.196269
-0.290921
-0.517092
-0.286505
-0.884058
0.041397
-0.169649
0.102333
-2.622651
-1.025547
-2.281463
-1.966340
-1.910493
-2.913800
0.289950
0.473034
-0.115139
-2.380637
0.933019
1.667486
1.842861
0.620474
-0.057108
0.329721
-1.118818
-1.458348
-0.851766
-0.301711
-1.032608
0.219767
-3.343184
0.385146
0.493547
0.179131
-1.701216
0.341538
-0.150691
-1.827976
-1.459599
-0.604454
-0.247748
-1.821759
1.434896
-0.732637
-2.028334
0.073134
1.287046
-0.617681
-0.155729
-4.671690
-2.153204
-0.537336
0.409337
-1.234985
0.780473
0.437612
0.739179
1.319152
-0.408230
2.124118
1.278650
-0.104942
1.802554
-1.773719
-3.331222
-2.130961
0.610278
-1.259018
-0.664291
-0.026559
0.304053
0.301844
-1.813728
-1.227889
-0.575273
0.020602
1.445678
0.968127
-0.397216
0.045997
0.526625
-0.578316
-1.926930
0.340781
0.323197
0.643856
-1.776120
0.507801
-0.721397
-0.130227
-0.299651
-0.828136
0.274286
-0.087878
-0.035230
-0.676844
1.001492
-0.429532
-0.308882
-1.823089
-0.327288
0.047920
-0.721126
-2.296982
0.721554
0.130388
0.673376
-0.407677
-1.527425
-2.154330
0.233913
-1.027538
0.906585
-0.210069
-0.097586
1.086576
-0.444875
2.289574
-0.248872
1.232845
-0.943358
-1.692433
-0.704967
0.225311
-1.711260
1.246989
0.706560
-2.016627
1.302840
0.137304
-0.137137
0.734645
-0.257173
-1.193413
-0.017334
0.527230
-2.152266
1.247065
-1.433771
-0.840879
-0.845141
1.712267
-0.540185
-1.939764
1.006339
0.571378
-0.874191
-0.507670
0.017984
0.118281
-1.786887
-0.959452
0.289490
1.008574
-0.439182
-1.643610
1.749911
0.426035
-0.962010
0.402767
-2.446807
0.687595
0.111710
0.877769
0.127137
-0.008716
0.203314
-2.526362
0.000343
0.658391
1.376836
1.693707
2.191141
1.769815
0.727783
-2.795397
0.746965
0.206634
0.620867
-1.171510
-0.949407
0.927061
-0.339871
1.108274
0.936053
-0.145884
-2.724462
0.677595
-0.031822
0.850519
-1.123680
1.004192
-0.530100
1.958542
0.783483
0.384647
0.339883
-0.762788
1.702085
-0.986708
-1.031534
-0.873414
0.271203
1.220684
-0.154621
-1.590336
-1.247802
1.516382
-1.250294
0.628717
-3.406185
0.383711
-0.999931
0.624556
-0.541784
0.524315
-1.247294
0.516598
-1.411523
0.073846
0.687321
-2.614095
0.907381
0.004548
0.307522
1.881916
-1.506444
-0.878554
-0.464109
-1.331747
-0.653633
-1.838007
1.649219
0.340355
-0.167869
-1.805358
-0.184909
-0.303800
-2.696413
-0.124878
-0.305377
-0.021074
-2.629557
0.808712
2.046421
0.633991
0.268417
-0.784426
1.076317
-0.916628
-0.473464
-1.480032
-0.075725
-2.169247
-0.177980
0.900512
-0.381079
-0.423046
-0.408030
-0.053449
-0.436843
0.386463
-2.130767
-0.648396
-1.971042
-0.189434
-2.077672
1.764132
0.090168
-1.566198
-0.198582
-1.241114
-1.824903
-0.728064
-1.750963
-2.699458
-0.012638
0.043013
-0.467052
1.190212
-0.019800
0.890660
-0.360380
0.937430
0.088271
0.436116
-0.915172
1.396150
-0.332651
-3.057085
-0.889569
-0.318904
1.481182
-0.618627
0.388575
0.005270
-0.292019
-1.113115
-1.331757
0.723428
1.113337
1.010968
0.238467
-0.914557
-0.948711
0.279471
-0.782867
-2.050717
-0.597816
-0.100546
0.878851
-1.279148
-2.117635
-1.011130
-0.614841
1.114101
-0.972181
-0.323209
0.933197
0.735234
-0.444554
-0.560584
-1.548731
-1.109773
-0.231273
-0.665791
-1.791352
-1.679907
-1.959175
-0.477616
0.137261
0.567745
0.270749
-3.140268
-2.335670
-0.147555
-0.978866
0.703351
-0.987190
-1.189569
0.595106
-0.569247
0.995485
0.306227
-0.246327
-0.933560
-0.438699
-2.387068
0.167907
-0.872191
-0.148060
1.958400
-0.292459
-0.028358
1.167220
-1.138759
0.601405
-0.508865
0.493847
1.174618
-1.310970
-1.047365
-0.707635
-0.937165
-0.335787
-0.947579
1.338110
-0.572879
-1.437863
0.473703
-0.360092
-0.421973
-2.078107
-0.116594
0.445016
-3.167831
-0.703870
-1.248515
0.810385
-0.851469
-1.288770
0.974463
0.092421
0.963250
-0.131360
-0.425994
-0.055387
0.982078
1.440250
1.213333
-2.952639
-0.284304
0.461242
0.357186
-0.354939
0.756213
0.719207
0.548984
1.467280
-1.499001
-0.651209
0.246317
0.399016
-0.673281
-3.006246
-1.028985
0.403769
-1.794886
-1.648485
0.990209
0.143522
-2.496379
1.205057
0.161091
1.235480
-0.381437
-0.183391
-2.623149
2.322147
0.875304
-0.656581
0.930528
-0.469371
1.742010
0.150224
-0.213088
0.664178
-0.013393
-0.105182
-0.817304
-0.754140
-1.302518
-0.071700
-0.717609
0.954799
0.620408
0.394316
0.160707
0.326261
-0.615535
0.206432
-2.463585
1.334605
-0.549223
1.564906
0.677483
-2.250357
0.569987
0.305006
0.748096
1.046734
-0.184974
-1.049902
-0.161647
-1.039905
0.513320
-0.462348
0.760503
0.919181
-1.091841
-2.011331
-0.918967
0.617830
-1.191860
0.702762
0.338597
-0.017845
-0.497014
-1.111116
-0.566778
1.436840
-0.296590
-0.772360
1.455881
-1.097647
-1.252785
-0.612621
0.591489
-2.204769
0.727031
0.111624
0.917441
0.715609
0.503388
-0.312335
1.018321
1.229956
-1.724232
-0.919573
-1.112129
-0.415217
-0.839640
1.057727
-0.891121
-0.697822
-0.520219
-0.730488
-0.662387
-0.204436
0.366708
-0.392486
-0.349435
0.599465
-0.993037
0.560449
-0.303664
0.493335
2.098986
-0.748407
-1.527890
-0.857827
-0.670827
1.000785
1.357617
-0.525992
-0.531657
0.660837
0.881775
0.477596
0.486558
0.326950
-0.934581
-0.789597
-1.010407
-0.921326
0.158001
2.167798
-0.460681
-1.214568
-0.298907
0.948856
-0.254355
0.899301
0.933295
-0.201322
-0.809149
-0.858825
-1.344365
0.173441
-0.852803
0.520293
-1.998280
2.316408
0.196757
-0.143747
-0.433060
-0.646918
-1.412978
0.429924
-0.781924
0.249467
-0.506582
-1.960745
-0.304386
0.805254
-0.668268
1.662503
0.791070
-0.327357
-1.263733
-0.587416
-1.170068
1.398127
1.082967
0.731376
0.571239
-0.690971
0.725908
-0.136560
-2.044789
-1.232666
0.216667
-1.269435
-0.751761
-0.569779
-0.792073
1.579591
0.304431
0.665194
0.990498
-0.416787
1.358408
-0.072209
-1.058521
-0.171302
-0.157668
-2.118977
0.218242
-1.042122
0.524476
-0.500397
1.875870
-0.630694
1.809715
-0.263957
-1.190116
0.680660
-0.666099
-0.205700
0.184632
-1.050503
1.450033
-1.605474
0.214815
-1.363118
-0.729244
0.474847
-0.780660
-0.728690
-0.858252
0.067838
0.340882
1.001477
1.756698
0.487386
-1.413694
0.063389
0.156687
-1.769789
0.315046
1.212874
0.846094
-0.336777
2.090563
-0.956392
-1.519219
0.563376
-0.031263
-0.963385
-1.756577
-0.716411
-0.407150
-0.594401
-0.140439
-0.477929
-0.060650
-1.904358
-3.200511
0.396176
1.584232
0.010816
-1.010925
-0.488130
0.413820
1.170861
-0.445089
0.718969
-0.125912
2.725711
0.566809
0.615212
1.461448
0.402499
-0.989434
0.088369
0.141980
2.342603
-0.332265
-0.558696
1.224959
-0.089116
1.301134
1.689548
0.253716
1.000849
-0.496267
-1.482208
-0.596461
-0.112020
-0.434188
0.759112
-1.739873
-1.497605
2.087210
-1.199584
0.427518
0.956170
-0.999312
-1.098718
-0.292249
-0.380750
-0.380432
-0.046517
1.053376
-0.316529
0.019845
1.187881
0.728569
-0.567086
-0.027192
-0.256780
-0.055788
-1.509336
-0.390975
0.070639
-0.911264
-1.221070
-0.415803
-0.071436
-0.087297
-1.501640
-0.037084
0.508332
-1.907511
0.853268
-0.112622
-0.459036
1.061112
0.267285
0.814425
1.600918
2.484912
-0.087405
0.738695
-0.078489
-0.360870
-0.323493
-0.555466
-0.518943
-0.337625
-1.127369
-0.490876
0.794369
-0.149748
2.979054
0.310574
0.646177
1.383829
-1.153343
-0.775526
0.071754
-0.766622
2.173934
-0.939709
-1.483821
-1.127110
-0.782197
0.463057
2.376572
-0.815592
-0.764160
0.700115
-0.216885
-0.777877
1.486094
-0.103870
-1.684765
-2.584286
-0.556830
-0.427950
1.464408
0.408408
0.330606
-0.215957
0.225667
0.837001
-1.094309
-0.222580
0.478347
-1.045018
-1.262474
0.345387
-0.221523
0.372450
0.854717
-0.349418
-1.817497
0.657887
1.574595
-0.362452
0.319061
-0.206011
-0.784305
0.439428
0.252629
-1.195440
-1.586962
-1.020588
1.009754
0.836192
-0.927822
1.527631
0.097514
0.925942
-0.044331
-0.754203
-0.115211
1.592268
1.940480
0.166811
1.001956
-0.343763
1.404807
-0.364565
-1.988726
-1.580589
-0.447049
1.672263
1.374004
-0.549138
-0.966549
1.946399
-0.977423
0.297176
0.522822
-0.618847
0.268818
-1.373370
-0.275799
0.638343
0.059410
-1.697809
-0.486101
-0.404854
1.396408
-0.596765
1.151818
1.358246
1.573001
0.043126
-0.726574
0.980479
-0.728714
-0.279222
0.311103
0.960555
0.621452
-1.096891
-0.131025
-1.348993
-0.588246
0.344431
-2.384059
-0.374269
0.485956
-0.224453
0.243719
0.873202
1.258461
1.552525
-0.453169
-0.985101
-0.735811
-0.106730
1.212256
-0.388090
1.202312
0.411381
1.947414
0.613286
0.948168
-0.024724
-1.091199
1.485813
-1.041687
-1.306106
0.667068
-0.391037
-1.614948
-0.338857
-0.024890
0.127835
0.480630
0.207481
0.782500
1.257854
0.014330
0.711829
-0.673735
1.298228
0.038311
0.873279
0.458309
2.577373
-0.055306
0.778138
0.319817
-1.133909
-0.257098
-0.420798
1.620729
0.329554
0.223479
1.638521
1.264225
-0.161865
1.704615
0.307391
1.719688
-0.449470
-0.303585
-2.234160
-1.859168
1.310825
-0.078578
0.660801
-0.127067
-1.312040
2.593892
-0.818405
-0.984347
0.447839
-0.323073
-0.746976
0.085971
-1.129508
1.197745
0.766416
0.908673
-1.570251
-0.765439
0.672996
0.023860
-0.676752
0.086426
-0.201001
-0.065646
-0.744855
0.090118
0.684077
-2.433240
0.963007
-0.558577
-0.682118
-0.307495
-0.025957
0.413589
0.682656
-0.362476
0.363002
1.136322
-0.430663
2.036527
-0.262669
1.865733
0.646173
0.860252
1.702025
0.843721
-0.697275
-0.181501
0.021772
-1.920944
0.154983
0.253075
-1.623451
1.318729
2.805371
-0.069349
2.779335
-1.246594
1.248585
-0.843967
-1.741629
0.832793
-0.368317
-1.511434
0.629708
-0.900889
-2.962370
-1.024537
-0.659377
-0.063536
1.416863
-1.042779
0.110067
-0.940720
1.315809
2.180119
1.903726
-0.728103
-1.499304
-0.101821
0.743137
0.130778
1.132072
1.611131
0.238141
-0.116714
0.067741
-0.491384
-0.168332
-0.361994
-0.399777
-0.044602
-1.377234
0.381237
-0.647712
-0.083267
1.855665
-1.734526
0.749668
1.908928
0.154019
-1.523260
0.451704
0.035952
-0.080324
2.131223
-0.685627
-0.726924
-0.430231
-0.358660
1.672675
0.987075
-0.890547
0.961076
0.545145
0.773107
-2.503129
-2.379740
0.378734
0.666291
1.307259
0.845593
-3.114181
0.829731
-0.480922
-0.423463
1.012549
-1.296882
0.757434
-1.733912
0.577382
-2.595484
4.944096
1.930382
-0.514248
2.009197
0.784298
2.795708
1.473257
0.394961
-2.293569
0.595161
-1.089300
0.651415
0.457641
1.361429
1.866743
-0.256296
-1.582063
0.213862
0.599212
0.026446
0.631952
0.037465
-0.442613
-0.179380
0.338636
1.101607
2.177668
1.589359
2.732581
-0.264479
1.003423
-0.776181
-2.008121
-2.716948
2.986550
-1.820215
1.231860
-0.602755
0.292746
7.110290
2.463906
0.009648
-1.044049
1.748863
1.397116
-2.870829
2.287851
-3.209179
1.696838
2.553000
1.133801
0.299725
0.744486
2.003888
-1.498226
0.299696
1.869810
0.752315
1.934340
1.279155
0.105420
-0.199448
3.746133
-2.300019
1.680015
1.636288
-2.612544
2.558656
-2.966465
1.009060
-1.127316
1.339628
0.256111
1.581974
-2.953980
1.581933
-1.441649
-5.596127
-2.317843
-0.310115
0.696443
-2.022935
-0.813572
1.274470
1.220224
1.869945
-0.418940
-2.210726
6.430670
3.947666
-1.156236
-0.796384
1.305407
2.446338
-0.520197
-1.154191
2.106109
0.223048
1.429588
0.623050
-2.791838
-2.188962
-2.406168
1.304919
-0.180767
0.300809
3.005876
-2.769094
3.232055
1.771180
-0.301716
2.752773
0.416215
-0.910947
-1.310123
0.827969
0.000578
-0.247813
1.621926
-0.888152
-3.290494
1.171943
-0.132096
-0.388955
0.749519
-0.472436
-2.032956
0.603584
1.248448
0.321490
0.786852
1.208163
2.127460
1.215670
1.032199
-1.709068
0.453512
3.319441
0.116814
-2.194262
0.038502
-0.415190
-3.148851
1.768310
0.770899
-0.449953
-0.215026
-2.393803
1.798553
3.304385
-1.376438
3.393094
0.337340
-1.407941
0.954831
0.384073
0.314063
0.290647
1.555952
-3.735725
-1.790323
-2.811686
0.975631
-0.593931
0.757315
-3.223509
-0.737850
-0.618311
2.222001
2.214389
0.864906
-3.801014
0.407990
1.281444
1.613266
1.314109
-0.134781
-0.504670
-0.468373
-0.130878
-0.327999
0.631180
-3.509192
-1.625926
1.031133
-0.647563
-1.268226
-1.119847
-0.348219
-0.122194
-1.420130
1.651858
4.524979
-0.763158
-1.085869
1.277640
-0.727693
-2.268348
-2.479555
-1.284728
-0.098499
-0.593164
-0.533294
1.681026
0.415669
-0.235417
1.937803
0.471177
1.482578
0.004277
-0.072605
0.043502
-0.088241
-0.058801
-0.067950
0.037913
-0.039190
0.028666
0.062316
-0.030426
0.043409
-0.044813
0.064417
-0.003828
-0.011414
-0.012414
0.024015
0.052027
-0.060656
-0.046892
0.086662
0.043434
0.098625
-0.031400
-0.019136
0.017926
-0.064764
0.090143
-0.034563
-0.007099
-0.005580
-0.007168
-0.063597
0.006178
0.034030
-0.031548
-0.055908
0.094840
0.097119
-0.093592
-0.035586
0.040528
-0.038406
-0.071169
-0.063300
0.050180
0.016417
0.060715
0.002208
0.055761
-0.086177
-0.011130
-0.000805
-0.087552
0.057469
0.080059
0.030374
0.092705
0.070201
0.095810
-0.014394
-0.035379
-0.011358
0.022009
0.070800
-0.077327
0.090462
-0.085108
-0.082487
0.087580
-0.078701
-0.018073
0.028108
-0.017107
0.010758
0.064808
-0.066926
-0.072825
0.025523
0.035281
0.082936
0.039346
-0.075849
-0.017870
0.051794
0.081621
-0.037811
-0.017833
0.074326
-0.067610
-0.022022
-0.040067
-0.002988
0.066620
0.081942
-0.032188
0.089292
0.072403
-0.017297
-0.093195
0.059983
0.004002
-0.011268
-0.011908
0.086896
0.099490
-0.047100
-0.080031
-0.073335
0.078423
0.055251
-0.090399
0.017769
0.079402
-0.008269
-0.030437
0.061023
0.053920
0.051730
0.035349
0.086310
-0.070292
0.095282
-0.016678
0.096327
0.077223
0.051133
0.085620
0.049626
-0.066164
0.092425
0.009610
0.037839
-0.018843
0.097701
0.024734
-0.019353
-0.049399
0.044704
0.007313
-0.070976
-0.000045
0.016914
0.046794
-0.020643
-0.091356
-0.083643
-0.059620
0.062564
0.068087
0.075729
0.048874
0.097794
0.071010
-0.067804
0.094122
0.048233
0.083330
0.079742
-0.002140
-0.082834
0.072167
-0.092531
0.055005
-0.046676
-0.094829
-0.020260
0.033971
-0.044228
-0.075557
-0.058716
-0.015204
0.024398
0.058198
-0.068410
-0.096245
0.066842
-0.052054
-0.055865
0.029407
-0.083967
-0.080137
-0.021719
-0.086172
0.090874
0.010477
-0.092051
0.039107
-0.006193
0.087691
-0.063033
0.010973
0.059858
-0.055564
-0.034022
-0.086818
-0.050393
0.045718
0.047153
0.005378
0.070161
0.088438
0.090175
-0.005441
0.046636
-0.078235
-0.001686
0.013478
-0.030289
0.042449
-0.057116
-0.014256
0.062312
0.021165
-0.000428
0.053186
-0.068357
0.007521
-0.007708
0.025450
-0.004788
0.029259
-0.063577
-0.044930
-0.997362
0.634833
0.380147
-0.334392
1.445370
-1.788528
-0.008662
-0.368736
0.006279
-0.210762
-0.821330
-1.134744
-0.061868
-3.353669
-0.706971
-0.892055
-0.254261
-0.578245
-2.038628
0.451127
0.697134
0.684287
-0.310454
1.456246
3.088745
-1.863979
0.272885
2.693888
-1.058172
-0.105840
-1.187736
0.128058
-1.591321
-0.206327
1.208191
-0.714612
-0.039322
-0.126210
2.303335
0.349729
-0.172704
1.326926
3.042976
-0.265983
-0.320292
0.835148
0.290641
-0.802833
0.349418
0.667812
-0.148177
0.137347
0.597577
-0.997376
-0.955066
0.923319
2.440905
1.367385
0.019994
-0.832226
-2.978595
1.380805
-1.957417
1.089072
-1.852342
0.217785
-1.884427
-0.106842
0.354411
2.862949
1.721673
-0.707640
0.371552
0.846213
2.468220
0.509335
0.546390
0.917809
2.362575
-1.563692
-3.713788
-0.405539
-3.395458
-1.861062
-1.421396
0.221044
2.511657
-0.738623
-0.598292
-0.953413
1.003990
1.503919
-1.578428
-0.876142
-1.098637
-1.092842
-0.684133
0.354340
-0.358759
0.750985
0.239463
2.479846
-0.189767
-0.605068
0.298557
0.683820
-0.674424
0.571811
-0.279203
0.322620
-0.401871
-0.351505
0.368298
0.257478
0.470193
2.164103
-1.141224
-0.389255
-0.683473
-0.676643
0.144259
1.958975
0.010423
0.370535
2.134582
0.817522
-0.158572
0.704661
-0.494799
1.368807
-0.636212
-0.172470
-0.167543
-0.143320
-2.840784
-1.617312
0.952581
0.235964
0.388761
-1.219890
0.192007
0.565258
0.294834
0.128299
-1.008875
0.044852
-0.735443
0.962978
0.499758
0.038210
0.139175
-1.768479
-2.697046
0.390615
0.808222
0.379595
-0.211253
1.726826
-0.173873
0.169837
0.234746
-0.495939
0.756905
-0.019897
0.846407
3.033731
0.120219
0.189479
-1.105326
-0.570920
0.282837
-1.108606
0.568306
-0.336121
-0.633336
0.311173
-2.837545
-0.925540
-1.217960
-0.659332
2.746040
-0.347257
-0.224808
0.958716
0.933575
-1.130175
-0.485145
-1.005442
-1.680899
-0.485333
2.210002
-2.019410
0.638528
1.039636
-3.045548
-0.719331
-1.006476
-0.309598
-0.465173
-0.955346
0.057617
-1.165960
0.902878
-0.725791
-0.454648
0.290108
2.732058
-0.120596
-0.414144
0.731567
-0.059450
-1.318759
-0.749667
-1.413856
0.114380
0.094125
0.138635
0.891201
1.804458
-1.279294
-0.070902
-0.016442
-0.433047
-0.301661
-0.758509
-0.371422
0.146236
0.487121
-0.474671
-0.536443
-0.057245
-0.660721
-0.017484
-0.202303
-0.134968
-1.263457
0.651282
1.647975
-0.696027
1.101680
0.790418
-3.526977
-3.305725
-1.068438
0.346259
2.367772
0.175079
1.018834
0.775142
1.371702
-0.708648
-1.484627
1.369629
-0.379663
0.996162
-0.950473
1.214061
0.666763
0.050465
0.759168
-0.534650
0.184431
-0.078125
0.807625
0.169685
-0.190181
0.309594
1.390969
-0.168676
-1.756043
-0.141002
0.118611
-1.401233
-2.575329
0.235847
-1.287518
0.114552
-0.530395
-0.263675
-1.212203
1.517302
1.484533
2.332683
-1.013481
-0.493553
-1.007223
0.485204
-0.659577
2.558649
-0.872816
1.570369
-1.635693
0.452228
0.161189
1.012961
2.093325
-1.319078
0.857509
0.363125
0.982514
0.040805
0.092126
1.042803
0.504747
0.801103
-1.924110
-0.838019
0.747037
-0.364489
-1.111328
0.400812
0.305054
-0.064805
-0.364052
-0.405010
0.692743
0.816801
-1.646682
-1.730929
-1.714593
-1.474638
-0.718666
0.143246
0.878180
-0.713469
0.192534
1.178109
0.928951
-1.086240
0.154772
-0.122822
-0.859987
-0.746739
-0.403032
-0.138033
-0.561137
0.168671
0.255215
-0.504703
0.642273
0.092833
-0.803159
-1.061469
1.454311
-0.866696
-0.106766
1.191001
0.617058
-0.693904
0.682347
-1.525639
0.057127
0.252842
-0.182232
-0.152867
-0.036009
0.112303
-0.111705
0.552239
-2.328106
-1.345513
1.607178
1.434619
0.236186
-0.460112
-1.037940
0.089993
0.219283
0.229940
-1.330909
-0.645888
1.243435
2.188906
0.945096
-0.855736
0.806301
-2.083216
-0.103234
0.359985
-0.315900
-0.302212
0.036175
0.082245
-0.563608
0.409493
2.241560
0.028583
1.194217
1.687342
-0.000922
1.833384
0.592975
1.303259
-4.053543
-0.487003
-1.286393
-0.473693
-0.440000
-0.515588
-1.240666
0.667640
-2.454565
-0.921874
-2.704409
-1.078963
-0.856018
0.058433
0.064563
0.372033
0.614039
-0.575701
-0.319718
0.536619
-0.567125
0.618052
0.645778
-2.623226
-1.579369
-0.423470
-1.743495
-0.766059
0.729501
0.495626
-1.183530
0.661605
0.715988
-0.956725
0.576587
-0.476053
-0.165141
-0.203508
0.794214
-0.368089
3.664157
-0.650605
-0.601731
0.040861
-0.592204
-0.800417
0.120788
0.542950
-0.485577
1.014681
0.497664
-0.554300
0.576056
0.140062
-0.146487
-0.086690
-1.774900
0.836217
-0.045888
-0.612628
1.996987
-0.841334
-0.500786
0.345148
-0.172547
0.131672
0.738873
-1.663100
0.560505
0.571289
1.203423
-0.813261
-0.593031
-1.048939
-1.948457
0.030387
2.021993
1.152855
2.000259
0.297387
0.163976
0.582476
-0.763830
-0.935856
0.298276
0.656804
0.160757
-0.370639
-0.306412
1.078505
-1.527740
0.068445
0.090143
-0.092591
-0.279515
0.773525
0.069662
-0.211677
-1.275981
0.500479
0.011374
-1.150441
-0.221636
0.952683
-0.275469
-0.714324
2.137995
-1.399025
0.048401
2.002073
-0.296090
-0.554812
-0.150525
1.512885
1.021465
-0.509238
0.031828
-1.698360
-1.413905
-0.961600
1.360419
0.182445
2.153492
1.589025
-0.171216
1.348227
0.248841
1.463974
0.248786
0.729265
0.473352
-0.574584
0.902049
-0.529644
-0.916073
0.545167
-0.835224
-0.522902
-0.423319
-0.851604
-1.816681
-1.161823
0.245434
0.029041
-1.032190
-0.651318
-0.286613
0.167198
0.141510
-0.077163
-3.102050
0.372917
-1.446223
-0.591097
1.549259
1.419276
0.403880
0.646150
1.241803
-0.450736
0.160912
-1.667422
-0.532044
-0.454624
0.134739
-0.475677
0.641873
-0.437269
-0.228430
0.191352
-0.045236
0.323333
-0.253910
0.487364
-0.849678
2.316433
-1.516435
0.367887
1.906786
1.915568
-1.737994
0.367111
-0.919313
-0.454014
-0.244563
0.757950
-1.119187
0.339821
-0.414553
-0.061582
1.411962
-0.821670
-1.054378
0.845246
1.083534
0.042203
-0.837079
0.207327
0.928077
-0.567859
0.295141
-1.668343
-0.166908
1.585421
1.963311
1.467937
1.205903
1.359905
-0.564999
-3.009529
0.556688
0.586159
1.717223
-0.315357
-0.526915
0.526956
-0.939938
1.075002
0.831142
-0.296262
1.683245
-0.177555
2.356577
0.649940
0.063318
0.131279
0.413499
-1.259501
0.306123
-0.751333
-0.496695
0.049199
0.853743
-1.619125
-1.140911
-1.597774
-0.104196
0.467936
-0.065226
-0.399801
0.961405
0.597295
-0.833099
-0.039523
-0.310450
-1.056208
0.138086
0.305686
-0.458452
-0.074539
0.315193
-1.699454
0.705673
1.790109
-0.579704
-0.770369
0.502902
0.796186
-1.349647
0.631353
0.113290
0.450417
0.329212
0.525511
0.771350
1.576543
0.005454
0.096697
-0.452303
-0.874861
-0.982701
1.784520
0.697412
-0.674979
0.627104
0.609457
-0.790068
-0.357351
0.099696
-0.855803
-0.517974
-0.136732
-0.751374
0.855939
-0.639085
-0.272385
-1.748242
-1.058755
1.027117
0.283066
-0.172978
0.241606
1.063925
1.525389
3.011431
2.315961
0.657124
-0.885463
-1.961203
-2.692228
1.098886
1.104055
0.861567
1.369798
-0.369338
-0.518857
0.395199
-1.255618
-0.694068
1.737494
0.009889
0.103416
-0.825895
-0.868565
1.430189
-1.058557
-1.130052
0.199406
0.597575
-0.038523
0.544670
-0.046301
0.131771
0.746559
0.526076
-1.864120
-0.994091
-0.428991
0.724708
-0.818272
0.693148
1.357811
-1.404023
0.829054
-0.681991
0.658855
-0.286826
-0.302768
0.397060
0.937505
0.222532
1.619824
0.929761
-1.386492
-0.105844
1.643698
-0.710126
0.721696
-1.407369
0.308862
2.051503
-1.063238
0.324572
0.615466
1.032877
-0.871773
1.865334
-0.935745
-0.421006
1.256480
0.783911
-0.817551
-1.686737
-3.259203
1.059023
-2.948784
-0.561680
-0.227266
1.542797
-0.908776
-0.297039
1.110570
-1.169255
-1.774668
-1.197502
-0.670909
-0.520089
-3.077180
0.177649
0.442538
0.479711
-1.359841
0.379998
1.209787
1.186729
-0.245867
1.473616
-0.895342
0.390109
-0.888749
1.906970
1.162921
-0.153690
-0.140123
-0.103841
1.099597
-0.643082
-0.044235
1.074515
1.210330
0.370874
0.324393
0.817159
0.327537
0.312312
-0.306460
0.040719
0.171401
0.221135
-1.072703
0.141770
1.066705
0.509348
0.460296
-0.084976
1.011971
-1.605806
-1.133039
-0.331896
2.741218
0.183886
-1.083942
-1.715605
-0.162529
-0.496792
0.157992
0.331354
-0.821702
2.089638
2.735138
1.673639
-0.654852
-0.881341
0.379910
0.028504
-1.024082
-0.901886
-0.485729
-0.359592
1.254297
-0.317682
1.131962
0.819968
1.551178
0.686449
0.576155
0.444488
1.529712
1.486646
-0.405069
-3.142721
0.072558
0.808391
-0.092851
1.969870
-2.149775
0.042666
-0.215529
-0.614412
-0.018136
-1.671433
0.495581
-0.140494
0.018764
-2.014827
0.437437
0.283718
-1.013658
-0.564236
1.681980
1.125283
1.069723
0.032334
-1.308746
-1.182526
-0.093286
-1.971120
1.215798
1.271835
0.586344
0.427360
-0.083848
0.850334
-0.520684
-0.098680
0.069627
0.000888
0.077990
1.798947
1.623948
-0.107420
-1.926047
-0.769918
-0.034760
-0.731102
-0.353832
0.861656
-1.182329
-1.793695
0.515688
0.275329
-0.820776
0.505366
-0.299711
-0.078244
0.392289
-1.207936
0.772869
-0.905359
0.255781
-0.632580
-0.450481
0.291425
-0.219370
-0.318129
-0.114608
1.327295
1.553002
0.603689
0.002154
1.116178
0.201321
0.371106
-0.414761
0.187631
-0.439272
0.744653
-0.156970
1.020948
1.248377
0.345881
1.724566
-0.537509
2.674062
0.861106
-1.757053
-0.910214
-1.379512
-0.653291
0.295753
2.501477
1.130043
-0.839898
-0.744373
0.259255
0.830597
-0.316712
0.368575
-0.589849
0.846829
-0.138283
0.222589
0.704847
0.149459
0.604782
0.560461
0.805061
-0.765918
1.041065
0.671826
0.292710
1.176376
0.860794
1.771039
0.669608
1.477752
-3.147329
-1.254911
-0.207858
-0.740180
0.464677
-1.205628
-1.596481
-0.007127
-0.068306
0.823471
1.584453
2.183803
0.406285
0.856260
-0.282474
-0.867267
-0.022059
0.168447
-0.648715
-0.591327
-0.737203
-0.540003
-0.050384
1.319298
0.297607
-0.279554
-1.049802
0.494517
-0.894427
-0.615815
-0.424895
-0.280537
0.031521
-0.605092
-0.242021
-0.288272
-1.335861
-1.039900
0.262355
0.363515
-0.132102
0.082538
0.197507
0.381669
1.637993
-0.030987
0.184033
2.636283
0.183755
0.245247
-0.559682
-1.895811
-0.310896
-0.719263
0.662183
1.400037
-0.289801
-0.851033
-1.398347
0.501554
-0.143644
0.902481
2.943259
0.302324
-2.518584
0.451507
0.043354
1.783763
0.592039
0.409624
1.299256
-1.303328
0.235702
0.046257
1.698623
0.411810
-0.535017
0.286691
0.971748
0.186370
0.317997
-0.465794
-0.910196
0.079361
0.032765
1.205171
0.239138
-0.728743
-0.704914
0.852630
1.063069
0.199402
0.410180
-0.375620
-0.885628
0.264239
0.885796
-0.473140
0.826829
-0.350612
-1.382475
-0.980536
1.093609
-0.600673
-0.684602
0.594124
1.290787
1.498725
-0.999804
1.014859
0.266202
-0.824017
-0.681070
-0.883242
0.449580
-2.480593
-1.577372
0.404539
-0.281817
0.101763
1.460277
0.453132
0.281773
-2.285122
-0.492546
-0.703558
-1.597175
1.946576
-0.404911
-0.934651
0.412196
-1.400964
0.340450
-1.034784
-0.688815
0.156199
0.666540
0.220729
0.221511
-1.410905
-0.667558
-0.859169
-1.431860
0.414147
-0.773654
0.233263
-0.493870
-1.330155
-0.376553
0.723258
0.088615
-0.271065
-0.790214
-0.000511
1.100302
2.604756
0.126182
-0.365635
-0.016692
0.571023
-0.921665
-0.819269
-0.170016
0.293348
-1.738648
0.353786
0.164989
1.232581
-0.029177
-0.760204
1.670531
0.500200
0.645625
-0.051286
-1.527219
0.342891
0.495634
0.339032
0.387922
1.807090
-0.542501
0.084763
0.321884
-0.675987
-0.883380
2.126810
-1.206211
0.304509
1.835113
1.307646
0.162448
-1.796264
-2.248121
-0.669002
-0.409851
1.174135
-1.244241
-0.746190
1.588174
-0.067493
-0.489810
0.582143
-0.725946
0.296483
-0.374511
-0.434886
0.535594
-0.808779
-0.077549
-0.151835
-0.373419
-0.264787
0.822795
0.201614
-0.387538
0.188821
-1.063793
1.020026
-0.035703
0.353570
-0.476279
-0.842704
-0.037118
0.650174
1.276026
1.589665
-1.662110
-0.453549
-0.986120
-0.434509
-2.531334
-2.300250
-1.622491
-1.939895
0.285519
1.032774
1.352642
-0.413455
0.159913
0.293827
-0.057493
0.026318
0.031396
1.355650
2.728555
0.942226
0.006992
0.170088
1.297865
0.968402
0.291858
-0.227997
0.634684
-0.542301
-0.212435
-0.147166
0.921490
-0.632922
0.380667
0.671469
-1.720394
-1.579987
-1.341064
0.095403
-0.795808
-0.326825
1.163581
-0.445508
0.596439
-0.843587
-0.265073
-2.131737
0.464737
-0.354749
-0.971422
-1.210961
-0.679422
-0.573845
0.571729
0.180247
-0.343925
-1.057337
-0.500055
-0.578313
-0.079541
0.554067
0.418666
0.919311
-0.418121
-1.275045
-1.065192
1.087410
0.954349
0.757874
0.126333
2.021485
-0.556675
-0.067660
0.027987
-0.094333
0.083421
-1.086388
0.269540
0.561880
0.096405
0.661308
0.441807
0.905797
-0.316290
-0.507646
1.789356
-0.576594
0.920916
0.163212
-0.169251
0.713674
-1.467993
-2.183770
-2.287335
-0.502864
-0.374547
1.147546
-0.282512
1.173679
0.064968
-0.940411
-0.046769
-0.360954
-0.503750
-1.874347
-0.631297
-0.066492
-0.052074
-0.784541
-1.222496
-0.499001
-0.028092
-0.296685
-1.154296
-0.122521
-0.969109
-0.348002
0.889701
0.279672
0.746597
0.479906
1.077634
-0.205756
-1.457377
0.490048
0.961680
-1.628878
-0.569315
0.117592
-0.298516
-0.320169
0.281400
-0.825168
0.483243
0.515832
1.194104
-0.681021
-1.172787
-0.660840
-0.279567
-0.079068
0.037648
1.641639
-0.208070
0.055330
0.242385
-0.494410
-0.730442
-0.114904
2.114151
-0.234265
-1.578272
-0.641778
-0.889755
-2.931058
-0.338427
-1.839567
0.091958
-1.926360
1.130207
-0.539436
0.736938
-0.028333
0.288592
-1.413496
-0.589208
-1.736738
-0.096850
-1.254440
0.343084
1.856225
1.005178
0.202325
-0.057867
-0.072672
-0.903361
-1.966120
0.325005
-0.729419
-0.652228
0.744699
-1.063548
-0.323082
-2.543459
0.355576
-1.594016
-0.960940
1.164991
-1.029447
-0.842913
-0.552129
-0.931237
0.861624
-0.360290
-0.287936
0.258114
-0.299781
-1.324583
1.221986
0.837854
0.389764
0.055136
-0.483488
-0.005601
0.513752
0.110187
0.453207
-1.453792
0.944134
0.840460
-0.642471
0.550249
0.893514
-1.908949
0.122648
-0.923810
-1.234864
1.815591
-0.447521
-0.613268
0.945398
-0.503056
-0.035532
-0.353735
2.940663
-0.327330
0.030642
0.300895
0.540846
0.211285
-0.189175
0.369830
-2.029968
-1.183995
-0.237185
-0.144922
-0.890811
1.181928
-0.391982
0.476485
1.248156
0.159733
-0.129344
0.412085
1.169599
-2.174349
-0.118977
-0.508915
0.712155
1.569197
1.753581
1.066884
-0.666614
0.611631
-0.408050
0.077744
-1.831654
-0.955860
0.784740
-0.613731
-0.487114
-1.660983
-2.242252
1.028212
-1.025448
0.776686
0.001167
2.213665
-0.351362
-0.842623
-0.162878
-0.774803
-0.789757
0.498776
1.756136
-0.281612
-0.172189
0.221710
-1.238745
0.125736
0.465242
0.895321
1.022800
-1.064209
0.301239
0.401101
-0.433643
0.886645
-1.082387
0.206633
-0.965864
0.767864
-0.401852
1.290488
0.942238
0.830932
-0.237523
0.329631
-0.002040
0.611533
0.685125
2.222206
-0.011127
0.913528
0.562733
1.057077
1.085692
-1.338990
0.111580
-0.137271
0.760059
-1.452291
1.757065
0.490607
-1.107884
1.579727
-2.381096
-1.036322
-1.349520
-1.499150
0.898892
-0.286826
-0.267484
0.159305
0.366389
0.790806
-0.751041
-0.218837
1.085886
-0.551271
0.991683
0.262823
0.124394
1.288327
-1.669558
0.209529
0.192594
1.131877
0.041559
-0.583945
-1.120093
0.342727
0.767663
-1.646306
0.105942
-1.384982
-1.279595
-0.779401
1.005258
-0.158801
-1.230486
-0.292349
-0.534822
1.311255
-1.656353
-0.814614
0.306825
-0.814989
-0.533342
0.833766
1.366771
0.198502
-1.026818
0.441427
-1.504961
2.237836
-1.009490
0.442835
0.265153
0.160819
-0.969783
-0.282549
-1.263329
-1.492036
0.976479
-1.111231
0.044182
-0.131577
0.291034
-0.650137
-0.404463
-0.174769
0.481630
-1.378729
1.384198
-2.118849
-0.221867
0.043805
0.642142
-0.416417
-1.252074
-0.839884
-0.301454
-1.110424
1.151502
-1.162562
0.388515
0.045248
0.064766
0.033376
-2.003091
-1.354098
0.376629
-2.059829
-0.917951
1.207537
-0.268201
-1.243334
1.336171
0.451709
-0.240634
-0.108840
0.581379
0.136139
-0.705731
-0.940120
-1.384541
-0.296402
0.646402
0.620591
0.398374
0.002779
0.345644
-1.184018
-0.221615
-0.541919
-0.612333
-0.547252
-0.162421
0.384516
0.102028
-0.084804
0.733964
0.329142
0.948640
0.738854
-0.260361
1.849688
1.585056
-1.905606
-0.571881
0.470227
-0.324392
0.252113
0.906524
-0.025212
-0.720932
1.206146
-0.502146
-0.334370
-0.088090
-0.195547
1.071389
-0.727511
0.771292
-0.215185
-1.055141
-0.597569
-0.360519
-0.302706
0.147907
1.063618
1.121277
0.385365
-0.283040
-0.185032
0.030301
-0.012615
0.201350
1.944972
0.271986
-0.424988
-0.628135
-0.331323
-0.951763
0.606107
0.661110
-0.064037
0.008570
-0.027081
0.269464
0.709102
-1.725121
0.313483
-0.309002
0.334027
-0.264892
-1.253110
-1.342543
-0.194186
-0.624770
-0.217275
0.670888
1.775804
-1.094945
0.685537
0.342048
0.708854
-0.151067
0.206248
-1.966296
-0.784963
-0.115494
0.133376
0.759916
-1.457073
0.811513
-1.047693
-0.199597
-0.430749
0.103526
0.054625
-0.337009
0.875471
-0.526074
-0.185167
0.361994
-1.254751
-0.263827
-0.527756
0.030503
1.384131
0.199359
-0.060168
0.053060
-0.000097
0.097108
0.267489
1.499680
0.023000
0.292991
-1.049961
0.937886
-0.254977
0.154322
-0.542423
-1.057666
2.304422
-1.130033
0.435355
1.241272
0.458813
0.705911
-0.302678
-0.185770
-0.648770
0.295157
-0.118439
-0.821041
0.145479
-0.278586
-1.924848
1.059194
0.107023
-0.793858
0.021254
-2.073601
-1.489795
-0.291618
-1.332878
0.389207
-0.622120
1.069907
-0.100417
0.245345
-0.581385
-0.373370
2.601516
0.397386
-0.437413
0.183489
-2.192326
0.387151
-0.101259
-0.113468
-0.565468
0.234313
0.130867
0.102508
-0.231459
1.008857
0.784729
-2.775582
-0.964668
0.100692
-0.481782
-1.155340
0.336856
-1.294602
-0.361517
0.146849
-0.579114
-1.831965
-0.090208
-0.020477
0.472212
0.018996
-2.581319
-2.075426
-0.274217
-0.619570
0.655542
-0.576364
0.524764
-0.808937
-0.354002
-0.825155
1.011536
-0.212651
0.115249
-0.137738
0.795904
-0.120099
0.641316
1.821116
-0.290632
-1.300825
1.248791
-1.039245
2.177776
0.934418
-0.299064
1.004860
0.042197
-0.739128
-2.181015
-0.405979
-0.710128
-1.980795
1.431441
-0.439469
0.098275
-1.082704
1.120387
-0.612578
-0.296094
-0.610987
0.588047
-0.789417
-1.138886
-1.672755
-1.057647
0.480189
-1.356816
2.303740
0.194084
-0.644011
-0.590918
2.068941
-0.812291
-1.161055
-0.039720
-0.051345
-0.853481
0.682756
0.131148
-0.354717
0.339485
-0.319238
0.724846
-0.592376
-0.488038
0.551957
0.053576
-1.155416
-0.134387
0.997213
0.537431
0.831916
-0.303440
1.415053
-2.091657
1.400493
0.167916
-0.834982
-0.477551
-0.584718
0.273586
0.997150
1.348076
1.351075
-0.415716
-1.218888
-0.285062
-0.224827
-0.963312
1.006949
1.233690
0.553386
1.064015
0.093336
0.159815
0.168181
-1.475924
-1.922016
-0.662694
-0.393769
-1.314116
0.669099
0.842943
1.329099
0.065293
-1.508748
-1.148315
-0.119952
0.537208
-1.521477
-2.185433
0.439577
-1.862974
-0.830560
-1.205853
-1.419854
-1.614638
-0.371198
-1.438774
0.663208
-0.424908
0.543046
-0.464649
-2.000733
-0.376901
0.027468
0.463394
0.160691
-1.474719
-1.114624
0.682979
-0.965678
0.564114
-0.029130
0.395482
1.057618
0.394984
-0.491771
-0.016990
-0.715927
0.161757
-1.024929
-0.484826
-0.619487
0.251824
-0.899222
-0.643330
-0.310378
-1.039629
0.420854
-0.588705
-0.192294
-0.228775
1.708781
0.544383
0.318228
-0.854187
-0.146094
-0.123989
-0.450762
-1.276400
0.456612
0.074481
-1.100899
-0.002140
1.127510
0.597022
0.538744
-1.161465
-0.288035
0.470746
1.723437
-1.441216
-1.878151
0.238465
0.012757
-1.270958
-0.387005
-0.864264
-1.811288
0.064284
0.830872
-0.656662
0.206017
-1.860610
-0.569630
-0.262522
-2.364946
-0.156580
-1.027171
0.282597
-0.295158
1.166043
-1.389129
0.777972
2.034967
-1.159339
-1.237664
-0.008474
-1.540142
-0.004829
0.094625
-1.004937
-0.934757
-0.150068
-0.287935
-0.453399
-2.188588
-0.087974
0.222386
0.533001
1.204187
-0.965919
-0.514218
0.386891
1.098421
-1.096780
-1.408428
0.263749
-1.149954
0.052705
-0.612714
0.702301
-0.579896
1.044845
-1.598306
-0.843050
-0.537713
-0.379732
0.489680
-0.391294
0.422433
-0.656256
-0.001362
-1.139557
-1.697704
-1.484791
0.062330
0.193076
0.617398
0.589203
-0.283836
0.285700
-0.171404
-0.133291
-0.985721
-0.675024
1.966664
-0.885795
0.810621
0.550363
-0.064004
0.970895
-1.286806
0.438795
-0.355826
-0.505824
-1.908918
-0.042688
0.075505
-0.766600
0.889112
0.580673
-0.438186
0.499446
0.436912
0.675178
-0.626474
0.900419
-0.284772
1.735707
-1.017117
-0.648748
1.936569
-0.755536
0.634273
1.940696
-1.193202
-0.127537
0.271735
0.487473
-0.232055
0.161281
0.091177
0.066181
-2.066847
-1.409918
-0.265017
-0.026062
-0.310366
-0.827728
0.751890
-0.989758
0.685037
1.779039
-0.641315
0.753161
0.639344
0.661348
-0.163227
-0.443074
0.681477
-1.169622
-0.535604
0.842541
-0.643787
0.681530
-0.612823
1.288176
-3.663372
-0.364014
0.646662
-0.313379
1.636271
-0.111613
1.585961
1.256626
0.178524
2.885038
-0.792455
-0.055294
-0.187765
0.655861
1.245833
2.402249
-0.354824
0.491730
-1.056834
0.304559
-0.111560
0.134831
0.164584
-0.090412
0.582661
-0.260973
-0.476648
0.357218
0.053659
0.769503
0.152020
-0.676768
0.585328
-1.833052
-0.657449
0.402922
-0.461656
-0.508313
0.313906
-0.950948
-0.187958
-0.096414
0.289272
0.788435
1.333256
0.530411
1.487470
-0.433199
-1.154760
-0.571200
-0.320137
0.609972
0.124200
-2.112298
0.188343
0.500349
-0.035427
-1.741021
-0.513951
-0.331216
-0.187424
-2.833669
-0.051352
0.268509
-2.884073
0.621771
-0.443966
-0.110229
0.296748
0.152922
0.302224
-0.613266
0.102155
-0.579043
-0.974382
-0.666135
-0.218165
0.740728
0.610537
-0.356730
0.502797
-0.698000
0.191696
0.469493
-0.789343
1.567467
-0.404358
1.084807
-0.312240
-0.359494
-1.173257
0.021049
-1.579699
0.802341
-1.169689
1.061238
0.635013
-0.905813
0.978308
-0.766973
-0.849094
-0.929575
1.435417
0.293155
0.027160
1.574035
-0.129943
0.556137
0.295974
2.002595
-0.062192
2.025639
-1.145818
0.575441
-0.359713
0.001966
1.188934
-1.212880
0.447930
-1.399428
0.365684
0.764387
-0.053539
-1.053402
-0.389789
0.942905
0.862114
0.105964
0.694994
-0.534908
-1.695722
0.143711
0.351239
-1.174728
0.724406
-0.344495
-0.105576
-0.516667
-1.210274
-0.816723
-0.645515
-0.343303
-2.620844
1.470092
-0.214645
1.076876
-0.289526
0.787510
-0.073259
-0.182420
-1.722084
0.956002
0.785309
-1.781628
-0.644312
1.447402
0.597084
-0.336570
-0.171270
-1.817960
-1.259803
-0.687896
-1.651546
-0.492216
0.927594
0.448539
0.276191
-0.052755
0.306086
-0.493714
-1.591331
-0.226302
0.113886
-0.362280
-0.561918
0.086740
-1.533642
-1.197408
0.882943
-0.104919
0.006300
-1.315133
-0.076620
0.391046
-0.744652
0.529056
0.240819
-0.485011
-0.346930
0.165394
1.339836
-0.506872
-0.848115
-1.840626
-1.398612
0.227946
0.162309
-0.572916
-0.935365
-0.134142
0.371255
-0.286707
-1.225781
-0.346944
0.736864
-0.485602
0.462187
1.349058
1.131207
1.140192
-0.333180
0.899841
-0.526149
-0.015109
1.157623
0.886773
-1.035767
0.207454
0.162721
0.114438
3.268102
0.544235
-0.148817
-0.639217
1.092002
-2.635136
0.982709
-0.299584
-1.117677
-0.191505
-1.984196
1.497935
1.048646
-0.038825
-0.493424
-1.295889
-0.115672
-1.714188
-0.146235
1.770025
0.980255
-0.138120
0.495764
-0.249134
0.502920
-0.936383
-0.575796
-0.189994
-0.198925
0.467665
-0.286561
0.226222
-0.616490
-0.548498
1.492652
-0.733334
-0.224766
-0.313604
-0.360850
-1.517029
0.028276
-1.000298
1.740384
-0.632280
1.132671
-1.286828
-0.316152
-0.793992
-0.284435
1.914817
0.125216
-0.903025
-0.419370
1.232760
2.532110
-0.118843
0.771987
-0.634942
-1.183877
0.380273
-0.484570
1.102489
-1.287866
-1.249592
0.157790
0.632101
-1.395905
-0.091752
0.176204
-0.371173
0.674587
-0.457396
0.044486
-1.172135
-1.401374
0.613522
-1.686052
-0.311576
-0.577845
1.089417
0.754720
-1.237343
-0.569855
0.767582
-1.004735
0.373970
-1.541030
1.815036
0.063427
-0.712351
-0.252526
1.441779
0.438169
-0.736205
-1.268930
-1.733791
-0.461792
0.241924
0.695457
0.149780
0.466967
0.029752
0.273402
0.404675
-1.083938
0.111431
-0.985758
-0.694567
0.372963
0.108324
-0.068073
-0.602382
-0.305092
-2.374648
1.451210
1.238011
0.487608
-0.692024
-0.064603
1.095260
-0.981553
-0.126341
-1.312153
0.641967
-0.847166
0.371795
1.572181
0.075833
1.632188
-1.151593
-0.742488
0.455528
0.350654
0.310107
-0.964047
-0.794053
2.472614
0.054475
2.135494
0.290889
0.251459
1.002429
-0.407499
-0.854439
-0.709663
2.094162
0.137959
-0.621547
0.392895
0.306158
0.423964
0.269740
0.551861
-1.690719
1.004329
-1.223638
-1.487804
-0.503768
-0.715928
-0.739840
0.041792
-0.258037
1.214914
0.961091
1.366373
0.921673
-1.048715
-1.481785
1.100392
0.515002
0.509202
1.001472
-0.297116
-0.061318
-0.599287
-0.741917
-0.673267
-0.676412
-0.064687
-0.433525
-0.277587
-0.175255
-0.921089
-0.429133
-0.671806
1.726333
-0.859182
-0.645538
0.734835
-0.577455
-0.408863
1.792636
-2.564742
0.000198
1.087061
-0.571000
1.308037
1.101659
0.148371
0.129564
-0.065282
-0.492998
0.005013
-0.370081
-0.114249
0.063277
-2.574681
0.873842
-0.039803
-0.013439
-0.674388
0.485947
0.495268
-0.628851
-1.211774
-1.127371
-0.122066
-0.279189
1.182842
-0.004154
-0.744746
-1.982670
-0.212159
0.053837
-0.580392
0.185902
1.133713
-0.414070
-2.258590
1.210009
0.432866
-0.095292
0.297868
-0.590519
0.937386
-0.151969
0.568935
0.672085
-0.370080
1.801888
-0.420298
0.097953
-1.393203
-0.232663
-0.201974
2.104093
-0.753109
-0.126532
-0.404452
0.584835
-0.255784
-0.171991
0.924670
-0.373702
0.267522
-0.893610
-0.503642
-0.584424
0.758643
-1.797762
-1.872349
-1.444336
0.984688
-0.901377
-0.894487
0.775791
0.392534
0.560712
1.085048
-1.188750
1.135250
-0.070619
-0.947228
-0.844717
2.398962
-1.546913
-0.502493
-0.927722
-0.659929
-0.591319
-1.312009
-0.055229
-0.156493
-1.293526
-0.712258
0.342903
-1.043500
0.056053
-1.483682
1.396414
1.156481
0.713938
-0.864715
-0.805105
0.787167
-0.089817
0.231939
-0.102093
-1.187653
0.705940
-0.064342
-0.257469
-1.857653
-0.458698
-0.197611
0.259258
-1.476853
-0.807557
1.150545
-1.097263
-0.384342
-2.070016
-1.068202
0.406117
-0.401405
1.826331
-0.626927
0.680929
-0.341154
0.808965
0.715308
-0.521827
0.047303
-0.769264
-0.727091
0.025308
0.689093
-0.669283
1.516185
0.666939
2.892855
0.389020
-0.641416
0.205124
-0.430998
0.703869
-1.214102
-0.331099
0.106772
1.414385
-1.488336
-0.362620
0.028048
0.586061
0.156394
0.792915
0.271223
0.708609
-0.709603
-1.297629
-0.659318
-0.055013
-0.020417
-1.528612
-1.817377
0.885188
-0.071136
1.564277
0.150533
-0.242854
0.161346
0.117617
-1.200582
1.285797
-0.763527
-0.073433
-0.165783
0.258251
-0.828556
0.524055
0.280399
0.004010
-2.325095
-1.688140
1.530908
-0.382159
0.156466
0.584299
-0.656869
-0.036336
0.101122
-0.800308
0.332228
0.807819
-1.255317
-0.264439
-0.368097
0.976831
0.412363
0.158860
-0.846569
-1.639250
-0.491631
-2.498209
0.755871
-0.244564
0.904831
-0.171861
-0.882106
-1.244870
-0.208055
-0.116836
-0.884502
-0.987463
-0.461230
-0.080503
-0.745916
-0.188227
-1.095118
-0.373057
0.324705
1.365018
0.487705
-0.416259
-0.361403
-0.615207
-2.101941
-0.352604
0.995784
-1.429527
1.147709
1.069813
-0.734690
-0.208471
-0.037375
-0.328122
-0.596601
0.094692
0.249858
0.013574
0.268556
1.309410
-0.859137
-1.382905
0.535429
-2.054919
-0.334394
-0.413453
0.336953
-0.361348
1.395876
0.243083
1.399105
0.578002
-0.751828
-0.864193
0.249108
-1.311282
0.303516
-0.901712
1.532530
-0.613869
-0.427264
1.940500
0.416236
0.023332
-0.551748
-0.446086
-0.041407
0.815074
-0.448496
-1.043085
0.702177
0.895008
-2.107868
-0.458677
0.214006
1.341494
1.767447
-0.477123
0.356483
-0.675093
0.069264
0.062314
-0.259840
0.400286
-0.694389
0.154219
-0.216800
0.476568
-1.201068
-0.938981
-0.720908
-0.247806
-0.138970
-1.771005
0.606032
-0.124441
0.046459
-0.806888
0.603659
-0.821825
-0.377043
-0.907165
4.194988
-0.723497
-1.110995
-0.281109
-0.192445
0.199018
-0.947943
-1.064746
1.058694
-0.654360
-0.199945
0.160993
-1.004346
-1.826404
-0.912229
-0.769518
-0.353298
-2.346961
1.628859
1.073830
0.343303
0.948518
-1.280477
-0.305256
-0.744002
-0.723341
-0.740414
-0.840135
-0.070019
-1.660138
0.537636
-0.640960
-1.433827
0.772955
-0.052560
0.140655
0.309880
-1.739789
0.297785
0.008503
-2.716103
-0.187259
-0.978878
-1.464123
0.375620
0.210964
1.848934
0.325409
-1.172443
-1.545173
-0.428806
0.660036
-0.346613
0.180743
-0.891201
0.570741
-0.134418
0.016372
-0.110562
0.173173
-0.235978
1.491506
-0.913365
0.007054
-3.559443
-1.119838
-0.559421
-0.540626
-1.255219
-0.198851
0.417453
-0.600789
-0.557856
1.006015
-0.800364
-0.020754
-1.535357
-1.520377
-1.516236
-0.575175
-0.149567
0.764312
-1.333718
-0.899231
-0.469333
-1.181274
1.357694
-1.269288
0.549295
0.186163
-0.497197
0.703362
-0.122272
-1.983844
-1.161373
-0.560832
0.082799
0.594992
-0.410196
-1.288102
0.241585
0.471083
-0.241409
-0.135097
0.870655
1.753960
-1.306346
0.097341
0.090825
-1.621628
-0.930408
-0.166652
-0.913792
-0.713091
0.112320
0.419669
-0.415729
-0.395000
1.519263
0.140690
0.181353
-0.421545
1.329875
0.327922
0.348730
0.064742
-1.386676
0.331985
0.113193
0.192548
-1.629310
-0.002433
-0.833618
1.457215
2.258922
0.309137
-1.754124
1.266936
-2.491729
-0.285282
0.230101
2.556596
1.543025
-0.725384
-0.590184
0.039007
-0.231618
-0.489238
1.600649
1.058119
0.103853
1.292875
-0.318430
0.762391
0.540009
0.604747
0.689393
-0.325346
-0.212776
-0.595268
-0.210582
0.521950
1.694947
0.850964
-1.462439
0.446218
-0.003431
-0.050825
1.046486
-2.027618
-1.262912
-0.908945
0.782558
-0.320019
0.639844
1.277781
1.272812
2.435605
-1.756375
0.679173
0.812504
1.093793
3.065056
0.594668
0.013356
1.251206
3.909482
0.486905
1.174114
-0.582469
0.768483
-2.605405
-0.890424
0.946307
0.987134
-1.146955
-0.252950
0.480010
0.415380
0.340647
-0.002816
0.165874
0.327263
1.513880
-1.194294
-1.029087
-0.969451
-0.441530
0.767446
0.320023
0.634270
-2.585650
1.044133
-0.927355
-3.549440
-1.019036
-3.053664
0.189730
0.976379
-0.269174
-1.310035
1.291790
0.932656
0.972676
-1.549617
2.675885
1.192596
-4.191709
-1.440180
-1.794929
-0.008171
1.232733
-1.380853
-0.117240
-0.603791
0.010015
0.908055
-0.380736
-1.867820
-1.182001
-1.565646
-0.747215
-1.750254
0.885506
0.568037
1.063694
-0.449369
0.526158
0.910156
-1.042155
-0.003765
0.661972
0.087155
-0.101887
-0.517051
-0.147748
-0.551806
-0.073006
-1.771647
0.355714
-1.098356
0.548859
-1.066393
-1.135867
0.032474
-0.174659
0.652018
0.067828
0.899162
0.886306
1.748946
-0.456973
-1.583310
-2.272918
2.140681
-0.852380
0.654842
-1.200214
1.397346
-2.398693
-0.521571
2.474216
1.396857
-1.410595
-0.135916
0.843476
2.872726
-0.567960
1.245613
2.404551
-0.896702
1.213892
-0.011764
-0.134880
0.311429
0.935321
0.438541
-0.133242
-1.585578
-1.671752
0.248065
0.618871
-1.892519
0.240730
0.375562
-0.081404
0.713908
-1.500211
1.673238
-0.365762
-0.282083
1.996638
0.921959
-1.087995
-0.910836
0.499875
-0.767091
-0.016184
-0.797865
0.695282
-0.079628
0.148781
-0.502542
0.185432
-2.349479
0.400986
0.504155
-0.419138
-0.347042
0.104508
3.089147
-0.695593
0.732057
-0.127450
-1.533049
-1.664056
-0.785059
0.207728
-1.154794
-1.622141
1.896975
-2.645264
-1.051509
0.684311
-0.144185
-1.272817
0.038465
0.044050
0.056344
0.015633
0.070906
-0.082890
-0.088481
0.088434
-0.033383
0.046962
0.001424
0.060072
0.068572
-0.029216
-0.087024
0.036380
0.037178
0.086399
0.041306
0.041376
0.013591
0.027439
-0.019029
0.057090
0.054661
-0.059056
-0.082021
-0.033019
0.062890
0.016904
-0.023184
0.001355
-0.039046
-0.066840
-0.083011
-0.068139
-0.049730
-0.071493
-0.079705
0.016886
0.075469
0.021720
-0.023041
0.044041
0.092503
-0.010065
-0.019579
0.029681
-0.023666
-0.078273
-0.028943
0.089925
0.049166
0.052028
0.047015
0.003826
0.092973
0.064993
0.070808
0.055863
-0.018102
-0.052376
-0.042782
0.042852
-0.019217
-0.025793
0.074713
0.031053
0.002714
0.095008
-0.052060
-0.021817
0.016728
0.024899
-0.077776
0.009231
-0.085166
0.002644
-0.061088
-0.008833
0.024371
0.009969
-0.018908
-0.026463
-0.038003
-0.071893
0.077363
-0.045030
0.093100
0.048171
-0.089167
-0.025002
0.095794
-0.031950
-0.082149
-0.023422
0.042257
0.092564
-0.092369
-0.055029
0.087572
-0.044429
0.023154
0.004300
0.080469
0.045378
-0.086469
0.095303
-0.051978
-0.047556
-0.013530
0.072393
0.062413
0.067563
-0.054070
-0.075590
0.095669
-0.076707
-0.020620
0.088770
0.071464
-0.009787
-0.036232
0.067258
0.058263
-0.018381
-0.056164
0.000520
-0.025817
-0.048533
0.045491
-0.038245
0.007038
-0.031355
0.066055
-0.012493
-0.085977
0.079586
-0.017190
-0.037955
-0.067970
0.069280
-0.065562
0.094443
0.036843
-0.019633
-0.081147
0.032512
0.003660
-0.001766
0.021282
-0.024876
0.088447
0.085050
-0.057618
0.046710
-0.033331
-0.013782
-0.052770
0.040851
0.037684
0.092722
-0.097394
-0.055278
-0.038633
0.068661
0.032229
-0.024610
0.048248
-0.084961
0.037434
0.080278
0.084319
0.071872
0.074721
0.021162
-0.047760
0.093574
-0.046326
0.055900
-0.008192
0.074956
-0.068976
-0.019745
0.060006
-0.026594
-0.073035
-0.073325
0.059623
-0.025805
0.067526
-0.002692
-0.033083
0.070133
0.042030
0.028284
0.038794
-0.025742
-0.096327
-0.012958
-0.010703
0.041108
-0.032680
-0.026384
0.012980
-0.057960
0.094778
0.065219
-0.064385
-0.051548
0.021119
0.027422
-0.076592
0.052143
-0.092323
0.083414
-0.074452
-0.065359
-0.089911
0.085172
0.008837
0.077616
-0.017521
0.075753
0.047749
-0.170848
0.750853
0.413614
0.028324
-0.011680
-0.096197
-0.917806
-0.032083
-0.094745
1.152669
0.788065
0.161307
-0.546540
-1.159536
1.022696
-1.373044
-0.041764
-0.716025
-0.505278
0.080956
0.000526
1.068724
-0.393270
0.012004
2.239404
-0.310239
0.756501
0.479599
-0.136218
-1.876456
-0.643937
0.251775
0.159622
-0.685610
-1.411741
0.485997
-0.132632
-0.278186
0.511084
0.263492
-0.205320
2.298297
0.664471
-0.465068
1.269076
-0.318930
0.339950
0.385352
-1.309422
0.060347
0.870610
0.416246
-0.410793
-0.120442
-0.780105
0.122353
0.750317
0.250350
0.289576
-0.312948
0.227366
-0.549201
-0.681300
-0.140749
-1.464695
2.557016
-0.570853
1.230735
-0.218858
-0.982572
0.725390
-0.743336
0.366187
-0.544517
-0.240435
-1.048309
-0.044269
2.033783
1.659093
-1.732939
-1.848438
-0.649760
-0.049549
-2.666764
-0.712931
-0.215114
2.179602
-0.455211
-0.186844
0.158353
0.604543
-1.417595
-0.377890
0.584635
1.079256
-0.853758
1.101361
-0.407647
-0.192048
-1.439371
-0.019606
-0.135121
-0.291681
1.450557
2.178332
-1.903204
-0.606695
-0.490031
-0.293551
0.199399
0.127648
-0.248663
-0.694665
-0.159962
-0.058832
1.166896
-0.544362
-0.222344
-0.289396
-0.686102
0.453230
-0.391417
-0.239878
0.129100
-0.113398
1.731995
-0.429974
-0.431438
0.505239
1.581600
0.175749
0.104908
-0.043442
0.160723
1.364053
-1.582418
0.671391
-0.896287
-0.093491
-0.064090
0.528922
0.482248
-0.706090
-0.063781
0.310859
-0.077537
1.580118
-0.420440
0.298712
0.373586
-0.186484
-0.478944
-0.499100
1.105919
-1.072115
-0.961366
-0.414550
0.760506
-0.125278
-1.020575
0.227655
0.397563
1.050694
-0.095543
0.950867
-0.929619
-0.720556
-0.095204
0.255405
-0.413241
-0.077246
-0.255709
1.368545
-0.120045
-0.626598
2.737826
-2.051545
0.575923
-0.452631
-0.412353
-0.687938
0.695889
-0.873816
0.823278
0.667209
-1.396114
-0.997377
1.693737
-0.866366
0.911398
0.403979
-0.561006
0.351942
-1.035089
0.127559
-0.582471
1.585268
0.168721
1.450070
-0.415445
0.445860
0.933953
0.237190
1.042159
-0.235579
0.043204
1.011863
0.818106
-0.032552
-0.641433
0.396063
-0.017047
-0.173996
-2.025364
-1.088618
-1.043286
0.294275
-0.235074
-0.062205
-0.721385
2.166894
-0.113822
-0.170787
-0.721187
0.215359
1.107940
0.269558
0.712955
-0.717117
-0.513946
-0.142823
-0.598776
-0.200384
0.015978
0.762083
-0.342644
0.172398
1.279540
-0.530916
1.281155
-0.907413
1.243597
-0.488653
-0.823853
0.029506
0.550260
0.440606
-0.015566
0.056366
0.704912
0.269456
-0.426506
0.437837
-0.054274
-1.277075
-1.197252
0.124217
0.161159
-1.252456
-0.110695
0.277221
0.089809
-0.403840
0.070814
0.205463
-0.242420
0.456296
1.374414
-0.167030
0.904982
-0.351194
0.300036
-0.457385
-2.093728
0.264209
0.693961
1.082522
-1.419544
0.427246
-1.555647
3.631616
-0.409692
-0.458678
-0.462858
-0.266289
-0.919060
-0.132549
-0.646770
-0.307498
-1.634716
0.576880
-1.124255
-0.127415
0.236927
0.074309
-0.804547
-0.910202
0.570605
1.415047
-0.427193
-1.391369
0.074219
0.113465
0.759489
-1.242916
-1.242710
0.583074
0.605366
-1.836089
-0.187452
-1.090121
-0.138121
-0.425634
-0.101662
-0.609033
0.412998
0.443943
-0.070446
-0.488612
-0.094848
-2.686962
1.743176
-0.306116
-0.690881
-0.795206
-0.280348
-0.170943
-0.514260
0.810327
1.909086
0.394039
0.749798
-1.490650
-0.582363
0.604765
-0.192778
-0.376479
-0.748295
0.289380
-0.186599
0.614110
0.394392
-0.536599
-0.378150
-0.097487
0.783288
-0.917182
-0.096261
1.113605
1.159287
0.481046
-1.289820
0.863138
0.438633
0.661069
-0.041011
0.141875
0.047183
0.137224
0.756406
-1.178844
0.185718
-0.422196
0.175228
-0.590696
1.064056
0.701923
-0.376290
0.031904
0.553003
0.557770
0.009041
-0.042962
0.812216
0.504607
0.777153
-0.796010
-0.497582
1.270338
0.075687
-0.034664
-0.167464
0.386171
-0.730357
-1.565723
1.139460
-0.058026
0.484531
-0.418560
0.511048
-0.340255
-0.142663
-1.215704
0.860811
0.057950
-1.111640
-0.547716
0.370595
-0.853141
-0.147252
1.659444
-0.637158
0.317593
-1.083943
-0.178845
-0.430399
0.349945
-0.784352
1.274329
-0.095503
-0.602490
-0.346854
0.698405
-0.663635
1.029066
-0.179571
-0.877997
-0.060026
0.500139
-0.401834
-1.356031
1.273466
1.130911
0.322201
-0.501105
0.466018
-1.861847
0.275066
0.868357
-0.160530
-0.041065
0.127365
-1.632944
2.430002
-0.074206
0.125236
-0.646081
-0.320236
0.200648
-1.013643
0.581384
-0.710667
0.789764
0.353813
-0.031365
1.292681
-0.220902
-0.209567
-0.258431
-0.323844
1.822337
-1.246439
0.173083
1.048702
-0.610428
-0.009694
0.288502
0.097451
0.663394
0.700899
1.208310
0.153358
1.598239
0.447164
0.374610
0.723447
-0.790757
-2.386316
-0.062480
-0.542663
1.019033
-0.238286
0.513102
0.428329
-0.002070
0.255906
-0.467839
0.476613
-0.409616
0.186341
-1.567259
0.374658
0.313025
-0.943862
-0.297024
-0.046360
0.491965
-0.307909
0.006200
-0.401932
0.256095
2.320399
0.467380
-0.621116
-0.117743
0.674752
1.135560
-0.299614
-2.328218
-1.298164
-0.670232
0.737913
-0.762682
1.147827
-0.960575
-0.528537
0.430978
-1.025562
0.942347
-1.230130
0.573039
-0.246129
-0.505156
0.108249
0.399116
2.173227
-0.093950
-0.405855
0.717061
-0.459746
-0.585073
-0.344209
0.386596
0.388180
-0.770297
-1.508905
-0.503787
0.300661
1.440674
1.018787
-2.056544
-0.354996
0.492885
-2.306227
-1.422754
-0.058782
-0.099249
-0.426765
0.235622
-0.167460
-0.839604
0.057179
-0.341795
-2.036517
-0.447963
-2.186710
2.553101
0.169620
-0.728314
-1.162085
0.438938
-0.485269
1.674499
-0.481968
1.197715
-0.878865
0.441393
-2.189373
-0.827528
1.258375
-1.604667
0.093331
-1.075629
0.212522
-0.672665
-0.099000
0.168160
-0.912574
0.624477
-0.271429
0.008544
0.184119
1.876734
-0.803019
0.693444
-0.062337
1.168499
-0.202857
0.471223
0.352734
0.692561
0.409413
-0.150782
-0.151435
0.660598
-1.122134
0.061083
1.898992
0.115342
-0.044710
-0.121201
0.991452
-0.177292
0.642187
0.020881
0.465691
1.810226
-1.653558
0.789943
0.362544
0.519587
0.084051
-3.405017
0.877115
0.708385
0.676916
-0.514874
-0.395046
0.032757
1.201040
0.780092
0.366179
-0.403497
0.614645
-0.190336
0.762747
-0.581969
-1.429823
-1.723841
0.134992
-1.453174
-0.004843
2.175134
-0.009355
1.172961
2.785882
0.805345
0.440597
-1.639776
0.648397
0.599354
0.073664
-0.639058
0.965504
0.901327
-1.041723
0.135342
0.590340
-0.094071
-0.082010
-2.426830
0.818296
-2.329026
-0.846407
-1.135935
1.281516
0.850860
-0.567369
0.615274
-1.758063
0.267044
0.057208
-0.274659
2.312538
0.415060
-0.892316
-2.600034
-0.205399
1.058056
1.392771
-0.106585
0.128776
0.299638
-0.915142
0.444747
0.227492
-1.720535
0.219085
0.250333
0.351619
1.617303
-0.381875
-0.362324
0.893763
-1.455931
0.155906
-0.294995
-0.210882
-1.492044
0.458038
0.849688
-0.597568
0.144800
1.021315
-0.746701
0.781238
1.023133
0.723457
-0.180242
1.077405
0.816028
1.535938
-1.022955
-0.116581
-1.285201
1.163561
0.228186
2.729754
-0.287250
-1.397028
0.146795
0.788785
-0.520838
-0.594462
0.724047
-1.182523
-1.278720
0.430319
-0.784841
0.584323
0.059380
0.590354
-0.265455
0.313697
-0.294722
0.343400
-0.001191
0.158910
-0.621760
0.485923
0.199522
1.014553
-1.591463
0.467634
-0.120656
2.021463
0.464060
0.301049
0.268167
0.613932
0.175148
0.257113
-2.053518
0.602476
-1.387558
1.074160
-0.652108
-0.244295
-1.023119
0.476135
-0.034090
-1.407665
0.507360
0.674055
0.045116
-1.396059
-0.681624
0.996280
-0.076474
-1.552014
1.383945
-0.333330
1.717388
1.084370
-0.743500
-0.898780
0.543016
0.822162
-1.187752
2.186944
-0.372728
0.765311
-0.493160
-0.103065
-0.137927
-0.812794
-1.073342
-1.137392
-1.827248
-1.260415
-1.306351
1.448816
-0.734024
0.537871
-0.238266
-0.406624
-1.589803
-1.185306
1.259045
0.682651
0.765674
0.679031
0.169372
0.791022
1.752596
-0.040179
-1.164976
-0.872590
2.197403
-0.324013
-0.557176
-1.308650
0.651009
-0.062508
0.814775
-0.712546
-0.996641
-0.046151
1.140397
0.076607
-0.578754
0.896481
2.153283
1.098022
0.581495
-0.305968
0.290237
-0.065439
-0.988056
1.581859
0.404102
-0.386437
0.451576
0.572630
0.720472
-0.113870
-0.613973
1.251695
0.244135
-0.171020
0.223498
1.275964
-0.591066
-0.912519
-0.359149
-0.742970
1.018167
-0.532078
-0.016191
1.102242
-0.679395
-0.364881
-0.086062
-0.079838
1.735280
-1.050254
0.170689
-0.924011
-0.222441
1.451992
0.753254
-1.059750
-0.279281
-0.524560
-1.095429
0.958495
0.313635
1.167682
-1.944281
0.195911
1.736559
0.205139
-0.074904
-0.597164
-0.283821
-0.481032
-0.788005
-1.477824
-0.657840
-0.075901
-0.943759
0.031928
-0.704842
2.422675
0.112981
-0.780688
-0.133978
-0.438795
-0.758059
0.072448
-0.826031
1.986483
-0.044946
-1.008721
-1.139746
-0.446126
-0.008256
-0.850328
-0.271213
0.480140
-2.342136
-0.401081
-0.587263
0.201982
0.764049
-0.209206
0.038704
-0.001492
-0.908489
-0.253300
2.647246
-0.651315
-0.165961
0.343318
-0.359350
-0.562874
-0.448086
0.557749
0.749717
-0.728893
-0.313079
-0.002811
-0.149635
-1.757208
-0.571498
-0.272224
0.431658
0.157000
-0.077297
-0.304432
0.551135
-1.158428
0.094538
-0.216277
1.267451
-1.139073
0.763523
-0.633777
-1.653915
0.230391
0.566258
1.203155
1.855056
0.428878
1.418600
-0.212946
0.624596
0.046788
-0.508414
-0.061149
-0.222937
-0.826493
1.430162
1.837319
-1.578549
-0.343295
-0.355245
0.554722
1.094454
-0.208589
0.539959
-2.123494
-0.184757
-0.622240
0.439379
-0.550877
1.047172
-0.291937
-0.787904
-0.607286
-0.977725
1.033087
0.729096
-0.411370
1.215452
-0.537182
0.878694
0.448984
0.999721
-0.247597
0.052452
-1.006613
0.608837
-0.614530
-1.422761
0.866810
0.355259
0.277863
0.037136
-1.625719
-0.725862
-1.707475
-0.429450
0.776184
-1.273260
-0.273245
-0.334668
0.345102
1.086646
0.050111
-0.334922
-0.356187
-1.426032
-1.386727
0.385060
0.902382
-0.295384
0.500515
-0.004050
0.754941
0.603063
-0.146479
0.325150
-1.044511
0.187938
-0.996812
1.296005
-0.294875
0.774435
-0.960657
0.012048
-1.644217
1.051149
0.529254
-1.137777
0.869494
1.053378
0.404988
-0.095694
-0.530341
-0.496487
-0.884806
-0.819805
1.643667
1.947543
0.049867
0.127163
0.415245
0.015827
-0.084825
0.016443
-0.428570
0.303338
-0.080479
0.348176
-0.244929
1.048042
-0.552725
0.279389
0.931398
-0.311378
0.335407
-0.097716
-0.248696
0.229445
0.946853
1.394599
0.501155
0.830777
1.501523
-0.668515
-1.200989
0.303206
0.159317
0.243902
-1.456576
1.772885
-1.826608
0.296848
1.539058
-0.551292
0.898479
0.364366
-0.962294
-0.714220
0.541833
-0.508225
-0.604736
-0.079602
0.112075
-0.715906
0.075740
-1.978007
0.374350
-0.628560
-0.613028
0.270745
-1.213341
-1.020914
0.052151
0.420899
0.733538
0.876754
-1.479813
0.350867
0.903449
1.490806
0.250319
0.100328
1.238199
0.403705
-0.224085
-0.274792
0.443144
0.022393
-0.600834
-0.913777
-1.435825
0.662801
0.432427
-1.146294
-0.189437
-0.732602
0.006380
-0.040670
-1.395601
-0.471676
-0.129715
-0.766142
-0.448515
-0.239968
-0.193899
0.262844
-0.753493
0.614832
0.154277
-2.234302
0.383936
0.576880
-0.114946
-0.125788
0.068802
0.175887
0.142232
-1.088562
-0.158566
-0.005329
-1.646183
1.017908
-0.884280
-0.168276
-0.402711
-0.079372
-0.957988
0.923651
-1.168731
1.435942
0.096768
-1.627747
1.086723
1.194082
0.420051
-0.089045
-1.046590
-0.823429
0.772494
-0.313398
-0.382836
0.137321
0.549494
-0.677636
1.339965
-0.878045
-0.647510
0.288134
-1.504019
0.145917
1.858140
0.127243
0.772722
0.160547
-0.831374
0.099635
-0.786716
1.079075
-0.130104
-1.898986
0.554903
-1.079255
-1.986149
0.060229
-0.691338
0.284802
0.224034
-0.311743
0.574214
-1.273960
1.940814
0.035161
1.823792
-0.712941
-0.242444
0.201808
-1.790392
-1.383430
0.171661
-0.450307
-0.302284
-0.053462
1.123099
-0.668515
0.460617
-0.121942
-0.855793
-0.346274
-0.245009
0.693542
-0.746110
0.272810
-0.825457
0.164495
0.042071
0.822474
0.272692
-0.807404
-0.507032
1.733635
0.494384
0.316729
-0.248628
-0.039212
-0.213030
0.176974
2.058671
0.232074
0.330685
-0.680060
-1.079053
-1.928652
0.637775
-0.181251
-0.708177
0.091603
0.413391
0.023703
-0.026143
-1.382681
1.080809
-1.319777
-0.162739
-1.453950
0.191915
-0.238890
1.366199
-0.764252
0.648788
-0.288833
1.863569
0.926533
0.527536
-0.419999
-0.696980
-0.378263
-2.101917
-2.195088
-1.184509
-0.992209
0.003236
0.209650
1.984948
0.014257
0.130759
0.240815
-0.417139
-0.179689
-0.169293
-0.218538
-0.184200
-0.709203
-0.339531
-0.285269
0.817995
0.390191
1.072599
0.173595
-0.477110
0.211856
0.012628
-0.276811
-0.126382
-0.917381
-0.667561
-0.217362
0.647011
0.650730
0.423267
-0.933945
1.875286
0.477249
1.053966
0.065345
-0.935780
-2.299645
1.187912
1.450734
-0.750366
0.931924
1.790258
-0.486229
0.719630
-0.984579
-0.347048
0.279211
0.995643
1.961624
0.057514
0.897664
0.101880
-0.485126
0.168319
1.325617
-1.894504
-0.341426
-3.499587
-0.608416
-0.332812
0.311690
-0.642144
-1.103773
1.067377
-0.517361
1.508271
0.105527
-0.813051
0.800837
1.998630
0.113824
0.864545
0.211965
0.495204
-1.295115
0.203709
0.337589
1.624822
0.045105
-1.183938
0.701047
0.444757
-0.694803
0.023297
-0.192874
0.963492
-0.634196
-0.771808
-1.008001
-0.403185
-0.443607
-0.180379
1.215846
0.037617
-0.781409
-1.617950
0.575664
-0.898101
0.477810
-1.121697
0.123152
-0.377499
-0.413930
-1.190239
-2.572359
0.430842
-1.307075
-0.598640
0.333377
-0.968631
-0.639724
0.881418
-1.640557
1.555406
-0.992670
0.825365
0.258912
-1.411081
-0.675369
0.739962
0.887644
-0.205037
-0.142375
-0.993794
1.204826
-0.586029
-0.304235
-0.428394
0.259170
-0.472680
1.669082
-0.512440
0.099437
-0.183067
-0.469743
-0.171319
-1.191550
-0.301372
0.105781
0.196129
-0.302018
-0.233085
0.552092
-0.091174
0.016318
-1.628162
0.238499
-1.228047
0.122385
0.260686
-0.537526
0.415780
-0.553908
-0.120136
0.502973
-1.104002
-0.216284
0.528427
0.757821
-1.876251
0.679092
-1.309895
-1.618315
-1.362439
1.062883
1.692356
0.477158
0.996586
-0.096663
-0.300359
-0.214355
1.192596
1.360193
-1.208755
-0.913261
1.024198
-0.911209
0.288655
-0.282498
-1.167314
-1.553101
-1.468033
-0.145832
-1.677811
0.030401
0.499542
1.132886
0.716595
2.266395
-0.967660
-0.338852
1.325037
1.286351
-0.490085
-0.014732
-0.613581
-0.008232
-0.116946
0.045329
-0.063718
-1.625825
0.888016
0.836791
0.521075
0.380383
0.384874
-0.090996
0.629071
-2.292715
-1.938817
0.141481
1.655536
-0.040800
-1.229143
0.634996
-1.231353
-0.086430
1.639528
0.301546
0.880157
0.109560
0.220433
-1.230502
-1.058470
0.781934
-0.794749
-0.335728
-0.934123
-0.551270
0.056012
0.328533
-0.405756
0.169370
0.608011
0.213347
0.850506
-0.531417
1.147642
0.530661
-0.864172
0.248574
0.448402
0.595982
-0.229582
-0.182951
0.168265
0.078761
0.539871
0.702213
-0.413670
-0.833205
-0.957352
0.373174
0.886253
-0.715794
-0.224370
0.185526
-0.277235
-0.291076
0.222241
1.288280
0.134557
0.087960
0.688427
1.536200
0.660795
1.706887
-0.865583
1.284930
0.523882
-0.122978
0.386189
-0.025479
1.711276
-0.295321
1.119188
1.412408
-0.866338
-0.334430
0.206882
-1.556146
0.211055
0.090028
-0.692683
0.692613
-0.046898
0.768655
-0.140609
-1.839563
-1.191037
0.199953
-0.540366
-0.032566
-0.715442
-0.278153
0.694101
0.389425
1.449034
0.198121
0.058894
0.374609
0.266142
0.344777
-0.315448
0.161713
-0.570216
-2.482318
-1.410167
0.885925
-1.594857
0.008638
1.516028
-1.293085
1.472466
0.281539
-0.676599
-0.340818
0.362913
0.009467
0.474304
-2.570455
-0.976877
0.613282
-2.333357
-0.070875
0.358249
-0.199366
-0.814328
1.549885
-1.110823
0.839684
-0.134212
0.484962
0.556825
0.329389
-0.226564
0.919456
0.377313
-0.220220
-0.221027
-0.253923
-0.733802
-0.879524
-0.861342
0.988470
-0.404274
-0.232687
0.533251
-1.729067
1.180398
0.440245
0.809153
-0.618820
-0.397465
0.266674
0.887360
0.354388
-0.320537
-1.050845
-1.136031
-0.387180
0.247720
-1.914441
-1.437488
-0.399586
0.006810
0.753538
-1.028429
-0.262372
-0.469682
0.325442
1.471783
0.813281
1.425542
-1.210366
-0.265298
-0.123001
-0.007442
-0.007663
-0.456745
-0.039544
-0.622572
0.968106
1.152601
-0.598227
0.092778
0.719112
1.100584
-1.562371
1.512507
-0.115908
-0.105976
1.461158
0.189794
0.712700
0.937525
0.818156
0.200324
1.950763
-0.655518
-0.632608
-0.156917
-0.164351
0.905861
-0.143123
0.111927
-1.369645
-1.326128
-0.258849
0.783762
-1.293921
-0.117324
-0.412240
0.742948
-0.649602
-0.217103
-0.385943
1.202245
-0.379069
-1.082710
-0.734670
0.570101
0.588914
-0.841777
0.317039
-0.794393
0.990335
0.263835
0.004983
0.356105
-0.841520
-0.660932
1.341208
0.265182
-1.469530
-0.888747
1.556793
0.104830
-0.215483
0.184244
1.040880
-0.548672
-1.210408
-1.418723
1.043220
-0.134753
0.667843
0.217623
-0.594401
-1.120977
0.971192
0.616115
-0.922538
1.088377
0.618793
0.200046
-1.347998
-0.239844
-0.149040
-0.366484
0.271491
0.859167
1.069763
-0.916339
-0.741650
-0.574094
-0.727467
-0.891651
0.680850
-0.784959
0.085680
-0.005022
0.082052
0.257553
0.845415
-1.474185
-0.041758
0.078388
0.353549
-1.430877
-0.370724
0.490730
0.521565
0.330758
-0.938517
1.003602
0.289077
-0.291562
-0.777869
2.061775
0.590117
-0.122268
-0.701301
0.651007
-1.024522
-0.038489
-0.089218
-0.873422
1.757222
0.019835
0.936607
-0.641648
0.557903
-1.175809
0.973165
-0.404089
1.031615
-0.302256
0.783885
-0.181003
-0.784057
-0.950187
-0.315848
-0.855157
-2.176342
1.623045
-0.330467
-0.490212
1.220353
-1.265041
0.218749
0.179738
1.323428
-0.930930
-0.058990
1.179500
-1.176361
-0.190486
0.259432
-0.561744
-0.539773
0.066506
0.841826
2.042171
-1.636414
-0.589206
1.148872
-0.248262
1.786614
0.018145
-0.680220
-0.379094
-0.433424
-0.208205
-2.440281
-0.339058
-1.356812
0.619804
-2.414867
-0.185289
0.092777
-0.517689
0.647395
2.924407
0.516454
0.146060
-0.183413
-0.131549
0.051188
2.196929
-0.099136
0.770675
1.001319
-0.008768
0.256544
0.470431
-1.237588
-0.516299
-1.182455
1.464606
0.089989
-0.295963
-0.368781
-1.378250
0.882171
-1.273953
-0.982215
1.131320
-0.542663
1.318694
0.657978
-0.444420
0.312676
0.863551
-0.856232
-0.114855
0.739369
-1.333328
-2.315478
0.349409
1.310435
0.588923
-0.293163
0.441391
1.011657
-0.253656
2.195249
1.337327
1.752264
-2.040961
-0.386804
0.117821
0.333425
0.099133
-0.460272
-0.427013
0.484524
-0.250352
-0.059057
-0.596796
0.605221
-0.544846
-1.021079
-1.493845
-0.875769
-0.798391
-1.108585
0.715077
0.702952
-1.855861
0.894479
-0.503520
-0.125853
0.111285
-0.957203
-0.948610
1.080093
0.304294
2.526584
1.277154
-1.198161
0.199262
-0.847116
-0.616139
0.849069
-1.079934
-0.405904
0.385199
-0.710395
-0.844560
-0.110514
0.116396
0.206178
-0.205462
0.289011
0.264386
-0.776384
1.706705
-0.008630
0.779846
-0.050215
0.056923
0.090658
0.731193
0.323554
-1.665490
-0.116136
-0.339990
2.175753
-0.529492
-1.311008
-0.868517
-0.110789
-1.097322
0.421375
0.617564
-0.704847
-1.739205
0.079205
-0.376575
-1.029707
1.141895
0.044420
-1.585230
-0.289684
1.506903
-1.395983
-0.677119
0.261406
1.130558
0.665685
0.123009
2.116518
-0.485207
-0.297725
1.521620
-0.003836
0.322153
-0.534721
0.484041
-0.947912
0.891493
-0.440600
-1.005686
-0.449485
-0.310176
-0.121505
-0.795003
0.658724
-0.297988
-0.414479
-0.255675
-0.432850
-0.225530
-1.043325
-0.669338
-0.451431
0.712969
1.096007
-0.302819
2.128363
0.159278
-0.939327
-0.210137
2.236325
0.419659
2.481692
-0.553190
-1.212214
-0.589668
-0.161766
1.085353
0.792988
0.466153
0.142435
1.119528
-0.799723
1.070444
0.213491
-1.098276
1.130838
-0.243147
1.556909
-0.162857
-0.271789
-0.312441
-0.194746
2.077029
0.381138
-1.435911
0.902564
0.948152
-0.134435
0.752331
-1.946592
-0.932798
1.110573
-0.300205
-1.009029
0.478134
-0.632249
-0.660735
-0.560552
-0.417859
0.127012
0.284845
1.023743
2.049847
-0.501543
0.644637
0.378858
-0.269526
-2.609555
1.210011
0.482356
0.011460
-0.957821
-0.907333
-0.400521
-1.565266
-0.517759
-0.196842
-0.629425
-1.182810
0.337524
-0.029025
-0.117586
1.594603
-0.156861
-0.303292
-1.004074
0.178100
-0.948686
-1.348392
1.391257
0.039008
-0.389030
1.061636
1.804376
-0.612559
0.254161
-0.630013
-0.228754
-0.596338
0.750359
0.040594
0.112807
0.713911
-0.575645
0.446432
-0.169773
-0.963060
0.956333
0.433679
-0.223455
-0.132746
0.509260
-0.081340
0.512035
-1.291601
-0.091162
0.002140
-1.364115
-0.576167
0.413785
1.454047
-0.420218
-1.446654
2.534985
-0.116805
-0.270556
0.007888
0.573118
-0.073500
0.120481
0.722687
-0.474540
-0.100667
0.132372
-0.298783
-0.982324
-1.585452
-0.014505
1.050538
-0.086693
0.071406
-0.020373
-2.044294
0.421264
-0.338057
-0.822302
-0.125982
-0.145579
-0.375823
-0.677390
-0.217672
0.284124
-1.205774
0.794318
-0.302734
-0.290599
0.025762
-0.607575
0.594283
0.384652
-0.531074
0.353146
-0.344848
1.210432
-0.808049
1.358522
-0.828392
0.509078
0.611719
-1.497400
-0.166534
0.048535
0.859603
0.469430
0.898649
-0.114039
2.112957
0.322975
-0.102152
0.701015
-1.316303
0.022747
-0.269246
0.804317
-0.115896
0.074747
-0.832029
-0.015331
-0.393361
0.436366
-0.203642
-1.000142
-0.977291
-1.336707
-0.041799
-0.944028
-0.614763
-0.009995
1.179330
0.130743
-1.374825
0.879967
-1.869443
-0.453121
0.740435
-0.258619
-0.749042
0.079227
-0.708907
-0.034964
-0.029828
-0.727586
0.034171
0.192943
-0.015267
0.257015
0.005925
-0.364084
0.214748
0.456529
-1.339639
0.265514
-1.201101
-0.172023
-0.152858
-0.493322
-0.002801
-0.019601
-0.091884
-0.137213
-0.621348
-1.290160
-0.516797
-0.441858
0.579505
-1.087675
-0.443297
0.023736
-0.299660
-0.079530
-0.281655
-0.347912
-0.841794
-0.048662
0.411661
1.254784
0.643377
0.075636
-0.298625
-0.304260
0.200064
-0.147466
0.545194
-0.927750
0.131620
0.294095
-0.846487
0.731131
1.229485
-1.023472
-0.928021
0.781306
-0.550513
-0.697397
-0.075981
-0.167569
1.211580
-0.430012
1.953325
1.132962
1.160884
-0.193287
-0.477279
-1.500202
-0.331318
1.903905
-1.053380
0.330578
-0.065984
-0.071576
-0.355081
0.220682
-1.123000
-0.778973
0.531487
1.366012
2.614769
-0.004165
-0.096996
-1.171080
0.247311
0.386728
1.327739
-0.348120
-0.551467
0.231120
-0.316693
0.879244
-0.652639
-1.014479
-1.045062
0.158036
-1.024442
1.135697
1.041032
0.430014
-0.012906
-0.495353
0.429518
0.357910
-0.353741
1.415940
-0.650762
-2.284568
0.726721
0.545882
0.791148
-0.869954
-0.235425
-0.389843
0.741848
-1.019642
-2.140505
-0.648519
0.380398
-1.225317
-0.314889
-0.108938
-0.429329
-0.579652
-0.187720
-0.506799
1.044440
-0.781696
0.979514
-0.444282
-1.471710
0.144251
-1.028228
-2.253648
0.171329
1.320564
-0.583073
0.059962
0.498452
0.636759
-0.844845
-0.029590
1.106943
-0.478904
-1.015034
-0.352888
0.629169
-1.054121
0.141067
0.415251
-0.616392
-0.663792
-0.108352
0.117984
-0.537893
0.621966
0.483976
0.612911
-0.084852
-0.500107
1.500542
-1.748702
0.793881
0.028461
0.298427
1.051129
0.711572
-0.357173
0.470441
0.229050
-0.614403
1.041999
0.401742
0.105735
-0.071686
-0.771696
-0.800006
-0.707714
0.425348
-0.290172
-0.152557
-0.576525
0.406951
-2.801935
-0.266060
-0.195257
0.501936
0.140273
-1.942985
-0.338274
-0.900812
0.373944
-1.060415
-1.269112
0.278907
0.712217
1.235525
1.747048
-0.216733
-0.811331
0.301819
-0.708612
0.597300
-1.407284
-0.764810
-0.172480
0.857475
-0.535554
-0.395486
-0.639664
-0.425873
-1.132718
-1.326438
0.011674
-1.325398
-0.926938
-1.217135
1.762096
1.449142
-0.068024
-1.103733
-2.129423
0.288521
0.039399
-0.554715
-1.086740
-0.294520
1.820202
0.551199
-0.817613
0.472489
0.081032
0.232782
-0.557987
1.095047
0.198581
0.235096
-0.808362
-0.202495
-1.175022
-0.014580
-0.738185
-0.919789
-0.269559
-0.235653
-0.062075
-0.207074
-0.278545
1.197470
0.790818
-0.627829
-0.346823
0.274706
-0.195669
-0.516809
-0.356259
0.252858
0.202556
-0.131430
-0.931065
-0.479909
-0.861549
-0.593044
-0.328293
0.126880
0.767147
-1.092467
-1.326964
-0.655441
0.114453
-0.348980
-0.101182
-1.842664
2.280301
-0.190124
1.375074
-0.485322
1.718071
-0.446141
-0.577661
-0.921559
0.171792
-0.768620
0.465148
-0.724421
1.618624
-0.027913
3.112404
1.311312
-0.365077
-0.614626
0.625149
-1.432486
0.773794
1.546353
-1.052386
0.735506
-0.653547
-0.568207
0.319440
0.231399
-0.872663
-1.033718
0.028293
1.037128
1.434094
0.402065
-0.333321
-0.530282
-0.182659
1.031790
-0.642742
-0.429811
0.427108
1.156834
-0.358327
-1.232040
-0.794578
-0.304268
-0.698270
-0.329242
-0.848366
-0.126787
-0.024869
0.428017
0.232779
-1.134139
1.503344
-2.449357
-0.611962
1.995725
-0.382391
-0.379587
0.535411
0.288069
-0.111805
-0.481989
-0.701402
-0.933652
-1.841132
-1.475596
0.208560
-0.644482
-0.314226
-0.350905
-0.227788
-0.209727
0.012665
-0.951154
-0.553583
0.749716
3.652660
-0.510710
-0.864231
1.405914
-0.827085
-0.090167
-0.571079
-0.731357
1.068091
0.771625
0.020797
-0.642282
-1.260999
-2.534928
-1.288886
0.599049
0.682195
0.024846
0.544732
0.014477
0.340527
-1.761515
-0.907969
-0.358737
-0.280380
-0.360633
-0.138060
0.124019
0.044803
-0.364440
0.163406
-0.365126
-0.510670
0.740826
-0.687572
-2.595270
1.017236
-1.113944
1.793208
0.979487
-0.482069
-0.638416
-0.626213
1.818261
0.382522
0.989161
-1.319163
0.124150
-0.852422
-0.401690
-2.040753
1.059875
0.428733
-1.201918
0.578715
-1.008448
0.446533
-0.975204
-0.218002
-0.749759
0.157854
-0.687519
-1.889562
-0.099772
-0.558398
-0.560318
-0.551258
-0.226591
-2.160250
-0.050848
0.373976
0.715735
-0.731624
-1.266245
-0.204201
-0.580852
0.110665
-0.693486
-0.609924
-0.699446
-0.721680
-1.189652
-0.451653
0.066047
-0.181477
-0.970646
-0.552559
0.369963
-0.226237
-0.321785
-0.219560
0.689545
-0.823753
-0.496197
-0.668526
-0.058258
0.883272
0.211717
-0.647225
0.446329
-0.599292
2.034952
0.455373
-2.317453
0.673521
0.163091
-0.383849
-0.588303
-0.072213
-0.492506
-2.004904
-0.060054
0.350078
-0.853526
1.385067
0.090321
-1.074414
-0.237449
-0.386586
-0.044635
-1.406264
-0.158621
0.141591
0.681719
-1.612276
-0.350913
-0.437715
-0.610259
-0.788633
0.261356
0.274852
-3.327337
-0.568245
-1.304773
-0.095354
-1.981976
-0.259459
0.527359
0.257633
1.078048
-1.805667
-0.032785
-0.235950
-0.125658
0.742080
-0.830024
-0.747367
1.505227
-0.260759
0.492074
-1.101306
1.568295
1.043777
-0.878304
0.130793
-2.788574
-0.019862
0.863801
-0.129509
0.381513
-0.107922
3.556143
1.361433
-1.273646
-1.148651
1.136320
-2.587272
-0.329430
1.000354
-1.050890
0.092334
-0.965819
0.667104
-0.111953
-0.868282
-0.978060
-1.184641
-0.495041
0.076106
2.094075
-1.010406
-0.819659
-0.097525
0.380832
-1.043385
-0.371059
-0.676931
-0.106584
0.976522
-0.510907
-1.143273
-0.455477
-0.109627
-1.435191
-1.267136
1.176943
0.966165
-0.670177
0.091475
0.090867
0.001531
0.738349
-1.469778
-0.606771
0.118078
-0.162036
-0.366093
-0.903784
-0.271807
0.330847
0.946459
-0.166180
0.128210
-1.784537
-0.234269
0.420124
1.351005
-2.449368
0.293683
0.151572
-0.002873
0.081078
0.511458
-0.283540
0.620775
-1.315003
-0.590098
-0.287780
0.738828
-2.052812
-1.030462
-0.077050
-0.758579
0.529328
-0.737786
0.518971
-0.589864
-0.059784
-0.186279
-0.729871
-0.767559
-0.803852
0.518850
-0.082218
1.069646
-0.514439
-1.934971
-0.708701
-0.196211
0.332780
-0.450924
-0.015404
-0.066803
-0.727458
-0.433484
0.208310
-1.855129
-0.442871
-0.442670
-0.228479
-0.695869
-0.296340
-0.791877
-0.223249
0.581810
0.263187
-1.253633
-0.570353
2.226018
-0.438203
-0.574290
-2.136354
-0.530913
-0.789907
-0.278538
-1.062554
1.016637
-0.974599
-0.522661
0.303268
-1.533278
-0.687617
-1.198416
0.690394
0.606989
1.111691
0.253282
-1.423138
0.226580
-1.626784
0.579311
0.264849
-0.442577
-0.755598
1.099080
1.258986
-0.241229
-1.187219
0.237565
0.893734
-0.494465
0.162063
-0.486058
-0.005418
-0.778641
-0.841552
-0.769420
-1.745417
0.654585
-0.171074
-0.177860
-0.754103
0.224105
-0.450907
1.182385
-0.653998
1.338643
0.767175
-0.760132
-0.167283
0.248473
-1.091352
-1.991923
-1.347454
-1.233163
-0.361087
0.473925
1.406832
-1.462776
0.158964
1.208727
-0.009502
-0.684155
-1.447971
-0.798459
-0.687018
-0.362003
1.583944
0.340726
0.430339
-0.211460
0.316203
-1.128915
-0.427717
-0.085153
-0.634705
0.427469
-0.729400
-1.621933
-1.074071
-0.222256
-0.405681
0.019000
-2.205000
-0.342928
-0.193560
-4.723777
-1.727502
-1.022849
-3.180457
0.015386
0.349413
0.237669
-2.062998
0.072529
-2.196997
0.348196
0.602951
-0.208938
0.073415
-1.631092
-1.581834
1.040305
0.210205
0.802906
-0.909398
0.202074
0.102420
0.912806
-0.416270
2.031114
0.543335
-1.177822
1.045322
-0.960180
-0.910676
1.101545
1.202729
0.807874
0.129944
-0.426386
-1.829922
0.789015
0.983065
-1.612123
-0.352625
-1.803462
0.119107
-0.596433
-0.530905
0.174684
-0.998237
-0.571154
0.660065
1.444855
-0.491835
0.264534
-1.053021
-0.396599
-2.139194
0.328081
0.267943
0.938860
-0.558620
-1.750862
-0.492140
-0.051148
1.523900
-0.996282
-1.147709
-1.043163
1.720196
-0.756940
-0.344675
0.124787
1.938508
1.874120
-0.823194
-1.714393
-0.588663
0.349411
-0.273830
-2.297885
0.093797
0.009156
-0.824632
0.491775
-0.667296
-0.441797
-0.171345
-0.016865
0.349490
-1.530590
1.131677
0.119187
1.999990
-0.974299
0.883290
0.466461
1.913531
0.189607
0.090452
1.168355
1.860986
-1.966186
0.332216
-0.136654
-0.141638
-0.376174
-0.512861
-0.703739
0.359642
-1.907861
-1.975491
0.957221
0.380152
0.049076
-1.211405
-0.503348
1.229744
-0.173101
-0.598223
0.587134
-0.291707
-0.055995
-1.010834
-0.097366
-0.136104
-1.096132
-0.360578
0.088720
0.021463
0.403282
0.464056
1.371022
-1.185133
0.436900
-0.798439
0.031086
-0.503421
1.502606
-1.823883
-0.256520
0.725413
0.665313
-0.018735
-3.270958
0.329807
1.558938
-0.365008
-0.048374
2.807219
-0.643664
1.777053
1.051389
0.634391
0.430318
-2.095524
-1.787823
-0.552863
0.400560
0.791849
-1.195210
0.404197
-0.969826
-1.487573
-1.175959
-0.395861
0.121397
0.711162
0.758195
-1.518772
-0.865547
-0.638673
-0.128239
0.136108
0.420640
-1.997660
0.471808
-1.788416
-1.663530
0.679012
-1.340125
0.702532
-0.568257
2.790603
-1.149322
0.340323
0.389399
-0.420579
-1.313046
1.120126
1.911828
-2.079682
-0.551053
-0.573361
-1.340201
-0.406908
-1.576146
-0.889496
0.732300
0.115941
0.831811
-0.170769
-1.099674
-0.611467
-0.538335
-0.889130
-1.120603
0.485362
-1.037434
0.857185
0.792651
0.383666
0.091901
1.473766
0.826267
-0.151805
-0.011215
-0.025589
0.438244
-0.500941
1.978294
0.094850
-2.626121
0.228406
0.351277
-0.257095
-2.299312
-0.683691
0.538450
-1.990999
0.456985
1.682390
-1.692163
-0.691730
0.119412
-0.498312
2.011256
-1.388613
-0.811575
-1.379739
0.350642
-0.225559
-0.198638
-0.149832
0.325883
-0.188117
0.569842
-0.293002
0.312346
1.161394
0.661040
1.454751
0.825411
-0.255641
-0.555367
1.590499
0.917779
-0.593966
-0.406745
1.466114
-0.124686
0.904659
0.152737
0.085215
0.303459
1.129894
0.007388
-2.039872
0.215483
-0.236163
0.949770
0.211696
0.516741
0.072693
-1.293994
-0.541858
-0.823085
1.649756
0.042427
0.735954
0.974303
0.702030
0.158177
-1.526054
0.205388
-1.037123
-0.760541
-0.891619
-0.922764
0.075823
-0.224900
1.440845
-0.862949
-1.367439
0.883019
-0.328771
-0.168171
0.029553
-0.366014
-0.087817
0.959783
-0.257651
1.340857
0.374319
-1.488763
-0.419648
-0.415857
-0.336894
-1.619605
-0.206802
-0.041933
-0.070957
0.044912
0.096623
-0.013617
0.025239
-0.081089
-0.091433
-0.079937
0.059912
-0.053235
0.084798
-0.069609
0.000398
0.044562
0.004387
0.069978
0.000657
-0.098689
-0.021583
-0.031828
0.013573
0.096848
0.055082
0.049630
-0.082300
0.027888
0.096191
-0.070671
0.089365
0.026512
-0.012604
-0.081592
-0.028576
-0.015981
0.004791
0.096664
0.002930
0.013357
-0.083274
-0.037157
0.060122
-0.098475
-0.006767
-0.039480
0.046086
0.097620
-0.069502
-0.053256
0.098932
0.008915
0.014916
0.012505
0.005763
-0.030002
-0.037865
0.023463
0.097885
-0.041674
0.052792
0.087251
0.084838
-0.059812
-0.094341
-0.043738
0.024207
0.010450
-0.047074
-0.072862
-0.076193
-0.030348
-0.010020
0.083929
-0.028823
0.083213
-0.055551
-0.082737
0.080834
-0.025052
-0.035993
0.079765
0.083862
0.078922
-0.007730
-0.010374
-0.051080
0.054405
-0.086911
-0.053194
-0.087270
0.065881
-0.065944
0.097568
-0.093931
-0.060285
-0.046169
0.030277
0.050165
0.006756
0.057415
0.073972
0.076408
-0.052605
0.057901
-0.052415
-0.069392
-0.097650
-0.035152
-0.088558
-0.022702
0.028855
0.091208
-0.038840
0.007777
-0.016522
0.050786
0.056697
-0.062118
0.063875
-0.096497
-0.049387
0.029756
-0.062441
-0.051819
0.035825
-0.022726
0.002011
-0.033898
-0.072561
-0.091232
-0.076483
-0.098589
0.085176
-0.029089
0.059312
-0.067239
0.001520
0.061662
-0.002390
0.012962
-0.061040
-0.073536
0.004170
0.000120
0.034241
0.087647
-0.049094
-0.009061
-0.074470
-0.085219
-0.005559
-0.023858
0.044536
0.032000
0.024323
-0.019638
-0.090726
-0.073665
0.046464
-0.063287
-0.064898
0.069980
-0.061876
-0.079721
-0.059108
0.097436
-0.046960
0.042411
0.059098
0.050650
-0.044627
0.098058
0.077114
0.059543
-0.001822
0.011355
0.047190
0.049084
-0.097706
0.072720
0.063864
-0.003265
-0.051138
0.008401
-0.071265
0.073185
0.088762
-0.061990
0.099520
0.035226
-0.025277
-0.065378
0.005206
0.012847
-0.045099
0.046098
0.010283
0.007941
-0.011491
-0.030619
-0.041409
0.043883
-0.032562
-0.064295
0.003426
0.065616
0.047061
-0.049384
0.014700
0.049355
-0.076664
-0.021436
-0.053910
-0.027802
0.086965
-0.025175
-0.054617
0.075727
0.012835
-0.055097
0.010953
0.087558
-0.020475
-0.083841
0.000405
-1.065644
0.446492
-1.239226
0.064328
1.679675
1.570606
-0.604310
-0.271091
0.432572
2.080643
0.431105
1.019808
-0.200946
-2.009063
0.891411
-2.369462
-0.533393
-1.068856
2.371465
-0.765089
0.103829
-0.086673
-0.314770
-0.520036
0.374569
0.179612
-0.195918
-0.096227
-0.407006
-0.057690
0.027658
-0.211378
-2.322480
-0.981647
-0.477482
0.645945
-0.463624
0.104573
-1.139371
0.253308
-0.221510
1.045904
0.579152
-0.412011
0.210661
0.859544
-0.028962
0.129172
0.695525
-0.336659
1.073547
0.471570
-0.831689
0.466594
-1.131469
-0.351562
0.501242
0.345498
0.033266
0.276406
-0.038252
-0.690114
-0.110074
0.582574
0.946795
1.132187
-0.165354
0.924608
-0.181139
-0.454307
0.600052
0.613737
0.542389
-0.449592
-0.476054
-1.090107
0.336242
0.261015
0.536779
0.014986
-0.509363
-0.167879
-1.196025
-1.698276
-0.159319
-0.257529
0.066771
-0.357333
-0.294303
0.473331
0.844406
-1.093587
0.617800
1.219436
0.921360
1.025386
-0.651929
-0.592803
0.062780
-0.003491
0.396079
0.147772
0.292170
-0.244366
0.306103
-0.431968
-0.479047
0.210265
0.318128
-0.395228
0.545413
0.007111
-0.419837
-0.015278
0.103585
0.722501
0.567067
0.095820
-0.843858
-0.174002
0.352101
-0.444446
-1.464860
0.601483
-0.407333
0.855067
-0.696007
-0.644969
0.021213
0.518451
