0.071878
-0.021354
0.059077
0.058739
0.082801
-0.057079
-0.031208
0.052891
-0.041646
0.010174
-0.005047
0.028807
-0.023469
0.001689
0.091513
0.085369
0.025923
0.043731
-0.067016
0.023818
-0.095915
-0.046758
-0.067834
0.061282
-0.066105
-0.013814
-0.070206
-0.075359
0.102018
-0.051572
0.007492
0.067189
0.026876
-0.038753
0.027243
0.006281
0.000564
0.093430
-0.042201
0.057392
0.000936
0.056738
-0.019626
0.080916
-0.040033
-0.030210
0.058358
0.089021
-0.086360
0.092495
0.002070
-0.080789
-0.059191
0.036678
0.076787
-0.026237
-0.086045
-0.097006
-0.011144
-0.084985
-0.049113
0.094829
0.083505
0.070873
-0.048932
0.013405
-0.023315
0.052534
0.004429
0.035427
0.006458
-0.092759
-0.007004
0.090972
0.086552
0.046741
-0.042400
0.047318
0.032476
-0.028157
0.039992
-0.063399
-0.005589
0.076065
0.069224
-0.028140
-0.049267
0.083613
-0.027796
0.032525
0.092492
0.014000
0.032973
0.074463
-0.011220
0.088377
-0.016950
0.062742
0.042780
0.084095
-0.000677
-0.057936
0.089011
0.088052
-0.070954
0.074909
0.028447
-0.010141
0.028574
-0.042084
0.058099
-0.035042
-0.011101
-0.049626
-0.062880
-0.040934
0.010880
-0.014438
-0.062567
0.082249
-0.080923
-0.075387
-0.001963
0.050909
0.096177
0.088381
0.037483
-0.022806
0.049891
-0.027525
-0.042637
-0.053754
0.019658
-0.049153
-0.068409
0.051744
-0.069740
0.059573
-0.063882
0.053489
-0.084559
0.088111
-0.090016
0.004914
-0.064864
-0.052852
0.059181
0.047374
0.034221
0.090811
0.029085
0.055993
-0.077514
-0.071727
0.006447
-0.081880
-0.083105
-0.060638
-0.003624
0.066163
0.014430
0.051856
-0.082936
-0.065837
0.095740
-0.058868
0.082306
-0.070622
0.101704
-0.084515
0.072431
-0.081038
-0.098622
0.084467
0.023799
-0.059613
-0.062387
-0.019197
0.083285
0.067321
-0.027443
0.017051
0.016628
-0.008833
0.038117
-0.075971
0.008137
0.052000
-0.038651
0.104566
0.013489
0.073166
0.052989
0.027338
-0.091275
0.048524
0.067817
0.085589
0.078772
0.064134
0.097445
0.053209
0.082668
0.097690
0.036288
-0.002066
-0.066443
0.069163
0.080965
-0.081331
0.035197
-0.047136
0.023950
-0.053705
0.042066
-0.036680
-0.029183
-0.054247
-0.085982
0.024964
-0.051650
0.032371
0.000098
0.093046
-0.044156
0.012005
0.043834
-0.076233
-0.006666
0.018743
0.090910
-0.009310
-0.033809
0.070899
-0.014060
-0.100059
-0.028966
0.021754
0.065430
-0.053322
0.036434
-0.004009
-0.003621
-0.036273
0.043336
-0.062888
0.026964
-0.089167
-0.017524
0.040752
0.038470
0.029991
-0.028882
-0.061942
0.025052
0.028793
0.044951
-0.031254
0.049004
-0.059715
0.084393
0.038439
0.029225
-0.049730
0.008042
-0.086141
-0.046401
0.075362
0.038409
-0.078781
-0.078013
-0.029681
0.018555
0.018701
0.034749
-0.045145
0.055909
-0.041019
-0.031277
-0.063085
0.099042
-0.098177
0.064320
-0.036464
-0.060505
-0.011056
0.092356
0.085259
0.053817
0.037776
-0.072607
0.037903
-0.022905
0.055561
0.089579
0.083516
0.071551
-0.055039
0.061401
0.008745
-0.038630
0.081252
0.081278
0.077788
0.000489
0.016865
-0.065328
-0.041447
0.072611
0.000351
-0.003887
0.073194
0.002194
-0.040697
-0.067447
0.037020
0.042710
-0.071174
0.022283
-0.001182
0.069977
0.047346
-0.064831
-0.051900
0.000933
-0.073943
-0.072977
-0.028761
-0.033049
0.086550
0.081086
0.024040
0.069253
0.066739
0.000174
-0.032684
-0.018630
0.031743
0.025691
-0.048999
-0.066763
-0.085489
-0.076760
0.032296
-0.026930
-0.044057
-0.034227
-0.082267
-0.015535
0.086375
0.017860
-0.046069
0.031836
0.051552
-0.002992
-0.069681
0.075768
0.026384
0.004430
-0.057842
0.015382
-0.011535
0.066175
-0.019317
-0.048546
-0.033829
0.044609
0.026857
0.097245
-0.032333
0.078889
-0.073472
-0.017031
-0.097324
0.054179
0.055523
-0.038449
-0.074290
0.073767
0.045163
-0.088810
-0.008378
0.095455
0.044002
-0.057005
-0.005147
0.073378
-0.076824
-0.078656
-0.026416
-0.040350
0.034527
0.064828
-0.072323
-0.086672
-0.090414
-0.006015
0.055893
0.038178
-0.008049
-0.073710
0.021000
0.017432
0.006649
0.020700
-0.027585
-0.035038
0.078447
-0.004812
-0.065761
0.024443
0.005999
0.024062
0.019291
-0.049455
0.064385
-0.087846
-0.078056
0.085876
-0.064762
-0.004539
-0.054358
0.065745
-0.039023
-0.029983
0.076937
-0.028315
0.063455
0.031464
-0.090780
-0.050045
0.055615
0.026713
0.069541
-0.035868
-0.051636
-0.058659
0.020349
-0.077830
0.035669
0.056274
0.046825
-0.060306
-0.020831
-0.038613
-0.011215
-0.052034
-0.024706
0.005503
-0.069398
0.014026
-0.097557
-0.022479
-0.024325
-0.039201
0.049781
-0.046366
0.029240
0.011893
0.082851
0.036406
0.064238
0.041344
-0.038339
0.030204
-0.097495
0.004364
0.068517
0.026771
0.031015
0.003966
-0.016049
-0.023459
0.043970
0.061583
0.040584
-0.066693
-0.091377
-0.085811
0.040535
-0.059196
0.023363
0.043103
0.015271
-0.100488
-0.097752
-0.038393
-0.049114
0.030494
0.073609
-0.067950
-0.030100
0.033572
0.077458
0.032823
-0.038860
0.073808
-0.058851
-0.069262
0.002304
0.062705
0.036643
0.081798
-0.058579
-0.022458
0.044659
0.073072
0.008012
0.045736
0.087415
-0.050592
0.085036
0.012330
0.085873
-0.003546
0.015174
0.088387
0.060027
0.064439
0.019653
0.031248
0.098466
0.090422
-0.031375
0.075392
0.019108
0.028433
0.051465
0.058505
0.058831
-0.046460
0.023550
-0.000504
-0.067499
0.061981
0.077676
0.077473
0.036708
-0.015913
0.017966
0.019833
0.025058
0.007793
-0.068913
0.015833
-0.091163
0.041971
0.003475
0.070792
0.003623
-0.075709
-0.003315
0.000876
-0.086910
0.061314
-0.024940
0.027323
-0.007563
-0.067663
-0.016346
-0.050262
-0.016661
-0.097415
0.046557
0.014177
0.064570
0.015085
-0.009453
-0.003247
0.099445
-0.089552
-0.086363
0.026353
0.017856
-0.056917
-0.055608
0.025598
0.084800
0.047220
-0.009682
-0.013941
0.069548
0.092753
0.091372
0.080137
0.056917
-0.029181
0.007845
-0.053352
-0.000572
0.088927
-0.009478
0.076715
0.093262
-0.063907
-0.010469
0.055764
0.053399
0.083217
-0.051133
0.052647
0.095345
-0.030854
-0.018975
0.013970
0.012208
0.026345
-0.063102
-0.001180
-0.026212
0.029397
0.083468
-0.052469
0.023421
0.069114
-0.077440
-0.022265
-0.057555
0.030729
0.021873
0.033225
0.022882
-0.088255
0.011689
0.016562
-0.048118
-0.092399
-0.029869
-0.098889
0.087703
0.020422
0.059242
0.077773
0.086842
-0.065338
-0.007635
-0.000787
0.058598
0.028201
0.097602
-0.071505
-0.044055
0.078538
-0.026520
0.080102
0.048234
-0.003968
-0.045455
0.091895
-0.077595
0.073311
0.027183
0.045319
0.086085
-0.061181
-0.045060
-0.066392
-0.056668
0.026865
-0.062701
-0.071310
-0.051766
0.087404
-0.097583
-0.066232
-0.076535
-0.004062
0.028291
0.082043
-0.081332
0.025359
-0.085073
-0.023185
-0.002598
-0.013116
-0.038158
-0.051592
0.084210
0.012488
-0.062006
-0.090467
-0.011910
0.062148
0.052421
-0.029663
0.098921
-0.090350
0.006881
-0.060536
0.033533
0.041486
-0.036593
0.077753
0.032802
-0.029056
-0.089540
0.057454
0.065044
0.040049
0.037880
0.086202
-0.034365
0.052804
-0.038708
0.065622
-0.058521
0.017862
-0.085921
-0.077806
-0.069164
-0.049877
-0.071949
0.016475
-0.088909
0.080302
0.084866
-0.086854
0.085276
-0.004267
-0.046168
0.016018
-0.069455
0.021153
-0.005330
0.064978
0.082130
0.007047
0.017699
0.049342
-0.056290
-0.043470
0.026280
0.006312
-0.098743
0.087492
-0.027502
-0.058932
0.006861
-0.020391
-0.040933
0.040944
0.029870
-0.011116
-0.044388
0.041637
-0.033522
-0.057604
0.055523
-0.044350
0.037392
-0.095210
0.069956
0.070164
0.023879
-0.035663
0.034848
0.008274
0.075365
-0.050650
-0.045670
-0.080320
0.006147
0.082096
0.024063
0.001670
0.064924
0.087757
0.047673
-0.029516
-0.027811
-0.088660
-0.093130
-0.099064
0.002126
-0.040552
0.043673
0.062777
0.000355
-0.002862
-0.085705
-0.063570
-0.003321
0.087025
-0.087517
-0.081872
-0.050565
0.044564
0.021390
-0.077962
0.091836
0.075839
-0.068080
-0.003398
0.053107
0.056063
-0.099883
0.014608
0.045609
0.047226
0.083223
-0.080065
0.057259
0.089571
-0.079925
-0.047166
-0.053721
0.061515
-0.078551
0.051092
-0.044057
-0.061414
0.091957
0.052837
-0.077628
0.100394
0.068225
-0.034292
0.038339
-0.008700
-0.013645
0.028932
-0.035439
0.020363
-0.071519
-0.086366
-0.023885
-0.069661
0.034987
-0.076352
0.078180
0.018065
-0.055664
0.032412
0.009287
-0.035549
0.087454
0.053975
-0.069798
-0.090005
-0.001031
-0.019476
-0.054352
-0.006490
-0.066325
-0.034656
-0.015274
-0.094993
0.030094
-0.075085
-0.003429
-0.079536
0.060205
0.058810
0.036463
0.085230
0.073762
-0.081925
-0.090099
0.005777
-0.064369
0.088650
-0.076267
-0.022656
0.019737
0.032576
0.037599
0.005298
-0.016283
0.065014
0.016029
0.083087
-0.054637
0.057954
-0.022254
-0.025707
-0.080077
0.064538
-0.020734
0.050769
0.089065
0.068348
0.066639
0.045832
0.029024
0.005568
0.028666
0.003411
0.013834
0.034179
-0.092331
0.050785
0.023894
-0.073473
-0.072126
-0.062285
0.058302
0.069910
0.045131
-0.064963
0.032998
-0.034058
-0.079248
0.079633
-0.080387
-0.003944
-0.043094
-0.058454
-0.043160
0.033646
0.088586
-0.056269
0.003987
0.058313
0.086394
-0.070570
-0.039404
0.010515
0.028937
0.078522
-0.051024
0.035328
0.030025
0.070852
0.062932
0.056555
-0.088885
0.021312
0.025927
0.054580
0.058914
-0.039082
-0.085183
0.079634
-0.063606
-0.064693
-0.026805
-0.010159
-0.025495
0.028885
-0.077275
-0.039070
0.076078
0.021729
-0.077059
0.063858
0.048867
-0.023364
-0.022141
-0.021613
-0.043478
0.016902
-0.084643
0.081972
-0.010001
0.074980
0.038613
-0.007656
-0.006846
-0.043844
-0.053450
-0.047838
0.015547
-0.037224
-0.074825
0.047591
0.000996
-0.001739
-0.061242
0.073508
-0.071989
-0.041406
-0.063692
-0.095117
0.084208
-0.041792
0.063617
0.030860
0.037153
-0.060984
-0.090588
0.093593
0.058022
-0.071573
0.071886
-0.055482
0.103982
0.011072
0.037920
-0.005004
0.061182
0.079274
0.038553
-0.018164
-0.059233
0.068063
-0.066164
0.037277
-0.035439
-0.025515
0.007776
-0.006301
0.026896
0.042305
-0.004351
0.007307
-0.100372
-0.046240
-0.058972
0.042740
-0.009843
-0.052122
0.033319
-0.056827
-0.026082
0.002420
-0.011843
-0.032184
-0.088179
-0.078754
0.062502
0.074431
0.096449
0.002881
-0.044471
-0.065055
-0.027256
-0.012107
0.071089
0.036442
0.055513
-0.024285
-0.072302
-0.012246
-0.077552
0.020819
0.097857
-0.073583
0.074473
-0.065145
0.064642
-0.037595
-0.023118
-0.009238
0.006648
0.048646
0.092570
0.091398
-0.081802
-0.093348
-0.091991
0.080329
0.083232
-0.088832
-0.015259
-0.061145
-0.054118
0.058079
0.023146
-0.081657
-0.005755
-0.019003
-0.007573
0.026309
0.069408
0.008607
-0.059159
0.064264
0.037926
-0.083950
0.096442
-0.006784
-0.019108
-0.028078
0.085867
0.087720
-0.075600
0.084533
0.076981
-0.061641
0.087405
0.086153
-0.076339
0.064714
0.094106
0.002133
-0.095633
-0.060526
-0.042453
0.025951
-0.042412
0.047562
-0.095110
0.047126
-0.028999
0.075328
-0.044095
0.011540
0.035270
0.094867
0.022778
0.028392
-0.009946
-0.096532
0.100252
-0.024806
0.083618
-0.079660
-0.044180
0.062611
-0.039174
-0.058562
0.048895
-0.025771
-0.098538
0.041345
0.077608
-0.093416
0.076335
-0.065536
0.026304
-0.067298
0.086560
0.033184
0.072477
-0.045129
0.013184
-0.069197
0.068057
-0.056408
-0.076878
-0.006188
0.073586
0.008319
-0.005001
0.070762
0.081311
-0.019844
0.094724
-0.066293
-0.061713
-0.048570
-0.028905
0.083772
0.030086
-0.024552
0.023844
0.007744
-0.019936
0.000702
0.041395
-0.090812
0.033639
0.026540
0.040822
0.008592
0.083847
-0.052535
0.039239
0.046561
-0.007356
0.058806
-0.062720
-0.036053
-0.034018
0.030502
-0.067833
-0.048652
-0.094885
-0.069923
-0.013268
-0.058074
-0.025882
0.060568
-0.074305
-0.094864
-0.074030
0.050744
0.008499
0.008540
-0.051763
-0.051469
0.009710
0.078455
0.066020
-0.050364
-0.013651
0.048632
-0.001733
-0.080566
-0.009500
0.093268
0.077707
0.028427
-0.045083
-0.055152
-0.044285
-0.011063
-0.002862
-0.035288
0.017365
0.077706
0.003517
0.093904
0.035033
0.030097
0.099413
0.062936
-0.016097
0.003283
-0.032407
0.032700
0.052932
0.077533
0.008666
0.012292
-0.078975
0.086698
-0.033646
0.018022
-0.090406
0.060937
0.006937
0.084438
-0.008826
0.058766
-0.069524
0.040053
-0.054543
0.023074
-0.098646
0.062687
-0.005244
0.007895
0.062676
-0.073081
-0.065688
0.058673
0.084793
0.016549
-0.042164
-0.046544
-0.061457
-0.091393
-0.073848
0.046235
0.021583
-0.058132
0.034786
0.086872
0.056963
0.045686
0.046131
-0.038371
0.028987
-0.070132
-0.083412
0.056632
0.074355
-0.033662
-0.022547
0.078599
-0.066758
0.071624
-0.019050
0.090613
0.097129
0.009798
0.041020
0.081940
-0.077222
-0.100667
-0.069546
-0.037552
-0.090987
-0.049204
-0.091812
0.033497
-0.000574
0.043842
0.019608
-0.044116
-0.010226
-0.038885
0.018442
-0.081993
-0.006400
0.033305
0.079266
-0.032172
0.093078
-0.050745
-0.056851
-0.070228
-0.077748
0.021436
-0.089397
-0.079322
-0.071041
0.053603
0.102648
-0.044685
0.058545
-0.068755
0.013728
0.063181
-0.017080
0.026006
-0.009659
0.078619
-0.036862
-0.088889
-0.066697
0.050116
-0.029734
0.051970
0.063824
0.061381
-0.017824
0.040108
-0.069212
-0.025001
0.088795
-0.031478
0.005581
-0.093933
0.086678
0.018024
-0.073768
-0.085890
-0.029748
-0.079014
-0.034484
-0.075908
-0.045493
0.080835
0.086618
0.036654
-0.004407
-0.028401
0.013396
0.059940
-0.017000
0.042907
0.008648
0.046408
-0.007173
-0.022764
0.009644
0.067039
-0.086716
0.044354
-0.056102
-0.096378
-0.092229
0.046208
-0.087416
0.095262
-0.041569
-0.063405
-0.093237
0.026111
-0.040902
-0.024302
0.046831
0.008348
-0.048151
0.028449
-0.058447
0.051900
-0.097550
0.053734
0.011667
-0.017085
-0.003441
-0.080533
-0.067706
0.089229
-0.005481
0.040434
0.058334
0.010153
-0.021764
0.102082
0.008410
-0.012389
0.044707
0.017915
-0.019402
-0.097999
0.052711
-0.015185
0.032185
-0.093739
0.063685
-0.019300
0.013159
-0.091851
-0.088130
0.054700
0.060972
-0.095714
0.009624
-0.031731
-0.010288
-0.097016
-0.013660
0.014018
0.088791
0.071805
-0.046454
0.046409
-0.019268
0.032944
0.042355
0.084449
-0.077101
-0.013476
0.002995
0.001193
-0.010306
-0.047508
0.087862
-0.077176
-0.037368
0.049888
-0.002658
0.072656
0.060465
0.005957
0.028260
0.021819
0.012170
-0.059070
0.085445
0.098002
-0.055527
-0.027079
0.012227
-0.069230
-0.061938
0.059614
0.068880
0.024226
-0.008705
0.014677
0.012752
0.009850
0.098316
-0.082445
-0.092033
-0.010797
-0.036794
0.093572
0.007453
0.022446
0.043350
0.098771
-0.001875
0.009902
0.001853
-0.077315
-0.071700
-0.091026
-0.038029
-0.090398
-0.091946
-0.004261
-0.019646
0.015445
0.025519
0.019083
-0.030261
-0.003741
-0.057760
0.058094
-0.087770
0.053310
-0.034349
-0.090594
0.063427
-0.030205
-0.004226
-0.068961
-0.032340
0.100989
0.056373
-0.084780
0.099162
-0.051071
0.019801
-0.000371
-0.033831
0.039823
0.008590
0.024542
0.049931
0.011674
-0.078609
-0.068675
-0.078704
0.046416
0.053326
-0.002208
-0.056472
0.094783
-0.044622
-0.044006
0.043452
0.021946
-0.035362
0.009499
0.090018
0.065042
0.040396
-0.048888
0.058546
-0.006506
-0.030201
0.059099
0.039766
0.079822
-0.040005
-0.096358
0.021627
0.068615
0.031754
-0.022854
-0.021553
0.049121
0.004086
0.000614
-0.000395
-0.048928
0.094673
0.036421
-0.052971
-0.051162
0.089623
0.088516
0.071019
-0.050036
-0.004471
0.057943
-0.087976
-0.062481
-0.091206
0.069999
0.025580
-0.020605
0.024122
-0.037929
-0.038945
0.083599
-0.035843
0.081292
0.044327
0.092021
-0.046283
-0.074945
0.042719
0.057177
0.024876
-0.068932
-0.097117
0.017671
0.068697
-0.049809
0.062739
0.056895
-0.068156
0.031695
-0.088375
0.029223
-0.018334
-0.080436
0.070684
-0.007681
0.091143
-0.008884
0.068451
0.018164
0.053997
-0.076352
-0.000443
-0.084425
-0.097621
-0.054622
-0.088935
-0.047294
-0.034870
0.049055
-0.095070
0.086586
0.084606
-0.089852
0.003054
0.053101
-0.042176
-0.034321
0.009169
-0.007343
0.097241
0.018574
-0.079627
-0.019024
0.040521
0.084436
0.073145
0.026214
-0.022808
0.037925
-0.058700
-0.071099
0.060427
0.038992
-0.058103
0.066920
0.078769
-0.043898
-0.078673
-0.057522
-0.102278
-0.071071
-0.070983
0.083224
-0.070990
0.033224
0.031942
-0.010641
0.095690
-0.060374
0.074042
0.089486
0.049077
0.093470
-0.030319
-0.011622
0.079052
-0.063315
-0.090147
-0.041445
0.074049
-0.048258
-0.014872
0.035641
0.087483
0.028877
0.003510
0.070129
0.083280
0.018573
-0.090599
0.083435
0.044189
-0.060641
0.067059
0.075113
0.075599
-0.005711
-0.039448
0.071846
0.035082
-0.065252
0.058798
-0.022567
-0.078009
-0.079828
0.071260
0.099771
-0.039759
0.085179
-0.046026
-0.068674
-0.061285
0.036012
0.068164
-0.080701
-0.037411
-0.033012
0.086042
-0.054206
0.079491
0.098482
-0.064674
0.020774
-0.065934
0.098928
-0.009184
-0.091942
-0.011019
0.052478
0.069123
-0.078156
0.082374
0.026882
-0.000097
0.098958
0.048915
-0.029930
0.095747
-0.089574
-0.046459
-0.052643
-0.059418
-0.015232
0.079482
-0.094127
0.008426
-0.053645
-0.029370
-0.002633
-0.003648
-0.050513
-0.009826
0.026294
0.068912
0.018799
0.016852
-0.040357
0.023159
-0.093596
-0.092958
-0.006651
-0.070787
0.083512
-0.080280
0.032075
0.089237
0.069448
0.101305
0.084445
0.080070
-0.049867
-0.067316
-0.080139
0.037534
-0.089573
-0.069616
-0.054232
-0.049821
-0.006564
0.039826
0.050028
0.044345
-0.072666
-0.033510
0.014445
0.043769
0.085340
0.074106
-0.029519
0.097291
0.079319
0.059803
-0.077934
0.063673
0.083546
0.047757
0.049132
0.046230
0.050249
0.032315
0.023492
0.098386
0.065257
0.039025
0.033395
0.072553
0.066406
0.080789
-0.077559
-0.040756
0.015104
0.073252
-0.101418
0.039138
-0.058425
0.012488
-0.018736
-0.074545
-0.021346
0.047865
-0.082037
-0.039734
0.009212
-0.060546
-0.076928
-0.018593
0.081792
0.070307
-0.071162
0.032288
-0.001129
0.050841
0.023752
-0.037993
-0.005350
-0.041016
-0.073467
-0.043123
-0.056338
-0.049210
0.017681
0.053590
-0.079278
0.019156
-0.006515
-0.043635
-0.070571
0.072186
-0.020770
0.009576
0.023499
-0.006205
0.064476
-0.072066
0.028229
0.084117
0.013823
0.012323
0.053211
0.042436
-0.057952
-0.048069
-0.007556
0.068795
0.013767
0.084821
-0.073723
0.042339
-0.055931
-0.036682
0.092979
0.056300
-0.081453
-0.089969
-0.027622
0.009744
-0.034750
-0.000058
-0.020649
0.048594
-0.096083
-0.094011
-0.055910
0.066973
-0.073511
0.074992
0.051043
0.041208
-0.022752
0.005407
-0.020740
0.021821
0.054124
0.070219
-0.017358
-0.035555
0.045917
0.007974
-0.093996
0.088765
0.072437
0.092841
0.040327
0.093296
-0.097688
-0.086706
0.000711
-0.031274
0.009985
0.081915
-0.081731
0.017779
0.086205
-0.043904
-0.018455
-0.084874
-0.072226
-0.066470
0.056734
0.006937
0.041952
-0.068718
-0.075163
-0.003366
0.102668
0.007633
0.058546
0.041859
-0.090620
0.056242
0.036073
0.080545
0.052468
-0.019535
0.069489
0.051814
-0.004447
-0.032889
-0.078263
0.098639
-0.053274
-0.064680
0.013031
-0.067145
-0.014654
0.097615
-0.045922
0.010214
-0.072630
-0.092645
-0.087920
0.067714
-0.065599
-0.061973
-0.046433
-0.065151
0.040809
-0.088927
0.077334
0.044782
0.069176
0.012314
0.022345
0.022913
0.091072
-0.010530
-0.026442
-0.020864
0.052693
-0.007578
-0.017867
-0.096296
0.025511
0.098063
-0.059239
-0.089777
0.090004
-0.010544
0.019090
-0.088068
-0.011559
0.031084
0.075949
0.023413
0.064032
-0.069417
0.059228
-0.001064
-0.058854
0.039521
-0.049515
-0.088866
-0.049005
0.072291
0.034244
-0.062647
-0.037358
-0.092989
0.019121
-0.086403
0.004082
0.101063
-0.089303
-0.077984
0.095817
-0.045044
-0.066339
0.083155
0.034579
0.053939
0.092722
-0.074981
-0.014960
0.072225
0.053978
-0.052757
0.098781
0.008768
0.047021
-0.056051
-0.058095
0.093728
-0.051680
-0.005914
0.064756
0.079755
0.029443
-0.072344
0.082437
-0.053959
-0.061878
-0.016483
-0.051271
-0.051471
0.004934
-0.060965
0.004267
0.033588
-0.081111
-0.059321
-0.013012
-0.090031
-0.035762
0.064088
0.078313
-0.086566
-0.086377
0.078638
0.021627
0.059778
-0.088764
0.058113
0.051609
-0.039243
-0.047554
0.012615
-0.060977
0.074968
0.038149
-0.073755
-0.077154
0.068245
0.005583
-0.024537
-0.081410
-0.087923
0.009323
0.019536
0.048558
0.028969
0.054284
-0.066670
0.036376
-0.084069
0.098912
0.018137
-0.074033
-0.092830
-0.008002
0.042573
0.063517
0.007716
0.002988
0.013912
0.068247
0.052871
-0.073624
-0.093563
0.030834
0.064355
-0.069591
0.052178
0.034639
0.038363
-0.078980
0.053079
0.044990
0.031983
-0.031056
-0.009530
-0.041335
-0.077919
0.021935
0.092461
-0.057874
0.015246
0.013737
-0.030206
0.020996
-0.101699
-0.084960
-0.015534
0.006913
0.007961
0.099532
-0.029224
-0.036643
-0.077306
-0.024271
0.086217
0.083603
-0.002985
0.037450
0.017462
-0.065843
0.059615
-0.035601
0.074408
-0.006091
0.032782
-0.034533
0.050245
0.056029
0.084152
0.044559
0.099104
0.003275
-0.043403
-0.037365
-0.078936
-0.042670
-0.025638
0.006471
0.064643
0.084237
0.009019
-0.069293
-0.056327
0.032270
0.007603
-0.069956
0.013340
-0.102109
0.061266
-0.077506
-0.062503
0.019610
-0.009722
-0.084030
-0.090833
-0.079905
-0.016769
0.056323
0.077321
-0.039516
-0.001418
0.071739
0.060372
0.055103
-0.071696
0.084475
-0.081470
-0.000240
-0.012829
0.079715
-0.021075
0.094582
-0.093814
0.023709
0.016071
0.011569
0.048901
-0.071628
0.010087
0.004760
-0.047273
0.046491
-0.078612
0.044274
0.060754
-0.071809
0.063200
-0.063504
0.080626
0.037648
0.001338
-0.016508
0.007156
-0.035391
-0.057202
0.034826
-0.056590
-0.044056
-0.066762
0.025140
-0.072710
0.012078
0.016024
-0.065953
-0.069293
-0.066838
0.046582
0.073703
-0.038977
-0.040373
-0.014769
0.014563
-0.094722
0.006079
-0.040966
0.061318
0.035152
-0.078557
-0.099553
0.014039
0.063741
0.001594
0.090929
-0.036681
0.062895
-0.062776
0.099567
0.103638
-0.016664
-0.066007
0.026413
0.012624
0.046088
-0.054009
0.052217
0.074966
-0.024873
-0.005639
0.049512
0.040173
0.047604
-0.069036
-0.052027
0.054069
0.035781
0.004198
0.013391
-0.028809
0.021313
0.011314
0.082100
-0.017949
-0.085467
0.072737
0.044773
0.071917
-0.089256
0.039333
0.072255
-0.004088
0.072787
-0.002974
-0.092924
0.010935
0.039137
0.054511
-0.011806
-0.084192
-0.051703
-0.063162
0.044630
0.090482
-0.034094
0.093803
0.044798
0.097936
-0.003487
-0.048734
-0.032995
-0.077389
0.064417
-0.058922
0.000483
0.082839
-0.084369
-0.053185
0.049581
-0.076945
0.089042
0.022593
0.013035
0.059613
-0.082944
0.017521
-0.027959
0.059641
-0.031366
0.054870
0.070671
0.011910
0.088277
0.019783
0.004695
-0.047031
0.013361
-0.053071
-0.049247
-0.090960
0.001191
0.017588
-0.070622
-0.035893
0.060705
0.032232
-0.059675
0.076186
0.073597
0.091545
0.095570
0.059561
0.011851
0.007459
0.017309
0.026328
-0.070906
0.083749
-0.010892
-0.000571
0.037199
-0.047655
-0.085988
0.025429
0.073024
0.008641
0.079551
-0.017999
0.058095
-0.072909
-0.010443
-0.048688
0.041233
0.009812
0.014474
0.001158
-0.059177
0.055944
-0.028798
-0.090318
0.049801
-0.033788
0.069832
-0.040677
0.074836
-0.016110
0.087504
0.104879
-0.028484
-0.025088
-0.001955
-0.094492
0.029690
0.008744
0.031878
0.003114
-0.080701
0.014444
0.080404
0.073473
0.042092
-0.028872
-0.075061
-0.019209
0.074213
0.033185
0.073641
-0.079515
-0.012143
-0.051772
-0.065768
-0.066693
0.011475
-0.094142
-0.010459
-0.012492
-0.017152
-0.025256
-0.012299
0.050978
0.049582
0.079675
0.059525
-0.014632
-0.014487
-0.012373
0.085025
-0.000259
0.100463
0.061192
-0.025676
0.031774
-0.069900
-0.005589
-0.088474
-0.095061
-0.077811
0.087029
-0.075669
0.007065
-0.063473
-0.043144
0.038008
0.046833
-0.044775
-0.076339
-0.068532
0.042431
0.002689
0.016938
-0.003691
-0.043527
-0.004021
-0.049841
0.036458
0.080144
0.032345
0.013114
-0.020200
0.029110
-0.025123
0.049044
-0.038048
0.005942
-0.062450
-0.027032
0.013840
-0.033493
-0.039191
0.037331
0.073033
-0.002467
0.089473
0.011922
-0.056425
-0.052669
0.033843
-0.020308
0.089571
-0.070070
0.089052
-0.017429
-0.010100
-0.013547
0.030064
-0.083474
-0.032215
-0.039956
0.031638
0.047602
0.092708
-0.087939
-0.005183
-0.049367
0.013565
0.033210
0.027623
-0.078978
0.095938
0.081669
0.059539
0.067709
-0.023607
0.047016
-0.020112
0.015640
0.091823
-0.089399
0.092329
0.083019
-0.059760
0.080783
-0.039921
0.030923
-0.037772
0.086843
0.049282
0.029475
-0.054756
-0.020540
-0.030864
-0.065929
-0.013261
0.066246
-0.013752
0.099729
-0.001411
-0.097479
-0.084668
-0.007369
0.085390
0.075118
-0.043411
-0.039705
0.015212
0.034355
0.080719
0.008873
0.036930
0.068869
-0.004219
0.078986
0.051212
0.050685
0.006589
-0.083666
0.038285
-0.050060
0.043593
0.080966
0.026809
-0.085777
-0.081515
-0.089850
0.075103
-0.000043
-0.095142
-0.029739
0.006959
-0.077507
0.061678
-0.007876
0.095047
-0.081884
0.051586
0.013255
0.052301
0.030032
-0.079375
-0.008730
0.001272
0.009786
-0.029894
-0.052966
-0.037890
0.073024
-0.039710
0.098107
-0.078183
0.102017
0.076494
0.052740
-0.089361
0.098119
0.064592
0.084322
-0.009359
0.072123
-0.045463
0.098496
0.084549
-0.082632
-0.013763
0.082120
-0.067730
-0.063662
-0.012599
0.081125
0.057247
0.007082
-0.028386
-0.042701
-0.081987
0.035578
-0.000405
-0.017566
0.008042
0.060473
-0.021787
0.031024
0.059240
-0.043441
-0.015286
0.073756
-0.047021
-0.056958
0.054872
0.046052
-0.088148
-0.089650
0.044948
0.098314
-0.069266
-0.073527
0.076514
-0.036439
-0.036022
-0.035930
-0.057847
-0.085501
0.064924
0.005459
-0.022753
0.081665
-0.055577
0.080907
-0.040252
0.049500
0.043174
0.034871
-0.018279
-0.004485
0.089130
0.061749
-0.034115
-0.057967
0.098721
-0.076204
0.094182
-0.092333
-0.069629
0.035673
-0.099090
-0.040503
0.057910
0.078534
0.012277
-0.080331
-0.062248
0.053390
-0.065205
0.097269
-0.039289
0.010949
0.075952
0.006403
-0.009852
-0.066664
-0.045266
-0.074166
0.064318
0.033582
0.025707
0.057732
-0.006900
0.094492
0.103968
-0.008814
-0.087386
0.092767
-0.002495
-0.062457
0.020071
-0.001670
-0.006657
-0.021448
-0.028216
-0.093313
-0.000813
0.003632
0.059567
0.036940
0.007668
-0.078909
-0.052951
-0.016919
0.027691
0.032483
0.017298
0.081634
0.060949
-0.020123
0.019865
-0.013534
-0.068994
-0.094613
-0.022351
-0.061528
-0.002005
-0.012404
-0.078593
0.096689
0.022775
0.043476
-0.004965
-0.080328
-0.072426
0.064991
-0.077668
0.022323
-0.030535
0.085922
-0.047121
0.073354
0.100250
0.001114
-0.044827
0.025132
-0.068399
0.072729
0.002438
0.090027
-0.050524
-0.080700
-0.021882
-0.019809
-0.075911
0.050255
0.019446
0.017077
-0.065449
0.042685
0.013227
0.055684
-0.015299
-0.099678
0.071475
0.007493
0.067605
0.095352
-0.070759
-0.063797
0.069923
-0.023299
-0.092339
0.071373
0.078063
-0.040916
-0.004983
-0.097258
-0.070309
0.102240
0.094606
-0.028860
-0.082639
-0.023387
0.053147
-0.056990
-0.078308
-0.030727
0.062980
-0.042999
-0.093973
-0.026008
-0.089877
-0.011863
-0.024192
0.085046
0.092232
-0.061952
0.075621
-0.083549
-0.029180
0.050026
-0.004545
-0.022732
0.021174
-0.029046
0.036200
-0.084642
-0.023309
0.065721
-0.084676
-0.030205
-0.061099
-0.064944
0.039788
0.091898
-0.027385
0.063120
-0.042500
-0.067482
-0.082166
-0.037619
0.004645
-0.074623
0.054632
0.074851
-0.086438
0.048565
-0.088521
0.081749
0.067689
-0.017748
0.032671
-0.046923
0.060672
-0.050539
0.026555
-0.006340
-0.036665
0.095273
-0.044065
-0.030464
-0.035877
-0.005945
0.003371
-0.094944
-0.020189
0.071248
0.070487
0.036752
-0.095645
0.085992
0.100298
0.005748
-0.086779
0.055878
-0.015523
-0.074915
-0.001820
-0.007251
-0.090734
-0.037445
0.075941
0.042337
0.017545
0.039630
0.087087
-0.059820
-0.066154
-0.048412
-0.064393
-0.012752
0.014398
-0.006498
0.072995
-0.076783
-0.002713
-0.043808
0.098530
-0.036577
0.089978
0.104679
-0.053675
0.091473
0.003528
-0.042754
0.042665
0.084618
-0.017744
-0.065226
-0.019594
-0.002381
-0.005577
-0.047428
-0.063501
-0.093103
0.090594
-0.080651
-0.051812
-0.086341
-0.031282
-0.021057
-0.000132
0.083742
0.067039
-0.025276
-0.094134
-0.038656
0.032185
-0.097311
0.022402
0.020994
-0.100121
0.064839
0.009594
0.007765
-0.073631
-0.049972
-0.004718
0.012827
-0.015832
0.070014
-0.094937
0.077243
-0.082855
-0.066807
0.084055
-0.095959
-0.046887
-0.072837
-0.081232
0.022797
0.000202
0.018125
0.009497
-0.025992
0.093662
0.014524
0.034812
0.026044
0.012499
-0.041905
-0.053753
0.015010
-0.078805
0.060490
-0.077416
-0.059040
-0.097059
0.014557
0.057285
-0.011469
-0.018095
0.052516
-0.033038
-0.003315
0.087706
-0.048966
0.004280
-0.053634
-0.023631
0.019021
0.064724
0.077413
-0.058831
-0.032162
-0.052358
-0.071932
0.083548
0.081192
0.051303
-0.005950
-0.060456
0.093221
-0.093464
-0.042392
0.050708
-0.069255
-0.001722
0.053051
0.039791
-0.043654
-0.063426
-0.081605
-0.089306
0.002998
0.013437
0.096941
0.046091
-0.086164
-0.061476
-0.075247
0.034401
0.102674
0.101299
0.064219
-0.034907
-0.052955
0.093487
-0.051112
-0.075514
0.043301
0.036016
-0.038092
0.041306
0.044390
0.011489
-0.012164
0.079070
-0.088404
-0.057520
0.013662
-0.035396
-0.018050
0.032868
-0.030594
0.082713
-0.056321
-0.036247
0.030330
-0.039033
-0.001112
0.049746
0.090609
-0.003548
0.047550
0.059310
0.063989
0.093392
0.052615
-0.089689
-0.082267
-0.004992
0.049319
-0.020512
-0.065910
-0.007840
0.093015
0.024272
-0.035427
-0.095565
0.061308
0.079804
-0.034591
-0.059935
0.010313
0.033609
-0.079044
0.051378
0.101432
0.045622
-0.084477
0.001977
-0.006187
-0.101412
0.101166
-0.058682
0.058820
0.054955
-0.064083
0.006943
0.067763
-0.049670
0.100538
0.008918
0.026336
-0.074577
0.100126
0.018586
0.048397
-0.034143
0.016732
0.004901
-0.051981
0.081583
0.045582
0.055977
0.016298
0.063226
0.009192
0.018637
0.012761
0.023020
-0.085659
-0.096642
0.024016
-0.087799
-0.054455
-0.016820
0.069073
-0.015476
0.085390
0.032854
0.035409
0.087032
-0.058021
-0.040837
-0.094354
-0.064126
0.069298
0.059503
0.000386
-0.010513
-0.031503
0.043953
-0.031878
-0.084128
-0.003236
0.085593
0.072133
-0.096365
-0.000406
-0.018600
0.026453
0.007812
-0.012196
-0.043427
0.017064
0.029580
0.036269
-0.019054
-0.087611
0.017451
-0.085117
0.036891
0.002229
-0.048077
0.095043
0.008556
-0.017618
0.066169
-0.033058
0.079794
-0.043040
0.033700
0.021425
0.023893
0.042013
-0.085725
0.006581
0.018628
-0.077794
-0.096153
0.102925
0.052887
0.011039
-0.014938
0.104090
-0.073386
-0.090922
0.031936
0.007573
-0.082188
-0.050148
0.017398
0.055804
0.053139
0.063428
0.050314
-0.035415
-0.047397
0.017339
0.030740
-0.068153
0.074490
-0.040258
0.054164
-0.002402
-0.095640
0.066657
-0.091195
0.022828
0.082188
-0.094939
0.022367
0.038537
0.017438
-0.095291
0.032675
0.045327
-0.088568
-0.033384
-0.047113
-0.067171
0.022075
0.068380
0.084517
-0.029255
0.032647
0.038958
0.028881
0.081457
-0.050561
-0.039251
-0.087964
-0.078939
0.018463
0.066410
0.014255
0.020267
0.029865
0.020001
-0.055349
0.011754
0.024446
0.061506
-0.048921
-0.063220
0.062831
0.085600
0.081577
0.072698
-0.049260
-0.073609
-0.098481
0.068031
0.097044
0.087614
-0.061943
0.028842
0.015128
0.061485
0.008370
0.065756
-0.077489
0.016522
0.085347
0.033990
-0.019183
0.004378
-0.043907
-0.097414
-0.079769
0.004671
0.016174
0.046190
-0.039029
0.063882
0.085875
-0.075374
0.043611
0.065138
0.094583
0.091729
0.093076
0.099500
0.056310
0.084798
0.082347
0.089198
0.010062
0.001930
0.053190
-0.082835
-0.032484
0.073068
0.033575
-0.048094
0.010012
-0.085819
0.054093
0.064540
-0.081186
0.076627
-0.037414
0.034819
0.017426
0.025095
-0.004883
0.000089
0.047352
-0.062482
-0.036544
0.039336
-0.066707
-0.049111
0.042041
0.091241
-0.065910
0.016858
0.083211
0.044134
-0.080271
0.026198
0.062531
-0.017264
0.001755
-0.007226
0.033295
-0.096438
0.003487
-0.021797
0.067175
0.021567
-0.046477
-0.069072
-0.049941
0.066154
0.058408
0.044641
-0.033109
0.003419
0.083246
0.027044
-0.055406
-0.082565
0.081848
0.084963
0.102448
-0.087236
0.004220
0.082385
0.057724
0.024274
0.010511
0.023351
-0.097683
-0.091704
-0.083320
0.036689
-0.087897
0.017594
-0.091895
0.073082
-0.069310
-0.032921
0.102658
-0.015749
-0.062656
0.056605
-0.074009
0.006030
-0.043147
-0.089593
-0.073866
-0.000853
-0.076722
-0.095534
-0.016132
-0.080382
-0.079733
0.094195
0.099068
0.074274
0.015005
0.004386
-0.004121
0.013167
0.013738
0.001664
-0.052376
0.020902
-0.081724
-0.043554
-0.011379
-0.049207
0.022419
-0.011661
0.036374
0.058034
-0.057323
0.061187
-0.043478
-0.004352
0.068703
-0.012812
0.099098
0.089639
-0.005450
-0.012797
-0.091339
0.009216
-0.023942
-0.093808
-0.022098
0.082674
0.010646
0.070182
-0.003743
-0.080605
-0.027024
0.044998
0.034451
-0.009275
-0.095700
-0.070128
0.042403
0.025979
0.017669
-0.021013
-0.020643
0.061260
-0.060590
0.038475
-0.044874
-0.087268
-0.074460
-0.052444
0.094829
0.016707
0.038195
-0.095204
-0.076802
-0.095688
-0.087677
-0.001217
0.088993
0.022963
-0.027434
-0.009116
0.040433
0.041409
-0.068562
-0.024259
-0.063688
-0.070696
0.001839
0.071862
0.056396
-0.081730
-0.052013
-0.066262
0.079717
-0.017006
0.069669
-0.068358
-0.007330
0.096743
-0.021081
-0.013107
0.007981
-0.082084
-0.013414
0.027791
-0.075916
-0.001606
-0.074922
-0.088375
-0.086712
-0.006392
-0.002238
0.055989
-0.063374
0.028425
-0.069082
-0.038476
0.052305
0.030834
-0.065418
0.008994
0.045184
-0.018862
0.035774
0.022823
0.068899
0.007288
0.046393
-0.042516
0.004277
-0.072605
0.043502
-0.088241
-0.058801
-0.067950
0.037913
-0.039190
0.028666
0.062316
-0.030426
0.043409
-0.044813
0.064417
-0.003828
-0.011414
-0.012414
0.024015
0.052027
-0.060656
-0.046892
0.086662
0.043434
0.098625
-0.031400
-0.019136
0.017926
-0.064764
0.090143
-0.034563
-0.007099
-0.005580
-0.007168
-0.063597
0.006178
0.034030
-0.031548
-0.055908
0.094840
0.097119
-0.093592
-0.035586
0.040528
-0.038406
-0.071169
-0.063300
0.050180
0.016417
0.060715
0.002208
0.055761
-0.086177
-0.011130
-0.000805
-0.087552
0.057469
0.080059
0.030374
0.092705
0.070201
0.095810
-0.014394
-0.035379
-0.011358
0.022009
0.070800
-0.077327
0.090462
-0.085108
-0.082487
0.087580
-0.078701
-0.018073
0.028108
-0.017107
0.010758
0.064808
-0.066926
-0.072825
0.025523
0.035281
0.082936
0.039346
-0.075849
-0.017870
0.051794
0.081621
-0.037811
-0.017833
0.074326
-0.067610
-0.022022
-0.040067
-0.002988
0.066620
0.081942
-0.032188
0.089292
0.072403
-0.017297
-0.093195
0.059983
0.004002
-0.011268
-0.011908
0.086896
0.099490
-0.047100
-0.080031
-0.073335
0.078423
0.055251
-0.090399
0.017769
0.079402
-0.008269
-0.030437
0.061023
0.053920
0.051730
0.035349
0.086310
-0.070292
0.095282
-0.016678
0.096327
0.077223
0.051133
0.085620
0.049626
-0.066164
0.092425
0.009610
0.037839
-0.018843
0.097701
0.024734
-0.019353
-0.049399
0.044704
0.007313
-0.070976
-0.000045
0.016914
0.046794
-0.020643
-0.091356
-0.083643
-0.059620
0.062564
0.068087
0.075729
0.048874
0.097794
0.071010
-0.067804
0.094122
0.048233
0.083330
0.079742
-0.002140
-0.082834
0.072167
-0.092531
0.055005
-0.046676
-0.094829
-0.020260
0.033971
-0.044228
-0.075557
-0.058716
-0.015204
0.024398
0.058198
-0.068410
-0.096245
0.066842
-0.052054
-0.055865
0.029407
-0.083967
-0.080137
-0.021719
-0.086172
0.090874
0.010477
-0.092051
0.039107
-0.006193
0.087691
-0.063033
0.010973
0.059858
-0.055564
-0.034022
-0.086818
-0.050393
0.045718
0.047153
0.005378
0.070161
0.088438
0.090175
-0.005441
0.046636
-0.078235
-0.001686
0.013478
-0.030289
0.042449
-0.057116
-0.014256
0.062312
0.021165
-0.000428
0.053186
-0.068357
0.007521
-0.007708
0.025450
-0.004788
0.029259
-0.063577
-0.044930
0.075428
0.002131
-0.030775
-0.076370
-0.053175
-0.083832
0.031817
-0.081146
-0.096198
0.018215
0.013066
0.052398
0.040738
-0.087489
-0.032900
-0.088632
0.049588
0.006044
-0.002818
0.020222
-0.071703
0.099300
-0.026672
-0.039457
0.002312
0.065494
0.086875
0.100549
-0.008107
-0.076720
-0.045727
-0.033666
0.025115
0.024356
-0.013062
0.074595
0.035179
-0.084536
0.091311
0.042459
0.032656
0.003917
-0.007625
-0.022825
0.015004
0.053002
-0.016974
-0.029968
-0.038947
0.083148
0.081996
-0.007088
0.077077
-0.045004
0.048522
-0.015115
-0.089296
0.034025
-0.019632
0.002807
0.059689
0.031775
0.070648
-0.022925
-0.046889
-0.038619
-0.047389
0.092150
-0.023982
-0.058010
0.032500
-0.090501
0.044997
-0.072118
-0.012395
-0.040195
0.081196
0.070566
0.030131
-0.060580
0.051835
0.013792
0.036516
0.028501
0.067970
-0.013906
-0.088750
0.081568
-0.081300
-0.012218
-0.015139
0.069711
-0.077988
-0.047032
-0.047418
-0.021410
0.009532
0.007770
-0.028115
0.082325
0.049791
-0.098603
0.092089
-0.000967
-0.077155
-0.026020
0.055578
-0.093255
-0.051483
-0.015408
-0.052165
0.099136
0.093182
0.078727
0.030327
0.059113
-0.041674
0.041177
0.036635
-0.021190
-0.067326
-0.077996
-0.051805
-0.045678
-0.023941
0.004518
0.032060
0.088979
-0.088275
-0.099507
0.071236
0.060435
-0.089973
0.065899
-0.045708
-0.064982
-0.055888
-0.088123
-0.056888
-0.007718
-0.010680
-0.016047
-0.010184
-0.010940
-0.034121
-0.085503
-0.048890
0.027191
0.061821
0.088311
-0.093824
0.092208
-0.085446
-0.041696
-0.049058
-0.009486
0.063353
0.084166
-0.018236
0.077367
0.084890
-0.048456
0.038221
0.097802
-0.086632
0.092897
-0.070121
-0.043086
0.100684
-0.029550
0.042022
-0.002956
0.056111
-0.067315
0.085246
-0.074012
-0.046667
-0.067035
0.048579
-0.085784
-0.077179
0.061951
-0.097006
-0.064280
-0.084759
-0.047991
0.027860
0.076720
-0.064131
-0.092367
0.050044
-0.080164
-0.043824
-0.013539
-0.084074
-0.029073
-0.021440
-0.053662
0.028586
-0.024725
0.013183
-0.026920
0.073586
-0.024950
0.006928
0.052620
-0.005779
0.060258
0.085163
-0.053983
0.067364
-0.089526
-0.097012
0.069011
-0.054020
-0.080854
-0.075960
0.066529
0.098028
-0.043550
0.075967
0.049658
-0.021722
-0.070902
-0.060727
-0.001352
0.003097
0.017302
0.043488
-0.069190
0.094244
-0.038982
0.005850
0.064244
0.028575
-0.088023
0.019846
-0.076518
0.069720
0.006932
-0.030113
0.032634
0.011551
-0.026631
0.010206
0.055969
-0.004871
0.031941
0.025573
-0.010467
0.088373
0.001300
-0.056145
-0.035052
0.032399
-0.018220
0.062246
-0.064994
0.099534
0.002996
-0.032326
0.088832
0.060711
0.071370
0.055824
-0.011811
0.082826
-0.026844
0.014830
0.051328
0.074198
0.079411
-0.011621
-0.012865
-0.044839
0.090871
-0.053956
0.045223
0.022660
0.066992
-0.060659
0.002153
-0.033214
-0.021836
0.067075
0.100852
0.057367
0.030275
-0.071236
0.053649
-0.063583
-0.002991
0.045734
0.096363
-0.033611
-0.000568
-0.014739
-0.051610
0.074978
0.100543
0.099066
0.048920
0.079689
-0.012665
-0.066505
-0.066784
-0.020432
-0.017061
0.077620
0.101022
-0.049168
-0.085052
0.005385
0.016120
-0.010684
-0.027505
0.009155
-0.051380
-0.099684
0.042510
-0.094901
-0.067600
-0.058534
0.051389
-0.074435
0.007761
-0.052154
0.010812
0.059249
-0.083077
0.006262
0.055026
0.068005
-0.010996
-0.058807
-0.097365
0.021075
0.015738
-0.019239
0.000386
0.015110
0.025316
0.014724
-0.083247
-0.057232
-0.093083
-0.010803
0.051365
-0.045001
-0.009544
-0.002862
-0.040701
0.025413
0.037482
-0.092689
0.050594
-0.056046
-0.038029
-0.036902
0.098488
-0.019247
0.072926
0.055191
-0.050793
-0.038498
0.089765
-0.054330
0.080378
0.011157
0.028777
-0.024042
-0.071905
-0.043586
0.095718
-0.055172
-0.000990
-0.099362
0.037661
-0.046421
-0.040645
-0.072494
0.050677
0.019182
0.054650
-0.009950
0.026674
0.003756
0.034345
0.090863
0.063175
0.032712
-0.031466
0.035378
-0.015790
0.015308
0.090102
-0.020321
0.061960
0.071404
0.089891
-0.006043
-0.047746
-0.085157
0.046242
-0.053125
-0.039255
-0.048640
-0.055603
0.096546
-0.000039
0.001630
-0.074768
-0.051268
-0.079590
0.078055
0.034941
0.045837
-0.021224
-0.032427
0.035099
-0.057195
0.099376
-0.096365
0.078621
-0.020334
0.015461
0.070658
0.060293
-0.017976
0.042579
0.043985
0.069799
0.094479
0.058417
0.018821
-0.064695
-0.079229
0.064884
-0.022164
-0.082947
-0.034264
0.081985
-0.064248
0.015975
0.098983
-0.084858
-0.047644
0.046356
-0.008952
0.022155
-0.014456
0.036255
0.021114
-0.013309
0.013898
-0.097844
-0.094060
-0.014259
0.059083
-0.019048
-0.072445
0.005669
-0.048031
-0.080505
-0.034906
0.070206
-0.049498
-0.019495
0.035819
0.035854
-0.003895
0.103398
0.015845
0.034150
0.015894
0.014910
0.049448
0.072059
-0.040706
-0.057880
-0.006906
0.042526
0.077749
-0.086476
-0.073043
-0.007454
-0.089254
-0.070573
0.075971
0.071662
0.008812
-0.096429
-0.025926
0.063571
-0.078031
0.033640
0.027709
-0.023639
-0.084962
-0.034444
-0.096052
0.013726
-0.036235
0.019837
-0.057003
0.083068
-0.074039
0.090552
0.049144
-0.015271
-0.066464
-0.060327
-0.071980
-0.095860
-0.050642
-0.042287
-0.003076
-0.037266
-0.013974
-0.029059
-0.068231
0.095517
-0.026321
0.008335
0.059001
-0.006082
-0.059247
-0.013515
0.069412
-0.046301
0.050610
0.074557
0.070414
-0.087330
-0.007344
-0.085695
0.094033
0.020163
-0.097174
0.038517
-0.096060
-0.071667
0.080406
-0.070668
-0.063527
-0.067478
-0.017479
0.034306
-0.004281
0.065076
-0.094815
0.023648
0.060033
-0.019495
-0.073814
0.014331
0.070458
-0.030742
-0.095926
0.038297
0.023039
0.053114
0.007451
-0.010950
0.066188
0.098920
-0.004015
0.059069
0.015025
-0.000437
-0.000060
0.017761
0.027352
-0.020494
0.047418
0.066760
0.010887
-0.068436
-0.000388
-0.097592
0.095468
0.002985
0.032395
0.057151
0.078797
0.060488
-0.024994
0.050466
-0.071226
-0.022201
-0.017468
0.045634
-0.072622
0.094787
-0.064230
0.089636
0.094141
0.033601
0.052794
0.008065
-0.067186
-0.048732
-0.070383
0.062860
0.033815
0.076099
0.029168
-0.055744
-0.091033
-0.069785
-0.052959
-0.097295
0.033758
0.081046
0.055619
0.011235
0.037985
-0.069700
-0.041589
0.064172
0.000559
0.045767
0.009893
0.029147
0.039464
0.048704
0.023293
0.030534
-0.021877
-0.025725
-0.060601
0.016511
0.021802
-0.033404
-0.026320
-0.046360
-0.056813
-0.099329
-0.002974
-0.049426
-0.073344
0.042333
-0.050188
0.058432
0.022138
-0.094132
-0.031601
-0.040983
-0.063578
0.022382
-0.080583
0.038851
-0.031150
0.032783
-0.032248
-0.098638
-0.024651
0.089802
0.031688
0.055840
-0.041295
0.071853
-0.034246
0.077854
-0.062156
0.040215
-0.066354
-0.025269
0.041674
0.026421
0.025875
0.069991
-0.029872
0.071980
0.029409
0.095711
0.078951
0.097441
-0.049542
-0.084194
0.022205
-0.028622
0.051948
0.088082
-0.099914
-0.081653
0.089306
-0.021765
-0.095699
0.018661
-0.069428
-0.036591
-0.010947
-0.000422
-0.058019
0.023746
-0.061717
-0.025201
-0.099684
0.080053
0.102485
0.026709
0.049296
-0.029101
0.000565
-0.019202
-0.038852
-0.020124
-0.027032
0.013933
-0.008207
0.094112
0.084992
-0.056380
0.079292
0.083007
-0.033981
0.064448
-0.037011
-0.027910
-0.016126
-0.011280
0.036973
0.072368
0.088178
0.072656
-0.003439
-0.075551
-0.050678
-0.004214
0.101287
-0.052686
-0.080228
0.044356
0.017772
0.019359
-0.075385
0.079885
0.096019
-0.005103
-0.004979
-0.012723
-0.011912
-0.022138
0.032829
-0.034819
-0.037950
0.099512
-0.067276
0.023542
-0.033546
0.014076
-0.085184
0.100507
-0.011527
-0.096258
0.074339
0.086990
-0.075551
-0.079352
-0.017393
-0.072713
-0.032108
0.000603
0.066842
0.079830
-0.084977
0.095949
0.059416
-0.086885
-0.006189
-0.048334
-0.003321
0.083955
0.028013
-0.069403
-0.056187
0.087876
-0.074855
-0.024332
0.013138
-0.012539
0.092067
0.032771
-0.014435
-0.023238
0.033725
-0.042758
-0.036167
0.053689
-0.020733
0.038594
0.079021
0.043855
-0.061925
0.045791
0.018849
-0.044790
0.041087
-0.025433
-0.032059
-0.066684
0.023252
0.064751
-0.088401
-0.052223
0.093262
-0.042742
-0.060231
-0.082016
0.034684
0.055517
0.003985
0.021766
-0.016638
0.090992
0.095541
-0.089718
-0.053977
-0.044761
0.066096
0.020261
0.094406
0.044495
-0.040900
-0.067742
-0.006387
0.082521
-0.012856
-0.067566
-0.042380
0.055865
-0.038503
0.081119
0.018820
-0.024815
-0.072119
0.016230
0.031584
-0.037429
0.027278
-0.035204
-0.078179
-0.065939
0.085160
-0.001266
-0.075461
0.078864
0.010549
-0.029091
-0.063745
-0.019605
0.090649
-0.071513
-0.078864
-0.049745
-0.037600
0.009629
-0.069529
0.045567
0.044545
-0.013538
-0.000539
-0.096025
-0.031581
-0.084226
-0.022184
-0.005117
0.029598
-0.088669
0.056943
-0.043169
-0.028822
0.079589
-0.012199
-0.045136
-0.020572
0.011452
-0.069342
0.088544
0.077732
-0.034352
-0.035222
0.070601
-0.005842
-0.012858
-0.079900
0.048724
0.093117
-0.051448
-0.005475
0.036864
0.033821
0.092246
0.035836
0.099872
-0.088337
-0.085296
-0.012095
0.036841
-0.071434
-0.054372
0.096092
-0.004107
-0.076782
-0.013665
0.050327
-0.003772
0.097246
0.081592
-0.017362
0.074310
-0.049475
0.044865
0.039468
0.040102
-0.069786
0.058752
-0.006660
-0.077964
-0.093589
0.086489
0.057620
0.039544
0.079740
-0.003651
0.039289
0.087284
0.010205
-0.071325
0.027601
0.032612
-0.025465
0.017499
-0.068667
-0.006945
-0.097033
0.081327
0.089112
0.096532
0.060515
-0.023764
0.066193
-0.087586
-0.076927
0.006947
0.047212
-0.045782
-0.035330
-0.059882
-0.030246
-0.028780
-0.075348
-0.070569
-0.090343
0.100089
0.021754
0.045983
0.080553
-0.068924
0.073045
0.007790
0.064462
-0.055383
-0.077731
0.096602
0.036789
-0.076220
0.075504
0.028058
-0.082209
0.037180
0.105048
0.087090
0.047611
-0.077881
-0.009199
-0.002539
-0.027185
0.058009
0.038612
0.043606
-0.069257
0.058758
0.069669
-0.059788
0.060764
-0.009299
0.084084
0.035985
0.015172
0.052304
-0.051466
-0.020709
0.098360
-0.026479
-0.026870
0.030609
-0.000726
-0.052978
-0.040243
0.011177
0.081613
-0.041404
-0.002359
0.031452
-0.023852
0.090864
-0.066204
0.046311
0.044208
0.069281
-0.012882
0.075487
0.022551
-0.041405
-0.092700
-0.019037
0.045929
0.089741
-0.083673
-0.044710
0.044164
-0.036082
0.030378
0.041784
0.035662
0.099662
-0.027724
-0.071260
-0.057359
0.029622
0.041141
-0.071735
0.087950
-0.059403
0.062236
-0.037744
-0.074725
0.090503
-0.089470
0.066714
0.052120
-0.005311
0.037012
-0.022433
0.047057
0.044399
0.057033
-0.012940
0.033798
0.077227
0.046960
-0.022858
-0.061770
-0.022352
-0.080590
0.068829
-0.022794
-0.010495
0.099865
0.018721
-0.076528
0.039559
0.041619
-0.096481
0.078388
0.007988
-0.031001
0.102225
-0.008385
-0.021800
0.066412
-0.054676
0.073085
0.005377
0.026303
0.019799
-0.052307
-0.020922
-0.092875
0.082531
-0.049203
0.051393
-0.044747
-0.008262
-0.073149
-0.027449
-0.041839
0.005203
0.059425
-0.043681
-0.077706
0.080337
0.098171
0.063047
0.083594
0.070761
-0.028318
-0.050695
0.071468
0.064309
0.026373
0.033708
-0.092341
-0.005531
-0.061938
0.029162
-0.083314
-0.014618
-0.089766
-0.077666
-0.040782
-0.043183
0.071491
0.014684
0.047400
0.097584
0.084928
-0.099980
-0.000233
0.048174
-0.042738
0.014667
0.023038
-0.043034
-0.022032
0.008694
-0.075777
0.046964
0.060318
0.094493
0.004403
-0.013944
0.029094
0.009440
0.079838
0.069579
-0.063827
0.090867
-0.049709
-0.056516
-0.087871
0.013871
-0.001067
0.082594
-0.072789
-0.055639
0.079317
-0.087012
-0.052797
-0.021930
0.056427
0.003734
0.093805
-0.017390
0.055321
-0.027899
0.085811
0.081899
-0.084940
0.045214
0.076302
0.019318
-0.071873
0.003229
-0.067274
-0.096142
-0.025752
-0.029301
0.095741
0.019840
0.015415
-0.092945
-0.066622
-0.091515
0.089941
-0.041284
-0.045494
0.068301
-0.032019
-0.002259
-0.056213
-0.081457
0.100925
-0.063552
0.000522
0.057066
0.005688
-0.016088
0.039875
0.020033
-0.072249
0.013852
-0.058525
-0.046414
-0.081988
-0.025281
-0.039607
-0.009379
0.040252
-0.046452
-0.086950
-0.047352
-0.037188
-0.052897
-0.037929
-0.045556
0.001990
0.013448
-0.077615
0.071446
-0.089101
-0.035696
0.085332
-0.094188
-0.003726
-0.009719
0.062497
-0.096325
0.076732
-0.000290
0.019673
-0.093491
-0.087787
0.062079
-0.045161
-0.072182
-0.068377
0.014759
0.020359
0.067923
0.070462
0.037813
-0.081929
-0.070800
0.082026
-0.022316
-0.016254
-0.020578
0.092536
-0.001271
-0.051206
0.100295
0.061772
-0.066209
-0.098917
-0.039954
0.023246
0.059640
-0.037125
-0.001757
-0.043867
0.082851
-0.000910
-0.035299
0.042888
0.055439
-0.003456
0.074280
-0.028379
-0.080768
0.040405
-0.063080
0.052161
0.060247
-0.036428
0.027453
-0.064668
0.043016
-0.090847
-0.077395
-0.057941
-0.043031
-0.082138
-0.096453
-0.005939
-0.076996
-0.037075
-0.085309
0.083430
0.026710
0.008548
-0.060444
0.007377
-0.090325
0.003232
-0.045759
0.063884
0.094835
-0.078613
-0.065760
-0.082217
0.064805
-0.030103
0.063861
0.024147
0.031470
-0.007474
0.059743
-0.023743
0.005105
0.081985
0.016281
0.058287
-0.099816
0.021043
-0.052801
-0.078803
0.080225
-0.035497
-0.097350
0.004962
0.070777
-0.056919
-0.089989
0.079172
0.045060
-0.038302
0.044874
0.039202
-0.016892
0.074148
0.057752
-0.054987
-0.057328
0.022465
0.068168
0.070617
-0.086596
0.023673
-0.053964
0.014356
0.007838
0.061984
-0.025983
0.007068
-0.024416
0.017752
0.026037
-0.044180
0.081111
0.027817
0.058861
0.047062
0.068331
0.072231
0.026973
0.006490
-0.070749
-0.025588
-0.053794
0.015102
-0.055525
-0.098136
0.062390
-0.013134
0.017806
0.030047
-0.041964
0.029055
-0.047235
0.007340
-0.059122
0.055051
-0.035269
0.012879
-0.038934
0.044730
-0.070332
0.086256
0.099236
-0.090423
0.013117
0.058650
0.059425
-0.018654
0.026633
-0.014848
0.089154
0.059366
0.053100
-0.064457
-0.032007
-0.099910
-0.067354
-0.071002
-0.013680
0.049985
0.055307
0.041675
-0.016529
-0.096991
-0.049533
0.026111
0.058729
0.009189
-0.059778
-0.081335
-0.046486
-0.037398
-0.094714
-0.049764
-0.025940
0.016776
-0.095365
-0.071354
0.094973
0.023881
0.012724
0.082419
-0.017538
-0.033400
-0.085737
0.047087
-0.032404
-0.054044
0.074571
0.051244
0.097851
0.026966
-0.006046
-0.018222
0.033231
0.042322
0.101643
-0.011486
-0.045928
-0.061892
0.009573
0.008383
0.001694
0.016557
0.053827
0.072091
-0.066926
0.060100
0.100064
-0.074432
-0.021939
0.005959
-0.097544
0.065438
0.071804
-0.081617
0.015313
-0.063869
-0.040379
-0.008094
0.085419
-0.041580
-0.087560
-0.023484
0.033989
0.044595
-0.079432
0.030663
-0.064275
-0.020321
0.065768
0.040401
0.084620
-0.035986
-0.042921
0.032845
-0.062166
-0.019071
-0.009764
-0.065928
0.004867
0.067822
0.033874
0.009284
0.032111
0.001328
0.026969
-0.054620
0.033612
0.086365
0.030527
0.014633
-0.057875
0.044725
0.095304
0.075318
-0.008870
-0.081432
0.004014
0.020385
-0.007529
-0.028776
-0.042519
-0.031045
0.032580
0.009248
-0.095655
0.063997
0.090341
-0.006695
0.091962
-0.005272
-0.035205
0.030566
-0.096694
0.094083
-0.067830
0.030679
-0.065776
0.065609
0.014720
0.066973
-0.021130
0.061110
0.010226
-0.031705
0.028180
0.099212
-0.009123
-0.064877
0.017901
0.075745
0.005256
0.072764
-0.053693
-0.062199
-0.015951
-0.045746
0.101157
-0.028133
0.043028
0.093291
0.068002
-0.098215
0.020986
0.066306
0.098403
0.050805
-0.005490
-0.070094
0.017358
-0.093819
0.094986
0.094231
0.064373
0.007263
-0.038467
-0.007880
0.000430
0.053053
0.023424
-0.083607
0.029880
-0.072434
0.085060
0.073928
-0.040352
-0.032468
-0.076804
-0.036816
0.039026
0.067627
-0.045085
-0.002292
0.064973
0.073403
-0.035924
0.062238
0.022866
0.056227
0.086137
-0.062889
0.066207
0.081992
-0.076642
0.024968
-0.009510
-0.015399
-0.081208
0.087609
-0.065624
0.044410
-0.096589
0.058199
0.070681
0.087731
0.028806
-0.069910
-0.043014
0.049953
-0.011570
0.091612
0.012004
0.040375
-0.006379
-0.021152
0.012419
0.057324
-0.061631
-0.064812
0.012609
-0.072993
-0.029513
-0.025095
-0.092629
-0.005281
0.102191
-0.006703
0.079850
-0.083241
-0.018252
-0.087701
0.058552
-0.015478
0.069889
0.028112
-0.029865
0.001984
0.054042
0.030016
-0.047052
-0.059033
0.015959
0.068800
0.081751
-0.089462
-0.060104
-0.003817
0.064531
-0.020776
0.029080
-0.023881
-0.000950
0.097118
0.044810
0.006375
-0.007660
0.045178
0.101513
-0.033043
0.059606
-0.014275
-0.020740
0.018304
0.067809
-0.049212
-0.056124
-0.061107
0.052705
0.101934
0.068267
-0.098257
-0.058262
-0.013118
0.068411
-0.075643
-0.002938
-0.090197
0.024146
-0.041335
-0.013609
-0.046944
0.035231
0.086976
-0.051746
-0.025017
-0.011413
0.033593
-0.074695
-0.011031
-0.094900
0.088689
0.070471
-0.017965
0.009972
0.036380
0.033666
0.048360
0.073340
-0.015693
0.047915
0.041206
-0.018038
0.092773
-0.066205
-0.052239
-0.085456
0.027822
-0.046174
0.036403
0.084345
0.040496
0.081066
0.017730
0.023252
-0.070651
0.094460
-0.091848
0.064953
-0.080877
-0.006179
0.070437
-0.094136
-0.036723
-0.046405
0.009797
0.096649
0.085485
-0.036849
0.075503
-0.032160
-0.087021
0.020404
0.048820
-0.097253
0.049886
0.095956
-0.087547
-0.027826
-0.049888
0.046894
-0.044001
0.087999
0.029893
0.075832
0.007784
0.059387
0.072190
0.021044
0.025478
0.090689
-0.083470
-0.002182
0.093757
-0.019079
0.050088
0.005344
-0.023707
0.039319
0.068824
-0.054152
-0.098649
0.080344
0.069482
0.051529
0.081269
0.012007
0.049966
0.093465
0.085100
0.100216
0.043616
-0.052802
0.086709
-0.029988
-0.080365
-0.004322
-0.066512
0.085864
-0.084855
0.054641
0.078812
-0.069237
-0.049818
0.070329
0.011583
0.097092
-0.025169
0.086317
0.033344
-0.055514
-0.067573
0.034852
-0.078767
-0.096690
-0.017206
-0.099643
0.017146
-0.067450
0.093348
0.001844
-0.072388
0.033991
0.045922
-0.083795
-0.095213
0.063559
0.012836
-0.068793
0.046918
0.025709
0.085804
0.025780
0.053015
-0.064369
-0.008901
-0.036648
-0.063910
0.067398
-0.057732
0.067128
-0.083555
-0.023093
0.004332
-0.065931
-0.022406
0.089928
-0.063299
0.090498
-0.079579
-0.072851
-0.009515
-0.050846
0.063998
-0.066422
-0.038376
0.066347
0.093313
0.070600
0.100922
0.044225
-0.004260
0.087788
-0.031825
-0.051016
-0.078294
0.061543
0.012337
-0.042972
0.026837
0.056850
-0.073518
0.037420
-0.066405
0.026543
0.072416
0.008679
0.012942
-0.093336
-0.002052
0.032626
-0.068415
0.091836
0.076691
0.099260
-0.073151
-0.064019
0.058505
-0.076380
-0.092926
0.060813
0.057707
0.004547
0.043950
-0.071783
0.050144
0.065672
0.080913
-0.040774
-0.085876
0.007283
-0.083859
-0.060861
-0.053929
-0.056933
0.061217
-0.078604
0.051600
-0.024426
-0.073952
-0.049607
-0.094790
-0.040470
-0.056885
0.085839
-0.042387
-0.035317
-0.080457
-0.081636
-0.014276
-0.073266
0.079186
-0.054397
0.034926
0.019247
-0.029759
-0.014354
-0.014448
-0.047864
0.042689
-0.006561
0.054152
0.050159
0.037770
0.098860
0.097497
0.003344
-0.084256
0.047249
0.080766
-0.061383
0.098732
0.079690
-0.003650
-0.061235
0.061530
0.053034
-0.002195
0.084005
0.077350
0.080953
-0.091928
0.053479
-0.078605
0.040573
-0.030170
-0.007789
-0.084011
0.053639
0.039501
0.058336
-0.051534
-0.010659
0.010224
0.085408
-0.014065
0.009559
-0.012678
0.000405
-0.044173
-0.038892
0.035890
-0.047935
-0.053875
-0.063407
-0.011799
-0.089337
0.093995
0.085964
0.090374
0.066858
0.064595
0.092508
0.013090
0.087163
0.030830
0.082269
-0.024263
0.048517
0.038175
-0.089625
0.006465
0.088870
0.006541
-0.081783
0.074370
0.092122
0.028316
-0.041992
-0.006085
0.083885
0.021521
-0.071874
-0.059650
0.068230
-0.041612
0.022168
0.075631
-0.044678
0.008788
0.063277
-0.087370
-0.024166
0.054316
0.027545
-0.036904
-0.010956
0.015972
0.036609
-0.066725
-0.049709
0.048149
0.044712
-0.066828
-0.048656
0.056432
-0.091672
-0.057089
-0.017958
-0.035283
0.036672
-0.038319
0.084002
0.061753
-0.000852
0.053294
-0.079747
-0.079042
0.024475
-0.023392
0.024841
-0.015574
-0.008763
0.100441
-0.061451
-0.082023
-0.044268
0.023136
0.030056
0.094409
0.058554
0.078615
0.042578
-0.007259
-0.093054
0.092225
-0.049472
-0.083934
-0.069331
0.031901
-0.025570
0.065989
0.098147
-0.039523
0.020341
-0.005504
-0.082936
0.043388
0.016358
0.039299
-0.084012
-0.056824
-0.074374
0.004794
-0.058844
-0.040195
0.020316
-0.000148
0.083956
-0.052084
-0.007555
0.040074
-0.081805
-0.071251
-0.064799
-0.068206
-0.079682
-0.012167
-0.056132
-0.047929
-0.083128
0.019965
-0.083665
-0.084105
0.079692
0.038369
0.009892
0.094490
-0.018941
-0.074562
0.031307
-0.001885
-0.036632
0.053451
0.100399
0.006463
-0.088497
0.020650
-0.097100
0.098234
0.067401
-0.010472
0.031930
0.089704
0.019081
0.069209
-0.086933
0.042172
-0.048407
-0.043282
0.089084
-0.028204
0.067634
-0.096427
-0.018301
0.046685
0.042873
0.088745
0.041988
-0.083408
-0.089591
-0.023974
0.014845
-0.023710
-0.071887
0.013395
0.079882
-0.059873
-0.066975
0.085395
-0.061785
0.098688
-0.026271
0.069999
0.087482
0.090689
0.037545
0.101651
0.035940
0.087286
-0.043489
0.025826
-0.042756
-0.074240
0.027167
0.034073
0.071415
-0.038257
0.025204
0.010524
-0.017481
0.038248
0.081717
0.098187
-0.084857
-0.093688
0.011371
0.090966
-0.054314
0.046188
0.070434
-0.021059
0.040875
-0.053365
-0.047852
0.026596
-0.062745
0.087933
0.022557
0.068325
0.075858
0.077842
-0.013288
-0.068276
-0.100630
-0.085325
0.068270
0.069471
-0.024210
-0.007568
-0.019888
0.061069
-0.070705
-0.036485
0.057968
-0.060012
-0.031504
-0.032501
-0.062302
0.016021
-0.091238
-0.090055
0.098603
0.050686
-0.044452
-0.050501
-0.029158
-0.013525
-0.066049
0.098409
-0.043986
-0.094498
0.076749
0.044576
-0.058446
0.075084
0.058903
-0.091871
0.048189
-0.062625
0.003620
-0.072346
0.098155
0.032492
-0.007563
0.057411
0.072856
0.059075
-0.074714
-0.087982
-0.029349
-0.067427
-0.081623
-0.031114
0.079810
-0.028759
0.010649
-0.044327
0.057860
0.045464
-0.047164
-0.083089
0.055800
-0.073588
0.057080
0.095429
-0.097737
0.021715
0.099478
0.048203
0.053278
0.001147
0.076157
0.049129
-0.067465
-0.033120
0.002143
-0.096372
-0.077562
0.025166
-0.085784
-0.006499
0.056481
-0.068512
0.062690
0.031776
-0.001190
-0.024842
0.088171
-0.039805
-0.079602
-0.066005
-0.029154
0.075010
-0.039842
-0.069844
0.064574
-0.036813
0.045348
0.061550
-0.089431
-0.000786
-0.035221
0.080144
-0.050857
-0.007032
-0.052467
0.052793
-0.002129
-0.034037
-0.021023
0.015226
0.060509
-0.065008
0.042756
0.023544
0.069088
-0.056991
0.095916
0.054121
-0.000843
-0.085134
0.087647
0.072364
0.085784
-0.054514
0.099055
0.050891
0.007080
0.047479
0.012885
0.014186
-0.054877
0.076618
-0.003772
-0.005588
-0.029333
0.043828
-0.053786
0.066870
-0.088391
0.027229
-0.023052
0.072448
0.057104
-0.078079
-0.007667
0.025263
-0.035136
-0.011852
-0.023411
0.062012
0.006762
-0.039673
0.035907
-0.005667
0.006701
0.030469
-0.053350
-0.086866
-0.022229
0.053772
0.027766
0.021073
0.032043
-0.076874
-0.087839
0.098604
0.064384
-0.047276
0.065119
0.075131
0.079367
-0.057035
0.044702
0.034170
-0.034045
-0.063476
-0.041650
0.028658
0.026641
0.032791
-0.008351
-0.065960
0.096035
-0.073924
0.023523
0.000517
0.059086
0.067374
0.015645
-0.062478
0.022191
-0.054700
0.055025
-0.048724
-0.031910
0.068622
-0.050131
-0.069189
-0.083160
-0.090704
-0.098501
0.100558
-0.048063
0.048133
0.037374
0.015296
0.080867
0.097772
-0.057368
0.008493
0.025562
0.032060
0.037791
0.020982
0.059916
-0.042486
-0.076294
0.023403
-0.077429
0.035639
0.058179
0.042378
0.080977
0.008930
0.094979
-0.058179
-0.024394
-0.058189
-0.028402
-0.007665
-0.053635
-0.024927
-0.007819
-0.005406
-0.077484
-0.072042
-0.093040
-0.096214
-0.079691
-0.053782
0.010373
0.047550
0.082337
-0.052108
-0.029870
0.044610
0.003832
-0.010945
-0.036633
0.028014
-0.077924
-0.084814
-0.031911
0.099086
0.026154
-0.041803
-0.058575
0.101110
-0.004791
0.012825
-0.003376
0.045733
0.087436
0.086418
-0.058883
-0.089024
-0.089680
-0.051759
-0.087234
-0.067377
-0.006511
0.027093
0.079169
-0.028994
0.068254
-0.051950
-0.080821
-0.025054
0.035900
-0.023331
0.102346
0.056235
-0.006948
-0.029250
0.057211
-0.077231
0.028541
0.096613
-0.079682
-0.075808
0.010813
0.011968
0.067981
-0.005288
0.000962
-0.092602
0.003818
0.009155
-0.043559
0.014346
0.040579
0.048751
-0.060989
0.021477
-0.080810
-0.092632
0.064866
-0.060749
-0.020490
-0.000535
0.016858
-0.019053
-0.047443
-0.091487
0.047604
-0.091181
-0.072576
-0.021731
-0.094721
-0.051073
0.001759
0.008992
0.057632
-0.032350
-0.096228
-0.042390
-0.025930
0.005929
0.062154
0.028191
-0.076398
0.003569
-0.029723
-0.041681
-0.073665
-0.009648
-0.032157
0.089969
0.026483
0.048630
-0.010272
-0.060413
-0.070911
0.041634
-0.054252
0.076890
0.051264
-0.028167
-0.047371
0.053740
0.014920
0.050688
-0.034599
-0.024526
-0.081992
-0.030098
0.030243
-0.007796
0.074513
-0.005943
-0.081590
0.096238
0.097152
-0.010592
-0.044648
-0.078560
0.079517
0.021091
-0.089932
0.006072
-0.033582
-0.001666
0.044042
-0.004485
-0.061908
0.090355
-0.030494
0.090508
-0.038873
0.018806
0.039345
0.078946
-0.030615
-0.094388
-0.051144
-0.010557
-0.027831
0.078165
0.078251
-0.053037
-0.033409
0.095239
-0.060978
-0.037003
-0.015252
-0.008005
-0.014859
-0.040371
-0.088994
-0.003411
0.065518
-0.022236
0.093092
0.008744
0.070765
-0.069137
-0.002372
-0.057393
-0.079038
0.057067
0.060049
0.060509
0.034609
-0.070932
0.064990
0.083660
0.020418
-0.064753
0.060477
-0.001274
-0.018929
-0.072077
-0.008173
0.016036
-0.010790
0.071118
-0.089686
0.072097
-0.066532
-0.077157
-0.035083
0.097883
0.001863
-0.044181
0.006355
-0.030993
-0.014596
-0.095684
0.008212
0.003414
0.058480
-0.029336
-0.033321
-0.008743
-0.001576
-0.070269
-0.028834
-0.084210
-0.035753
-0.068959
0.008613
0.043487
-0.044209
0.100595
-0.038990
0.042835
0.071413
-0.029725
0.013433
-0.094441
-0.008705
0.078578
-0.096355
0.089388
-0.067426
0.008450
-0.037318
0.020270
0.009383
0.071698
-0.073962
-0.032536
-0.059344
-0.009257
0.055517
0.034885
0.017356
-0.071091
0.050111
0.079466
-0.040787
-0.040209
0.025009
0.013737
-0.039661
0.085276
-0.041581
-0.067036
-0.043464
0.072419
-0.061129
0.046890
0.051312
-0.057839
0.036341
0.082504
0.050771
0.099247
-0.001141
-0.042028
0.068870
0.025452
0.023819
-0.092035
-0.089261
-0.017757
0.042862
0.028505
0.009961
-0.005255
0.011317
0.067311
0.051669
-0.065723
-0.018605
-0.084856
-0.084397
0.038564
-0.055732
-0.027961
0.010150
-0.018678
-0.082996
-0.039407
0.020453
0.052458
-0.059057
-0.030928
0.050961
0.039692
0.025962
0.018161
-0.034570
-0.053374
0.023762
-0.022524
0.029092
-0.032362
-0.094817
-0.065388
0.058579
0.015040
-0.098157
0.010464
0.045554
-0.016407
0.021401
0.059954
-0.079292
0.065011
-0.067348
0.026866
-0.053636
-0.053819
0.086964
0.067439
0.099085
-0.076286
-0.063938
0.052065
0.063851
0.062919
-0.032000
-0.071709
-0.089341
0.093692
0.003806
0.037658
-0.042456
0.007675
0.071853
-0.082697
-0.079797
0.072811
0.025570
0.063169
-0.047206
-0.051670
0.026212
-0.028197
-0.086650
0.056833
0.099615
-0.042286
0.103312
0.085750
-0.074594
0.100649
-0.089864
-0.038180
0.049725
0.073648
-0.078302
-0.083074
0.101104
-0.070913
-0.091130
0.003226
0.066012
-0.035805
-0.087902
0.034277
-0.017485
-0.068586
0.004068
-0.097599
0.097075
0.056441
-0.048592
0.016979
-0.069940
-0.038745
-0.026737
-0.073945
0.018448
-0.029090
-0.090026
0.038539
-0.029639
-0.080434
0.098214
-0.079292
0.088432
-0.082868
-0.061189
0.089085
-0.053686
-0.054346
-0.008442
-0.090527
0.009720
0.002362
0.046250
0.091378
0.031025
-0.051906
0.094052
0.026048
-0.095396
-0.055306
-0.056736
-0.063698
0.003181
0.014815
-0.037430
-0.079040
0.086010
-0.029979
0.054624
-0.046125
-0.016281
0.055512
-0.027703
-0.025525
0.074293
0.007200
-0.038237
-0.078210
0.050330
0.053172
-0.073174
-0.041530
-0.045437
0.069577
-0.052749
0.081947
-0.079655
-0.055448
0.005887
-0.077183
-0.013032
0.044963
-0.043508
0.088324
-0.040363
0.012033
-0.092951
-0.057837
0.081685
0.062757
-0.007130
-0.034785
0.017023
0.063276
0.040384
-0.010646
-0.030111
-0.098139
0.006667
-0.082185
0.053016
0.037424
-0.021455
-0.095858
0.008125
0.028336
0.085521
0.025467
0.070107
-0.011557
0.043862
-0.047227
-0.064873
0.098709
-0.060295
-0.007189
0.011460
-0.051891
0.032639
-0.007017
-0.089241
-0.072124
0.059148
0.028333
0.091220
-0.000621
-0.084134
-0.038786
0.000776
0.022875
-0.022499
-0.045662
-0.039829
0.051596
-0.044737
0.065648
-0.019010
-0.060545
-0.010673
-0.055329
0.030213
-0.067488
-0.001744
0.064024
-0.066879
0.041199
-0.044996
0.041623
0.086650
0.087836
-0.062510
0.092964
-0.086297
0.091953
0.021309
-0.096290
-0.010707
0.035016
-0.035613
0.086661
-0.043493
0.039246
-0.061254
0.016436
-0.009520
-0.007411
-0.020606
0.071559
0.028398
0.066136
-0.082334
-0.041355
0.098795
0.014587
-0.082661
-0.072064
-0.046501
-0.027463
0.069640
-0.062918
-0.039966
-0.098576
-0.072042
-0.027810
0.092892
0.049825
-0.027960
-0.018323
-0.019507
0.035307
-0.030557
0.037575
-0.030302
0.006707
-0.043927
0.059915
0.099928
0.031472
0.030865
0.030435
-0.001810
0.044020
0.086679
-0.005647
-0.043146
-0.097087
0.024586
0.007025
-0.027954
-0.009450
0.043626
0.030600
-0.005073
0.071495
-0.099661
-0.013769
0.020004
-0.027210
0.067603
0.101819
-0.092155
-0.065226
0.037244
-0.021499
0.043827
0.087713
-0.061243
0.038142
0.021363
0.065701
-0.032783
-0.080804
0.009390
-0.049064
0.011219
0.070247
-0.050598
-0.062528
-0.021044
0.021938
0.022711
-0.075702
-0.048162
-0.082454
0.089173
-0.047216
0.001428
0.010787
0.024159
-0.034418
0.007775
0.029236
-0.006089
-0.055599
-0.093271
-0.063134
-0.066859
-0.058076
0.072287
0.055664
-0.093021
-0.061650
0.072401
0.018329
-0.013250
-0.015402
-0.010969
0.039381
0.020454
0.062684
-0.041264
-0.054176
0.083858
0.012613
-0.036077
0.074102
0.067420
0.061326
-0.018331
-0.008649
-0.071679
0.089377
-0.081459
0.017038
-0.072294
-0.080008
0.058644
-0.039784
-0.035856
0.033807
-0.087255
-0.032907
0.074367
0.083488
0.086397
-0.044600
-0.034383
-0.029568
0.093760
0.087560
-0.071210
-0.044942
-0.061746
-0.090009
0.063582
-0.000929
0.081062
0.030735
-0.044140
-0.035917
-0.086163
-0.018107
-0.050101
-0.068752
-0.101073
-0.027579
-0.046758
0.056674
0.028645
0.016768
-0.011430
0.038353
0.084162
-0.043136
0.018067
0.068350
0.014478
0.088062
-0.061899
0.009947
0.078337
-0.034818
0.059756
-0.088527
-0.023560
0.020144
0.003497
-0.044635
-0.053371
0.061243
0.014299
-0.038957
-0.057400
0.059053
-0.007948
-0.055294
-0.064023
0.044902
0.099031
0.065426
-0.037375
-0.016773
0.003916
-0.055287
0.042167
-0.079205
-0.082892
-0.044448
-0.096600
-0.052070
0.063924
0.085468
0.015844
0.022194
0.090139
0.091868
-0.059606
-0.005083
-0.052583
-0.010844
-0.039849
0.061057
0.047754
-0.001218
0.020556
-0.058440
0.037872
0.054316
0.082234
0.039460
0.017794
-0.057311
-0.079737
-0.077535
-0.015352
0.060987
-0.058306
-0.001007
-0.081716
-0.055516
0.046827
0.077101
-0.069191
-0.040645
-0.002437
-0.077943
-0.049665
0.034777
0.015380
-0.007112
-0.077496
0.071262
-0.043888
0.070098
-0.029165
0.075855
-0.096336
-0.094899
0.027865
0.085893
0.043605
-0.055844
-0.073238
0.058602
-0.035917
0.014949
0.020505
-0.001604
-0.090648
0.038465
0.044050
0.056344
0.015633
0.070906
-0.082890
-0.088481
0.088434
-0.033383
0.046962
0.001424
0.060072
0.068572
-0.029216
-0.087024
0.036380
0.037178
0.086399
0.041306
0.041376
0.013591
0.027439
-0.019029
0.057090
0.054661
-0.059056
-0.082021
-0.033019
0.062890
0.016904
-0.023184
0.001355
-0.039046
-0.066840
-0.083011
-0.068139
-0.049730
-0.071493
-0.079705
0.016886
0.075469
0.021720
-0.023041
0.044041
0.092503
-0.010065
-0.019579
0.029681
-0.023666
-0.078273
-0.028943
0.089925
0.049166
0.052028
0.047015
0.003826
0.092973
0.064993
0.070808
0.055863
-0.018102
-0.052376
-0.042782
0.042852
-0.019217
-0.025793
0.074713
0.031053
0.002714
0.095008
-0.052060
-0.021817
0.016728
0.024899
-0.077776
0.009231
-0.085166
0.002644
-0.061088
-0.008833
0.024371
0.009969
-0.018908
-0.026463
-0.038003
-0.071893
0.077363
-0.045030
0.093100
0.048171
-0.089167
-0.025002
0.095794
-0.031950
-0.082149
-0.023422
0.042257
0.092564
-0.092369
-0.055029
0.087572
-0.044429
0.023154
0.004300
0.080469
0.045378
-0.086469
0.095303
-0.051978
-0.047556
-0.013530
0.072393
0.062413
0.067563
-0.054070
-0.075590
0.095669
-0.076707
-0.020620
0.088770
0.071464
-0.009787
-0.036232
0.067258
0.058263
-0.018381
-0.056164
0.000520
-0.025817
-0.048533
0.045491
-0.038245
0.007038
-0.031355
0.066055
-0.012493
-0.085977
0.079586
-0.017190
-0.037955
-0.067970
0.069280
-0.065562
0.094443
0.036843
-0.019633
-0.081147
0.032512
0.003660
-0.001766
0.021282
-0.024876
0.088447
0.085050
-0.057618
0.046710
-0.033331
-0.013782
-0.052770
0.040851
0.037684
0.092722
-0.097394
-0.055278
-0.038633
0.068661
0.032229
-0.024610
0.048248
-0.084961
0.037434
0.080278
0.084319
0.071872
0.074721
0.021162
-0.047760
0.093574
-0.046326
0.055900
-0.008192
0.074956
-0.068976
-0.019745
0.060006
-0.026594
-0.073035
-0.073325
0.059623
-0.025805
0.067526
-0.002692
-0.033083
0.070133
0.042030
0.028284
0.038794
-0.025742
-0.096327
-0.012958
-0.010703
0.041108
-0.032680
-0.026384
0.012980
-0.057960
0.094778
0.065219
-0.064385
-0.051548
0.021119
0.027422
-0.076592
0.052143
-0.092323
0.083414
-0.074452
-0.065359
-0.089911
0.085172
0.008837
0.077616
-0.017521
0.075753
0.047749
-0.074185
0.004244
-0.013072
-0.001150
0.006947
0.073840
0.089803
-0.051091
-0.059407
-0.038877
0.062067
-0.015632
-0.043379
0.027783
0.020220
0.005789
-0.054000
-0.054578
0.028778
-0.097396
-0.045811
0.013712
-0.071897
-0.011499
0.021225
-0.086774
0.098341
0.000978
-0.005862
0.074169
-0.052164
0.018978
-0.022105
0.035284
-0.083379
0.085996
0.006313
-0.096022
-0.066279
0.048877
-0.035300
0.095638
-0.068251
0.023612
0.023105
0.048726
-0.073769
0.071475
0.095339
0.056752
0.069137
-0.049054
-0.032612
0.097870
0.036686
0.091888
-0.094156
0.034138
-0.010652
-0.000263
0.009330
0.036226
-0.080542
0.083077
-0.030885
-0.061875
0.069375
0.078066
-0.057910
-0.097978
0.025951
0.007727
0.097848
0.059107
-0.068367
0.020318
0.007519
-0.042283
-0.008170
0.001072
-0.086158
-0.037751
0.054011
-0.019385
-0.040557
-0.008245
-0.028159
-0.033570
-0.074746
0.059004
0.066486
0.029720
-0.003457
0.084812
0.015512
0.067632
-0.079345
-0.013316
0.045798
-0.039385
-0.011060
-0.029971
0.068745
-0.011522
-0.074565
0.097465
-0.093460
0.034126
-0.042712
-0.001967
-0.063933
-0.029475
0.057206
0.087472
0.052515
-0.084077
-0.024527
-0.075672
-0.019844
0.001382
0.085001
-0.053248
-0.069094
-0.018624
-0.067260
0.049043
-0.051043
-0.044983
-0.065567
0.092890
0.015750
0.022622
-0.033026
-0.014789
-0.091589
-0.005958
-0.014903
-0.083466
-0.071558
0.042264
0.010381
-0.039311
-0.088303
-0.028660
-0.050338
0.061367
-0.011674
0.026507
0.088850
0.068153
-0.072218
0.072987
-0.082031
-0.039161
-0.043069
-0.050262
-0.090469
0.006151
0.006098
-0.054220
-0.000505
-0.078921
0.069053
0.068077
0.004268
0.077520
-0.040074
0.089104
0.091862
-0.013299
0.026977
0.005707
0.047725
0.039385
0.076682
0.099795
0.004001
-0.037026
0.023711
-0.007681
-0.067932
0.055397
-0.036099
-0.051631
-0.087052
0.019250
-0.000778
-0.078476
-0.074251
-0.095551
-0.035013
0.024119
-0.076527
-0.066600
-0.008372
0.028463
-0.089604
0.051530
0.017711
-0.100171
-0.063955
-0.054021
0.006230
0.086818
0.086102
-0.021128
0.082634
-0.010173
0.041853
0.008712
0.079029
0.074766
-0.039804
-0.058778
-0.076460
-0.025592
0.062349
0.018868
-0.003093
0.085895
0.024271
0.063369
0.011450
0.046491
0.098160
-0.094171
-0.022843
-0.092190
0.055659
0.093994
-0.091364
0.093654
-0.059249
0.012983
0.076545
-0.073178
0.094574
0.060236
0.015115
0.036673
-0.031234
-0.008249
0.008813
0.029097
0.036674
0.031990
-0.095335
-0.002179
-0.048241
0.000169
-0.015943
0.076758
-0.033735
0.095102
0.024446
-0.036456
0.099591
0.100917
-0.028527
0.054603
0.095119
-0.022006
0.045920
-0.065186
0.092097
0.022084
-0.038428
0.085255
-0.016112
0.076715
0.019673
0.049973
-0.030464
-0.070959
-0.019820
-0.097836
0.061640
-0.017626
0.000962
-0.088778
0.084720
0.081148
0.086963
-0.052322
0.075793
0.011659
0.010811
0.075535
0.009451
0.079740
0.031436
0.004537
-0.040276
-0.022512
0.038324
-0.049037
0.100491
0.100359
-0.063067
-0.015833
0.075912
0.055686
-0.066173
-0.054865
0.083377
0.013807
-0.051696
0.046066
0.095187
0.048269
0.058210
0.079600
0.029729
0.044596
-0.074686
0.005359
-0.047390
0.036857
-0.019936
0.063339
0.017902
-0.090016
-0.031038
0.077088
-0.014485
-0.092523
-0.073487
-0.013797
-0.091874
-0.039464
0.068422
0.081892
-0.083223
-0.096576
-0.073235
-0.099554
0.016812
-0.027521
0.045016
0.012239
-0.079472
-0.000024
-0.008295
0.048594
-0.055303
0.017681
-0.046485
-0.003030
-0.045716
0.034610
-0.037596
0.072314
0.045211
0.029476
0.047794
-0.069396
0.036074
0.076659
0.016542
0.042264
-0.061418
-0.013390
0.025435
-0.045360
-0.010152
0.048929
-0.047636
-0.094990
-0.076084
0.097901
0.015595
-0.055721
-0.001526
-0.090933
0.091864
0.042752
0.026407
-0.052177
-0.058977
0.082382
0.080872
0.002454
0.054278
0.026871
-0.066608
0.002574
0.056782
0.070124
-0.019884
-0.028093
0.011933
0.016443
0.058243
-0.064208
0.069647
-0.055640
0.086543
-0.078475
-0.049768
-0.089888
-0.078999
0.067598
-0.047179
0.017582
0.076019
-0.054877
-0.037129
0.001537
-0.008929
0.000842
-0.017726
-0.027389
-0.097558
-0.063063
0.098971
-0.066094
0.038083
0.053768
-0.096351
-0.082069
-0.074127
0.015009
0.033790
0.083931
0.048640
0.001554
-0.070976
0.035489
0.024759
-0.020661
0.041864
0.042715
-0.053721
0.094774
-0.037808
-0.079308
-0.060238
0.020943
0.019981
0.031279
-0.076883
-0.096405
-0.098867
-0.074201
-0.061504
-0.099503
-0.038900
0.077600
0.053401
-0.034900
0.096936
0.080232
0.079610
0.028796
0.064185
0.028898
-0.069181
0.092701
-0.036450
0.053789
-0.028273
-0.093813
-0.002002
0.016563
-0.099713
0.058175
0.036447
-0.060677
-0.019538
-0.043117
0.069455
0.002881
-0.040133
0.071418
0.028973
-0.000999
0.072471
0.090357
-0.023326
0.026598
-0.044438
-0.028125
0.006475
-0.066639
-0.098761
-0.030448
0.061707
-0.068540
-0.038149
-0.075835
0.084373
0.034420
-0.071197
-0.017679
-0.048921
-0.070926
-0.061602
0.087522
-0.032139
0.018786
-0.057622
-0.062673
-0.079156
0.002540
-0.092183
0.048583
0.100453
0.079402
0.036516
-0.023745
0.005121
0.091937
0.048250
-0.089330
-0.076071
0.049444
-0.020355
0.085356
0.080287
0.041495
-0.091449
0.064747
-0.024137
-0.061885
-0.053642
0.025180
-0.034408
-0.015160
0.011488
0.033988
-0.096017
0.053973
0.071279
-0.076862
-0.044295
0.079356
0.072215
-0.044410
0.057843
0.006730
0.030513
-0.038587
-0.000247
-0.021720
-0.027995
0.024033
-0.073218
0.050403
0.009621
-0.093926
-0.007954
0.016281
0.070163
0.066191
0.053594
-0.083617
-0.010297
-0.079894
0.002403
0.100538
0.052617
0.005376
0.053168
0.024046
0.026878
-0.090485
0.000552
-0.001931
-0.036007
-0.042330
-0.095522
0.092493
0.019061
0.003710
-0.030155
0.091098
-0.072862
-0.004519
0.040942
0.035076
0.000443
-0.067996
-0.048382
-0.028968
0.097429
-0.094161
-0.011925
-0.013191
-0.076200
0.089018
-0.012917
0.075304
-0.007715
-0.059964
-0.002452
-0.080263
-0.052481
0.097871
0.017239
0.009676
-0.044640
0.022467
0.003216
0.074222
-0.074277
0.072625
0.064825
-0.048574
-0.032155
0.005465
0.086865
0.067823
0.038069
-0.062080
-0.062708
0.033595
-0.057444
0.026275
-0.079348
-0.034239
0.012859
0.007437
-0.059909
-0.094317
0.046978
0.038160
-0.073930
0.094035
0.035300
0.042068
0.003693
0.090781
-0.036875
-0.094385
0.063196
-0.010918
0.077472
0.027386
0.039721
-0.054360
-0.068212
0.025660
-0.087588
0.069281
0.064094
-0.050759
0.002237
-0.095125
0.075265
0.021498
-0.030099
-0.011522
-0.071307
0.008884
-0.006611
0.073666
-0.054031
0.018037
0.068008
0.081076
-0.039549
-0.029115
0.069034
0.022156
-0.023894
0.032265
-0.088878
-0.047001
-0.041120
0.048946
-0.002287
-0.008585
-0.025147
0.008284
-0.040956
-0.059563
0.057210
0.062050
-0.058690
0.032893
-0.014930
0.010217
-0.083193
0.013500
-0.079912
0.010005
-0.014050
-0.030542
-0.074049
-0.050323
-0.052950
-0.010320
0.023014
-0.081355
-0.093079
0.098240
0.048079
-0.081124
-0.050139
-0.090711
0.069512
0.049391
-0.002563
-0.056343
-0.041666
0.059624
-0.021792
-0.084380
0.015569
0.024225
0.042502
0.102502
-0.064974
0.060238
0.011076
-0.046425
-0.025018
0.093663
0.022983
0.004074
-0.052015
0.067526
0.091586
0.069354
0.084623
0.095681
0.065553
0.033288
-0.082285
-0.083259
0.036400
0.087929
0.063728
-0.071067
-0.069493
-0.080688
0.090296
0.008719
-0.064204
0.003650
-0.067892
0.076982
0.003722
-0.034265
0.040209
-0.086345
0.020722
-0.082736
-0.091204
-0.058735
0.015160
-0.046851
-0.088682
0.003255
-0.074010
0.098316
-0.000267
0.090890
0.027209
0.014441
-0.092501
-0.032920
0.000031
0.070173
-0.007296
0.024047
0.088747
-0.013560
-0.065912
-0.077067
0.091405
-0.033785
0.094901
-0.003977
0.031586
0.036489
0.005462
-0.049871
0.045241
0.016396
-0.003469
-0.042866
0.070328
0.010843
0.058785
0.091206
0.006911
-0.041830
0.085757
-0.072408
0.075676
0.088068
-0.007039
-0.025535
0.055644
0.083069
0.092680
0.046717
-0.031019
-0.077122
0.067962
-0.040338
-0.016342
0.062011
0.051464
-0.088267
-0.003377
-0.046051
-0.036064
-0.055731
0.071719
0.061110
-0.000638
0.035188
-0.033052
-0.036799
0.026942
0.067073
0.015614
0.006144
0.100328
-0.016447
-0.007195
-0.011034
0.051432
-0.052100
-0.022637
0.047543
0.092127
0.041709
0.069824
0.059725
0.095701
-0.047387
0.019330
0.049729
-0.035931
-0.079455
-0.098852
0.025017
-0.042966
0.072017
-0.009456
0.061506
0.006787
0.053772
-0.080122
-0.070015
0.022361
0.036355
0.036557
0.023186
-0.078938
-0.070534
-0.091437
0.072208
-0.024863
-0.017178
0.017195
-0.035083
-0.072414
-0.015426
-0.076360
-0.078167
0.039540
0.042298
0.069771
0.103089
0.061714
0.074400
0.026728
-0.081125
0.040400
-0.082628
0.078905
-0.052757
0.070999
0.097096
-0.029376
-0.008811
0.031019
-0.090860
-0.090431
0.054850
-0.062455
-0.075746
0.024195
0.005457
0.002670
-0.060039
0.071070
0.028117
0.027358
0.091395
0.045990
-0.036816
0.037415
0.016264
-0.038849
-0.007770
-0.009122
0.087485
0.013200
-0.072455
-0.097543
-0.006219
-0.028521
0.065738
-0.007874
0.046585
-0.044713
-0.077679
0.058819
-0.036431
0.070111
0.091294
-0.012781
-0.003404
0.000888
0.083909
0.036930
-0.030729
0.011519
-0.038648
-0.036225
-0.039196
0.024903
0.094803
0.077583
0.086424
-0.009266
-0.037099
0.073956
0.097945
-0.005156
0.070660
-0.006511
0.067027
0.037231
0.080792
0.012044
0.096978
-0.100089
-0.029277
-0.036431
0.074501
-0.040317
0.048681
-0.030626
0.058967
0.030079
-0.095721
-0.071220
-0.055576
-0.033090
-0.013608
0.005998
0.089605
-0.023229
-0.017477
0.073378
0.068939
0.045357
0.048211
0.064969
-0.060729
0.017499
-0.044226
-0.095218
-0.042235
-0.064624
0.017989
-0.043473
-0.063372
0.086314
0.014251
-0.092312
-0.051476
-0.040457
-0.019586
-0.090418
0.090225
-0.016013
-0.065849
-0.068417
0.050605
0.023679
0.035306
0.039116
0.097371
-0.088570
0.011923
0.069560
0.057926
-0.041450
0.035579
0.097154
0.071093
0.092235
0.101706
-0.069951
-0.076427
0.017404
-0.021573
-0.037498
0.008694
0.089667
-0.029241
0.059777
-0.052473
0.046114
0.067088
-0.062506
-0.066514
0.095029
-0.028088
0.079351
0.016996
0.106014
0.015966
0.011803
-0.088130
-0.069910
-0.019259
0.065873
-0.013328
-0.084566
0.057791
-0.042854
-0.096435
0.055992
-0.014580
-0.075744
-0.024567
0.066268
-0.012265
0.084617
0.053691
0.051945
0.039620
-0.093814
-0.001193
0.000206
-0.062090
0.026029
0.000642
0.002406
0.003935
-0.086600
0.002241
-0.080679
0.030145
0.017035
-0.053187
-0.093756
-0.017367
0.033338
-0.083793
-0.060546
0.087842
-0.077864
0.095114
-0.022456
-0.056236
-0.032284
-0.063806
0.030908
-0.043553
0.094889
-0.017528
0.092750
0.096272
0.077645
-0.005826
-0.064978
0.003811
0.095148
0.038555
-0.092146
-0.094941
-0.059557
-0.075125
0.032105
0.055347
-0.030391
0.041333
-0.064607
0.101917
0.055959
-0.023027
0.089148
0.076480
-0.028256
-0.034615
-0.076611
0.038043
0.001801
0.048554
0.094634
-0.004650
-0.068924
0.087018
-0.010039
-0.097782
-0.020971
0.022859
0.008182
-0.030406
-0.035948
0.014801
-0.019616
0.001709
0.033039
-0.091572
-0.044546
-0.096908
0.047447
-0.006373
-0.098268
-0.000269
0.066977
0.094247
-0.023572
-0.066337
-0.047070
-0.000209
0.071107
0.056617
-0.055115
0.063263
-0.046563
-0.027235
0.042921
0.044479
-0.020760
-0.079746
-0.033570
0.089976
-0.011351
0.023685
0.000165
0.068251
-0.072612
-0.063077
0.071152
-0.016846
-0.062449
0.018060
0.073855
-0.058043
-0.079262
0.040935
-0.069989
-0.002501
0.074854
-0.013602
0.092204
0.046060
-0.062368
-0.058818
0.004142
-0.007262
0.014666
-0.052073
-0.067092
0.092565
-0.027677
-0.003509
0.082685
0.063882
-0.075667
-0.019181
0.030376
-0.049681
0.016341
-0.000829
0.031661
0.054406
-0.080057
0.006833
0.090902
-0.058755
-0.054238
-0.083080
0.037927
-0.081600
0.004672
0.030195
0.065234
0.040653
0.070703
-0.031811
-0.068944
-0.015979
0.019079
-0.037001
-0.022237
0.093119
0.060804
-0.041669
0.051731
0.082210
0.041624
-0.020871
-0.064474
-0.040114
0.079006
0.066792
-0.089444
0.096125
-0.026705
0.104344
-0.064514
0.018196
-0.081391
0.067538
0.035998
0.026394
-0.001108
0.000034
-0.031809
-0.030420
0.063859
0.000189
0.053449
-0.015905
0.059552
-0.070812
-0.030088
0.022537
-0.007833
-0.081052
0.005241
-0.063745
-0.003425
0.036277
-0.005883
-0.024572
0.006068
-0.000817
-0.025873
0.075138
0.002117
0.008462
-0.008820
0.018510
-0.028925
-0.070656
-0.055559
0.066385
0.027649
0.011914
-0.068725
-0.008944
-0.091650
0.081620
0.073624
0.065421
-0.087114
-0.054147
-0.011093
0.005604
-0.037175
0.088358
0.037567
0.064022
0.025283
-0.074162
-0.065750
-0.074156
0.029867
0.001727
0.099848
-0.071637
-0.095379
-0.009491
0.051469
-0.021443
0.017584
0.091703
-0.055151
-0.054684
-0.001313
-0.024601
0.033973
0.009296
-0.043221
0.011761
-0.027534
-0.032932
0.050599
0.060942
0.076555
-0.081824
0.048943
0.011091
0.077962
-0.028903
0.038035
-0.086890
-0.002787
-0.031504
0.015860
-0.002896
-0.006263
0.020277
0.085716
-0.057608
0.097002
0.001501
-0.063048
-0.060350
0.045885
0.034285
0.016979
-0.020603
-0.057797
0.073589
0.089938
0.017549
-0.060526
0.040961
-0.026637
-0.083718
0.057966
-0.077554
0.027051
0.034418
-0.012277
-0.036682
0.045684
0.086950
0.027722
-0.035914
-0.016921
-0.073308
0.082054
-0.037237
-0.034576
0.077590
0.064771
0.000298
-0.080224
0.007794
-0.068698
0.033578
0.090421
-0.026178
0.002504
0.074365
0.091677
0.041052
0.017452
-0.037882
0.054970
-0.023307
-0.017278
-0.023368
-0.088093
0.072959
0.037817
0.057160
0.061935
-0.034738
-0.083794
-0.058623
-0.011499
0.098316
0.008057
0.053129
0.076158
-0.028129
-0.047136
0.094465
0.080199
-0.013231
0.027800
0.065956
0.059711
-0.069436
0.042963
0.047246
0.072044
-0.043541
-0.088773
0.024381
0.032337
-0.005930
-0.098881
0.042339
-0.034457
0.042177
-0.003571
-0.070535
-0.090898
0.013304
-0.032721
-0.000548
0.011555
0.075468
-0.052430
-0.011615
-0.054221
0.001962
-0.017714
-0.076178
0.084724
-0.091981
0.085218
0.044613
-0.061502
0.027597
-0.007049
-0.092112
0.082417
0.005598
0.032033
0.014233
0.097921
0.035206
-0.045000
-0.035499
-0.021999
0.054236
-0.006932
-0.016602
-0.033733
0.062804
0.080919
0.079283
0.038781
-0.070315
-0.030074
0.081930
0.029240
0.051883
-0.093122
0.014580
0.058800
0.088640
-0.045512
0.093192
0.020236
0.047351
-0.096452
0.005392
-0.049361
0.032985
-0.078259
-0.052431
-0.030824
-0.027276
0.010440
0.043922
-0.073604
-0.095035
-0.075699
-0.005422
0.071914
-0.096635
-0.028772
0.008524
-0.068786
0.040776
-0.012544
0.061323
-0.013237
-0.006892
-0.026784
-0.054917
-0.017863
0.024307
-0.059709
-0.097967
-0.031384
-0.056500
0.006230
0.017314
0.077257
0.023455
0.062387
-0.054923
0.098263
-0.023142
0.088879
-0.073904
-0.015827
-0.087929
0.017441
-0.047622
-0.083203
0.086197
0.055840
-0.053607
0.024376
-0.055398
-0.095675
-0.087874
0.037978
-0.026055
-0.042796
-0.077248
-0.097846
-0.002522
-0.076899
-0.028066
0.042465
0.026297
0.089852
0.018177
-0.048402
0.051538
0.066995
-0.050503
-0.075711
0.050403
-0.025050
0.011682
0.065036
0.091315
0.059105
0.081987
0.076676
0.015958
-0.071012
0.003086
0.064427
-0.067122
0.013320
-0.000390
0.007576
0.072399
0.018174
0.008469
-0.032886
0.043733
0.079413
-0.091886
-0.031562
0.069744
0.024506
0.019372
0.020662
-0.010582
0.070260
0.044873
-0.059674
-0.058269
-0.042383
-0.096854
-0.067874
-0.082358
0.084482
-0.093221
0.033046
-0.089752
0.009026
-0.005478
-0.054969
-0.077385
0.094769
0.052811
0.089293
0.010510
-0.040457
-0.043352
-0.046398
-0.062108
-0.036192
0.018390
-0.093810
0.091398
-0.061254
0.021192
-0.022197
-0.089345
-0.032958
0.020281
-0.047839
0.021833
0.024467
-0.014218
0.038094
0.008357
-0.009346
-0.031264
0.019469
0.099752
0.062981
0.064043
-0.078821
0.050337
0.011876
-0.087117
-0.032490
0.071271
-0.028226
0.018558
-0.089450
0.032714
-0.061808
-0.085369
0.023983
-0.024208
0.036675
-0.098233
-0.014193
-0.096293
0.021859
0.034914
0.028084
-0.058433
-0.081189
-0.035768
0.052280
0.007964
0.032500
-0.030642
0.010404
-0.006461
-0.072413
0.026435
-0.050718
0.040754
0.041438
0.010073
0.015672
-0.091290
-0.073080
0.021827
0.044899
-0.043320
0.035470
-0.034855
0.032539
-0.025844
-0.036585
-0.080070
-0.028808
0.083674
0.057782
0.099907
-0.072780
0.074936
-0.037208
0.077090
-0.017435
0.093221
-0.050475
0.093808
-0.013059
-0.022408
0.020343
0.036176
-0.083652
-0.040409
-0.053026
0.035784
-0.032199
-0.026739
-0.042209
-0.089679
0.032783
0.091410
-0.028232
-0.034652
-0.041863
0.037699
-0.017541
0.034809
0.023958
-0.064739
0.035874
0.053185
-0.092296
0.098256
0.027144
-0.010241
0.095522
0.071622
-0.021745
-0.020025
-0.047882
-0.097864
-0.085528
-0.030826
-0.039981
-0.043095
-0.100504
0.030079
0.028194
-0.048546
0.039197
-0.042955
-0.055497
-0.085425
0.022329
0.002282
0.051602
-0.095681
-0.060963
-0.026196
-0.057607
0.075990
-0.076535
-0.050635
0.073262
0.058176
0.042540
0.063934
0.030791
-0.075740
-0.055509
0.084136
-0.074431
-0.046591
-0.052790
-0.015679
0.015479
-0.050890
-0.090713
-0.053766
0.003295
0.053830
0.004253
0.048169
0.065961
-0.070986
-0.046509
0.020741
-0.065147
-0.006014
0.095670
-0.021237
-0.029379
-0.081198
0.026668
-0.056428
0.078982
-0.035062
-0.092646
0.007891
-0.011077
-0.051492
-0.009973
0.008564
0.008169
0.039300
0.092996
-0.077503
0.091463
-0.092081
-0.034173
-0.009348
0.060577
0.071275
-0.055207
0.022436
0.099903
-0.005551
-0.057457
-0.064711
0.086530
-0.063345
0.012071
-0.046343
-0.044709
-0.063387
-0.005158
-0.067686
0.002503
0.001468
0.040534
0.092346
0.046531
-0.072314
0.002954
-0.044219
0.071393
-0.003376
-0.026459
0.057236
0.004628
0.038799
-0.050635
-0.041953
0.012659
-0.008805
0.080623
0.011270
0.085000
-0.074930
0.040188
0.073363
-0.041251
-0.046551
-0.072615
0.015132
-0.013874
0.024691
0.051004
0.090531
-0.073776
-0.009142
0.081358
0.074045
0.023337
-0.013646
-0.073974
-0.013191
0.081766
0.001713
-0.056421
-0.015541
-0.057011
-0.005742
0.036666
0.048364
0.085225
0.027723
-0.041698
0.073684
0.050130
-0.098630
0.041656
-0.091829
-0.046494
0.073759
0.020366
0.041026
-0.003233
-0.029309
0.031102
0.024248
0.057650
0.016066
-0.007974
-0.022658
0.099817
0.022333
0.062972
0.080514
-0.078573
-0.089220
-0.036892
-0.043366
-0.001066
-0.093817
-0.092705
-0.012515
0.024913
-0.030195
-0.045014
-0.025807
-0.034559
0.103058
-0.028827
0.017653
0.071684
0.091834
-0.038412
-0.035197
-0.035760
0.083916
0.086038
-0.073909
0.001021
-0.017760
0.002417
-0.001395
-0.097916
-0.034030
-0.022266
-0.073207
-0.022090
0.041157
-0.015767
0.076663
0.047920
-0.012114
-0.038346
-0.025498
0.062508
0.016398
0.047785
-0.071086
0.016600
-0.077493
0.044901
-0.015842
-0.084807
-0.103201
0.051501
-0.023733
0.087462
0.041183
-0.003273
-0.008403
-0.075214
0.095572
0.089981
-0.076318
-0.038249
-0.026806
-0.056752
0.032754
-0.088971
0.030350
0.013380
0.057622
-0.079674
0.073675
-0.073856
0.075953
-0.006323
0.071434
-0.101982
-0.090235
0.089318
0.045209
-0.001600
-0.094548
0.041412
-0.050605
-0.017041
0.032855
0.089462
0.083930
-0.075819
-0.089529
0.079537
-0.086934
-0.056267
-0.055799
-0.019733
-0.010981
0.081551
-0.006589
-0.078565
-0.005060
-0.057294
-0.066055
-0.032699
-0.023449
-0.085934
0.054011
-0.048149
-0.084425
0.071183
-0.057578
0.060980
-0.033604
-0.047936
0.006817
0.020948
0.035355
-0.059389
0.012166
0.021803
-0.032876
0.022656
-0.000407
-0.019804
0.069621
0.039332
0.061246
-0.044479
0.019798
-0.050212
-0.025905
-0.092917
0.000649
0.010269
-0.025054
0.076149
0.028611
-0.064073
-0.075991
0.038883
-0.093741
-0.031867
0.008106
-0.031215
0.018910
-0.090440
0.087442
-0.043976
-0.051945
-0.000941
0.075181
0.010666
-0.079200
-0.028437
0.088630
0.087981
-0.087543
0.049111
-0.055450
0.033235
0.094477
0.014542
0.042854
-0.003323
-0.068387
-0.080793
-0.033911
0.052547
-0.044372
-0.010614
-0.005104
-0.046881
0.060604
0.098188
0.020941
-0.020981
-0.091557
0.011663
0.026573
-0.040854
-0.092791
0.004004
0.071075
-0.070025
0.072214
0.063688
-0.077664
0.088024
0.011781
-0.034126
0.020474
0.007973
0.084985
-0.034311
-0.099508
-0.091439
-0.015906
-0.030689
0.061131
0.036689
0.061090
-0.043236
0.085867
0.015495
-0.044952
0.015197
0.092385
-0.033863
-0.075671
0.022473
0.021675
-0.068932
-0.074316
-0.002339
-0.040571
0.100083
-0.040179
-0.019043
0.087507
0.072512
0.044072
0.010360
-0.024133
0.026063
0.074016
-0.020606
0.033760
-0.042740
0.046681
-0.002052
0.092762
0.002179
0.050130
0.082890
-0.080827
-0.092471
-0.008675
-0.085608
-0.030948
0.015386
0.032637
0.095390
0.038271
0.057109
-0.011040
0.097901
0.059127
0.046324
-0.020253
0.040236
0.016159
-0.073166
-0.048725
0.095239
0.052287
-0.076593
-0.027249
-0.013346
-0.020077
-0.078372
0.085180
-0.027426
0.024011
0.035012
-0.044216
0.040435
0.040914
0.048380
0.058139
-0.090456
-0.037211
-0.008468
-0.097124
-0.096620
-0.052546
-0.011296
-0.098329
-0.100491
-0.063350
-0.020878
0.044196
0.055373
0.001989
0.097631
0.051128
-0.048590
-0.079090
-0.078427
0.038238
0.004364
-0.062296
0.018489
0.074245
0.063569
-0.043948
-0.070847
0.005459
0.096131
0.073081
-0.041258
-0.092201
-0.065826
0.045135
-0.089645
-0.065763
0.094094
0.001954
-0.063631
0.092981
0.038182
0.016581
0.040235
-0.007062
-0.078638
0.037074
-0.058746
-0.027188
0.057020
-0.030609
-0.087438
-0.042967
0.008736
0.034332
-0.066995
-0.026708
0.090499
-0.044132
0.073132
0.085155
-0.065546
-0.065297
0.088106
-0.029063
0.082147
-0.096411
0.005652
0.076182
0.003359
0.045157
0.072247
-0.054719
-0.038597
0.012760
0.039192
-0.015460
-0.048304
0.080572
0.056018
-0.091193
-0.047818
0.065496
-0.033744
0.058226
-0.001085
-0.004306
-0.070643
-0.016403
0.057120
-0.096292
-0.030567
0.090750
-0.058591
-0.037796
-0.041239
-0.080271
-0.034905
0.065506
0.101730
0.065841
0.009341
0.069725
-0.090918
0.072017
-0.019086
0.048038
-0.045329
0.029214
0.027597
-0.091916
0.036524
0.078033
0.074526
-0.097851
0.036806
-0.026002
-0.005561
0.063042
0.059283
-0.047462
0.071440
-0.070483
-0.062028
-0.092833
-0.008109
-0.003810
-0.070397
0.051028
-0.036458
-0.072866
0.015543
0.072672
0.097709
0.027057
0.038566
-0.019678
-0.027628
0.094788
-0.089372
-0.098624
-0.099370
0.049777
0.081846
0.077442
0.050848
0.017801
-0.048405
-0.053477
-0.017276
-0.088603
-0.003382
-0.049898
-0.059609
0.035369
-0.042383
0.029499
-0.067618
-0.013597
-0.019903
-0.006567
0.014238
0.097664
-0.036191
0.012111
0.023167
-0.095281
0.092058
0.095484
0.098879
-0.095590
0.096818
-0.098942
0.053924
0.077773
0.078121
0.003937
-0.004680
-0.070309
0.049467
0.077378
-0.059495
-0.054090
-0.073179
-0.018976
0.080232
-0.015257
-0.089719
-0.088283
0.069411
-0.008972
0.005014
-0.016143
-0.013151
0.069225
0.094904
-0.090129
0.072809
0.086867
-0.096314
0.071141
0.089702
0.099986
0.072046
0.043022
0.077928
0.048849
-0.053924
-0.026451
0.078260
0.095604
-0.049624
-0.081460
-0.059328
-0.022886
-0.000819
-0.078398
0.061534
0.008695
-0.067445
0.030922
0.099154
0.037319
-0.085429
-0.013875
0.006924
-0.091462
-0.004598
-0.020200
0.095218
-0.000887
-0.049794
0.083500
-0.001493
-0.079477
0.027214
-0.024281
0.069974
0.073639
0.048087
0.047858
0.069516
0.097561
0.066292
-0.091117
-0.025726
-0.034748
-0.070602
-0.065100
0.072855
-0.037434
0.066533
0.071477
0.099233
0.080392
-0.043741
0.005339
0.088606
0.051663
0.083157
0.083112
-0.050324
-0.066733
0.066914
0.047261
-0.046414
-0.006263
-0.077526
-0.076210
-0.033166
0.070390
0.071404
-0.064899
0.067370
0.037080
-0.054902
-0.057905
-0.098753
-0.025240
-0.022303
0.074017
0.036445
-0.056377
0.044468
0.034378
-0.077073
-0.098652
-0.060703
-0.089067
0.052369
-0.077356
0.094592
-0.098635
-0.044220
0.061362
0.049209
0.009608
-0.044673
0.071670
0.033316
0.021679
0.042101
0.004613
0.056822
0.008992
-0.058237
-0.098159
0.049869
-0.057886
-0.024331
-0.072230
-0.084309
-0.088488
-0.030519
0.060765
0.045658
-0.007417
0.061662
0.085493
0.004468
0.013321
-0.092828
-0.001678
0.014767
-0.036214
-0.041470
-0.036582
0.071983
0.013719
-0.065298
0.004685
-0.065223
0.076613
-0.091695
0.091035
-0.015232
-0.050583
0.092680
-0.065551
-0.008835
-0.032390
-0.037791
0.005659
-0.021685
0.031946
-0.033567
-0.075980
-0.075781
-0.073535
-0.091799
0.028144
0.039797
-0.084540
-0.074458
-0.045534
-0.022479
-0.016619
0.017440
-0.050593
0.097265
0.050976
0.053936
-0.069206
0.027277
0.062495
-0.077990
-0.089266
-0.088529
-0.084973
-0.054738
0.002635
-0.018130
0.006920
-0.091406
0.060448
-0.061802
-0.025618
0.083339
-0.037993
0.000878
0.091744
0.089308
-0.059721
-0.093564
-0.086219
-0.006352
-0.015775
-0.002181
-0.089466
0.033514
-0.005730
0.061605
-0.013063
0.025122
-0.011442
-0.050603
0.046710
-0.000638
-0.039192
0.060913
0.044291
0.062641
-0.057344
-0.048865
0.070425
-0.097459
-0.011154
-0.055395
0.085295
0.051021
0.044547
0.077301
0.040165
0.084152
0.082203
0.054465
-0.022328
-0.033394
-0.049312
-0.011478
0.099233
0.044874
-0.050830
-0.013988
-0.031381
0.037232
0.033978
-0.085151
-0.063559
0.094318
0.075923
0.079639
0.056174
-0.081171
-0.069495
0.026650
-0.079105
0.019206
0.070524
-0.093862
-0.030061
0.015717
0.083134
-0.090626
-0.000860
0.065336
0.063313
0.076642
-0.068173
-0.085867
-0.034537
-0.069823
0.058488
0.014733
0.016097
-0.072910
-0.048672
-0.051185
-0.058614
-0.013719
-0.056211
-0.083278
-0.033590
0.100274
-0.065455
-0.003457
0.027184
-0.045362
-0.084309
-0.003458
-0.039567
-0.014650
-0.088665
-0.057160
-0.006257
0.011038
-0.091151
-0.043384
-0.012947
-0.059960
-0.030393
0.051868
-0.030126
-0.071845
-0.035157
0.085348
-0.045711
0.016041
-0.065613
-0.005191
-0.097837
-0.022163
0.011050
-0.031234
-0.022355
0.045382
0.065092
-0.096277
0.099516
0.080236
0.001186
-0.039642
-0.035324
0.012792
0.003826
0.058345
-0.077013
0.012115
-0.085860
0.008924
0.051176
-0.015764
-0.039650
-0.079393
0.011745
0.025340
-0.093622
0.065360
-0.058715
-0.059282
-0.039282
-0.056371
0.018718
0.071756
0.012330
0.095897
0.017178
-0.022666
0.099704
0.016293
-0.042319
0.000785
0.075575
0.021529
-0.087241
-0.020321
-0.020446
-0.064776
0.090088
-0.005822
0.043910
0.041435
0.078024
-0.095236
0.062903
-0.010836
0.029280
0.068607
-0.045383
0.071249
-0.091676
0.014811
-0.086370
0.026980
-0.013787
0.025453
0.022338
-0.096711
-0.098066
0.021522
0.018844
-0.040933
-0.077790
-0.005742
0.080267
-0.065734
0.073914
-0.041215
-0.031180
0.064233
0.052958
-0.087310
0.005414
0.029572
-0.083667
-0.032204
-0.081228
0.045678
-0.064287
-0.026716
0.015362
-0.056603
0.087724
0.028940
0.070513
-0.027018
-0.045774
-0.008274
-0.024042
-0.043575
-0.086559
0.093650
0.015042
-0.063985
-0.012004
-0.004586
-0.030468
-0.038573
0.054483
0.038592
-0.074999
0.006932
0.050341
0.030068
-0.063481
0.066965
0.097126
-0.045107
0.011897
-0.068117
0.027241
-0.072422
-0.024160
0.014520
0.056384
-0.054329
0.087563
-0.089801
0.037515
-0.036692
-0.033447
0.050572
-0.042974
0.081591
0.085728
0.044690
-0.023862
-0.044799
-0.094033
-0.070129
0.093256
-0.069500
0.036534
0.043003
0.060775
0.072110
0.010193
0.057775
-0.073579
-0.079427
0.090098
0.053498
-0.051702
-0.035609
-0.031717
-0.096159
0.010007
-0.045074
-0.086221
-0.053758
0.017730
-0.021105
0.096317
0.074557
-0.039947
0.082189
0.018224
0.035402
-0.062414
0.023890
0.065273
-0.069629
0.054283
0.001079
0.073323
0.014803
-0.026188
-0.016811
-0.028215
-0.000549
0.003763
-0.038679
-0.047155
0.051980
0.025831
0.021371
0.054897
-0.064701
0.076409
0.068626
-0.018528
-0.006491
-0.053746
-0.022820
-0.033358
0.006968
-0.041193
0.085281
-0.057346
-0.004565
0.008739
-0.091827
0.025011
-0.037022
0.008075
-0.002024
0.077387
0.081026
0.080510
-0.051820
-0.018963
-0.015062
0.009063
0.033195
-0.063721
-0.066209
-0.046005
0.090737
-0.030805
-0.071343
0.058732
0.049743
0.021985
-0.094856
-0.074004
0.088473
0.011766
-0.015715
0.073903
0.053950
0.079433
-0.017585
0.061010
0.003919
0.044830
-0.030085
-0.097721
0.021367
-0.048786
0.083391
0.069443
0.031329
-0.032272
-0.022224
-0.036530
0.002967
0.011953
0.016938
-0.006636
0.080415
0.045699
-0.047582
0.029416
-0.032415
-0.042423
0.055954
-0.043817
0.069436
-0.059789
-0.069987
0.022862
-0.080346
0.012306
-0.016018
0.023179
-0.042731
0.053737
0.024400
0.077756
-0.095858
0.008116
0.046946
0.034959
0.074158
-0.074904
0.098132
-0.022693
0.036675
0.015542
0.071475
0.016517
-0.039539
-0.076806
-0.053984
0.028645
-0.020222
-0.098574
0.083587
-0.050817
-0.058763
-0.086895
0.071500
-0.039171
0.024576
-0.045051
0.083280
0.081313
-0.091366
0.007496
0.058731
-0.087984
-0.084432
0.004660
0.046330
0.089933
0.029734
0.044319
-0.033042
-0.034981
-0.041190
-0.062137
0.081588
0.019298
-0.039516
-0.072555
-0.053656
0.039589
-0.071501
-0.070120
0.088870
-0.031137
-0.057236
0.059232
0.029329
0.067621
-0.085640
0.011450
0.048396
-0.076520
-0.080944
0.007409
-0.065463
-0.065796
-0.087618
0.081090
-0.076748
0.041676
0.024615
-0.010072
-0.093411
0.083937
0.026964
0.087576
0.002286
0.086745
-0.085744
0.049087
0.026541
-0.057650
0.078668
0.014857
0.011140
-0.078824
-0.025691
-0.059585
0.088556
-0.011729
0.051964
0.037126
0.010542
0.070611
-0.056782
0.045230
-0.095698
-0.045095
0.025744
-0.072955
0.095937
-0.050406
0.017394
-0.098682
-0.066391
-0.055707
0.088514
0.034139
-0.068760
-0.097602
-0.016763
0.056092
-0.055158
-0.038957
-0.029026
0.054997
-0.018531
0.044125
0.094784
-0.031743
-0.068292
0.046227
-0.095026
0.042307
0.015871
-0.052805
-0.012455
0.019715
0.001836
-0.087310
0.046706
-0.003129
-0.037778
-0.036134
-0.001176
-0.004705
0.006961
-0.013822
-0.070530
0.037329
-0.011327
0.012732
-0.006532
0.033561
0.072489
0.063708
-0.011306
-0.045945
0.007476
-0.017336
0.020740
0.038181
-0.072552
0.026467
-0.020123
0.043474
0.073897
0.066430
-0.037637
-0.024078
0.078239
-0.090951
0.071309
-0.060092
-0.028071
-0.030643
0.034754
0.077647
0.056136
0.064941
0.014406
-0.056285
-0.023133
-0.093332
0.076912
-0.051597
0.070667
-0.036502
0.001628
-0.022878
0.045745
-0.077715
-0.086055
0.073050
0.048290
-0.006923
0.016516
0.021581
-0.041147
0.078532
0.096117
-0.063718
0.086819
0.068008
-0.023457
-0.042036
-0.062344
-0.088135
-0.064689
0.092313
0.075866
0.049199
-0.064962
-0.048817
0.055852
-0.089077
-0.000392
0.025248
-0.025675
-0.098849
-0.098784
-0.080085
-0.076338
-0.084266
0.092847
0.071765
0.008669
0.009149
-0.007569
0.067353
-0.012633
-0.011266
-0.096839
-0.025601
-0.043688
-0.021536
0.031036
-0.006977
-0.009204
0.066289
-0.015225
-0.035254
0.015448
0.019139
0.016201
-0.029103
0.030439
-0.083565
0.095616
-0.096000
-0.083373
0.096818
-0.075744
-0.060911
-0.088192
-0.084365
-0.089113
0.019795
0.024209
0.002605
-0.012823
-0.089390
0.090620
-0.010521
-0.015598
-0.052949
0.067597
-0.085044
0.038868
-0.041726
0.080068
-0.077092
0.023167
-0.004606
0.041431
-0.061186
0.064665
-0.029103
-0.045674
0.060381
-0.025244
-0.029302
0.056731
-0.003060
0.008822
0.068051
0.012479
0.019631
-0.012884
-0.063836
-0.079195
0.073637
-0.052857
-0.088477
-0.038331
0.030493
-0.041933
-0.070957
0.044912
0.096623
-0.013617
0.025239
-0.081089
-0.091433
-0.079937
0.059912
-0.053235
0.084798
-0.069609
0.000398
0.044562
0.004387
0.069978
0.000657
-0.098689
-0.021583
-0.031828
0.013573
0.096848
0.055082
0.049630
-0.082300
0.027888
0.096191
-0.070671
0.089365
0.026512
-0.012604
-0.081592
-0.028576
-0.015981
0.004791
0.096664
0.002930
0.013357
-0.083274
-0.037157
0.060122
-0.098475
-0.006767
-0.039480
0.046086
0.097620
-0.069502
-0.053256
0.098932
0.008915
0.014916
0.012505
0.005763
-0.030002
-0.037865
0.023463
0.097885
-0.041674
0.052792
0.087251
0.084838
-0.059812
-0.094341
-0.043738
0.024207
0.010450
-0.047074
-0.072862
-0.076193
-0.030348
-0.010020
0.083929
-0.028823
0.083213
-0.055551
-0.082737
0.080834
-0.025052
-0.035993
0.079765
0.083862
0.078922
-0.007730
-0.010374
-0.051080
0.054405
-0.086911
-0.053194
-0.087270
0.065881
-0.065944
0.097568
-0.093931
-0.060285
-0.046169
0.030277
0.050165
0.006756
0.057415
0.073972
0.076408
-0.052605
0.057901
-0.052415
-0.069392
-0.097650
-0.035152
-0.088558
-0.022702
0.028855
0.091208
-0.038840
0.007777
-0.016522
0.050786
0.056697
-0.062118
0.063875
-0.096497
-0.049387
0.029756
-0.062441
-0.051819
0.035825
-0.022726
0.002011
-0.033898
-0.072561
-0.091232
-0.076483
-0.098589
0.085176
-0.029089
0.059312
-0.067239
0.001520
0.061662
-0.002390
0.012962
-0.061040
-0.073536
0.004170
0.000120
0.034241
0.087647
-0.049094
-0.009061
-0.074470
-0.085219
-0.005559
-0.023858
0.044536
0.032000
0.024323
-0.019638
-0.090726
-0.073665
0.046464
-0.063287
-0.064898
0.069980
-0.061876
-0.079721
-0.059108
0.097436
-0.046960
0.042411
0.059098
0.050650
-0.044627
0.098058
0.077114
0.059543
-0.001822
0.011355
0.047190
0.049084
-0.097706
0.072720
0.063864
-0.003265
-0.051138
0.008401
-0.071265
0.073185
0.088762
-0.061990
0.099520
0.035226
-0.025277
-0.065378
0.005206
0.012847
-0.045099
0.046098
0.010283
0.007941
-0.011491
-0.030619
-0.041409
0.043883
-0.032562
-0.064295
0.003426
0.065616
0.047061
-0.049384
0.014700
0.049355
-0.076664
-0.021436
-0.053910
-0.027802
0.086965
-0.025175
-0.054617
0.075727
0.012835
-0.055097
0.010953
0.087558
-0.020475
-0.083841
0.000405
0.035141
0.062420
-0.088740
-0.057731
-0.048897
-0.019292
0.001271
0.094634
0.048272
0.036836
-0.001718
0.013802
-0.015176
0.048669
-0.071930
-0.066291
0.072306
0.006664
-0.019883
-0.055463
-0.006259
0.054712
-0.009776
-0.030822
-0.032510
0.035337
0.080871
-0.044917
-0.085436
0.097174
0.055810
0.048512
0.059299
0.065877
0.091018
-0.090433
-0.053866
-0.008171
-0.096098
0.093610
-0.071914
0.002691
0.006389
0.012792
-0.048626
0.034273
0.045090
-0.076446
-0.059523
-0.074955
-0.033318
0.034216
0.079165
0.057101
-0.097232
-0.054154
-0.008291
0.083011
-0.000744
0.005616
0.079476
-0.045019
-0.045903
0.038188
-0.080153
-0.054956
0.047307
-0.034211
0.036494
0.051141
-0.041237
0.064614
-0.046270
0.065468
-0.023128
0.003893
-0.001308
-0.078059
0.026539
0.039581
-0.052825
0.093248
-0.026338
-0.074789
0.049729
-0.023419
-0.028693
-0.059033
-0.041037
0.069215
0.045700
-0.062532
-0.075226
0.099468
0.075427
-0.055252
-0.056071
0.021898
0.010529
0.079709
-0.026948
0.068004
0.043864
0.025515
0.032936
-0.079357
-0.071724
-0.067861
-0.056858
0.054305
0.070722
-0.010330
0.046517
-0.055453
0.013717
-0.003278
0.019247
0.084282
0.036949
0.077671
0.053178
-0.018768
-0.084939
0.077559
-0.019845
0.090476
-0.078055
0.023203
0.011807
0.031309
0.002099
0.084170
-0.000647
-0.053963
0.009129
-0.067326
-0.032991
0.037164
-0.036738
0.009200
-0.008796
-0.066701
0.097430
-0.062376
-0.023435
0.011504
0.032858
0.095537
-0.004727
-0.031454
0.072944
-0.051076
0.050392
0.087839
-0.073862
-0.069907
0.077764
-0.052988
0.053027
-0.010635
0.078502
-0.045197
-0.026142
-0.022546
-0.000156
0.081692
0.009216
0.067286
0.018909
0.072040
-0.025133
-0.090232
-0.095377
-0.027383
-0.053002
