-0.403753
0.890646
-0.838147
-0.142757
-0.446036
0.468618
5.917743
-0.452920
0.840995
-1.507766
0.540507
0.552724
-2.018568
0.263112
1.397748
-7.276486
-5.397837
3.635840
4.389714
-3.598568
0.085147
-3.636000
-4.737573
-0.299174
0.915639
2.118349
3.728062
0.481640
1.774199
3.223010
-5.390463
-1.190282
3.182671
-1.423977
0.280863
3.460878
2.740374
3.300485
-3.368225
-2.716008
5.024508
0.322181
2.023451
-2.495384
0.693045
5.987109
-2.792944
-1.455930
0.538646
-2.769338
-5.904791
-0.905266
-0.484988
4.238726
0.073115
0.345814
0.089749
0.998227
-1.497939
-0.478580
0.081743
2.199301
0.333136
-2.509787
-0.471446
1.554226
4.334759
-2.322487
-1.244238
0.302726
0.732531
2.493551
-0.726209
0.684205
-1.447612
0.876900
0.267860
0.964396
-3.570446
-1.810302
-2.055590
4.883186
5.508729
0.177455
-0.950436
0.464831
1.134261
1.614365
-1.562025
-7.377743
0.186654
7.554305
-4.901325
-4.106160
-1.298696
5.984324
-1.489885
0.300748
2.197299
-0.068214
5.690034
3.131048
-3.447083
-4.485876
0.166696
-2.438602
0.687874
3.253148
5.232620
0.167143
3.376471
0.302991
1.962233
1.649550
-0.843165
-1.555371
-0.105468
-6.933533
0.194332
0.137834
-0.977883
0.350383
-0.703521
0.062212
0.850704
0.791657
-0.769552
-3.226910
0.512236
5.476400
-4.478989
-7.395387
0.223473
-7.237033
1.616055
1.740772
-4.394182
0.232198
0.380368
0.311499
-6.844358
10.232439
-5.515097
5.761327
-0.106779
0.033609
0.102844
-2.590139
0.042416
-1.634480
-3.287634
4.115342
4.744434
0.353294
-7.827523
0.650113
-1.870160
-0.499272
4.904751
-0.947374
0.254832
-3.899136
5.787318
2.388504
0.701112
-0.317603
-5.353738
0.191630
-0.281100
-3.961044
-4.244685
4.646880
2.452383
3.762417
0.334150
1.520334
0.221458
-2.346989
5.383304
-4.182908
2.508478
0.367288
3.979506
-1.359111
-1.639058
-1.031924
-1.058766
-4.278893
0.252015
3.115164
-7.090978
-5.889450
-4.469849
4.856780
-0.944063
0.240326
1.865345
-0.207954
-4.822647
-0.092554
0.721640
-1.973616
0.317686
-3.438527
0.609865
6.452569
2.279472
-2.866073
3.935263
0.258228
-1.802842
-3.834296
-3.015395
-1.945067
0.914151
7.321015
0.277004
-1.375957
0.702672
1.297198
0.921413
-0.138443
-6.458606
0.292264
7.915929
3.954244
-2.062972
3.723121
-3.240057
-2.289116
0.215547
-3.894104
-2.342512
-0.843291
6.825682
-6.584859
-3.831165
0.466698
2.276338
4.560794
-2.403092
0.268960
-0.483582
-5.101151
0.269627
-0.198140
4.589390
8.007515
-1.111507
-1.131977
-3.788134
0.153012
2.467005
6.475866
0.058674
-1.726871
-4.086111
-4.802509
0.195044
-0.393372
3.044037
-0.758552
-0.186363
-0.833478
1.910193
0.354673
-0.775349
-0.565770
-0.276230
0.019321
-1.377664
0.428759
0.330296
3.660995
-3.693531
-0.864882
2.723052
-3.732599
1.913394
0.141451
-0.721735
0.118676
-0.499965
-0.477911
0.481284
0.056820
0.427061
-0.210388
-0.301400
-0.191562
-0.876881
-1.478186
-0.700386
0.162319
1.052015
-1.160125
-0.430019
0.464912
0.344140
1.531131
0.745692
-2.799477
-6.164917
-2.605217
3.634894
2.093732
-4.123136
0.254690
-2.129390
1.150777
-0.971875
1.734124
-3.521805
4.265694
0.292206
3.148978
3.085818
-2.999636
0.703323
1.111230
-2.530456
0.286213
-3.577654
-5.662900
1.423331
-6.176953
-1.257245
-4.830386
0.335603
3.982955
-5.318307
-1.093297
2.690852
-1.873808
7.016973
0.139903
3.019252
-5.438859
-2.893129
-2.856682
3.977451
-3.585322
0.295988
-5.132424
-0.265618
-0.315968
-7.363720
0.713292
3.009785
0.187991
2.078578
-3.780362
-1.783478
-1.745045
1.864084
-3.183045
0.249923
-0.943591
-0.025067
-2.181087
-3.211653
2.599001
-0.110288
0.348509
-0.130784
-3.038197
-7.415713
-1.760606
5.951962
2.672103
0.271311
2.245935
-5.975396
4.553246
-3.157208
-0.449763
1.815124
0.484461
-5.084518
0.021338
-5.652866
0.253197
4.108267
2.976629
0.185069
0.179513
-0.141011
-0.687920
-1.430985
-1.719160
-3.188129
0.246471
2.214412
-0.372962
3.660963
0.054514
-0.107988
-2.810833
0.184443
-2.726863
6.185651
-1.924887
-4.143578
3.939125
2.013935
0.229145
4.701691
-1.575450
6.499588
-1.490854
1.431083
0.792602
0.428869
-4.075241
-0.592198
-5.348237
-4.019630
4.452101
-0.588380
0.140688
-4.065389
4.542096
-1.174083
-6.386555
-3.037654
-5.087787
0.209015
-1.598628
5.689184
5.324166
-3.407088
-0.317722
5.046780
0.125000
-0.025357
-6.229882
-2.315525
-1.744068
3.347233
2.715666
0.215072
-6.530460
3.427983
1.609874
0.192147
-2.241788
0.955259
0.280237
-0.603946
4.930088
-0.731229
-0.852653
0.766888
-0.511769
0.347039
5.793123
6.202719
5.254400
0.492373
-4.917784
5.749544
0.283005
-6.232901
2.616841
7.824165
-5.079989
3.926611
3.035623
0.177603
0.032850
-1.049289
5.603951
1.038004
-1.247526
3.119452
0.522154
-2.958362
0.112833
0.770275
-2.468657
0.079715
-5.160830
0.258497
3.618178
-1.960259
2.674552
1.047544
-3.116339
0.007162
0.160762
1.085436
-4.589871
-0.012051
0.552346
-1.723373
4.342275
0.179752
4.557526
3.327082
-2.651344
-1.495524
-0.584312
4.530176
0.332613
-5.934432
-0.261809
5.186969
-0.094599
-3.547038
3.000797
0.187645
-0.891545
-1.204790
-1.551029
-3.853167
-0.974325
-3.207284
0.408298
0.649868
-2.054546
-4.112808
3.814185
4.756228
2.524709
0.378389
-3.151845
-6.544728
-4.903335
-1.310597
1.599079
-3.877018
0.219287
0.726673
2.084452
1.025673
-2.067805
-0.407390
-5.180611
0.259495
-0.359780
-1.714126
0.320897
-1.749429
-0.107137
-1.621645
0.276568
-1.760125
0.790160
4.473601
4.545845
-2.415198
5.631695
0.363215
-2.984637
1.877200
5.868922
-2.987388
0.366451
-4.445441
0.167524
0.205872
4.692612
4.992479
5.845234
-3.876285
-1.796861
0.228154
1.592734
-3.154074
-2.682995
5.153496
-4.023687
-3.951756
0.193962
-6.140111
4.353795
-5.300536
5.358985
-1.105435
-3.159262
0.174815
-4.904367
0.473346
-3.365150
-5.544236
6.199537
-2.583745
0.300827
-2.145007
-0.008546
-0.129961
1.849069
-8.077471
6.278511
0.195039
-1.060429
4.841892
-1.051859
0.337184
-1.448948
-3.928332
0.391148
-2.970554
4.394147
2.040013
0.603902
1.232177
-1.266332
0.368953
-2.891727
0.864017
-0.188049
-2.655575
2.658677
3.579100
0.341684
-4.113434
5.935163
-0.405759
0.601554
0.050861
0.444394
0.347988
-0.084167
-0.657055
1.998000
0.738819
0.968824
-0.483065
0.218878
1.505966
4.019598
-1.113721
-1.993085
0.116243
-0.562610
0.311357
-0.207840
-3.256409
3.475712
-1.006130
1.557573
2.608773
0.187556
-3.138589
-5.352915
-1.284997
0.318228
-0.634852
-4.251122
0.150177
6.605108
-8.008214
-5.513327
-5.266498
-1.513017
-0.397904
0.327247
-2.524251
-4.929786
7.356464
-0.608549
3.631460
-0.123506
0.238642
-6.166440
-2.971991
4.876745
-2.196849
1.370225
-3.449850
0.185194
1.991763
-1.117960
-0.209666
0.733950
2.132522
3.418173
0.439963
-2.095898
2.211610
-2.525345
-0.278413
3.295347
0.956674
0.320199
3.959363
0.733344
-7.454890
1.521827
4.558492
-0.150997
0.248905
-1.703005
0.666965
2.626888
3.281502
-4.110800
-4.822595
0.265722
-4.036309
3.178387
-1.840682
-1.718647
-4.289228
-0.737435
0.381230
0.721242
-0.855760
-1.697244
-1.480890
0.138385
-0.949018
0.750188
1.062003
-3.742817
7.912822
0.450451
3.318952
0.167229
0.194150
-1.317007
1.101211
4.013735
3.290164
-2.875560
4.917836
0.217815
4.884654
-1.240165
2.465216
-2.911497
-0.548221
6.992886
0.224212
0.633218
-2.874686
-1.851861
-0.021472
0.349646
-2.782648
0.739283
0.325102
4.170941
-7.200384
4.826603
1.455744
-5.117886
0.290265
1.205349
2.527949
0.992183
2.366628
-1.760733
5.410179
0.342401
-0.648792
-0.020095
0.055103
0.290715
-0.646138
0.207684
0.277793
0.989344
-3.426252
6.524892
3.927067
-3.686527
-6.950431
0.215217
-0.068095
-2.405846
-2.942986
-1.481873
4.364607
-5.288018
0.283066
-0.388891
-0.609170
-1.509861
5.334922
-0.176697
-5.533707
0.212521
-2.321885
0.614195
1.240220
1.389711
-0.789679
0.172215
0.193091
-6.975522
8.750994
-3.663685
-3.544751
-2.782428
1.913863
0.153883
2.871991
0.068099
4.344641
0.185788
0.010981
2.245587
0.353602
-0.107841
6.166437
-1.136421
0.768709
-2.896095
6.595478
0.149832
-1.719450
-0.866794
-1.605093
-2.605171
0.298106
-0.810910
0.338844
3.697278
5.008981
-6.402291
-0.878367
2.465765
1.817246
0.507837
5.189160
-0.436789
-3.360127
-2.015991
0.074181
-6.312551
0.239057
1.820103
5.066254
2.209384
-7.343785
3.005975
-0.335575
0.218332
3.753214
2.592927
-1.421980
0.928788
-2.144263
1.836265
0.220480
-1.013674
1.734313
0.529915
1.790477
1.221807
-0.121136
0.357793
-5.986710
3.503673
-2.199649
0.258992
0.143047
1.585573
0.348546
5.064171
-1.958315
1.717241
-0.810986
-0.397830
3.511306
0.657569
0.148040
1.514501
-1.086810
-0.440098
0.527644
0.877143
0.336332
-1.728297
-0.694992
-5.358396
5.979596
2.188469
-1.830444
0.387109
-4.243454
-0.766910
1.876978
-5.017994
-1.186362
5.274843
0.281869
1.607711
-2.284811
-3.926798
0.993834
0.642374
-6.894505
0.156650
-0.523859
5.309624
-4.249720
0.931120
0.744440
1.275247
0.355076
-1.124981
2.730746
-2.502752
2.778476
6.441747
4.612565
0.342187
6.088862
-5.499381
3.315129
3.396503
1.218529
-3.963193
0.223252
2.213840
-0.215159
0.981727
-0.273036
0.427926
-4.393255
0.266624
-0.393245
1.826406
0.601797
0.615254
-1.192658
1.831947
0.395180
0.090649
0.429921
-0.158166
-0.038338
0.190284
0.090897
0.267452
-4.924734
-5.025557
-1.848291
7.947182
-1.507274
0.684456
0.239646
4.679687
9.006946
-7.517941
1.643588
-1.722266
-2.484146
0.279325
5.470960
-4.011674
-7.450789
-2.785789
1.561956
2.567265
0.290527
-4.687930
3.036553
1.400333
-3.387080
1.385858
0.590244
0.306743
1.235158
0.890679
4.581525
-2.251031
0.803131
4.487314
0.194436
2.263166
-0.628366
-1.135270
0.425908
1.319796
0.259757
0.337794
0.396766
3.308943
3.011349
2.065581
0.398715
1.461753
0.229637
4.148041
5.019795
3.483312
-1.228804
-0.489851
0.771439
0.246024
-3.083469
4.428360
-9.483444
1.166082
-5.293608
8.027024
0.316520
-0.614369
2.206512
3.297178
1.000739
-1.126255
-6.315767
0.093234
-0.009664
-3.042027
1.177699
1.210919
-0.665026
-2.427441
0.277867
1.844551
-0.654572
-0.123240
-0.456228
-0.332548
6.058129
0.310464
0.931215
-2.909148
-1.187623
-0.324817
-2.168577
-3.221017
0.388932
-0.341940
-1.453837
0.767035
2.159714
-1.221605
2.473466
0.364601
5.247167
-0.816109
0.205953
-3.263000
2.945931
0.798611
0.167992
3.744557
0.311043
-1.370117
-1.165085
-1.310224
-2.505437
0.448111
7.723257
0.010796
-1.444300
0.987212
-0.599632
0.980193
0.321377
4.522864
-1.733075
-0.614126
-1.211740
-4.656809
-0.281389
0.342524
-0.269956
-3.342381
-3.948396
-3.648319
4.142083
3.500715
0.284449
-5.702621
-1.241536
5.699131
-1.666993
3.826091
8.059497
0.164372
0.722917
-0.525155
0.093490
-0.537971
-0.687573
1.063749
0.464471
-2.439394
-6.701075
-4.771350
3.879218
0.571268
-1.280267
0.323199
1.244146
-5.674444
-4.368899
2.753289
-1.019461
-1.587708
0.350184
-0.798075
-0.174742
-1.395297
0.100343
-1.467347
0.861904
0.270472
1.219634
3.082471
-5.765599
0.457864
2.583810
4.712392
0.246681
-1.209863
-4.034676
1.761489
2.235650
-0.541485
-1.556258
0.325157
0.282906
-3.199090
4.186726
1.557624
-1.278253
3.391785
0.611191
1.564378
0.354922
4.635684
-5.219108
3.886048
-5.126499
0.168291
-0.988457
-1.471195
5.653713
3.355203
-4.091970
-2.666247
0.216737
-1.856489
4.969521
0.284753
0.503403
-0.392807
-3.740389
0.404990
-5.412527
1.893702
6.557226
2.592616
1.107556
-3.655174
0.105163
-3.667600
-1.271880
-2.274752
3.966578
0.139236
4.252222
0.198435
-2.277428
0.158775
4.098949
3.005784
-0.465842
0.348746
0.556751
2.842231
-0.706984
-7.389811
1.031131
-2.326965
-3.357109
0.421187
-2.718991
1.516894
-2.211135
0.698233
-3.821122
5.456625
0.274805
3.074778
-8.167041
-0.101329
-5.398109
-1.716028
6.140568
0.272067
-3.616614
-0.626649
3.380512
2.173296
2.371146
-2.647496
0.164928
0.935178
-1.023563
-2.431898
-6.604712
5.259301
2.903312
0.271516
-1.519131
1.467176
-0.022629
1.759665
0.709128
3.368903
0.250000
1.822546
0.303863
2.562667
-1.127150
-2.941674
2.434239
0.171014
4.702099
-1.158639
-2.240419
-0.389337
5.690401
-4.193099
0.326909
1.462673
-4.117025
0.614794
-1.221038
-0.362449
-3.849200
0.541451
1.248281
-1.205012
-0.343895
-0.790469
2.684448
-1.210665
0.453548
0.573193
1.674744
-1.735502
0.359156
0.425242
-1.309708
0.453432
-0.259883
-0.026747
0.037317
0.158282
0.130491
0.091522
0.405938
2.228909
-5.278700
4.944023
-4.418421
-0.074711
-0.113408
0.274690
-3.069678
0.503844
-3.850646
-3.141632
0.182603
3.860517
0.242705
3.893401
-3.601370
3.048494
0.802304
-3.985090
-4.658981
0.357665
-1.612272
0.273153
3.141746
2.859395
-0.409801
-0.607739
0.284781
1.152332
-1.473758
3.326772
1.026436
2.547784
-7.200013
0.193165
-1.012396
0.371255
1.917261
1.761958
-0.439284
4.544413
0.347692
4.330778
2.511294
2.000003
-8.002587
6.382942
3.274686
0.293513
-2.202760
-1.127668
-0.128430
1.535109
-4.645466
-2.736241
0.236732
2.706936
-0.527455
-1.415427
6.388631
-0.944620
-0.083407
0.180631
-5.519417
0.305590
-1.663891
-2.030788
-3.576841
-6.163997
0.428405
-2.338714
-1.612595
0.063200
-0.583878
1.854414
-7.006476
0.225302
-5.560884
3.577028
1.517354
1.189013
-4.590827
0.103247
0.219025
-4.499790
2.654874
0.938944
-5.776457
-2.540931
-0.432270
0.251452
5.724635
3.365888
-4.248318
-2.102828
4.034163
-0.514659
0.116811
1.031611
-1.375118
5.812815
0.834820
-1.118016
5.971899
0.246642
0.457244
0.474852
-5.496131
-3.915895
4.396733
4.573110
0.556208
6.566565
-4.495019
-0.650651
-4.417201
3.362677
-4.654344
0.354090
-1.152660
-3.508633
-1.799373
-1.693361
1.907895
-3.514786
0.291088
-2.541271
2.260661
1.249613
2.070579
-0.503049
4.660709
0.259915
-0.009784
3.119908
-0.186808
2.267396
-0.038865
-2.628303
0.425405
-0.953136
1.223557
-7.196975
-1.164553
-6.073501
0.710365
0.302412
5.079520
0.543532
-4.694896
-2.556280
8.566232
2.810907
0.202887
-1.591717
3.874871
1.612226
3.301673
3.448543
0.368374
0.193913
-1.237339
-0.448708
5.913873
-1.146792
-1.564040
5.202849
0.386429
4.420398
2.327225
-3.450142
0.936324
-0.557115
2.533791
0.294169
3.949332
0.486720
-2.147715
-3.191279
4.017617
6.237771
0.156649
-1.877895
-1.856608
-3.503966
2.447147
-1.466242
-0.100763
0.301052
-4.826107
0.009154
2.609246
1.269179
-2.712186
4.496565
0.372006
-2.721348
2.641800
-0.259755
-0.521834
-1.386807
5.180042
0.313687
2.217077
-4.677858
2.865151
5.970079
-1.074607
1.060423
0.663557
5.202884
-2.070861
4.946396
-4.748836
-0.145906
-4.331435
0.330706
-1.747468
4.424838
-1.171427
-1.404672
0.560150
3.615474
0.637864
-2.403019
0.460284
-0.634494
1.182269
1.517627
0.765507
0.189608
-2.173193
3.161548
-0.222475
-0.503243
0.378095
1.311332
0.240916
3.078359
0.082334
-2.054671
-8.970737
-1.696391
-2.430799
0.296296
4.685093
-0.161400
1.038028
-3.489686
-1.063088
-6.905043
0.194870
1.140450
-0.880011
4.159730
5.963080
-4.410022
4.006188
0.252976
0.487988
0.971699
1.842259
5.881436
-3.674080
-5.163646
0.405581
0.081987
0.401441
3.504005
0.620942
3.277739
-5.684006
0.278362
2.096282
3.691531
0.953538
-2.701768
-1.241708
-4.642696
0.282922
0.153688
-4.479898
-2.370389
2.517898
-1.758189
3.558423
0.335594
-5.053614
-1.985186
1.366419
-2.805728
-1.566059
-5.218254
0.307288
0.296512
-2.192972
2.484939
2.415605
-3.438235
-2.665053
0.233113
-0.704125
1.021595
-1.878840
-0.080830
-0.983092
1.780424
0.447727
1.024602
0.127525
0.196585
-1.864312
-0.107649
-2.364391
0.128233
1.421544
1.439400
5.533057
-1.395677
-1.242865
-2.341961
0.279144
-0.280910
3.224139
-3.433815
-3.664879
5.991353
6.192165
0.321014
