-0.088963
-0.011292
0.006267
-0.013821
0.139546
-0.121726
0.013360
0.009276
-0.023884
0.112015
-0.073209
0.115968
-0.080581
-0.039256
0.066045
-0.048061
0.017386
-0.051778
0.101738
-0.005909
-0.067844
-0.088471
-0.095140
-0.028577
-0.112638
0.003584
0.043851
0.116882
-0.039060
0.043272
-0.016421
0.018926
0.042644
-0.031513
0.021665
-0.016817
0.027234
0.082239
-0.088729
-0.021985
0.002012
0.023052
-0.092791
0.051871
0.074116
-0.120982
-0.000725
-0.123836
0.030912
-0.080874
0.010931
0.044373
-0.051011
0.114838
-0.000529
0.043715
-0.080892
0.000769
0.021647
0.006718
0.023295
0.026190
-0.002361
-0.119541
-0.088320
0.119882
-0.036002
-0.063916
-0.020111
0.086737
-0.066158
-0.065749
-0.019243
-0.032522
-0.011637
0.042006
0.051580
-0.004836
-0.129012
-0.044751
0.029632
0.081250
-0.020427
-0.012172
0.010898
-0.062602
0.096629
0.057002
0.122865
-0.072376
0.048575
-0.041838
-0.122660
0.140938
-0.057402
-0.006776
0.020125
0.134577
-0.034605
-0.016835
0.068010
0.017073
0.080163
0.067057
-0.040731
-0.100124
0.033313
0.106881
-0.000493
0.106034
0.031378
0.049347
0.001314
-0.035259
0.112043
-0.077430
0.103473
-0.016933
-0.006504
0.041493
0.066337
0.107825
-0.089039
-0.063864
0.037557
0.058990
-0.057792
0.015909
0.061828
0.025508
-0.002347
-0.063183
0.027371
-0.107535
-0.067320
0.078004
-0.098329
-0.026008
-0.041211
0.117940
-0.111020
-0.041803
0.026045
0.019808
0.124567
-0.071222
-0.056901
0.050553
0.062077
0.013324
-0.015856
0.111989
-0.095891
0.101296
-0.121998
-0.123376
0.049114
-0.059680
0.106223
-0.129324
-0.006298
-0.106200
-0.026226
0.079175
-0.093791
0.097503
-0.045637
0.004659
-0.098103
0.063089
-0.007765
-0.097002
-0.010307
0.025752
0.109949
-0.065562
-0.109745
-0.062534
-0.107604
-0.043965
-0.064430
0.084272
-0.114311
-0.004839
0.053802
-0.109779
0.086390
-0.119390
0.044239
-0.015423
-0.081552
0.095680
0.008413
0.093829
-0.019357
0.102071
-0.003432
-0.130699
-0.011685
-0.003412
0.119690
-0.024676
0.095953
-0.068864
-0.052607
0.076876
0.006945
0.039679
0.017752
0.089630
-0.014569
-0.107574
0.053375
-0.000034
0.090138
-0.102920
0.092036
-0.031245
-0.080305
0.016228
-0.120988
0.040230
-0.105224
0.093549
-0.078596
0.019591
0.071974
0.034240
0.096037
0.043317
0.038390
0.009775
-0.045003
0.020309
-0.129843
0.122470
-0.138640
0.100904
-0.049755
0.029555
0.063820
0.050392
0.121907
-0.109241
0.065941
0.034954
-0.046650
0.016436
-0.080567
0.045728
0.033599
-0.010537
-0.081871
-0.131718
-0.032004
-0.052000
0.088073
0.010734
0.000277
-0.002833
0.007371
0.110905
-0.071227
-0.025267
-0.107885
0.028141
-0.090132
-0.071727
-0.018943
-0.034747
-0.054027
0.034691
0.018622
-0.105773
-0.117577
-0.049076
0.035401
0.018772
-0.025333
-0.059582
-0.111320
-0.063558
0.024600
-0.083882
0.020230
-0.040659
0.087839
-0.071542
-0.064598
-0.051342
0.030489
-0.066910
0.042466
-0.033663
-0.067437
-0.117354
0.071627
-0.057571
0.018481
0.030344
0.120522
-0.023999
0.015118
0.010719
-0.009535
0.097672
-0.048200
0.026790
-0.092018
-0.124693
0.042166
-0.066079
0.025756
0.053032
0.054757
0.044274
-0.027377
0.004007
-0.115066
0.093081
-0.039531
0.102453
0.070146
-0.055981
-0.052664
-0.092380
0.010203
0.007596
0.053769
0.050341
0.001343
0.031114
-0.037221
0.000836
0.057187
-0.067286
-0.111463
-0.057303
0.045725
-0.061639
0.029159
-0.125037
0.076103
0.049244
-0.105630
-0.013562
0.012909
0.020497
0.026746
0.055915
-0.042678
-0.096684
0.057926
-0.086692
0.032192
-0.007534
0.023389
-0.101993
-0.055574
-0.045533
0.049052
-0.079535
-0.017732
0.004743
-0.057753
-0.027618
0.024416
-0.037639
0.118564
0.046388
0.112208
-0.058394
-0.117904
0.054902
-0.101107
-0.049896
0.057098
0.088637
-0.010735
0.011726
0.033976
-0.130314
0.124244
-0.109634
-0.021713
-0.038326
0.042351
0.060911
-0.019346
-0.029909
0.037733
0.002928
-0.085198
-0.052664
0.098199
-0.026716
0.126749
-0.101568
-0.049380
0.071763
-0.103264
0.139441
-0.100963
-0.044427
-0.032177
0.011979
-0.067975
-0.033388
-0.015414
0.047424
-0.003118
-0.016301
0.139505
-0.105591
0.026601
-0.012551
-0.018877
0.064900
0.045001
-0.045249
0.012087
0.013365
0.045475
-0.136099
-0.015055
-0.076439
0.049151
-0.098572
-0.016488
0.060145
-0.127147
0.073298
-0.005766
-0.030258
0.076230
-0.091009
0.059991
-0.075590
0.085635
0.009917
-0.003393
-0.121872
-0.041096
-0.002355
-0.097190
-0.001880
-0.037933
0.097041
0.064975
-0.036190
0.120881
0.004178
-0.039156
-0.050467
0.074522
-0.047444
0.020940
-0.000982
-0.036530
-0.001015
0.042567
0.041200
-0.118956
-0.011240
0.084513
-0.123490
0.096665
-0.065560
0.002089
-0.013494
-0.120126
0.088330
-0.018574
0.060598
0.035640
0.121339
0.062156
-0.026628
0.071000
0.029457
0.126817
-0.009045
0.028301
-0.079409
-0.121210
-0.013786
-0.016632
0.104024
-0.046247
-0.033115
-0.088824
-0.043010
0.078809
-0.085549
-0.053217
-0.054925
-0.000331
0.061668
0.035036
0.071072
-0.033128
0.106653
-0.061425
-0.039468
-0.014086
-0.059470
-0.056212
-0.039291
0.108283
0.012205
-0.016543
0.044506
-0.060438
0.094446
-0.119238
0.021176
-0.144142
0.079860
-0.079770
-0.033616
0.118544
-0.033360
0.147086
-0.028637
0.098118
-0.121880
-0.127819
-0.033121
0.046418
0.112123
0.022226
0.019675
0.030079
-0.082839
0.047766
-0.051054
0.051280
-0.003105
0.097425
-0.046055
-0.035870
-0.055704
-0.053969
0.101648
0.064530
-0.001559
-0.086150
0.048215
-0.032219
-0.025584
0.023105
-0.136136
-0.046092
-0.055002
-0.009283
0.119889
-0.040536
0.075926
-0.127436
0.013720
-0.002389
0.048273
0.100198
-0.064647
-0.068376
-0.051879
0.075496
0.008498
-0.123798
0.062910
-0.117319
0.030414
-0.002754
0.027009
-0.079621
-0.003391
0.107966
-0.036841
0.048996
-0.137872
-0.056188
-0.141783
-0.114601
-0.039090
-0.042461
0.082070
-0.114461
0.103987
-0.062963
-0.113235
0.007914
0.026498
-0.064029
-0.124936
-0.017762
-0.092982
-0.005403
0.112962
0.044417
0.058944
-0.015719
0.114084
-0.086916
-0.079274
0.022467
-0.060275
0.104877
-0.091426
0.112688
-0.015835
-0.081698
0.134964
-0.044477
-0.015860
-0.124770
0.121872
-0.123621
-0.085543
0.096322
-0.059816
-0.000758
-0.107997
-0.027726
-0.029261
-0.075062
0.022981
-0.025727
0.084460
-0.060873
0.006527
-0.008485
0.056822
0.004446
0.000330
-0.037529
0.016476
-0.056166
-0.093018
-0.128071
0.134037
-0.010064
-0.005593
0.039667
-0.034597
0.017409
-0.127736
-0.042173
-0.005163
-0.027609
0.030803
-0.053579
0.011577
-0.127941
-0.004886
-0.134759
-0.017371
-0.001053
0.048630
-0.082276
-0.112832
0.129287
0.004826
-0.066754
-0.081313
0.010723
-0.063860
-0.115011
0.024083
-0.045054
-0.049467
-0.052556
-0.052746
-0.038044
-0.061560
-0.016678
-0.107329
0.017020
-0.074352
0.095726
0.003094
-0.082009
0.104756
-0.066748
-0.004552
-0.098866
-0.007464
-0.004411
0.047315
0.111995
0.025853
0.124403
0.036365
0.028182
-0.120374
-0.097691
0.112430
-0.067461
-0.017939
-0.069525
0.085173
-0.045058
0.014191
0.116508
0.024391
-0.051566
-0.124184
0.131721
-0.014912
-0.047479
0.097628
-0.096401
0.054609
-0.007086
0.036238
0.074200
0.046525
0.092878
-0.016843
0.060835
0.025363
-0.016190
0.021487
-0.008909
0.100176
0.017553
0.081168
0.002748
-0.048871
-0.109636
-0.118881
0.110168
-0.053061
0.086393
0.010232
-0.021177
0.065107
0.031051
-0.011564
-0.047515
-0.008067
-0.147736
0.079251
0.062797
0.005801
-0.019506
0.042057
0.042085
-0.129509
0.017737
-0.080223
0.024254
0.093807
0.049691
0.027569
-0.034661
0.085573
-0.077180
-0.081995
0.111873
-0.090753
-0.001677
-0.007200
0.073726
-0.080381
-0.024926
0.105587
-0.090524
-0.010821
-0.094647
0.046306
0.001479
-0.100830
0.003959
-0.014672
0.101198
-0.028041
0.031883
-0.030459
0.000435
0.114276
0.002945
0.003614
0.006411
0.048285
0.033233
-0.090969
0.018290
-0.120859
0.061167
-0.113314
0.020615
0.075249
0.063876
-0.062249
-0.100999
-0.008692
-0.122061
-0.030992
0.012432
-0.110553
0.122574
-0.072321
-0.002459
-0.103102
0.131822
-0.079704
0.021149
0.035445
-0.027813
0.003956
-0.065175
-0.020385
0.034792
-0.109329
0.098437
0.026174
0.016614
-0.093056
0.109012
0.070918
-0.049051
-0.005699
0.031184
-0.024103
-0.056626
0.110242
0.033509
-0.046027
-0.037842
-0.042385
0.024992
-0.119918
0.084266
0.042509
-0.076547
0.091517
-0.132114
-0.051361
-0.098837
0.055298
-0.015340
-0.006270
0.103309
-0.057282
0.072567
-0.007936
-0.030587
-0.106957
0.049767
-0.053931
0.072268
-0.016696
-0.048311
0.085683
-0.003788
0.039021
0.069629
-0.064782
-0.030799
0.050871
0.067801
0.029713
0.056219
0.042107
-0.008721
-0.018870
-0.081557
0.068258
-0.042758
-0.028930
-0.005722
0.035075
-0.048934
-0.119214
-0.015106
0.050468
0.021132
0.029692
0.058055
0.064947
-0.037994
0.132829
0.052122
0.054590
0.099967
-0.034109
0.093124
-0.037649
0.099751
0.054656
-0.042550
0.041606
0.018850
0.019158
-0.114981
0.002319
0.003120
-0.065988
-0.043490
0.049744
0.112041
-0.081309
0.106640
-0.118023
-0.037546
-0.045975
0.061208
-0.013095
-0.029348
0.123443
0.061157
-0.103349
0.118306
0.044478
-0.066359
0.026493
-0.003410
0.034254
-0.065748
-0.030622
0.028323
0.074386
0.018650
0.031846
-0.116544
0.036279
0.119547
0.010930
-0.017408
0.052231
0.075139
-0.088655
-0.072218
0.050157
-0.098359
0.073997
-0.014217
-0.028417
-0.119142
-0.078077
-0.044656
0.067248
-0.005381
-0.097589
0.078422
-0.056188
0.052558
-0.035256
-0.095073
-0.024566
-0.060561
0.121545
0.059819
-0.110232
0.041338
-0.130458
0.127902
-0.062679
0.093929
-0.084215
-0.055761
0.039733
-0.067216
0.073508
-0.128722
0.044506
-0.022864
0.003489
0.096141
-0.041597
0.115069
0.029499
0.034079
-0.063100
-0.111566
-0.022644
-0.000940
0.107137
-0.038885
0.079909
-0.105240
0.026142
0.092338
-0.116869
0.129563
-0.090358
-0.032781
0.063891
-0.001716
0.136166
-0.114677
-0.055277
-0.053878
0.037415
0.044347
-0.026219
-0.050557
-0.078754
-0.026359
0.020199
0.097285
-0.071925
0.026017
-0.018603
-0.030296
0.077265
-0.013819
-0.065620
0.029975
-0.140605
0.119971
0.036512
0.084273
-0.023940
-0.055701
0.027951
0.051303
-0.026469
0.003195
0.049577
-0.106815
0.096841
0.028286
-0.015239
0.012437
-0.047651
-0.048464
-0.076087
0.097747
-0.013996
-0.085064
0.050228
0.006328
0.097913
0.051640
-0.049704
0.018086
-0.031951
-0.027876
-0.039663
0.020445
-0.117463
-0.001266
-0.070867
0.017548
0.008976
-0.119719
0.063420
-0.016304
0.075241
-0.058539
0.007624
0.060611
0.045249
-0.007661
0.029378
0.029832
-0.002626
-0.068589
-0.020022
-0.126611
0.023385
0.037596
0.064348
-0.045328
0.028061
0.092555
-0.099608
-0.013465
-0.125761
0.045042
0.035479
-0.094781
0.112338
-0.113708
0.084235
-0.050315
-0.065870
-0.017925
0.047214
0.110958
0.002720
0.057641
-0.073340
0.079858
-0.116723
-0.078066
-0.024583
-0.015773
0.055725
-0.070142
0.070662
-0.097981
-0.078491
0.004717
-0.024735
-0.065974
-0.103332
0.067962
-0.080784
-0.095839
-0.002943
-0.134084
0.010396
-0.092261
-0.054678
-0.101330
-0.012743
-0.033595
-0.008392
0.047222
0.046109
0.014376
-0.075302
-0.054132
-0.047686
-0.063013
0.065393
-0.079203
0.121781
-0.058541
0.000987
0.065947
-0.057029
0.108848
0.057556
0.121339
0.062240
-0.098547
0.063668
-0.080724
0.016745
0.045978
-0.009244
0.013959
-0.095999
0.005627
0.037674
0.085739
-0.042042
0.035955
-0.063288
-0.033510
0.113535
-0.005528
0.103105
-0.120984
0.111381
-0.040225
-0.067046
0.118473
0.022080
0.140973
-0.027686
-0.032791
0.060197
-0.019336
-0.036707
0.048095
0.079843
0.014787
-0.030470
-0.096440
0.017808
0.024790
0.036321
0.100947
0.038108
0.058799
0.010886
-0.067160
-0.021760
-0.127995
0.090482
-0.111445
0.062448
0.005475
-0.090168
0.049701
-0.109819
0.020593
-0.033153
0.106477
-0.024132
-0.118087
-0.045981
-0.046331
0.062451
-0.093486
0.006261
-0.051411
-0.141289
0.059382
-0.046534
0.073665
-0.142440
0.003986
-0.001449
0.047420
-0.063490
-0.076359
-0.027134
-0.097531
-0.001050
-0.126753
-0.054938
0.127526
-0.003182
0.043105
-0.018200
0.074297
-0.116099
-0.115094
0.066963
-0.024528
-0.031939
0.001513
-0.063177
0.032430
0.041188
0.033188
-0.113132
0.133273
0.028068
0.091463
-0.014181
-0.127380
-0.059388
-0.074056
0.140409
-0.127710
0.046716
-0.088178
-0.070874
0.110133
-0.087563
0.047891
0.057865
0.084946
-0.080895
-0.028566
0.045989
-0.087185
0.039884
-0.097457
0.089262
0.035886
0.043337
0.114462
-0.027557
0.098942
-0.112950
0.107167
0.046461
-0.092460
0.038188
-0.017320
-0.026461
-0.014333
0.096334
-0.094473
-0.006433
0.023725
-0.083671
0.100246
-0.066817
0.019379
-0.011981
-0.077100
-0.008085
-0.005532
0.076226
0.019848
0.115029
-0.051117
-0.128637
0.081284
-0.100163
0.138187
-0.033740
0.094548
0.050630
0.022499
0.058146
0.018248
0.117164
-0.101962
-0.008901
-0.116545
0.006776
-0.017871
-0.103288
0.023241
-0.035764
0.041658
-0.064962
0.056572
0.130114
0.014373
-0.022039
-0.106464
0.028404
-0.113735
-0.120305
0.002690
-0.033746
-0.054939
-0.118350
0.060322
-0.118778
0.001522
0.019933
0.062317
0.009501
-0.106893
0.060393
-0.045708
-0.081468
-0.058880
-0.049301
-0.078201
-0.109695
0.072432
-0.031142
0.028439
-0.033275
0.011733
0.076099
-0.110046
0.024698
-0.132176
-0.074320
0.134842
-0.123371
0.014934
-0.086915
0.056281
-0.032870
-0.056477
-0.007503
-0.042070
-0.071358
0.002704
0.019492
-0.043422
0.030348
-0.033512
0.002004
-0.051143
-0.125672
-0.027189
-0.094465
-0.074863
0.111391
-0.018569
-0.056277
-0.132221
-0.005550
0.035889
-0.095850
0.095707
0.038844
0.034047
0.013444
0.125608
0.050003
-0.118251
0.050489
-0.073939
0.025572
0.026250
0.093424
-0.015778
-0.012222
-0.024435
0.052763
0.002592
-0.063585
0.054314
-0.026907
-0.031759
0.094841
0.013797
0.097624
0.007517
-0.011465
0.052765
0.012352
0.065621
-0.003067
0.110805
-0.059612
0.047428
-0.043694
-0.092224
0.039458
-0.067585
-0.006516
-0.114318
0.056387
0.035889
0.064879
0.012371
-0.071513
0.023402
0.007551
-0.043119
0.054720
-0.129973
0.102057
-0.042096
0.038566
-0.013559
-0.028204
-0.074542
-0.071031
0.045967
-0.118422
-0.046636
-0.124360
0.102084
-0.118559
-0.032782
0.025388
-0.053970
0.083655
0.025942
0.103235
-0.114429
-0.132820
0.027069
0.019525
0.119613
0.033174
-0.054643
-0.016289
-0.014915
-0.025977
-0.046927
0.034360
-0.120419
0.101145
-0.096111
0.019234
-0.060404
-0.051882
-0.072172
-0.008550
0.018068
-0.093471
0.010790
-0.000690
-0.099834
-0.012785
-0.004684
0.066015
-0.119131
-0.002718
0.020691
-0.109965
0.059587
0.055056
0.096594
-0.008427
0.015488
0.131740
-0.137227
0.004476
-0.122384
0.031928
0.055938
-0.091911
0.004586
-0.135322
0.116335
-0.056768
0.004777
0.069769
-0.127001
0.103129
-0.109159
0.072696
-0.103861
-0.010228
-0.123506
0.045898
0.124423
-0.115009
0.024267
-0.042716
-0.045939
-0.102637
-0.055083
-0.064728
0.002424
-0.038051
0.052001
0.072334
-0.020858
-0.109556
-0.032599
-0.042692
-0.011271
-0.032225
0.018502
-0.057484
0.046975
0.108976
-0.108254
0.096866
-0.015733
-0.000394
0.019579
0.034706
0.058838
0.008319
0.068641
-0.021089
0.090992
-0.099262
-0.121766
0.122753
-0.082650
0.021458
0.054061
0.116118
-0.025013
0.048098
0.066009
-0.113217
-0.052374
0.028850
0.042100
-0.070092
-0.054990
-0.069136
-0.022135
0.000238
0.035836
0.068169
-0.085424
-0.024014
-0.067716
0.062259
0.011725
-0.005735
0.060575
-0.120536
-0.090476
0.033064
-0.093998
-0.007235
-0.060539
0.030735
0.010704
-0.056682
0.018106
-0.077751
-0.010731
-0.124288
0.009255
-0.072064
0.056031
0.117928
-0.009682
-0.017626
0.059523
-0.050964
-0.006600
0.024807
0.104902
0.027609
-0.018849
0.028341
0.088582
0.015379
-0.023164
0.015038
0.021182
0.065101
0.061587
0.109646
