-0.417608
0.838501
-0.897958
-0.123009
-0.464380
0.561060
6.194415
-0.210833
0.970943
-1.455880
0.763890
0.517829
-1.943834
0.263112
1.414613
-7.355826
-5.466425
3.712917
4.402762
-3.595482
0.085441
-3.679115
-4.815741
-0.271438
0.888831
2.273082
3.692343
0.481640
1.854056
3.234483
-5.420681
-1.189780
3.219818
-1.404272
0.280863
3.437791
2.833790
3.318196
-3.482758
-2.709340
5.159818
0.322181
2.444449
-2.910726
0.410119
5.696891
-3.091294
-1.505729
0.538646
-2.780354
-6.098434
-0.829745
-0.590150
4.367771
0.086218
0.345814
0.085911
1.039488
-1.470963
-0.483716
0.093466
2.213135
0.333136
-2.531631
-0.481337
1.747831
4.243905
-2.334039
-1.235317
0.302726
-0.083900
2.134659
-0.138008
0.645220
-1.082069
-0.039464
0.267860
0.994626
-3.712278
-1.838668
-2.024284
5.021353
5.612375
0.177455
-1.134734
0.146116
0.933893
1.620865
-1.509067
-7.525630
0.186654
7.640981
-4.988458
-4.123738
-1.335783
6.049900
-1.422014
0.300748
2.100221
-0.122235
5.842485
3.183147
-3.525683
-4.373803
0.166696
-2.055910
0.659081
3.142185
5.358348
0.192011
3.597075
0.302991
1.948146
1.666010
-0.906046
-1.575634
-0.104332
-6.990757
0.194332
0.516932
-0.879528
0.322209
-0.738601
-0.146683
0.695295
0.791657
-0.655887
-3.509673
0.615425
5.235209
-4.418905
-7.695849
0.223473
-7.386878
1.782411
1.686679
-4.315516
0.246062
0.396771
0.311499
-6.844664
10.329696
-5.592946
5.818467
-0.126910
0.111408
0.102844
-2.645721
0.065932
-1.602389
-3.287778
4.127762
4.901811
0.353294
-7.917890
0.596821
-1.948050
-0.467089
5.040111
-0.971191
0.254832
-4.024094
5.820282
2.502450
0.726479
-0.323497
-5.458662
0.191630
-0.264861
-4.009525
-4.226982
4.661531
2.508306
3.844725
0.334150
1.432124
0.064409
-2.350804
5.192354
-4.396430
3.050711
0.367288
3.961239
-1.607533
-2.013740
-0.834375
-0.899629
-4.383605
0.252015
3.167026
-7.168883
-5.894215
-4.477178
4.992041
-0.896504
0.240326
2.447359
-0.506166
-5.020693
-0.125419
0.670474
-2.321455
0.317686
-3.575814
0.411483
6.495234
2.285281
-2.959630
3.987473
0.258228
-1.856342
-3.946380
-3.059230
-1.949741
0.872501
7.474309
0.277004
-1.414796
0.665486
1.198800
0.965157
-0.146685
-6.523632
0.292264
7.971227
3.937668
-2.040816
3.759120
-3.218369
-2.194726
0.215547
-3.762386
-2.114896
-0.661681
6.488464
-6.946698
-4.126408
0.466698
2.281784
4.733418
-2.548848
0.239379
-0.422723
-5.137605
0.269627
-0.401540
4.632531
8.207880
-1.141725
-1.119612
-3.743510
0.153012
2.465064
6.553144
0.096088
-1.678177
-4.106256
-4.862071
0.195044
-0.394520
3.130631
-0.745754
-0.164022
-0.831575
1.863477
0.354673
-0.448327
0.219714
-0.114897
0.373235
-0.554579
-0.248295
0.330296
3.699449
-3.707117
-0.807328
2.656441
-3.882370
1.968563
0.141826
-0.671847
0.095926
-0.473946
-0.442537
0.514013
0.094685
0.427061
-0.326916
-0.456037
-0.473396
-0.789186
-1.690275
-1.143305
0.162319
1.319153
-0.987765
-0.045262
0.063671
0.058217
1.331520
0.745692
-2.822428
-6.288913
-2.613967
3.665157
2.102406
-4.122718
0.254690
-2.003965
1.118178
-0.891209
1.691329
-3.486318
4.284127
0.292206
2.569379
2.516115
-3.115194
0.400134
1.022936
-2.688388
0.286213
-3.774860
-5.633615
1.460136
-6.367157
-1.279540
-4.838040
0.335603
4.123351
-5.343981
-0.976621
2.617862
-1.903918
7.068835
0.139903
2.966591
-5.546487
-2.947906
-2.895010
4.070176
-3.619823
0.295988
-5.566472
-0.071555
-0.463952
-7.528335
0.537374
2.855848
0.187991
2.159293
-3.876088
-1.994614
-1.714645
1.805965
-3.165616
0.249923
-0.928167
-0.027870
-2.213739
-3.405473
2.706700
-0.207990
0.348509
0.127145
-2.999947
-7.605968
-1.672426
5.877834
2.742297
0.271311
2.272795
-6.018939
4.633416
-3.221706
-0.464089
1.860229
0.484461
-5.132291
-0.009514
-5.620369
0.037419
4.259471
2.991668
0.185069
0.040404
-0.089760
-0.741594
-1.479694
-1.708470
-3.242565
0.247034
2.663857
-0.583879
3.692986
0.053941
-0.106774
-3.223655
0.189805
-2.331518
6.299109
-1.790919
-4.089633
3.968139
2.060324
0.229145
4.743669
-1.660466
6.653910
-1.510768
1.485520
0.761728
0.428869
-3.909934
-0.576026
-5.539176
-4.007568
4.538612
-0.438961
0.140688
-3.791109
4.366798
-0.482357
-5.255401
-2.800990
-5.159043
0.209015
-1.580564
5.780987
5.385141
-3.459747
-0.299506
5.040771
0.125000
-0.012630
-6.417656
-2.316857
-1.872043
3.409128
2.787432
0.215072
-6.652180
3.492615
1.596042
0.191692
-2.280931
0.958303
0.280237
-0.686318
5.211160
-0.733690
-0.915407
0.656442
-0.478430
0.347039
5.902542
6.333201
5.553509
0.342994
-4.994473
5.814892
0.283005
-6.367808
2.654742
7.852646
-5.092925
3.952489
3.039852
0.177603
-0.227531
-0.771055
5.584139
0.958689
-1.745618
2.861602
0.522154
-2.973909
0.104634
0.752041
-2.452431
0.105101
-5.248463
0.258497
3.641414
-1.940682
2.788920
0.963681
-3.168428
0.003700
0.160762
0.941930
-4.810718
0.093017
0.254321
-1.946154
4.171539
0.179752
5.003266
3.456730
-2.451889
-1.414091
-0.672693
4.578558
0.332613
-6.048000
-0.279746
5.251284
0.002185
-3.645769
3.035320
0.187645
0.060074
-2.038955
-2.383661
-2.560549
0.011689
-1.773622
0.408298
0.682214
-2.023178
-4.029860
3.820790
4.844385
2.536744
0.378389
-3.238657
-6.562051
-5.044211
-1.325823
1.596384
-3.957625
0.219287
0.519392
1.685317
0.888402
-2.149086
-0.350768
-5.241366
0.259495
-0.359660
-1.675653
0.370527
-1.744999
-0.110050
-1.702429
0.276568
-1.786940
0.800212
4.342866
4.744025
-2.579242
5.643037
0.363215
-3.119834
1.913973
5.863327
-2.993802
0.329707
-4.521019
0.167524
0.227005
4.643799
5.109519
5.983227
-3.832299
-1.708445
0.228154
1.698142
-3.113775
-2.732459
5.260343
-4.121914
-4.020480
0.193962
-6.204626
4.493283
-5.345153
5.135456
-1.283584
-3.109843
0.174815
-5.007977
0.440279
-3.431018
-5.525854
6.304516
-2.617769
0.300827
-2.207206
-0.030005
-0.007285
1.938566
-8.097220
6.331203
0.195039
-0.916051
4.808316
-1.113735
0.583301
-1.489445
-4.107533
0.391148
-3.053036
4.443139
1.994178
0.637422
1.254653
-1.297861
0.368953
-3.240808
0.817453
-0.385754
-2.711664
2.535430
3.402608
0.341684
-4.025548
6.107161
-0.491735
0.678564
0.077430
0.429195
0.347988
-0.059798
-0.657716
2.063123
0.723064
1.061724
-0.461943
0.219201
1.320557
4.180089
-0.971092
-2.104549
-0.039017
-1.072291
0.314809
-0.242276
-3.302880
3.602018
-1.016510
1.651073
2.598140
0.187556
-3.268543
-5.476417
-1.271270
0.366203
-0.608950
-4.384621
0.150177
6.690597
-8.101659
-5.577733
-5.298250
-1.576073
-0.305483
0.327247
-2.596094
-4.954207
7.470502
-0.596837
3.620251
-0.110905
0.238642
-6.417407
-3.322788
4.442540
-2.094299
1.407431
-3.773412
0.185194
2.379298
-1.415285
-0.482589
0.770789
2.076965
3.260306
0.439963
-2.293411
2.505509
-2.875138
-0.292888
3.479038
0.855651
0.320199
4.021626
0.710339
-7.438057
1.565172
4.575503
-0.113350
0.248905
-1.753023
0.676390
2.658166
3.339183
-4.147067
-4.907813
0.265722
-4.142186
3.182988
-1.836704
-1.769310
-4.260893
-0.693675
0.381230
0.729888
-0.524554
-1.344990
-1.915888
-0.101822
-1.483836
0.750188
0.991841
-3.800600
8.014486
0.575322
3.366983
0.203621
0.194150
-1.476995
1.071952
4.095026
3.396213
-2.976753
4.977041
0.217815
5.016457
-1.183182
2.570980
-2.913501
-0.512422
6.986086
0.224212
0.569396
-2.309621
-1.712731
-0.327860
0.229527
-1.982103
0.739283
0.057452
3.988680
-7.533585
4.833883
1.429257
-5.195275
0.290265
1.180526
2.630346
1.101242
2.351656
-1.759732
5.384374
0.342401
-0.073575
-0.013991
-0.112531
0.333362
-0.191100
0.064375
0.277793
1.063423
-3.331788
6.470177
4.178942
-3.965447
-6.953521
0.215217
-0.192559
-2.507890
-2.985284
-1.497239
4.419370
-5.229877
0.283066
-0.363124
-0.650858
-1.536699
5.448533
-0.167346
-5.530179
0.212521
-2.426254
0.545318
1.277599
1.412038
-0.966688
0.074629
0.195515
-7.224346
8.512243
-3.833724
-3.706127
-2.864397
1.899432
0.153883
2.975439
0.133218
4.455394
0.131594
0.125064
2.240868
0.353602
-0.157996
6.319860
-1.062284
0.765718
-2.825153
6.698845
0.149832
-1.823908
-0.277456
-1.443711
-2.750468
0.038319
-0.645685
0.338844
3.794287
5.028335
-6.451032
-0.843454
2.574029
1.851610
0.507837
5.465070
-0.474203
-2.837581
-2.605031
0.183844
-6.461424
0.239057
1.760412
5.087724
2.332356
-7.349240
3.099602
-0.332150
0.218332
3.774575
2.589729
-1.398836
0.879223
-2.166609
1.875605
0.220821
-0.700659
1.867877
0.384801
1.887948
0.915597
-0.381914
0.365367
-6.344190
3.263835
-1.986082
0.626380
0.322707
1.451079
0.348546
5.103781
-1.985904
1.890719
-0.992990
-0.424733
3.499139
0.657569
-0.330433
2.319954
-1.420169
-0.228932
0.229760
0.740610
0.336332
-1.776341
-0.776511
-5.397997
6.097976
2.235694
-1.820589
0.387109
-4.325707
-0.953595
1.627029
-4.945375
-1.220704
5.169228
0.281869
1.469109
-2.578695
-4.134591
0.904675
0.508443
-7.005208
0.156650
-0.518661
5.462813
-4.198817
0.874767
0.861972
1.224378
0.355076
-0.953224
2.990718
-2.159316
2.495459
6.450746
4.274557
0.342187
6.182208
-5.542421
3.376228
3.383020
1.223253
-3.903387
0.223252
2.230668
-0.209885
0.997076
-0.262310
0.455815
-4.503484
0.266624
-0.450740
1.848252
0.617714
0.612989
-1.179945
1.841308
0.395180
0.103404
0.406354
-0.146146
-0.027531
0.198970
0.057120
0.267452
-4.979607
-5.039837
-1.868203
8.003368
-1.555035
0.646990
0.239646
4.759903
9.339185
-7.471355
1.753031
-1.632671
-2.529307
0.279325
5.535492
-4.064902
-7.533497
-2.884065
1.521931
2.585048
0.290527
-4.714597
2.798731
0.808656
-3.527542
1.616329
0.223170
0.306743
1.301565
1.059974
4.423580
-1.986977
0.642950
4.500558
0.194436
2.311125
-0.696353
-1.088570
0.390125
1.326314
0.290171
0.337794
0.369537
3.416828
3.085891
2.194362
0.379569
1.459870
0.231084
4.292663
5.155208
3.480210
-1.293146
-0.483221
0.789438
0.246024
-3.099754
4.450611
-9.557625
1.148309
-5.330361
8.107292
0.316520
-0.701355
2.230992
3.313764
1.024098
-1.122068
-6.429538
0.094228
0.193715
-3.084404
1.013885
1.320095
-0.684556
-1.093540
0.277867
1.676152
0.165051
-0.514474
-0.772321
-0.521331
5.678363
0.310464
0.847777
-3.004345
-1.200273
-0.350486
-2.217175
-3.301273
0.388932
-0.382988
-1.455539
0.871403
2.113216
-1.278326
2.501288
0.364601
5.438956
-0.710632
0.045863
-3.170444
2.891762
0.814238
0.167992
3.764743
0.292943
-1.355059
-1.150378
-1.310630
-2.649324
0.448111
7.765238
-0.083093
-1.359049
0.867448
-0.617560
1.066948
0.321377
4.430463
-1.631229
-0.447440
-1.274267
-4.845240
-0.428082
0.342524
-0.290824
-3.446606
-3.903830
-3.811924
4.250394
3.564642
0.284449
-5.708035
-1.572400
5.790011
-1.810784
4.045167
8.266262
0.164372
0.110920
0.007196
-0.002313
-0.575521
-0.116096
1.181242
0.469784
-2.475967
-6.832397
-4.778862
3.936800
0.657834
-1.310512
0.323199
1.237033
-5.808643
-4.297140
2.793330
-0.979175
-1.556064
0.350184
-0.807984
-0.224562
-1.386143
0.094451
-1.455023
0.911622
0.270472
1.237923
2.664704
-5.630757
-0.156197
2.873873
4.596130
0.246681
-1.216102
-4.001753
1.743004
2.192710
-0.524140
-1.518190
0.325157
0.152097
-3.358913
4.308872
1.374162
-1.861043
3.028106
0.611191
1.533279
0.316283
4.794918
-5.176834
3.941331
-5.169111
0.168291
-1.010879
-1.506835
5.757727
3.328800
-4.172555
-2.705188
0.216737
-1.995431
5.048618
0.247617
0.576120
-0.435946
-3.796445
0.404990
-5.537558
1.867152
6.610535
2.665939
1.081674
-3.687482
0.105771
-3.709683
-1.256846
-2.315883
4.073028
0.054369
4.303220
0.198435
-2.005593
0.072525
4.353031
3.017781
-0.472719
0.196884
0.556751
2.869693
-0.682542
-7.452699
0.960756
-2.395552
-3.327458
0.421187
-2.860799
1.551726
-2.082959
0.715761
-3.828182
5.494943
0.274805
3.066275
-8.254925
0.036556
-5.443082
-1.682996
6.243033
0.272067
-3.898061
-0.450719
3.326376
2.148995
2.270744
-2.671380
0.164928
1.020696
-1.031049
-2.466486
-6.679763
5.290686
2.922393
0.271516
-1.134220
1.571291
0.945314
2.521993
0.674017
2.981163
0.250000
1.691165
0.245489
2.772235
-1.326561
-2.974925
2.477848
0.171014
4.773064
-1.126581
-2.280096
-0.391792
5.745401
-4.164934
0.326909
1.506515
-4.209692
0.605873
-1.134739
-0.425859
-3.999289
0.541451
1.211644
-0.667958
-0.392718
-0.779447
2.376026
-1.198097
0.453549
0.428064
1.481372
-1.437129
0.296387
0.472971
-1.494784
0.453432
-0.386275
0.103268
-0.096930
0.236465
0.122328
0.198156
0.405938
2.316002
-5.329108
4.889663
-4.473745
-0.218998
-0.374020
0.274690
-0.959680
1.309213
-3.902717
-2.365366
0.576040
2.438231
0.242705
2.589726
-4.001611
3.490148
1.352548
-3.521241
-3.389417
0.357665
-1.645044
0.301435
3.100666
3.109438
-0.570059
-0.577212
0.284781
1.120715
-1.506238
3.377473
1.072968
2.565014
-7.216998
0.193165
-1.033013
0.441732
2.078293
1.735185
-0.234215
4.497614
0.347692
4.322588
2.589411
2.093996
-8.197724
6.565450
3.291967
0.293513
-2.142834
-1.068115
-0.090879
1.537653
-4.810794
-2.828427
0.236732
3.034870
-0.004465
-1.004588
6.155611
-0.771773
-0.228909
0.180631
-5.654164
0.396292
-1.625180
-2.191627
-3.593103
-6.397186
0.428405
-2.425832
-1.617581
0.082380
-0.567431
1.974257
-7.059517
0.225302
-5.714389
3.609353
1.528150
1.315931
-4.693398
0.091750
0.219025
-4.678364
2.673505
0.972575
-5.820266
-2.641388
-0.499641
0.251452
5.544048
3.194271
-4.295725
-2.356764
3.980111
-0.535905
0.116811
1.136096
-1.395369
5.925315
0.949170
-1.136896
6.062512
0.246642
0.434709
0.414260
-5.562071
-4.101076
4.745298
4.500159
0.556208
6.607540
-4.543317
-0.640078
-4.414789
3.460055
-4.683209
0.354090
-1.358102
-3.649286
-1.789988
-1.769967
1.992006
-3.483240
0.291088
-2.269903
2.165487
1.794144
3.185070
-0.160071
4.628528
0.259915
0.059794
2.771681
-0.451620
2.152759
-0.167792
-2.736817
0.425405
-0.952285
1.266152
-7.242093
-1.299499
-6.091852
0.631493
0.302412
5.072763
0.505886
-4.686861
-2.554105
8.616102
2.833084
0.202887
-1.646609
3.840645
1.672386
3.350441
3.602595
0.420788
0.193913
-1.322897
-0.328935
6.072439
-1.101586
-1.593861
5.272417
0.386429
4.176722
2.089865
-3.290750
0.533916
-0.623044
1.903369
0.294169
4.390964
0.522175
-2.370218
-2.985456
3.695657
6.234841
0.156649
-1.830769
-1.824072
-3.534528
2.435851
-1.547133
-0.077452
0.301052
-4.960275
0.017705
2.626107
1.189502
-2.648608
4.648236
0.372006
-2.898237
2.758130
-0.181065
-0.492443
-1.337757
5.252918
0.313687
2.369977
-4.738939
3.188658
5.840440
-1.636176
1.251765
0.663557
5.319183
-2.248975
5.083723
-4.841427
-0.196937
-4.387928
0.330706
-1.412539
4.374104
-1.338689
-1.470143
0.354633
3.231211
0.637864
-2.438029
0.456706
-0.643452
1.234367
1.571077
0.834125
0.189608
-2.202605
3.205582
-0.245109
-0.412845
0.399290
1.289814
0.242744
3.122356
0.131071
-2.136650
-9.047379
-1.739778
-2.462034
0.296296
4.674507
-0.115557
1.041793
-3.534194
-1.117547
-6.929916
0.194870
1.149749
-0.884401
4.243600
6.099151
-4.462742
4.066674
0.252976
0.221301
0.569544
1.689684
5.927189
-3.779047
-5.181144
0.405581
-0.124444
0.552213
3.559726
0.610915
2.852370
-4.881890
0.278362
2.092914
3.751541
1.059470
-2.716807
-1.255322
-4.727482
0.282922
0.174536
-4.571315
-2.227746
2.449221
-1.716081
3.724871
0.335594
-4.884950
-2.204164
1.516371
-3.181362
-1.451721
-5.321111
0.307288
0.696363
-3.157946
2.391297
2.309798
-2.815877
-2.362832
0.233113
-0.675391
1.018446
-1.842575
-0.092036
-0.995794
1.789238
0.447727
-0.437393
-0.353432
-0.325129
-1.686908
0.368638
-1.692577
0.133595
1.570556
1.504350
5.890937
-1.697940
-1.309903
-2.719136
0.279144
-0.295320
3.383833
-3.753474
-3.785776
5.612000
6.123193
0.321014
